{"learner":{"attributes":{"best_iteration":"9","best_ntree_limit":"10"},"feature_names":[],"feature_types":[],"gradient_booster":{"model":{"gbtree_model_param":{"num_parallel_tree":"1","num_trees":"10","size_leaf_vector":"0"},"tree_info":[0,0,0,0,0,0,0,0,0,0],"trees":[{"base_weights":[-1.8930982E0,-1.9667809E0,7.497404E-1,-1.9722902E0,3.255814E-1,-9.1935486E-1,1.3212795E0,-1.9755188E0,5E-1,1.8333334E0,-1.4285715E0,-1.6052631E0,1.6E-1,2.8965518E-1,1.5709343E0,-1.9779495E0,9.677419E-1,-1.5789474E0,1.6363636E0,1.8181819E-1,-1.7714286E0,-1.8E0,5E-1,1.7037038E0,-3.8961038E-1,1.1794872E0,-7.0422536E-1,1.7159764E0,5.0666666E-1,-1.9799124E0,-5.1282052E-2,-1.1111112E0,1.5384616E0,2.2222222E-1,-1.8814815E0,-1E0,1.3333334E0,-1.4482758E0,2.3076923E-1,1.5882353E0,-1.1428572E0,-1.1272727E0,6E-1,1.752495E0,-8E-1,1.1428572E0,-1.1304348E0,6.666667E-1,-1.9803767E0,1.5294118E0,-1.0769231E0,-1.9365079E0,-7.692308E-1,-0E0,-1.68E0,-1.2E0,7.3170733E-1,-5E-1,1.75E0,-1.36E0,6.666667E-1,1.25E0,-1E0,-5E-1,1.7746478E0,1.7142857E0,-4.4444445E-1,5E-1,-1.5789474E0,-1.266055E0,-1.9824253E0,-1.6E0,4E-1,-1.1111112E0,-0E0,-8E-1,1.0857143E0,1.862069E0,4E-1,-1.5652174E0,5E-1,-5E-1,1.7971603E0,5E-1,1.7894737E0,-1.3333334E0,8E-1,-1.6404494E0,3.3333334E-1,-1.9839207E0,-1.0476191E0,-6.666667E-1,1.4666667E0,-0E0,-1.7142857E0,1.8196721E0,-2.2222222E-1],"categories":[],"categories_nodes":[],"categories_segments":[],"categories_sizes":[],"default_left":[1,1,1,1,1,1,1,1,1,0,1,1,1,1,1,1,1,0,0,0,0,1,1,0,1,1,1,1,1,1,1,0,0,0,1,0,0,1,1,1,0,1,1,1,0,1,1,0,1,0,1,0,1,0,0,0,1,0,1,1,0,0,0,0,1,1,1,0,0,1,1,0,0,0,0,0,1,0,0,1,0,0,1,0,0,0,0,0,0,0,0,0,0,0,0,0,0],"id":0,"left_children":[1,3,5,7,9,11,13,15,17,-1,19,21,23,25,27,29,31,-1,-1,-1,-1,33,35,-1,37,39,41,43,45,47,49,-1,-1,-1,51,-1,-1,53,55,57,-1,59,61,63,-1,65,67,-1,69,-1,71,-1,73,-1,-1,-1,75,-1,77,79,-1,-1,-1,-1,81,83,85,-1,-1,87,89,-1,-1,-1,-1,-1,91,-1,-1,93,-1,-1,95,-1,-1,-1,-1,-1,-1,-1,-1,-1,-1,-1,-1,-1,-1],"loss_changes":[1.7246992E3,1.0937109E2,2.3087898E2,6.9546875E1,5.9482834E1,4.6157825E1,4.583957E1,6.3285156E1,3.0933014E1,0E0,6.119482E0,1.647895E1,2.187467E1,3.2889645E1,2.1436096E1,3.23125E1,1.0904327E1,0E0,0E0,0E0,0E0,6.1851883E0,6.3333335E0,0E0,1.2977126E1,2.032558E1,1.0469909E1,1.3047821E1,2.0820208E1,1.184375E1,1.7453997E1,0E0,0E0,0E0,5.7598877E-1,0E0,0E0,2.4331026E0,1.01954975E1,6.6176453E0,0E0,6.647274E0,6.45E0,7.1371765E0,0E0,1.3460318E1,4.994279E0,0E0,1.0019531E1,0E0,5.661538E0,0E0,8.547008E-1,0E0,0E0,0E0,6.426481E0,0E0,1.6758652E0,5.553913E0,0E0,0E0,0E0,0E0,7.261139E0,6.390953E-2,6.0444446E0,0E0,0E0,1.6864174E1,9.8515625E0,0E0,0E0,0E0,0E0,0E0,6.819048E0,0E0,0E0,2.6832294E0,0E0,0E0,6.0073547E0,0E0,0E0,0E0,0E0,0E0,0E0,0E0,0E0,0E0,0E0,0E0,0E0,0E0,0E0],"parents":[2147483647,0,0,1,1,2,2,3,3,4,4,5,5,6,6,7,7,8,8,10,10,11,11,12,12,13,13,14,14,15,15,16,16,21,21,22,22,24,24,25,25,26,26,27,27,28,28,29,29,30,30,34,34,37,37,38,38,39,39,41,41,42,42,43,43,45,45,46,46,48,48,50,50,52,52,56,56,58,58,59,59,64,64,65,65,66,66,69,69,70,70,76,76,79,79,82,82],"right_children":[2,4,6,8,10,12,14,16,18,-1,20,22,24,26,28,30,32,-1,-1,-1,-1,34,36,-1,38,40,42,44,46,48,50,-1,-1,-1,52,-1,-1,54,56,58,-1,60,62,64,-1,66,68,-1,70,-1,72,-1,74,-1,-1,-1,76,-1,78,80,-1,-1,-1,-1,82,84,86,-1,-1,88,90,-1,-1,-1,-1,-1,92,-1,-1,94,-1,-1,96,-1,-1,-1,-1,-1,-1,-1,-1,-1,-1,-1,-1,-1,-1],"split_conditions":[1.3933203E0,3.0016541E0,8.6349554E-2,1.8336514E0,-2.6692745E-1,-1.4993498E-1,-3.3787936E-2,3.763883E0,3.1639922E-1,5.5E-1,-1.1751845E0,-6.2043883E-2,-5.8336747E-1,5.273198E-1,7.6764464E-1,3.340334E0,7.7113795E-1,-4.7368425E-1,4.909091E-1,5.454546E-2,-5.314286E-1,-1.0267975E0,-6.6555077E-1,5.1111114E-1,1.2475879E0,3.803485E-1,9.77797E-1,4.056965E-1,-8.112782E-2,-3.935946E0,6.806886E-2,-3.3333337E-1,4.615385E-1,6.666667E-2,-2.028575E-1,-3E-1,4.0000004E-1,-6.535697E-1,-6.1419237E-1,5.782541E-3,-3.4285718E-1,1.0600793E-1,1.6087374E-1,-8.966454E-1,-2.4000001E-1,-2.1764848E-2,1.00350074E-1,2.0000002E-1,-3.208541E0,4.5882356E-1,4.5810694E-1,-5.809524E-1,9.6935976E-1,-0E0,-5.04E-1,-3.6E-1,-4.8137462E-1,-1.5E-1,-5.074339E-1,1.5179715E0,2.0000002E-1,3.75E-1,-3E-1,-1.5E-1,-4.326021E-2,-2.1178424E-1,9.381021E-1,1.5E-1,-4.7368425E-1,1.98258E0,3.1458693E0,-4.8000002E-1,1.20000005E-1,-3.3333337E-1,-0E0,-2.4000001E-1,-9.9459165E-1,5.5862075E-1,1.20000005E-1,-6.411958E-1,1.5E-1,-1.5E-1,3.6609952E0,1.5E-1,5.368421E-1,-4.0000004E-1,2.4000001E-1,-4.9213484E-1,1.0000001E-1,-5.951762E-1,-3.1428576E-1,-2.0000002E-1,4.4000003E-1,-0E0,-5.1428574E-1,5.4590166E-1,-6.666667E-2],"split_indices":[287,344,314,277,309,321,321,371,272,0,75,382,326,318,239,295,294,0,0,0,0,76,101,0,286,352,10,262,326,373,270,0,0,0,382,0,0,1,362,108,0,363,169,198,0,366,6,0,282,0,317,0,4,0,0,0,28,0,48,16,0,0,0,0,280,4,97,0,0,286,302,0,0,0,0,0,197,0,0,227,0,0,287,0,0,0,0,0,0,0,0,0,0,0,0,0,0],"split_type":[0,0,0,0,0,0,0,0,0,0,0,0,0,0,0,0,0,0,0,0,0,0,0,0,0,0,0,0,0,0,0,0,0,0,0,0,0,0,0,0,0,0,0,0,0,0,0,0,0,0,0,0,0,0,0,0,0,0,0,0,0,0,0,0,0,0,0,0,0,0,0,0,0,0,0,0,0,0,0,0,0,0,0,0,0,0,0,0,0,0,0,0,0,0,0,0,0],"sum_hessian":[8.84825E3,8.6085E3,2.3975E2,8.588E3,2.05E1,6.1E1,1.7875E2,8.577E3,1.1E1,1.1E1,9.5E0,3.7E1,2.4E1,3.525E1,1.435E2,8.57025E3,6.75E0,3.75E0,7.25E0,1.75E0,7.75E0,3.4E1,3E0,5.75E0,1.825E1,1.85E1,1.675E1,1.2575E2,1.775E1,8.5615E3,8.75E0,1.25E0,5.5E0,1.25E0,3.275E1,1E0,2E0,6.25E0,1.2E1,1.6E1,2.5E0,1.275E1,4E0,1.2425E2,1.5E0,1.3E1,4.75E0,1.25E0,8.56025E3,3.25E0,5.5E0,3.05E1,2.25E0,1E0,5.25E0,2.75E0,9.25E0,1E0,1.5E1,1.15E1,1.25E0,3E0,1E0,1E0,1.2325E2,9.5E0,3.5E0,1E0,3.75E0,2.625E1,8.534E3,4E0,1.5E0,1.25E0,1E0,1.5E0,7.75E0,1.35E1,1.5E0,1.05E1,1E0,1E0,1.2225E2,1E0,8.5E0,2E0,1.5E0,2.125E1,5E0,8.51925E3,1.475E1,1.25E0,6.5E0,1E0,9.5E0,1.21E2,1.25E0],"tree_param":{"num_deleted":"0","num_feature":"384","num_nodes":"97","size_leaf_vector":"0"}},{"base_weights":[-1.4624162E0,-1.5201169E0,5.61718E-1,-1.525069E0,1.4362638E-1,-7.104855E-1,9.989859E-1,-1.5274472E0,5.050127E-1,-1.3311012E0,1.3604835E0,-1.2398068E0,1.0408152E-1,2.1891144E-1,1.1905082E0,-1.5293882E0,7.2897017E-1,-1.1721194E0,1.2571265E0,-1.4600524E0,-1.0530586E-1,-1.686043E-1,1.5137149E0,-1.3967E0,3.867436E-1,1.3494736E0,-3.3162022E-1,-5.11043E-1,1.0180045E0,1.364216E0,5.9655875E-1,-1.5309839E0,-2.7931847E-2,-9.418921E-1,1.2072425E0,4.125602E-1,1.3512806E0,1.853133E-1,-1.4657727E0,-5.865025E-1,1.0474905E0,4.9290097E-1,-8.769135E-1,4.8455077E-1,-8.6138165E-1,1.3121979E0,-6.5151584E-1,1.4000229E0,-6.6235536E-1,9.507724E-1,-2.9045984E-1,-5.776158E-1,-1.532149E0,1.0306128E0,-1.0318881E0,-1.5190586E0,-6.807567E-1,1.3858366E0,-3.646319E-1,-1.454943E0,-1.05522804E-1,1.0739973E0,-7.161276E-1,-1.0514771E0,6.343516E-1,-1.8655652E-1,1.5171868E0,1.4579282E0,4.7930816E-1,-9.002647E-1,1.1807078E0,9.876223E-1,-1.3050927E0,9.9548775E-1,-1.3154955E0,-1.5350106E0,-1.1186318E0,1.8189766E-1,1.2432399E0,-9.366598E-2,-1.2854234E0,-9.619685E-1,-3.4765508E-2,5.7265395E-1,-1.1661552E0,-9.602981E-1,6.224906E-1,-1.4162967E0,-2.0797603E-1,1.4760529E0,2.1551065E-3,-1.4251965E0,1.1571558E0,-5.82243E-1,1.3155389E0,1.5345427E-1,1.2028677E0,-1.53606E0,-1.9209127E-1,-7.4672855E-2,1.4571517E0,-1.4191382E0,-3.7231904E-1,-1.535394E0,5.6991196E-1,-1.4462795E0,2.0757735E0,1.0278217E0,-1.5879908E-1,9.3062323E-1,-8.003894E-1,1.4946352E0,2.1551065E-3,1.4243184E0,1.779222E-1],"categories":[],"categories_nodes":[],"categories_segments":[],"categories_sizes":[],"default_left":[1,1,1,1,1,1,1,1,1,1,1,1,1,1,1,1,1,0,1,0,0,0,0,1,1,0,1,1,1,1,1,1,1,0,0,0,0,0,1,0,0,1,1,1,1,1,0,1,0,1,1,1,1,1,1,0,1,0,1,0,1,0,0,1,0,0,0,1,1,0,1,1,1,1,1,1,1,0,0,0,0,0,0,0,0,0,1,0,1,1,0,0,0,0,1,0,0,0,0,0,0,0,0,0,0,0,0,0,0,0,0,0,0,0,0],"id":1,"left_children":[1,3,5,7,9,11,13,15,17,19,21,23,25,27,29,31,33,-1,35,-1,-1,-1,-1,37,39,-1,41,43,45,47,49,51,53,-1,-1,-1,-1,-1,55,-1,-1,57,59,61,63,65,-1,67,-1,69,71,73,75,77,79,-1,81,-1,83,-1,85,-1,-1,87,-1,-1,-1,89,91,-1,93,95,97,99,101,103,105,-1,-1,-1,-1,-1,-1,-1,-1,-1,107,-1,109,111,-1,-1,-1,-1,113,-1,-1,-1,-1,-1,-1,-1,-1,-1,-1,-1,-1,-1,-1,-1,-1,-1,-1,-1,-1],"loss_changes":[9.489785E2,6.525E1,1.2628123E2,3.876953E1,4.548654E1,2.5276382E1,2.4899368E1,3.5541016E1,1.4037559E1,1.6653938E0,3.4955254E0,9.581482E0,1.3413257E1,2.059836E1,1.31129E1,1.877539E1,7.077088E0,0E0,2.77071E-2,0E0,0E0,0E0,0E0,3.8262177E0,3.1222744E0,0E0,8.751957E0,6.9240637E0,9.090113E0,8.449539E0,1.0431401E1,7.830078E0,1.1008062E1,0E0,0E0,0E0,0E0,0E0,2.7436066E-1,0E0,0E0,6.635995E0,4.9733114E0,4.6586313E0,4.692873E0,4.7644615E0,0E0,4.7490234E0,0E0,1.0993441E1,1.4243391E1,1.4288251E1,7.5566406E0,6.8612766E-1,1.1408715E0,0E0,6.5693545E-1,0E0,4.330824E0,0E0,4.3336496E0,0E0,0E0,3.687026E0,0E0,0E0,0E0,2.520523E0,1.137789E1,0E0,5.8019905E0,7.113972E-1,1.24722E0,2.153853E0,2.5774956E-1,7.1503906E0,6.322706E1,0E0,0E0,0E0,0E0,0E0,0E0,0E0,0E0,0E0,1.3820707E0,0E0,4.1704974E0,2.5841522E0,0E0,0E0,0E0,0E0,2.2200928E0,0E0,0E0,0E0,0E0,0E0,0E0,0E0,0E0,0E0,0E0,0E0,0E0,0E0,0E0,0E0,0E0,0E0,0E0,0E0,0E0],"parents":[2147483647,0,0,1,1,2,2,3,3,4,4,5,5,6,6,7,7,8,8,9,9,10,10,11,11,12,12,13,13,14,14,15,15,16,16,18,18,23,23,24,24,26,26,27,27,28,28,29,29,30,30,31,31,32,32,38,38,41,41,42,42,43,43,44,44,45,45,47,47,49,49,50,50,51,51,52,52,53,53,54,54,56,56,58,58,60,60,63,63,67,67,68,68,70,70,71,71,72,72,73,73,74,74,75,75,76,76,86,86,88,88,89,89,94,94],"right_children":[2,4,6,8,10,12,14,16,18,20,22,24,26,28,30,32,34,-1,36,-1,-1,-1,-1,38,40,-1,42,44,46,48,50,52,54,-1,-1,-1,-1,-1,56,-1,-1,58,60,62,64,66,-1,68,-1,70,72,74,76,78,80,-1,82,-1,84,-1,86,-1,-1,88,-1,-1,-1,90,92,-1,94,96,98,100,102,104,106,-1,-1,-1,-1,-1,-1,-1,-1,-1,108,-1,110,112,-1,-1,-1,-1,114,-1,-1,-1,-1,-1,-1,-1,-1,-1,-1,-1,-1,-1,-1,-1,-1,-1,-1,-1,-1],"split_conditions":[1.3933203E0,2.9553587E0,8.6349554E-2,2.7115107E0,5.0846857E-1,-1.4993498E-1,-3.3787936E-2,3.763883E0,2.8607893E-1,1.8464658E0,-8.8125825E-1,-6.2043883E-2,-5.8336747E-1,2.1024293E-1,1.2566194E-1,3.340334E0,7.7113795E-1,-3.516358E-1,-6.4889574E-1,-4.3801573E-1,-3.1591758E-2,-5.058129E-2,4.541145E-1,-1.0267975E0,1.1523037E0,4.048421E-1,-8.233489E-2,1.4100468E-1,3.4291005E-1,4.056965E-1,5.3771484E-1,-2.867516E0,8.607614E-2,-2.8256765E-1,3.6217275E-1,1.2376806E-1,4.0538418E-1,5.5593994E-2,9.8532784E-1,-1.7595075E-1,3.1424716E-1,-3.799786E-1,-2.7718267E-1,-2.0430258E-1,2.2862391E0,-4.8775882E-1,-1.9545476E-1,6.75851E-1,-1.9870661E-1,-5.223428E-1,-2.63794E-1,-7.1339995E-2,2.6130772E0,-1.0391947E0,-4.803759E-1,-4.557176E-1,-5.8768547E-1,4.15751E-1,-3.8646497E-3,-4.364829E-1,-2.545067E-1,3.221992E-1,-2.1483828E-1,9.085785E-1,1.9030549E-1,-5.596696E-2,4.5515606E-1,1.7430229E0,-2.0434704E-2,-2.700794E-1,4.1617356E-2,-5.915834E-2,-5.956747E-1,7.469264E-1,1.6986967E0,4.0876675E0,9.0516543E-1,5.45693E-2,3.7297198E-1,-2.8099796E-2,-3.8562703E-1,-2.8859055E-1,-1.0429652E-2,1.7179619E-1,-3.4984657E-1,-2.8808945E-1,6.159508E-1,-4.2488903E-1,-5.553017E-2,9.577538E-1,6.46532E-4,-4.27559E-1,3.4714675E-1,-1.7467292E-1,1.295099E0,4.6036284E-2,3.6086035E-1,-4.6081802E-1,-5.7627384E-2,-2.2401858E-2,4.371455E-1,-4.2574146E-1,-1.11695714E-1,-4.606182E-1,1.709736E-1,-4.3388388E-1,6.2273204E-1,3.083465E-1,-4.7639728E-2,2.79187E-1,-2.4011683E-1,4.4839057E-1,6.46532E-4,4.2729554E-1,5.3376663E-2],"split_indices":[287,344,314,277,313,321,321,371,272,100,104,382,326,314,239,295,294,0,0,0,0,0,0,76,3,0,317,322,309,262,346,295,270,0,0,0,0,0,72,0,0,340,26,32,136,125,0,58,0,266,274,370,344,2,1,0,0,0,205,0,63,0,0,225,0,0,0,11,365,0,280,41,116,18,35,345,319,0,0,0,0,0,0,0,0,0,4,0,343,368,0,0,0,0,157,0,0,0,0,0,0,0,0,0,0,0,0,0,0,0,0,0,0,0,0],"split_type":[0,0,0,0,0,0,0,0,0,0,0,0,0,0,0,0,0,0,0,0,0,0,0,0,0,0,0,0,0,0,0,0,0,0,0,0,0,0,0,0,0,0,0,0,0,0,0,0,0,0,0,0,0,0,0,0,0,0,0,0,0,0,0,0,0,0,0,0,0,0,0,0,0,0,0,0,0,0,0,0,0,0,0,0,0,0,0,0,0,0,0,0,0,0,0,0,0,0,0,0,0,0,0,0,0,0,0,0,0,0,0,0,0,0,0],"sum_hessian":[8.116914E3,7.8921855E3,2.2472871E2,7.868847E3,2.3338144E1,5.732382E1,1.6740489E2,7.8598867E3,8.960452E0,1.0508658E1,1.2829487E1,3.4429092E1,2.2894726E1,3.3421505E1,1.339834E2,7.8534536E3,6.433105E0,2.6013315E0,6.3591204E0,9.335479E0,1.173179E0,1.1594155E0,1.1670071E1,3.1529171E1,2.8999193E0,5.39024E0,1.7504486E1,1.7654743E1,1.576676E1,1.0266184E2,3.132155E1,7.845096E3,8.35756E0,1.2159108E0,5.217194E0,1.1776148E0,5.181505E0,1.2486122E0,3.028056E1,1.218094E0,1.6818253E0,7.006402E0,1.0498083E1,4.4957137E0,1.3159029E1,1.3586628E1,2.1801324E0,1.01183235E2,1.4786057E0,2.2331875E1,8.989675E0,1.01811905E1,7.834915E3,4.0552554E0,4.3023047E0,2.7480179E1,2.8003812E0,3.1305425E0,3.8758593E0,5.494635E0,5.003448E0,3.086146E0,1.4095674E0,1.193873E1,1.2202992E0,1.6455172E0,1.1941111E1,9.4647224E1,6.5360093E0,2.14542E0,2.0186455E1,3.9901297E0,4.999545E0,3.1393068E0,7.0418835E0,7.7783735E3,5.654122E1,1.1841433E0,2.8711123E0,1.2066107E0,3.095694E0,1.6102667E0,1.1901143E0,1.9182445E0,1.9576149E0,2.1546102E0,2.848838E0,7.860112E0,4.078618E0,9.346958E1,1.1776469E0,1.4262459E0,5.109763E0,1.1984239E0,1.8988031E1,1.1697552E0,2.8203745E0,3.825567E0,1.173978E0,1.1987636E0,1.9405432E0,5.8900113E0,1.1518724E0,7.777228E3,1.1455237E0,5.177767E1,4.763549E0,1.6679599E0,1.1808782E0,1.2004639E0,2.8781543E0,9.229193E1,1.1776469E0,1.710082E1,1.887211E0],"tree_param":{"num_deleted":"0","num_feature":"384","num_nodes":"115","size_leaf_vector":"0"}},{"base_weights":[-1.2624451E0,-1.3137817E0,4.7000453E-1,-1.3192303E0,-1.24686144E-1,-9.695373E-1,7.3626846E-1,-1.3216537E0,3.5281533E-1,-1.2537657E0,1.0768458E0,7.7197725E-1,-1.1162254E0,2.4588844E-2,9.6192867E-1,-1.3237339E0,3.7701228E-1,-1.081892E0,1.1323805E0,-1.3005854E0,-2.755004E-1,1.3855762E0,-9.366769E-1,-1.2314538E0,2.1656875E-1,-4.248209E-1,8.3028823E-1,1.0001009E0,-7.8216904E-1,-1.3251759E0,-1.1914757E-1,-1.0408348E0,1.0511628E0,2.487683E-1,1.2435638E0,9.075795E-2,1.47961E0,-1.4410883E-1,-1.3059528E0,-5.011418E-1,8.182799E-1,3.6570138E-1,-8.021643E-1,1.0941807E0,-5.290557E-1,1.1762023E0,5.2568114E-1,-1.3258291E0,8.745665E-1,8.3439505E-1,-8.983317E-1,-2.042681E-2,1.2597417E0,-1.3590319E0,-1.7625378E-1,-9.6590334E-1,7.9691744E-1,-9.847622E-1,4.9966022E-1,-1.5183714E-1,1.2891737E0,1.2635993E0,4.2708775E-1,1.0551927E-1,9.95418E-1,-7.491761E-1,-1.3281626E0,4.107245E-2,1.0755299E0,3.0874737E-2,-1.1497823E0,1.2289672E0,-5.7602954E-1,-1.2309484E0,-2.547273E-1,1.2883055E0,-2.4027606E-2,9.415957E-1,-1.2023574E0,6.0685396E-1,-5.883006E-1,1.2058076E0,-1.07231125E-1,5.7522297E-1,-1.127902E0,7.125987E-1,-1.328646E0,4.6446845E-2,-1.3860159E0,-8.9975554E-1,7.938992E-1,1.3092396E0,-8.98154E-2,1.2006395E0,-4.8927954E-1,-7.8100926E-1,8.711781E-1,-1.1023968E0,7.7114266E-1,1.2677153E0,2.0760824E-1,-9.114344E-1,7.8232193E-1],"categories":[],"categories_nodes":[],"categories_segments":[],"categories_sizes":[],"default_left":[1,1,1,1,1,1,1,1,1,1,1,0,1,1,1,1,1,0,1,0,0,1,0,1,1,1,1,1,0,1,1,0,1,0,0,0,0,0,1,0,0,1,1,1,0,1,1,1,0,1,1,0,0,0,0,0,1,1,0,0,0,1,1,1,1,1,1,0,0,0,0,0,0,1,1,1,0,1,0,1,1,1,1,0,0,0,0,0,0,0,0,0,0,0,0,0,0,0,0,0,0,0,0],"id":2,"left_children":[1,3,5,7,9,11,13,15,17,19,21,-1,23,25,27,29,31,-1,33,-1,-1,35,-1,37,39,41,43,45,-1,47,49,-1,51,-1,-1,-1,-1,-1,53,-1,-1,55,57,59,-1,61,63,65,-1,67,69,-1,-1,-1,-1,-1,71,73,-1,-1,-1,75,77,79,81,83,85,-1,-1,-1,-1,-1,-1,87,89,91,-1,93,-1,95,97,99,101,-1,-1,-1,-1,-1,-1,-1,-1,-1,-1,-1,-1,-1,-1,-1,-1,-1,-1,-1,-1],"loss_changes":[6.055791E2,4.2637695E1,7.603052E1,2.7114258E1,4.3728096E1,8.80732E0,2.6698708E1,2.3703125E1,1.2753062E1,4.0046883E-1,1.1039682E1,0E0,4.735111E0,1.52290125E1,9.191376E0,1.1235352E1,9.515523E0,0E0,3.9474106E-1,0E0,0E0,1.5692406E0,0E0,1.9932976E0,1.7772304E0,8.35791E0,5.9774113E0,9.744919E0,0E0,1.0574219E1,7.3924656E0,0E0,1.4715858E0,0E0,0E0,0E0,0E0,0E0,1.2643013E0,0E0,0E0,6.179989E0,4.9165792E0,3.3369694E0,0E0,5.330063E0,6.879201E0,7.817383E0,0E0,8.241298E-1,1.2976284E0,0E0,0E0,0E0,0E0,0E0,5.254779E0,2.6806793E0,0E0,0E0,0E0,2.5688477E0,1.0251426E1,7.243442E0,3.977806E0,1.5039343E1,7.379883E0,0E0,0E0,0E0,0E0,0E0,0E0,2.4805489E0,4.409003E0,2.3763428E0,0E0,3.8596005E0,0E0,5.077219E0,7.008992E0,6.027603E-1,3.2715755E0,0E0,0E0,0E0,0E0,0E0,0E0,0E0,0E0,0E0,0E0,0E0,0E0,0E0,0E0,0E0,0E0,0E0,0E0,0E0,0E0],"parents":[2147483647,0,0,1,1,2,2,3,3,4,4,5,5,6,6,7,7,8,8,9,9,10,10,12,12,13,13,14,14,15,15,16,16,18,18,21,21,23,23,24,24,25,25,26,26,27,27,29,29,30,30,32,32,38,38,41,41,42,42,43,43,45,45,46,46,47,47,49,49,50,50,56,56,57,57,61,61,62,62,63,63,64,64,65,65,66,66,73,73,74,74,75,75,77,77,79,79,80,80,81,81,82,82],"right_children":[2,4,6,8,10,12,14,16,18,20,22,-1,24,26,28,30,32,-1,34,-1,-1,36,-1,38,40,42,44,46,-1,48,50,-1,52,-1,-1,-1,-1,-1,54,-1,-1,56,58,60,-1,62,64,66,-1,68,70,-1,-1,-1,-1,-1,72,74,-1,-1,-1,76,78,80,82,84,86,-1,-1,-1,-1,-1,-1,88,90,92,-1,94,-1,96,98,100,102,-1,-1,-1,-1,-1,-1,-1,-1,-1,-1,-1,-1,-1,-1,-1,-1,-1,-1,-1,-1],"split_conditions":[1.4044597E0,2.849742E0,-8.9816734E-2,1.8336514E0,4.2080492E-1,-6.1386404E0,-3.499964E-2,3.5905213E0,3.1639922E-1,7.3835045E-1,1.047531E0,2.3159318E-1,1.4885902E0,2.1024293E-1,4.056965E-1,3.340334E0,7.7113795E-1,-3.2456762E-1,-1.1157632E0,-3.9017564E-1,-8.265012E-2,9.215977E-2,-2.810031E-1,-1.1765032E0,-2.3762596E-1,-1.5692717E-1,3.4291005E-1,4.1090295E-2,-2.3465072E-1,4.6923885E0,8.638489E-2,-3.1225044E-1,-2.8174725E-1,7.463049E-2,3.7306914E-1,2.7227387E-2,4.43883E-1,-4.323265E-2,1.3877819E0,-1.5034254E-1,2.4548398E-1,-1.7397594E0,1.1824183E0,-4.8775882E-1,-1.5871672E-1,8.2327634E-1,2.16238E-1,-3.0845947E0,2.6236996E-1,1.3876212E-1,-1.0625408E0,-6.1280434E-3,3.779225E-1,-4.077096E-1,-5.2876137E-2,-2.8977102E-1,-8.265488E-1,6.1803937E-1,1.4989807E-1,-4.5551144E-2,3.8675213E-1,8.970127E-1,-4.8145074E-1,1.13613635E-1,1.3034816E-1,-4.875648E-1,-3.935946E0,1.2321736E-2,3.22659E-1,9.262421E-3,-3.449347E-1,3.6869016E-1,-1.7280887E-1,-4.4555417E-1,7.5510603E-1,1.680676E0,-7.208282E-3,-1.2459932E-1,-3.6070722E-1,-2.6865163E-1,3.3010638E-1,2.1654716E0,3.2657865E-1,1.7256689E-1,-3.3837062E-1,2.1377961E-1,-3.985938E-1,1.3934054E-2,-4.1580477E-1,-2.6992667E-1,2.3816976E-1,3.927719E-1,-2.694462E-2,3.6019185E-1,-1.4678387E-1,-2.3430279E-1,2.6135343E-1,-3.3071905E-1,2.313428E-1,3.8031462E-1,6.2282473E-2,-2.7343035E-1,2.3469658E-1],"split_indices":[287,344,314,277,313,282,321,371,272,293,337,0,379,314,262,295,294,0,27,0,0,272,0,103,32,359,309,111,0,345,270,0,334,0,0,0,0,0,241,0,0,285,239,125,0,77,365,282,0,4,89,0,0,0,0,0,70,16,0,0,0,303,300,202,360,319,373,0,0,0,0,0,0,61,315,139,0,25,0,362,256,136,2,0,0,0,0,0,0,0,0,0,0,0,0,0,0,0,0,0,0,0,0],"split_type":[0,0,0,0,0,0,0,0,0,0,0,0,0,0,0,0,0,0,0,0,0,0,0,0,0,0,0,0,0,0,0,0,0,0,0,0,0,0,0,0,0,0,0,0,0,0,0,0,0,0,0,0,0,0,0,0,0,0,0,0,0,0,0,0,0,0,0,0,0,0,0,0,0,0,0,0,0,0,0,0,0,0,0,0,0,0,0,0,0,0,0,0,0,0,0,0,0,0,0,0,0,0,0],"sum_hessian":[6.8010293E3,6.605533E3,1.9549638E2,6.5752954E3,3.0237797E1,3.0103285E1,1.653931E2,6.5659883E3,9.307096E0,1.5566491E1,1.4671305E1,2.0074651E0,2.809582E1,4.0084602E1,1.25308495E2,6.5581777E3,7.810487E0,3.1401558E0,6.1669393E0,1.4541075E1,1.0254161E0,1.2991241E1,1.6800635E0,2.593004E1,2.16578E0,2.60352E1,1.4049401E1,1.23042114E2,2.2663822E0,6.550237E3,7.9408264E0,2.341666E0,5.468821E0,1.0510823E0,5.115857E0,1.01264E0,1.1978601E1,1.8508238E0,2.4079216E1,1.0639081E0,1.101872E0,8.422075E0,1.7613125E1,1.19287195E1,2.1206813E0,8.865479E1,3.438732E1,6.548689E3,1.5477185E0,3.5390203E0,4.4018064E0,1.0380138E0,4.430807E0,2.2804728E1,1.2744882E0,1.75687E0,6.6652055E0,1.5660138E1,1.9529861E0,1.644105E0,1.0284615E1,7.877729E1,9.877504E0,1.8797924E1,1.5589399E1,2.7690187E1,6.520999E3,1.0977625E0,2.4412577E0,1.1242998E0,3.2775066E0,5.149568E0,1.5156373E0,1.1197805E1,4.4623327E0,7.72937E1,1.483587E0,7.827924E0,2.0495806E0,1.0985474E1,7.81245E0,1.3012929E1,2.57647E0,6.042126E0,2.1648062E1,1.1952566E0,6.5198037E3,1.2880172E0,9.909788E0,2.850753E0,1.6115799E0,7.6186386E1,1.1073148E0,6.76424E0,1.0636836E0,1.4447763E0,9.540697E0,5.805924E0,2.0065255E0,1.1998769E1,1.0141603E0,1.3402313E0,1.2362386E0],"tree_param":{"num_deleted":"0","num_feature":"384","num_nodes":"103","size_leaf_vector":"0"}},{"base_weights":[-1.1454083E0,-1.1945777E0,3.902057E-1,-1.1997501E0,-1.18600875E-1,6.460456E-1,-7.55222E-1,-1.2021083E0,3.0180183E-1,-1.1178259E0,9.118166E-1,7.840566E-1,-5.2386147E-1,-2.7356357E-3,-1.1511956E0,-1.2041465E0,3.126471E-1,-9.54562E-1,9.835322E-1,-1.1718341E0,-2.2942103E-1,1.1954074E0,-8.267329E-1,8.3843905E-1,-3.5335663E-1,2.897805E-1,-9.9472165E-1,7.871355E-1,-7.6428294E-1,-1.2166622E0,4.4613626E-2,-4.9970213E-1,-1.2067859E0,-9.1369045E-1,9.0272737E-1,1.1025196E0,2.0734738E-1,1.296907E0,6.2558725E-2,1.1293848E0,6.028448E-1,7.397507E-1,-8.9000535E-1,9.6373886E-1,-7.693186E-1,2.2043185E-1,-1.179961E0,-3.0122456E-1,1.1330534E0,3.565343E-1,-1.1811779E0,5.25987E-1,-9.1019934E-1,-7.0295006E-2,-1.2079054E0,1.1141124E0,-5.5047896E-2,1.3668762E-1,1.2018839E0,7.152472E-1,-9.3327355E-1,-3.8107593E-2,-1.2119442E0,1.1189013E0,2.2239293E-1,-7.8497404E-1,1.2073205E0,3.2001114E-1,-1.177331E0,2.2535493E0,-9.937419E-1,-1.2095864E0,-4.38524E-1,7.344992E-1,-1.0053959E0,1.2168363E0,2.7073535E-1,8.6882305E-1,-5.7454403E-2,2.0607184E-1,-1.3441397E0,-5.897291E-2,1.6004214E0,-6.9452924E-1,1.1193461E0,5.9681636E-1,-1.2101133E0,-8.229916E-1,1.1503781E0,1.2403597E0,5.162701E-1,-7.079269E-1,9.2705995E-1,4.6149012E-1,-7.259687E-1],"categories":[],"categories_nodes":[],"categories_segments":[],"categories_sizes":[],"default_left":[1,1,1,1,1,1,1,1,1,1,1,1,1,1,1,1,1,0,1,0,0,1,0,1,1,1,1,1,1,0,0,1,1,0,1,0,0,0,0,1,1,0,1,1,0,0,0,0,0,0,0,1,1,1,1,0,0,1,1,1,1,0,0,0,0,0,1,1,0,0,0,1,1,0,0,1,0,1,1,0,0,0,0,0,0,0,0,0,0,0,0,0,0,0,0],"id":3,"left_children":[1,3,5,7,9,11,13,15,17,19,21,23,25,27,29,31,33,-1,35,-1,-1,37,-1,39,41,43,45,47,49,-1,-1,51,53,-1,55,-1,-1,-1,-1,57,59,-1,61,63,-1,-1,-1,-1,-1,-1,-1,65,67,69,71,-1,-1,73,75,77,79,-1,-1,-1,-1,-1,81,83,-1,-1,-1,85,87,-1,-1,89,-1,91,93,-1,-1,-1,-1,-1,-1,-1,-1,-1,-1,-1,-1,-1,-1,-1,-1],"loss_changes":[4.135039E2,2.9358887E1,5.044512E1,1.904248E1,2.827294E1,2.2997314E1,9.408384E0,1.6638672E1,8.708407E0,3.9749527E-1,7.684802E0,8.060905E0,6.1730623E0,7.7554193E0,1.6742554E0,9.178223E0,6.5211387E0,0E0,3.5997772E-1,0E0,0E0,1.3085842E0,0E0,7.5512543E0,4.431184E0,5.3133297E0,2.5010118E0,2.724627E0,3.48747E0,0E0,0E0,9.465235E0,6.5820312E0,0E0,1.2391543E0,0E0,0E0,0E0,0E0,3.6207047E0,1.2496037E1,0E0,1.2613771E0,2.5248194E-1,0E0,0E0,0E0,0E0,0E0,0E0,0E0,6.962739E0,5.5063734E0,1.5583805E1,6.239258E0,0E0,0E0,3.9527075E0,3.5116577E-1,7.6923065E0,2.6666799E0,0E0,0E0,0E0,0E0,0E0,2.4962916E0,3.6733634E0,0E0,0E0,0E0,5.6938477E0,8.876729E0,0E0,0E0,1.4777374E-1,0E0,5.5951614E0,4.364746E0,0E0,0E0,0E0,0E0,0E0,0E0,0E0,0E0,0E0,0E0,0E0,0E0,0E0,0E0,0E0,0E0],"parents":[2147483647,0,0,1,1,2,2,3,3,4,4,5,5,6,6,7,7,8,8,9,9,10,10,11,11,12,12,13,13,14,14,15,15,16,16,18,18,21,21,23,23,24,24,25,25,26,26,27,27,28,28,31,31,32,32,34,34,39,39,40,40,42,42,43,43,51,51,52,52,53,53,54,54,57,57,58,58,59,59,60,60,66,66,67,67,71,71,72,72,75,75,77,77,78,78],"right_children":[2,4,6,8,10,12,14,16,18,20,22,24,26,28,30,32,34,-1,36,-1,-1,38,-1,40,42,44,46,48,50,-1,-1,52,54,-1,56,-1,-1,-1,-1,58,60,-1,62,64,-1,-1,-1,-1,-1,-1,-1,66,68,70,72,-1,-1,74,76,78,80,-1,-1,-1,-1,-1,82,84,-1,-1,-1,86,88,-1,-1,90,-1,92,94,-1,-1,-1,-1,-1,-1,-1,-1,-1,-1,-1,-1,-1,-1,-1,-1],"split_conditions":[1.3933203E0,2.849742E0,7.816638E-1,1.8336514E0,4.2080492E-1,1.3789937E-1,-1.0470024E0,3.5905213E0,3.1639922E-1,2.5064402E0,1.047531E0,3.8738555E-1,-7.578839E-1,1.3599926E-1,-1.8786275E-1,-3.208541E0,7.7113795E-1,-2.863686E-1,2.8639883E-1,-3.5155025E-1,-6.882631E-2,2.4752226E-1,-2.4801987E-1,-4.619322E-1,-3.5432065E-1,-1.3209269E0,-3.538686E-1,-7.748363E-2,-4.3942012E-2,-3.6499867E-1,1.3384088E-2,-7.9156977E-1,-3.1653066E0,-2.7410716E-1,1.7010345E-1,3.307559E-1,6.2204216E-2,3.890721E-1,1.8767618E-2,-1.4357376E0,-4.202629E-2,2.2192521E-1,-1.06728435E-1,-3.5385555E-1,-2.3079558E-1,6.612956E-2,-3.539883E-1,-9.036737E-2,3.3991605E-1,1.069603E-1,-3.5435337E-1,-3.0625861E-2,-8.3279496E-1,5.449387E-2,3.046093E0,3.3423373E-1,-1.651437E-2,1.6405602E0,2.4125116E0,4.2599976E-1,-3.5580227E-1,-1.1432278E-2,-3.6358327E-1,3.3567038E-1,6.6717885E-2,-2.3549221E-1,-6.5553784E-1,-3.9991882E-1,-3.531993E-1,6.7606485E-1,-2.9812258E-1,-3.935946E0,2.6519704E-1,2.2034977E-1,-3.0161878E-1,-2.153442E-1,8.122061E-2,-1.2657242E0,1.8095197E-1,6.1821554E-2,-4.0324193E-1,-1.7691873E-2,4.8012644E-1,-2.0835878E-1,3.3580387E-1,1.7904492E-1,-3.63034E-1,-2.4689749E-1,3.4511346E-1,3.7210792E-1,1.5488103E-1,-2.1237808E-1,2.7811798E-1,1.3844705E-1,-2.1779062E-1],"split_indices":[287,344,318,277,313,298,285,371,272,367,337,343,285,360,382,282,294,0,126,0,0,110,0,315,175,292,327,103,298,0,0,313,375,0,349,0,0,0,0,320,326,0,181,191,0,0,0,0,0,0,0,330,179,275,295,0,0,245,150,338,90,0,0,0,0,0,57,233,0,0,0,373,343,0,0,50,0,231,194,0,0,0,0,0,0,0,0,0,0,0,0,0,0,0,0],"split_type":[0,0,0,0,0,0,0,0,0,0,0,0,0,0,0,0,0,0,0,0,0,0,0,0,0,0,0,0,0,0,0,0,0,0,0,0,0,0,0,0,0,0,0,0,0,0,0,0,0,0,0,0,0,0,0,0,0,0,0,0,0,0,0,0,0,0,0,0,0,0,0,0,0,0,0,0,0,0,0,0,0,0,0,0,0,0,0,0,0,0,0,0,0,0,0],"sum_hessian":[5.469319E3,5.2998433E3,1.6947563E2,5.2743735E3,2.5469685E1,1.3888957E2,3.0586052E1,5.2663022E3,8.071281E0,1.2887492E1,1.2582192E1,1.2452901E2,1.4360565E1,1.089283E1,1.9693222E1,5.2594307E3,6.871793E0,2.698324E0,5.3729577E0,1.1848181E1,1.0393112E0,1.1086227E1,1.4959656E0,1.1909753E2,5.4314823E0,5.405128E0,8.955437E0,5.330488E0,5.5623417E0,1.8654512E1,1.0387093E0,2.0343405E1,5.2390874E3,2.0542076E0,4.8175855E0,4.2942276E0,1.0787301E0,1.0041705E1,1.0445224E0,5.1591354E1,6.750617E1,1.6638664E0,3.767616E0,3.3581843E0,2.0469437E0,1.1594651E0,7.795972E0,1.3167638E0,4.0137243E0,1.5472808E0,4.015061E0,5.7342286E0,1.4609176E1,5.218401E0,5.2338687E3,3.8128448E0,1.0047405E0,3.7077875E0,4.7883564E1,6.3401287E1,4.1048846E0,1.3400402E0,2.4275758E0,2.3558297E0,1.0023545E0,1.9089954E0,3.8252332E0,2.5710182E0,1.2038157E1,1.0743766E0,4.1440244E0,5.2218877E3,1.1981207E1,2.6680844E0,1.039703E0,4.682484E1,1.0587246E0,5.278565E1,1.0615639E1,1.2200607E0,2.884824E0,1.1075311E0,2.7177022E0,1.1907713E0,1.380247E0,1.1927238E0,5.220695E3,1.0035056E1,1.9461511E0,4.4558174E1,2.2666676E0,1.4828159E0,5.1302834E1,6.1507235E0,4.4649158E0],"tree_param":{"num_deleted":"0","num_feature":"384","num_nodes":"95","size_leaf_vector":"0"}},{"base_weights":[-1.0670717E0,-1.116649E0,3.1025708E-1,-1.1249001E0,-3.8405108E-1,-5.3004503E-1,6.0048825E-1,-1.1273062E0,2.6252934E-1,-1.0386195E0,1.3371139E0,-2.8764294E-2,-9.529767E-1,2.4834178E-1,8.5603887E-1,-1.1291821E0,2.0336063E-1,9.3783927E-1,-7.5819266E-1,-1.1130899E0,2.8038418E-1,1.6380767E0,-6.128402E-1,6.250302E-1,-6.1306304E-1,2.6571888E-1,-1.0341961E0,8.000801E-1,-4.8076857E-2,3.2091137E-2,9.682343E-1,-4.6446276E-1,-1.1326138E0,-8.203365E-1,7.5205934E-1,-9.2119247E-1,-1.9247587E-1,-1.6227603E-1,-1.1448414E0,2.268704E0,1.0624655E0,-6.5499616E-1,8.549715E-1,5.190004E-1,-9.3969125E-1,-1.1195326E0,1.04453154E-1,1.084018E0,-6.53984E-2,7.0212984E-1,-3.8066438E-1,7.132911E-1,-7.143158E-1,6.49027E-2,1.0229158E0,1.991489E-1,-9.5759493E-1,-3.2407966E-2,-1.133933E0,-7.755274E-2,9.909948E-1,1.0816387E0,-1.1289955E-1,-1.118091E0,1.3715878E-1,-1.1495774E0,-2.9350355E-1,1.1277261E0,2.8360498E-1,-8.4422374E-1,7.3574406E-1,-4.4969738E-1,1.159053E0,-7.6112145E-1,2.5166452E-1,-1.0088946E-1,9.377025E-1,-1.1718532E0,4.5484084E-1,-9.188884E-1,8.262809E-1,1.0538551E0,-2.9532737E-1,1.1137942E0,-5.630143E-1,-1.1195438E0,3.8690796E-1,-9.3245757E-1,1.7925091E0,-1.1404899E0,-8.790389E-1,-7.9813674E-2,-1.1757442E0,-8.024004E-1,1.05553895E-1,3.202141E-1,-9.7705853E-1,-3.927874E-1,6.77782E-1,-1.0469507E-1,1.0821751E0,1.549055E0,-1.9452585E-1,4.595257E-1,-8.521006E-1,-1.1423906E0,-3.425883E-1,2.3086872E0,-1.0525991E0,-1.9699742E-1,6.8596184E-1,3.153465E-1,-1.2520484E0,3.6490348E-1,-1.159688E0,9.764233E-1,-3.0082065E-1,1.1126931E0,1.3172953E-1],"categories":[],"categories_nodes":[],"categories_segments":[],"categories_sizes":[],"default_left":[1,1,1,1,1,1,1,1,1,1,1,1,1,1,1,1,1,0,1,1,0,1,0,1,1,0,1,1,1,1,1,1,1,0,1,0,0,0,0,0,0,0,1,0,1,1,0,1,1,1,1,1,1,1,1,1,1,1,1,0,0,0,0,0,0,0,0,0,0,1,0,1,0,1,1,0,0,0,0,0,0,1,0,1,1,0,0,0,0,1,1,0,0,0,0,1,1,1,1,0,1,0,0,0,0,0,0,0,0,0,0,0,0,0,0,0,0,0,0],"id":4,"left_children":[1,3,5,7,9,11,13,15,17,19,21,23,25,27,29,31,33,-1,35,37,-1,39,-1,41,43,-1,45,47,49,51,53,55,57,-1,59,-1,-1,-1,-1,-1,-1,-1,61,-1,63,65,-1,67,69,71,73,75,77,79,81,83,85,87,89,-1,-1,-1,-1,-1,-1,-1,-1,-1,-1,91,-1,93,-1,95,97,-1,-1,-1,-1,-1,-1,99,-1,101,103,-1,-1,-1,-1,105,107,-1,-1,-1,-1,109,111,113,115,-1,117,-1,-1,-1,-1,-1,-1,-1,-1,-1,-1,-1,-1,-1,-1,-1,-1,-1,-1],"loss_changes":[2.9431738E2,2.4687988E1,3.6988815E1,1.4012695E1,5.5242954E1,8.268893E0,9.8871E0,1.0469238E1,6.17352E0,3.7690773E0,8.989679E0,7.617904E0,2.372589E0,7.987406E0,5.9431458E0,8.818359E0,4.3365064E0,0E0,1.6464162E-1,8.2600784E-1,0E0,1.9674683E0,0E0,3.3363955E0,4.3722925E0,0E0,2.067482E0,4.259083E0,8.391505E0,4.973523E0,2.741562E0,7.630669E0,5.876953E0,0E0,1.0348482E0,0E0,0E0,0E0,0E0,0E0,0E0,0E0,1.9715757E0,0E0,1.7880182E0,1.2817001E-1,0E0,1.3111496E-1,3.8364754E0,5.969881E0,5.774785E0,1.0247269E0,3.0412717E0,3.9894228E0,2.4946365E0,7.960653E0,3.3105936E0,1.1377182E1,5.7993164E0,0E0,0E0,0E0,0E0,0E0,0E0,0E0,0E0,0E0,0E0,6.863482E-1,0E0,8.01646E-1,0E0,3.7542667E0,2.8667157E0,0E0,0E0,0E0,0E0,0E0,0E0,1.8366585E0,0E0,3.2155066E0,2.2841692E0,0E0,0E0,0E0,0E0,5.6206055E0,6.131317E1,0E0,0E0,0E0,0E0,7.4168813E-1,4.8486376E0,2.9812417E0,2.0669255E0,0E0,1.3431587E0,0E0,0E0,0E0,0E0,0E0,0E0,0E0,0E0,0E0,0E0,0E0,0E0,0E0,0E0,0E0,0E0,0E0,0E0],"parents":[2147483647,0,0,1,1,2,2,3,3,4,4,5,5,6,6,7,7,8,8,9,9,10,10,11,11,12,12,13,13,14,14,15,15,16,16,18,18,19,19,21,21,23,23,24,24,26,26,27,27,28,28,29,29,30,30,31,31,32,32,34,34,42,42,44,44,45,45,47,47,48,48,49,49,50,50,51,51,52,52,53,53,54,54,55,55,56,56,57,57,58,58,69,69,71,71,73,73,74,74,81,81,83,83,84,84,89,89,90,90,95,95,96,96,97,97,98,98,100,100],"right_children":[2,4,6,8,10,12,14,16,18,20,22,24,26,28,30,32,34,-1,36,38,-1,40,-1,42,44,-1,46,48,50,52,54,56,58,-1,60,-1,-1,-1,-1,-1,-1,-1,62,-1,64,66,-1,68,70,72,74,76,78,80,82,84,86,88,90,-1,-1,-1,-1,-1,-1,-1,-1,-1,-1,92,-1,94,-1,96,98,-1,-1,-1,-1,-1,-1,100,-1,102,104,-1,-1,-1,-1,106,108,-1,-1,-1,-1,110,112,114,116,-1,118,-1,-1,-1,-1,-1,-1,-1,-1,-1,-1,-1,-1,-1,-1,-1,-1,-1,-1],"split_conditions":[1.3580773E0,2.6130772E0,7.734831E-2,1.8336514E0,1.0603594E0,7.816638E-1,-5.8125186E-1,3.5905213E0,-2.69189E-1,2.5715294E0,3.817178E-1,2.5788894E-1,-2.572365E-1,-1.552248E-1,-3.3958885E-1,-3.0845947E0,1.2391827E0,2.813518E-1,3.5422987E-1,-2.7375956E0,8.411526E-2,2.8679373E0,-1.8385206E-1,-5.2992725E-1,-5.917597E-1,7.971567E-2,-2.4917787E-1,6.513091E-1,-1.0900133E0,-2.9114637E-1,-1.3551817E0,6.6494E-2,-3.1653066E0,-2.4610096E-1,-3.6311066E-1,-2.7635774E-1,-5.7742763E-2,-4.8682813E-2,-3.4345245E-1,6.806112E-1,3.1873968E-1,-1.9649886E-1,7.371136E-1,1.5570013E-1,9.512559E-1,2.9158897E0,3.1335946E-2,-2.9380575E-1,2.051427E0,1.7013803E-1,1.3288379E0,-2.650711E-1,1.1471567E-1,-5.399003E-1,1.0069963E-1,-1.7775753E-1,1.9051169E0,1.1621532E0,3.5556338E0,-2.3265824E-2,2.9729846E-1,3.2449162E-1,-3.3869866E-2,-3.354273E-1,4.1147634E-2,-3.4487322E-1,-8.8051066E-2,3.3831784E-1,8.5081495E-2,-2.0721337E-1,2.2072323E-1,2.0280944E-1,3.477159E-1,-7.53824E-1,-1.1839057E0,-3.0266838E-2,2.8131077E-1,-3.5155597E-1,1.3645226E-1,-2.7566653E-1,2.4788427E-1,-1.453846E0,-8.8598214E-2,-9.260766E-3,-7.46922E-1,-3.3586314E-1,1.16072394E-1,-2.797373E-1,5.3775275E-1,3.046093E0,-9.979991E-1,-2.3944104E-2,-3.5272327E-1,-2.4072014E-1,3.166617E-2,3.8603115E-1,-6.9723326E-1,-1.4549683E-1,7.0705307E-1,-3.1408522E-2,7.193362E-1,4.6471652E-1,-5.8357757E-2,1.3785772E-1,-2.556302E-1,-3.427172E-1,-1.027765E-1,6.926062E-1,-3.1577975E-1,-5.9099227E-2,2.0578857E-1,9.4603956E-2,-3.7561452E-1,1.09471045E-1,-3.479064E-1,2.92927E-1,-9.02462E-2,3.3380795E-1,3.951886E-2],"split_indices":[287,344,314,277,382,318,106,371,340,351,263,257,160,356,273,282,361,0,77,363,0,344,0,361,360,0,0,299,285,381,101,290,375,0,174,0,0,0,0,0,0,0,2,0,312,14,0,252,122,350,209,357,90,68,154,327,305,302,271,0,0,0,0,0,0,0,0,0,0,308,0,281,0,31,232,0,0,0,0,0,0,19,0,75,179,0,0,0,0,295,357,0,0,0,0,45,255,218,192,0,111,0,0,0,0,0,0,0,0,0,0,0,0,0,0,0,0,0,0],"split_type":[0,0,0,0,0,0,0,0,0,0,0,0,0,0,0,0,0,0,0,0,0,0,0,0,0,0,0,0,0,0,0,0,0,0,0,0,0,0,0,0,0,0,0,0,0,0,0,0,0,0,0,0,0,0,0,0,0,0,0,0,0,0,0,0,0,0,0,0,0,0,0,0,0,0,0,0,0,0,0,0,0,0,0,0,0,0,0,0,0,0,0,0,0,0,0,0,0,0,0,0,0,0,0,0,0,0,0,0,0,0,0,0,0,0,0,0,0,0,0],"sum_hessian":[4.3040947E3,4.154733E3,1.4936185E2,4.107931E3,4.680156E1,3.8132137E1,1.1122971E2,4.101007E3,6.9246016E0,3.4193966E1,1.2607593E1,1.79385E1,2.0193638E1,4.760384E1,6.3625874E1,4.0953848E3,5.6219616E0,4.216298E0,2.7083035E0,3.2514336E1,1.6796318E0,1.1060428E1,1.5471646E0,8.432896E0,9.505603E0,1.1197786E0,1.907386E1,1.6043026E1,3.1560816E1,7.7795997E0,5.584627E1,2.1734928E1,4.0736497E3,1.7890694E0,3.8328924E0,1.6146978E0,1.0936056E0,1.2481675E0,3.1266167E1,3.8743684E0,7.186059E0,1.002681E0,7.4302144E0,1.9966012E0,7.509002E0,1.7759645E1,1.3142134E0,1.1889821E1,4.1532054E0,9.352831E0,2.2207985E1,4.090666E0,3.6889338E0,3.3124206E0,5.253385E1,9.519978E0,1.2214951E1,4.909072E0,4.0687407E3,1.0080943E0,2.824798E0,5.9250693E0,1.5051451E0,6.4089456E0,1.1000563E0,1.675841E1,1.0012375E0,1.0886417E1,1.0034032E0,2.0786676E0,2.0745378E0,2.6609166E0,6.691914E0,1.37383E1,8.469686E0,1.0028132E0,3.0878527E0,2.649696E0,1.0392377E0,1.3548797E0,1.9575408E0,5.1525116E1,1.0087373E0,4.117432E0,5.402545E0,1.105113E1,1.1638198E0,3.61513E0,1.293942E0,3.963312E3,1.0542876E2,1.0041285E0,1.0745392E0,1.3550551E0,1.3058614E0,2.2064219E0,1.1531878E1,3.4023118E0,5.0673733E0,1.165097E0,5.0360016E1,2.951503E0,1.1659292E0,1.0607917E0,4.3417535E0,3.953463E3,9.848914E0,4.808609E0,1.0062015E2,1.105084E0,1.1013378E0,1.9974502E0,9.534428E0,1.9751076E0,1.4272043E0,3.8842416E0,1.1831317E0,4.862791E1,1.7321073E0],"tree_param":{"num_deleted":"0","num_feature":"384","num_nodes":"119","size_leaf_vector":"0"}},{"base_weights":[-1.009759E0,-1.0623957E0,2.2874877E-1,-1.0709898E0,-3.4461966E-1,4.2491823E-1,-1.0068384E0,-1.0734997E0,2.0781773E-1,-9.6729565E-1,1.0966994E0,7.410508E-1,2.9241204E-2,-1.0723351E0,-5.617663E-2,-3.914759E-1,-1.0774509E0,-6.3780516E-1,9.260312E-1,6.321532E-2,-1.0792063E0,1.328516E0,-6.245167E-1,9.137402E-1,-4.498E-2,8.9895016E-1,-2.3280421E-1,-8.9713305E-1,1.6476107E-1,-1.0793245E0,1.338085E-1,-8.8984567E-1,8.012987E-3,8.298059E-1,-5.7136744E-1,1.3897581E0,3.7336025E-1,-4.3057817E-1,9.5770925E-1,6.3910526E-1,-7.285091E-1,1.1096926E0,-4.2963702E-2,-4.9232833E-2,-7.8885156E-1,-1.0451133E0,2.5265142E-1,8.471148E-1,-5.519792E-1,4.5310596E-1,-1.0803587E0,8.8507503E-1,-6.124991E-1,2.2196515E-1,1.0145088E0,-4.9679947E-1,9.701551E-1,-1.0383636E0,3.506294E-1,1.1684064E0,2.938001E-1,6.290745E-1,-6.4422244E-1,-3.691346E-1,2.903957E-1,-9.888535E-1,1.1116918E-1,1.3134815E0,-2.7747008E-1,3.376072E-1,-8.426198E-1,-1.0876946E0,-8.089949E-1,-8.9241993E-1,3.5062835E-2,7.855508E-1,-4.4938618E-1,3.30389E-1,1.0844904E0,-1.2696935E0,-1.22346625E-1,-6.1980295E-1,4.421347E-1,-4.054214E-1,5.5291516E-1,-1.0978317E0,-8.456149E-2,-4.918149E-3,-1.0892677E0,1.1263447E0,-9.795975E-1,7.522872E-1,-4.6628645E-1,1.1213425E0,-1.5954383E-1,-8.769304E-1,9.173251E-2,-3.6540535E-1,8.5270643E-1,-7.9658705E-1,5.101616E-1,7.828139E-1,-3.3844286E-1],"categories":[],"categories_nodes":[],"categories_segments":[],"categories_sizes":[],"default_left":[1,1,1,1,1,1,1,1,1,1,1,1,1,0,0,1,1,1,0,1,0,1,0,1,1,1,1,1,1,1,1,0,0,0,0,0,0,0,1,1,1,1,1,1,1,0,0,1,1,0,1,0,1,1,1,0,0,1,0,0,0,0,0,1,1,1,0,0,0,0,0,1,1,0,0,0,0,1,1,0,0,1,1,1,1,0,0,0,0,0,0,0,0,0,0,0,0,0,0,0,0,0,0],"id":5,"left_children":[1,3,5,7,9,11,13,15,17,19,21,23,25,-1,-1,27,29,31,-1,33,-1,35,-1,37,39,41,43,45,47,49,51,-1,-1,-1,-1,-1,-1,-1,53,55,57,59,61,63,65,-1,-1,67,69,-1,71,-1,73,75,77,-1,-1,79,-1,-1,-1,-1,-1,81,83,85,-1,-1,-1,-1,-1,87,89,-1,-1,-1,-1,91,93,-1,-1,95,97,99,101,-1,-1,-1,-1,-1,-1,-1,-1,-1,-1,-1,-1,-1,-1,-1,-1,-1,-1],"loss_changes":[2.1836108E2,1.9429932E1,3.3688812E1,1.0401123E1,3.646544E1,1.4879351E1,1.1289177E0,8.107666E0,4.8720245E0,3.3064728E0,5.765335E0,9.024044E0,1.250417E1,0E0,0E0,5.7173533E0,7.284912E0,6.305014E-1,0E0,2.271754E0,0E0,1.3752174E-1,0E0,3.622223E0,6.485089E0,2.567995E0,4.273919E0,2.055276E0,5.4923563E0,5.468506E0,3.765441E0,0E0,0E0,0E0,0E0,0E0,0E0,0E0,1.9852905E0,3.101761E0,2.6734889E0,1.5553188E-1,1.7322648E0,3.6742172E0,1.985599E0,0E0,0E0,3.3318143E0,1.7365624E0,0E0,5.370117E0,0E0,6.61196E-1,2.271664E0,1.9791756E0,0E0,0E0,1.0351963E0,0E0,0E0,0E0,0E0,0E0,3.8016808E0,3.235265E0,7.5729847E-1,0E0,0E0,0E0,0E0,0E0,5.1972656E0,2.9678558E1,0E0,0E0,0E0,0E0,2.357071E0,2.1894455E0,0E0,0E0,2.5811663E0,1.8627014E0,2.2302465E0,2.8042734E0,0E0,0E0,0E0,0E0,0E0,0E0,0E0,0E0,0E0,0E0,0E0,0E0,0E0,0E0,0E0,0E0,0E0,0E0],"parents":[2147483647,0,0,1,1,2,2,3,3,4,4,5,5,6,6,7,7,8,8,9,9,10,10,11,11,12,12,15,15,16,16,17,17,19,19,21,21,23,23,24,24,25,25,26,26,27,27,28,28,29,29,30,30,38,38,39,39,40,40,41,41,42,42,43,43,44,44,47,47,48,48,50,50,52,52,53,53,54,54,57,57,63,63,64,64,65,65,71,71,72,72,77,77,78,78,81,81,82,82,83,83,84,84],"right_children":[2,4,6,8,10,12,14,16,18,20,22,24,26,-1,-1,28,30,32,-1,34,-1,36,-1,38,40,42,44,46,48,50,52,-1,-1,-1,-1,-1,-1,-1,54,56,58,60,62,64,66,-1,-1,68,70,-1,72,-1,74,76,78,-1,-1,80,-1,-1,-1,-1,-1,82,84,86,-1,-1,-1,-1,-1,88,90,-1,-1,-1,-1,92,94,-1,-1,96,98,100,102,-1,-1,-1,-1,-1,-1,-1,-1,-1,-1,-1,-1,-1,-1,-1,-1,-1,-1],"split_conditions":[1.2903371E0,2.6130772E0,-4.386417E-2,1.8336514E0,6.7547107E-1,-1.846194E-1,3.6285818E-1,-3.0845947E0,4.9362177E-1,-3.9547443E-1,1.0484601E0,5.007369E-1,-6.174166E-1,-3.2170054E-1,-1.685299E-2,-2.2678813E-1,3.5905213E0,-2.7102512E-1,2.7780935E-1,-1.0595387E0,-3.237619E-1,1.8463E-1,-1.8735503E-1,-1.1873196E0,-1.5754709E-1,-5.6628656E-2,6.736734E-1,3.9497405E-1,-6.507238E-2,-3.694436E0,-2.333675E-1,-2.669537E-1,2.403896E-3,2.4894178E-1,-1.7141023E-1,4.1692746E-1,1.1200808E-1,-1.2917346E-1,-6.209729E0,-1.3939347E0,-5.6869466E-2,1.7523874E0,-1.4028789E-1,-5.246688E-1,-3.9188054E-1,-3.1353402E-1,7.579543E-2,-9.260766E-3,-8.3279496E-1,1.3593179E-1,3.5556338E0,2.655225E-1,1.3730423E0,1.4403088E-1,-5.791281E-1,-1.4903985E-1,2.9104656E-1,2.8086963E-1,1.05188824E-1,3.5052192E-1,8.8140026E-2,1.8872236E-1,-1.9326673E-1,5.917108E-1,8.242438E-2,-2.0884115E-1,3.3350755E-2,3.9404446E-1,-8.324103E-2,1.01282164E-1,-2.5278595E-1,-3.1653066E0,-9.979991E-1,-2.67726E-1,1.0518851E-2,2.3566525E-1,-1.3481586E-1,5.0202215E-1,1.2845367E0,-3.8090807E-1,-3.670399E-2,1.4727985E0,-8.357113E-1,2.2176195E-2,1.5306382E0,-3.2934952E-1,-2.5368448E-2,-1.4754449E-3,-3.2678032E-1,3.379034E-1,-2.9387927E-1,2.2568618E-1,-1.3988595E-1,3.3640277E-1,-4.7863152E-2,-2.6307914E-1,2.7519753E-2,-1.0962161E-1,2.5581193E-1,-2.3897612E-1,1.5304849E-1,2.3484418E-1,-1.0153286E-1],"split_indices":[287,344,293,277,313,298,304,282,272,376,337,352,374,0,0,270,371,26,0,75,0,278,0,344,356,339,374,92,327,373,275,0,0,0,0,0,0,0,282,217,382,287,111,266,183,0,0,75,179,0,271,0,20,77,76,0,0,28,0,0,0,0,0,144,330,153,0,0,0,0,0,375,357,0,0,0,0,306,71,0,0,81,17,317,105,0,0,0,0,0,0,0,0,0,0,0,0,0,0,0,0,0,0],"split_type":[0,0,0,0,0,0,0,0,0,0,0,0,0,0,0,0,0,0,0,0,0,0,0,0,0,0,0,0,0,0,0,0,0,0,0,0,0,0,0,0,0,0,0,0,0,0,0,0,0,0,0,0,0,0,0,0,0,0,0,0,0,0,0,0,0,0,0,0,0,0,0,0,0,0,0,0,0,0,0,0,0,0,0,0,0,0,0,0,0,0,0,0,0,0,0,0,0,0,0,0,0,0,0],"sum_hessian":[3.3448276E3,3.2086035E3,1.362241E2,3.1701545E3,3.8449142E1,1.1812582E2,1.8098284E1,3.164105E3,6.0494514E0,2.7079283E1,1.136986E1,6.517796E1,5.2947857E1,1.6812017E1,1.2862661E0,1.880174E1,3.1453032E3,2.8297114E0,3.21974E0,2.69529E0,2.4383993E1,1.0221378E1,1.1484816E0,5.3304577E1,1.1873386E1,1.1696741E1,4.1251114E1,9.527623E0,9.274117E0,3.1405542E3,4.749013E0,1.7635864E0,1.0661249E0,1.0813519E0,1.6139381E0,9.177908E0,1.0434709E0,1.4097522E0,5.189482E1,5.9667616E0,5.9066243E0,9.412645E0,2.284096E0,3.1831068E1,9.420048E0,8.521872E0,1.0057515E0,4.657842E0,4.616276E0,1.8232893E0,3.138731E3,2.273982E0,2.4750307E0,4.070906E0,4.7823917E1,1.2335392E0,4.7332225E0,4.6183395E0,1.288285E0,8.377703E0,1.0349422E0,1.0567188E0,1.2273772E0,1.6346834E1,1.5484233E1,7.6265755E0,1.7934724E0,3.1737247E0,1.4841173E0,1.0970013E0,3.5192745E0,3.053185E3,8.5545876E1,1.4640462E0,1.0109845E0,2.1206012E0,1.950305E0,4.9690404E0,4.2854877E1,3.378926E0,1.2394134E0,1.2668495E1,3.67834E0,4.0925193E0,1.1391714E1,6.6153245E0,1.0112507E0,4.4355383E0,3.0487495E3,6.476249E0,7.906963E1,3.2850707E0,1.6839697E0,4.1717693E1,1.1371814E0,9.134951E0,3.5335438E0,1.276885E0,2.401455E0,2.958516E0,1.1340032E0,9.152801E0,2.238913E0],"tree_param":{"num_deleted":"0","num_feature":"384","num_nodes":"103","size_leaf_vector":"0"}},{"base_weights":[-9.6371436E-1,-1.0185405E0,1.9627258E-1,-1.02738E0,-3.133312E-1,3.636794E-1,-9.344646E-1,-1.0300418E0,1.7386532E-1,-9.12114E-1,9.7853535E-1,6.8262166E-1,5.5059038E-2,1.9038608E-3,-1.0158162E0,-4.4663596E-1,-1.0358363E0,-7.509034E-1,7.225649E-1,-1.0097768E0,2.8262293E-1,1.2308135E0,-5.2553815E-1,7.7826726E-1,-3.8693622E-1,8.288792E-1,-1.4959641E-1,4.5687333E-1,-8.825473E-1,-1.0486605E0,-8.035336E-1,8.300173E-1,1.819346E-1,-1.0448735E0,-1.5853432E-1,8.8771033E-1,1.5630151E-1,4.7518563E-1,-9.282106E-1,-2.7018266E-2,1.0111957E0,-1.0137527E0,-3.400701E-2,9.84565E-1,-4.7270295E-1,-9.8686665E-1,2.767149E-1,6.233798E-2,-1.0508436E0,-1.0742106E0,2.8934753E-1,5.0974682E-2,9.891912E-1,7.0836663E-1,-5.077831E-1,1.0964712E0,1.6267522E-1,-1.984055E-1,7.333759E-1,1.8594049E0,2.1030831E-1,2.3017831E-1,-7.951574E-1,-1.1952894E-1,-1.0358031E0,2.0385134E0,-8.9160234E-1,8.812703E-2,-1.052903E0,1.3143142E0,-4.9679008E-1,7.521403E-1,-1.0321078E0,1.0312648E0,-1.23677455E-1,6.76492E-2,8.5745317E-1,-9.4628525E-1,3.2869545E-1,2.1479854E-1,-4.7031933E-1,-2.745215E-1,9.5068264E-1,9.0064657E-1,-5.08587E-1,-8.234391E-1,1.3563266E0,4.284231E-1,-1.0542043E0,2.2619467E0,-4.542444E-2,-7.997285E-1,8.8670707E-1,1.0887778E0,1.2595505E-1,7.014064E-1,-4.941374E-1,-7.43825E-1,1.6110177E-1,1.2410709E0,1.5043283E-1],"categories":[],"categories_nodes":[],"categories_segments":[],"categories_sizes":[],"default_left":[1,1,1,1,1,1,1,1,1,1,1,1,1,0,0,1,1,0,1,1,0,0,0,1,1,1,1,1,1,1,1,0,0,0,0,1,1,0,0,0,1,0,1,1,1,1,0,1,1,0,1,1,1,1,1,0,0,1,1,0,1,0,0,0,0,0,0,1,1,1,1,0,0,1,0,0,0,0,0,1,1,0,1,0,0,0,0,0,0,0,0,0,0,0,0,0,0,0,0,0,0],"id":6,"left_children":[1,3,5,7,9,11,13,15,17,19,21,23,25,-1,-1,27,29,-1,31,33,-1,-1,-1,35,37,39,41,43,45,47,49,-1,-1,-1,-1,51,53,-1,-1,-1,55,-1,57,59,61,63,-1,65,67,-1,69,71,73,75,77,-1,-1,79,81,-1,83,-1,-1,-1,-1,-1,-1,85,87,89,91,-1,-1,93,-1,-1,-1,-1,-1,95,97,-1,99,-1,-1,-1,-1,-1,-1,-1,-1,-1,-1,-1,-1,-1,-1,-1,-1,-1,-1],"loss_changes":[1.64427E2,1.5049805E1,2.2559162E1,7.965088E0,2.5619335E1,1.0097284E1,1.1763535E0,7.7509766E0,3.708449E0,2.8943005E0,4.671283E0,5.4720287E0,8.583307E0,0E0,0E0,1.0506723E1,6.3222656E0,0E0,1.06071234E-1,4.5840836E-1,0E0,0E0,0E0,3.0421543E0,2.6889338E0,1.7945595E0,4.2697477E0,4.8839393E0,2.4070158E0,5.585205E0,3.8797234E1,0E0,0E0,0E0,0E0,3.3056564E0,3.3681855E0,0E0,0E0,0E0,4.9908352E-1,0E0,5.070872E0,3.7206597E0,1.0754275E0,5.7260895E-1,0E0,1.2010965E1,5.4211426E0,0E0,2.2097578E1,4.8235297E0,1.7754402E0,4.0990973E-1,1.8910451E0,0E0,0E0,3.8020773E0,1.8163157E0,0E0,2.6157832E0,0E0,0E0,0E0,0E0,0E0,0E0,6.923367E0,4.822754E0,1.5341606E1,7.3258905E0,0E0,0E0,1.6341591E0,0E0,0E0,0E0,0E0,0E0,5.093462E0,3.6049237E0,0E0,1.2228909E0,0E0,0E0,0E0,0E0,0E0,0E0,0E0,0E0,0E0,0E0,0E0,0E0,0E0,0E0,0E0,0E0,0E0,0E0],"parents":[2147483647,0,0,1,1,2,2,3,3,4,4,5,5,6,6,7,7,8,8,9,9,10,10,11,11,12,12,15,15,16,16,18,18,19,19,23,23,24,24,25,25,26,26,27,27,28,28,29,29,30,30,35,35,36,36,40,40,42,42,43,43,44,44,45,45,47,47,48,48,50,50,51,51,52,52,53,53,54,54,57,57,58,58,60,60,67,67,68,68,69,69,70,70,73,73,79,79,80,80,82,82],"right_children":[2,4,6,8,10,12,14,16,18,20,22,24,26,-1,-1,28,30,-1,32,34,-1,-1,-1,36,38,40,42,44,46,48,50,-1,-1,-1,-1,52,54,-1,-1,-1,56,-1,58,60,62,64,-1,66,68,-1,70,72,74,76,78,-1,-1,80,82,-1,84,-1,-1,-1,-1,-1,-1,86,88,90,92,-1,-1,94,-1,-1,-1,-1,-1,96,98,-1,100,-1,-1,-1,-1,-1,-1,-1,-1,-1,-1,-1,-1,-1,-1,-1,-1,-1,-1],"split_conditions":[1.2903371E0,2.6130772E0,-4.386417E-2,1.8336514E0,1.0603594E0,-2.838515E-1,-1.9890502E-1,-2.8042684E0,7.875039E-2,1.4875396E0,3.817178E-1,6.7765677E-1,-6.174166E-1,5.7115825E-4,-3.0474487E-1,5.8275647E-2,9.0481335E-1,-2.2527103E-1,2.9483377E-3,7.9193467E-1,8.4786884E-2,3.6924407E-1,-1.5766145E-1,7.291217E-1,-1.06207326E-1,-7.1712345E-1,-2.1431193E-1,-4.5838445E-1,1.963379E0,-3.4285617E0,2.5239366E-1,2.4900521E-1,5.458038E-2,-3.1346205E-1,-4.7560297E-2,-1.0357279E0,5.5718076E-1,1.425557E-1,-2.7846318E-1,-8.10548E-3,1.767885E0,-3.0412582E-1,1.19765475E-1,-6.798124E-1,-8.1444263E-1,-1.2578349E0,8.301447E-2,-1.177558E0,-3.1653066E0,-3.222632E-1,-2.0913935E-1,-5.922514E-1,1.2879663E0,-1.5788014E0,2.1884413E-1,3.2894138E-1,4.8802566E-2,-9.3225884E-1,-1.3460214E0,5.578215E-1,-1.7023966E0,6.905349E-2,-2.3854722E-1,-3.5858683E-2,-3.1074095E-1,6.11554E-1,-2.674807E-1,1.1621532E0,-3.0351844E0,3.627438E-1,9.535558E-1,2.256421E-1,-3.0963236E-1,1.4414644E0,-3.710324E-2,2.0294761E-2,2.5723597E-1,-2.838856E-1,9.8608635E-2,5.580028E-1,8.9137816E-1,-8.235645E-2,-1.7193818E-1,2.70194E-1,-1.525761E-1,-2.4703175E-1,4.06898E-1,1.2852694E-1,-3.1626132E-1,6.7858404E-1,-1.3627333E-2,-2.3991856E-1,2.6601213E-1,3.2663333E-1,3.7786514E-2,2.1042193E-1,-1.4824122E-1,-2.2314751E-1,4.8330534E-2,3.7232128E-1,4.512985E-2],"split_indices":[287,344,293,277,382,298,288,282,375,288,263,352,374,0,0,290,287,0,322,320,0,0,0,111,369,284,318,179,305,373,286,0,0,0,0,151,323,0,0,0,287,0,256,304,293,189,0,350,375,0,292,179,71,252,373,0,0,285,252,0,378,0,0,0,0,0,0,302,350,290,373,0,0,139,0,0,0,0,0,341,10,0,341,0,0,0,0,0,0,0,0,0,0,0,0,0,0,0,0,0,0],"split_type":[0,0,0,0,0,0,0,0,0,0,0,0,0,0,0,0,0,0,0,0,0,0,0,0,0,0,0,0,0,0,0,0,0,0,0,0,0,0,0,0,0,0,0,0,0,0,0,0,0,0,0,0,0,0,0,0,0,0,0,0,0,0,0,0,0,0,0,0,0,0,0,0,0,0,0,0,0,0,0,0,0,0,0,0,0,0,0,0,0,0,0,0,0,0,0,0,0,0,0,0,0],"sum_hessian":[2.581288E3,2.4649075E3,1.1638047E2,2.4339421E3,3.0965454E1,1.0196309E2,1.4417375E1,2.428703E3,5.239154E0,2.1359322E1,9.606133E0,4.954707E1,5.2416023E1,1.2305201E0,1.3186854E1,2.46532E1,2.4040498E3,1.8137597E0,3.425394E0,1.9888374E1,1.4709458E0,8.381915E0,1.2242185E0,4.5729996E1,3.8170743E0,1.0325246E1,4.209078E1,8.007676E0,1.6645523E1,2.274948E3,1.2910172E2,2.4109337E0,1.0144603E0,1.8882387E1,1.0059876E0,3.8523933E1,7.20606E0,1.5192955E0,2.297779E0,1.9627556E0,8.362491E0,4.049096E0,3.8041683E1,5.0702806E0,2.937396E0,1.5407728E1,1.237795E0,4.407211E0,2.2705408E3,1.0348771E2,2.5614016E1,4.3293815E0,3.4194553E1,3.8984933E0,3.3075666E0,7.333286E0,1.0292045E0,3.1940447E1,6.1012354E0,1.7224886E0,3.3477917E0,1.0137678E0,1.9236281E0,1.0067565E0,1.4400971E1,1.0646825E0,3.3425283E0,4.022729E0,2.266518E3,1.0826525E1,1.4787492E1,2.8135211E0,1.5158603E0,3.3019527E1,1.1750251E0,1.0103123E0,2.888181E0,2.0838764E0,1.2236905E0,1.2760089E1,1.9180359E1,1.0354393E0,5.065796E0,1.5788444E0,1.7689474E0,2.544486E0,1.4782429E0,1.701241E0,2.264817E3,5.989083E0,4.8374414E0,1.2477335E1,2.310157E0,3.0856596E1,2.162932E0,7.5728006E0,5.187288E0,1.3259061E1,5.9212976E0,3.312814E0,1.752982E0],"tree_param":{"num_deleted":"0","num_feature":"384","num_nodes":"101","size_leaf_vector":"0"}},{"base_weights":[-9.23287E-1,-9.816448E-1,1.7008375E-1,-9.9565494E-1,-4.989527E-1,-4.043065E-1,4.4073692E-1,-3.8097608E-1,-1.0024676E0,-9.119496E-1,9.6843964E-1,-9.0531135E-1,-8.726127E-2,2.279702E-1,7.2865486E-1,-8.1566596E-1,4.426553E-1,-1.0051136E0,3.848098E-1,-9.999896E-1,1.9343148E-1,-7.229459E-1,1.7333148E0,-1.631071E-1,-9.95588E-1,-6.89883E-1,2.220799E-1,3.25037E-1,-6.057847E-1,8.86572E-1,1.0554199E-2,3.2238913E-1,-9.551434E-1,-4.6804023E-1,1.0301523E0,-1.0161287E0,-6.537506E-1,8.0939937E-1,-4.47864E-1,-1.0261235E0,-6.9000095E-2,-7.143258E-1,1.4680862E0,4.8296112E-1,2.556314E0,4.1896114E-1,-9.3811303E-1,7.237584E-1,-2.1045323E-1,-5.9796717E-2,6.1329013E-1,3.0312333E-1,-9.6282256E-1,1.0420595E0,1.3470602E-1,-9.751276E-1,5.265712E-1,-1.0091407E0,-1.645231E-1,-7.4030215E-1,1.5427792E-1,1.5205903E0,-1.863574E-2,-1.0191774E0,1.3447598E-1,-9.632329E-1,4.8822036E-1,-5.3953934E-1,9.072134E-1,3.8930662E0,9.8116875E-1,-1.7141251E-1,9.1448754E-1,4.2404014E-1,-6.519822E-1,1.3885804E-1,-9.00727E-1,7.549947E-1,-6.009351E-1,1.0936474E0,5.0783172E-2,6.054169E-1,-4.3172434E-1,-1.7334057E-1,7.7684814E-1,4.6862417E-1,1.7465539E0,-2.3930797E-1,-1.0229735E0,-7.010252E-1,6.515601E-1,6.918994E-1,-1.0238658E0,1.4935405E0,-5.869181E-1,2.0444424E-1,1.0174099E0,8.545081E-1,-3.882806E-1,-9.399369E-1,1.00326575E-1,-4.085522E-1,4.4200712E-1,9.154457E-1,-1.0015436E-1,2.1700102E-1,1.1327133E0,-7.36217E-1,2.0585723E0,-1.0278761E0,-4.5421275E-1,7.554694E-1,1.738936E-1,-1.0595427E0,2.3265703E-1,-4.9298579E-1,2.4806764E0,-9.665762E-1,7.371692E-1,-7.275887E-1,3.5230666E-1,6.474174E-1,-3.9629373E-1,9.8332554E-1,-7.514963E-2,-7.1736264E-1,5.1666886E-1],"categories":[],"categories_nodes":[],"categories_segments":[],"categories_sizes":[],"default_left":[1,1,1,1,1,1,1,1,1,1,1,1,1,1,1,1,1,1,1,1,1,0,1,0,0,1,1,1,1,1,1,0,1,1,1,1,1,0,0,0,0,0,0,1,1,0,0,1,1,1,1,0,0,1,1,0,1,0,0,0,0,1,0,1,1,1,1,0,0,0,0,0,1,1,1,1,0,1,0,1,0,0,0,0,0,0,0,1,1,0,1,0,1,1,1,0,0,0,0,0,0,1,1,1,1,0,0,0,0,0,0,0,0,0,0,0,0,0,0,0,0,0,0,0,0,0,0],"id":7,"left_children":[1,3,5,7,9,11,13,15,17,19,21,23,25,27,29,31,33,35,37,39,41,-1,43,-1,-1,45,47,49,51,53,55,-1,57,59,61,63,65,-1,-1,-1,-1,-1,-1,67,69,-1,-1,71,73,75,77,-1,-1,79,81,-1,83,-1,-1,-1,-1,85,-1,87,89,91,93,-1,-1,-1,-1,-1,95,97,99,101,-1,103,-1,105,-1,-1,-1,-1,-1,-1,-1,107,109,-1,111,-1,113,115,117,-1,-1,-1,-1,-1,-1,119,121,123,125,-1,-1,-1,-1,-1,-1,-1,-1,-1,-1,-1,-1,-1,-1,-1,-1,-1,-1,-1,-1,-1,-1],"loss_changes":[1.26979126E2,1.2263428E1,1.596607E1,7.2926025E0,3.4352097E1,5.170398E0,4.0918694E0,8.131005E0,7.037842E0,4.43766E0,1.7572605E1,6.886616E-1,4.1325445E0,3.5494626E0,3.2885504E0,2.618599E0,4.8401527E0,6.3363037E0,1.8376703E0,9.159546E-1,5.7409062E0,0E0,8.006977E0,0E0,0E0,2.4530892E0,3.3773077E0,4.2249722E0,1.8070363E0,2.6451912E0,3.6947277E0,0E0,3.9835453E-1,7.718992E-1,2.7357726E0,6.283081E0,2.0892653E1,0E0,0E0,0E0,0E0,0E0,0E0,2.5707445E0,7.0934563E0,0E0,0E0,1.3700621E0,2.729392E0,2.9784596E0,4.183276E0,0E0,0E0,9.4654655E-1,1.6562526E0,0E0,9.6755075E-1,0E0,0E0,0E0,0E0,3.6934853E-2,0E0,4.928467E0,2.8387504E0,5.3047295E0,1.4911207E1,0E0,0E0,0E0,0E0,0E0,2.316451E-1,1.7999972E0,1.2981405E0,2.617189E0,0E0,2.8158102E0,0E0,3.9043236E-1,0E0,0E0,0E0,0E0,0E0,0E0,0E0,1.2671347E1,4.3814697E0,0E0,6.3394666E-2,0E0,2.245205E0,1.4934712E1,4.227594E0,0E0,0E0,0E0,0E0,0E0,0E0,1.6527966E0,1.9664999E0,1.2046127E0,1.9079424E0,0E0,0E0,0E0,0E0,0E0,0E0,0E0,0E0,0E0,0E0,0E0,0E0,0E0,0E0,0E0,0E0,0E0,0E0,0E0,0E0,0E0,0E0],"parents":[2147483647,0,0,1,1,2,2,3,3,4,4,5,5,6,6,7,7,8,8,9,9,10,10,11,11,12,12,13,13,14,14,15,15,16,16,17,17,18,18,19,19,20,20,22,22,25,25,26,26,27,27,28,28,29,29,30,30,32,32,33,33,34,34,35,35,36,36,43,43,44,44,47,47,48,48,49,49,50,50,53,53,54,54,56,56,61,61,63,63,64,64,65,65,66,66,72,72,73,73,74,74,75,75,77,77,79,79,87,87,88,88,90,90,92,92,93,93,94,94,101,101,102,102,103,103,104,104],"right_children":[2,4,6,8,10,12,14,16,18,20,22,24,26,28,30,32,34,36,38,40,42,-1,44,-1,-1,46,48,50,52,54,56,-1,58,60,62,64,66,-1,-1,-1,-1,-1,-1,68,70,-1,-1,72,74,76,78,-1,-1,80,82,-1,84,-1,-1,-1,-1,86,-1,88,90,92,94,-1,-1,-1,-1,-1,96,98,100,102,-1,104,-1,106,-1,-1,-1,-1,-1,-1,-1,108,110,-1,112,-1,114,116,118,-1,-1,-1,-1,-1,-1,120,122,124,126,-1,-1,-1,-1,-1,-1,-1,-1,-1,-1,-1,-1,-1,-1,-1,-1,-1,-1,-1,-1,-1,-1],"split_conditions":[1.2903371E0,1.9902327E0,1.0471025E-1,-2.8042684E0,5.1149243E-1,-3.9219117E-1,-3.7004876E-1,-4.9453387E-1,3.763883E0,7.6409066E-1,4.9372375E-1,-1.8264204E-1,5.2324984E-2,4.2442986E-1,-5.8946323E-1,-3.8740249E0,3.9539278E-1,3.5556338E0,-1.208621E0,9.625653E-1,-2.0041752E0,-2.168838E-1,2.731924E-1,-4.893213E-2,-2.986764E-1,-1.0149627E0,-5.9329912E-2,-5.206051E-1,-7.9509795E-1,5.6203203E0,-1.0505015E-2,9.671674E-2,1.0702701E0,-2.4385989E0,-1.3430077E-1,1.7622252E0,8.2063204E-1,2.4281982E-1,-1.3435921E-1,-3.0783707E-1,-2.070003E-2,-2.1429774E-1,4.404259E-1,-1.7577235E-1,2.5986032E0,1.2568834E-1,-2.814339E-1,7.070274E-2,-1.1171908E0,-2.044768E-1,5.1416314E-1,9.0937E-2,-2.888468E-1,6.7334867E-1,3.1092983E-1,-2.925383E-1,-1.791564E-1,-3.0274224E-1,-4.935693E-2,-2.2209065E-1,4.628338E-2,-4.430865E-1,-5.5907224E-3,-2.946113E0,3.1639922E-1,-6.332467E-1,1.4167653E-2,-1.618618E-1,2.7216402E-1,1.1679199E0,2.9435062E-1,-5.1423755E-2,-6.0041654E-1,-4.91693E-1,3.6474237E-1,5.499392E-2,-2.702181E-1,2.9347217E-1,-1.8028054E-1,1.6381213E-1,1.5234952E-2,1.8162507E-1,-1.295173E-1,-5.2002173E-2,2.3305444E-1,1.4058726E-1,5.239662E-1,1.2614465E0,2.7725835E0,-2.1030757E-1,-1.6572231E-1,2.0756984E-1,1.2012717E0,-9.4084156E-1,7.584065E-1,6.1333276E-2,3.05223E-1,2.5635245E-1,-1.1648419E-1,-2.8198108E-1,3.0097974E-2,1.3376524E0,-2.3714517E-1,1.436873E0,-5.718312E-1,6.510031E-2,3.39814E-1,-2.2086512E-1,6.175717E-1,-3.0836284E-1,-1.3626383E-1,2.2664082E-1,5.2168082E-2,-3.178628E-1,6.979711E-2,-1.4789574E-1,7.44203E-1,-2.8997287E-1,2.2115077E-1,-2.1827662E-1,1.0569201E-1,1.9422524E-1,-1.18888125E-1,2.9499766E-1,-2.254489E-2,-2.152088E-1,1.5500066E-1],"split_indices":[287,351,314,282,295,289,229,287,371,287,302,358,348,259,178,306,277,271,368,314,256,0,155,0,0,285,339,259,336,295,379,0,369,295,74,277,148,0,0,0,0,0,0,299,344,0,0,334,19,25,329,0,0,352,335,0,125,0,0,0,0,260,0,373,272,215,264,0,0,0,0,0,80,44,365,367,0,294,0,314,0,0,0,0,0,0,0,332,295,0,214,0,287,37,297,0,0,0,0,0,0,148,26,11,118,0,0,0,0,0,0,0,0,0,0,0,0,0,0,0,0,0,0,0,0,0,0],"split_type":[0,0,0,0,0,0,0,0,0,0,0,0,0,0,0,0,0,0,0,0,0,0,0,0,0,0,0,0,0,0,0,0,0,0,0,0,0,0,0,0,0,0,0,0,0,0,0,0,0,0,0,0,0,0,0,0,0,0,0,0,0,0,0,0,0,0,0,0,0,0,0,0,0,0,0,0,0,0,0,0,0,0,0,0,0,0,0,0,0,0,0,0,0,0,0,0,0,0,0,0,0,0,0,0,0,0,0,0,0,0,0,0,0,0,0,0,0,0,0,0,0,0,0,0,0,0,0],"sum_hessian":[1.9864415E3,1.885886E3,1.00555534E2,1.8316593E3,5.422666E1,3.204808E1,6.8507454E1,2.0702293E1,1.810957E3,4.2612045E1,1.1614616E1,1.1701515E1,2.0346567E1,4.042547E1,2.8081982E1,1.355697E1,7.1453233E0,1.8077845E3,3.1725132E0,3.9556816E1,3.0552301E0,3.6338406E0,7.9807754E0,1.5733184E0,1.0128197E1,6.484352E0,1.3862214E1,3.6756393E1,3.6690733E0,2.2827412E1,5.2545714E0,1.3369362E0,1.2220034E1,2.881681E0,4.2636423E0,1.7509994E3,5.678506E1,2.119638E0,1.0528754E0,3.837734E1,1.1794773E0,2.0411787E0,1.0140516E0,3.7977774E0,4.182998E0,1.0602809E0,5.4240713E0,6.1063695E0,7.755845E0,1.6080544E1,2.0675852E1,1.077386E0,2.5916872E0,1.8595795E1,4.231616E0,1.4998597E0,3.7547116E0,1.1180073E1,1.039961E0,1.8727653E0,1.0089158E0,2.5986145E0,1.6650277E0,1.7464858E3,4.5135546E0,4.480036E1,1.19847E1,1.0339905E0,2.763787E0,1.4667099E0,2.716288E0,1.0903203E0,5.016049E0,3.198743E0,4.5571017E0,1.3683044E1,2.397499E0,1.8853758E1,1.8220941E0,1.7577744E1,1.0180504E0,2.273489E0,1.958127E0,1.0699497E0,2.6847618E0,1.003013E0,1.5956016E0,8.770034E0,1.7377158E3,1.5895089E0,2.9240458E0,1.215265E0,4.3585094E1,5.9923377E0,5.992363E0,1.0131181E0,4.002931E0,2.0568404E0,1.1419027E0,3.115287E0,1.4418147E0,4.7528715E0,8.930173E0,1.581575E1,3.038008E0,1.0295339E0,1.654821E1,7.7695127E0,1.0005212E0,1.7220646E3,1.5651261E1,1.9239383E0,1.0001075E0,4.2534172E1,1.0509219E0,2.15539E0,3.8369477E0,4.866879E0,1.1254838E0,3.3795261E0,1.3733454E0,7.3555355E0,1.5746368E0,1.4808355E1,1.0073942E0,1.4370576E0,1.6009502E0],"tree_param":{"num_deleted":"0","num_feature":"384","num_nodes":"127","size_leaf_vector":"0"}},{"base_weights":[-8.845639E-1,-9.516747E-1,6.1672036E-2,-9.640059E-1,-2.286064E-1,2.7607545E-1,-9.9368477E-1,-9.680903E-1,1.7016082E-1,-8.646017E-1,1.0730783E0,1.0880809E-1,7.9377884E-1,-3.363065E-1,-9.7580916E-1,-6.804447E-1,1.0794194E0,3.5825256E-2,-9.756306E-1,1.3205979E0,-3.151928E-1,-1.737225E-1,4.2325404E-1,4.8368138E-1,1.7891703E0,2.9592988E-1,-8.2768136E-1,8.8870513E-1,-9.77854E-1,2.0268303E-1,-4.4321406E-1,6.6294444E-1,-6.409592E-3,7.2599655E-1,-2.264002E-1,1.4943092E0,-5.4084737E-2,-9.505291E-1,-8.381031E-2,-1.5089484E-1,-9.8274034E-1,-4.3735063E-1,6.793267E-1,7.970065E-2,-6.703475E-1,-1.977546E-1,8.0682904E-1,6.337495E-1,-2.998824E-1,-1.0362584E-2,8.663016E-1,6.6760695E-1,-7.068441E-1,-4.516859E-1,7.988641E-1,-8.089925E-1,1.7547593E0,-9.864559E-1,6.5206945E-2,1.0917586E-1,-8.2767016E-1,-4.79984E-2,9.3216425E-1,-5.0078034E-1,5.772912E-1,-8.0716044E-1,3.202997E-1,4.4748437E-1,-6.901718E-1,-2.3378964E-1,9.333882E-1,1.22806504E-1,7.5831807E-1,-7.337878E-1,4.4223055E-1,4.601692E-1,-4.7317627E-1,9.8090965E-1,-1.10334516E-1,-8.774731E-1,-1.3082916E-1,3.4203196E-1,-8.6255056E-1,-6.888359E-2,-9.1118366E-1,-9.897406E-1,1.2119001E-1,-8.2487386E-1,2.1136677E0,5.37291E-1,-3.9864522E-1,-5.9099E-1,6.0611117E-1,1.5374391E-1,1.0436487E0,-7.6290035E-1,1.112195E-1,8.235549E-1,-1.065104E-1,-9.583657E-1,-4.7598608E-2,1.0311542E0,-1.2864693E-1,2.2747916E-1,-9.721917E-1,7.8250843E-1,-1.6756E-1],"categories":[],"categories_nodes":[],"categories_segments":[],"categories_sizes":[],"default_left":[1,1,1,1,1,1,0,1,1,1,1,1,1,1,1,0,0,0,0,0,0,1,1,1,0,1,1,0,1,1,1,1,1,1,1,0,1,0,0,1,1,1,1,1,1,1,1,1,1,1,1,0,1,1,0,1,0,1,1,1,0,1,1,1,1,1,0,0,0,0,1,0,0,1,1,0,0,0,0,0,0,0,0,0,0,0,0,0,0,0,0,0,0,0,0,0,0,0,0,0,0,0,0,0,0,0,0],"id":8,"left_children":[1,3,5,7,9,11,-1,13,15,17,19,21,23,25,27,-1,-1,-1,-1,-1,-1,29,31,33,-1,35,37,-1,39,41,43,45,47,49,51,-1,53,-1,-1,55,57,59,61,63,65,67,69,71,73,75,77,-1,79,81,-1,83,-1,85,87,89,-1,91,93,95,97,99,-1,-1,-1,-1,101,-1,-1,103,105,-1,-1,-1,-1,-1,-1,-1,-1,-1,-1,-1,-1,-1,-1,-1,-1,-1,-1,-1,-1,-1,-1,-1,-1,-1,-1,-1,-1,-1,-1,-1,-1],"loss_changes":[9.724463E1,1.2522217E1,2.3420694E1,6.6724854E0,2.185175E1,7.343834E0,0E0,6.4990234E0,5.2911205E0,1.7877493E0,3.4201927E0,5.9378943E0,5.5531282E0,5.968504E0,6.140259E0,0E0,0E0,0E0,0E0,0E0,0E0,3.6887026E0,3.2515593E0,3.1282277E0,0E0,3.769292E0,8.91737E-1,0E0,5.43396E0,5.022333E0,2.5463657E0,2.667327E0,2.4973865E0,1.3603888E0,2.681726E0,0E0,2.996197E0,0E0,0E0,1.3078272E1,5.411255E0,1.6304743E0,1.7493343E0,2.3831565E0,2.2562308E0,1.4855418E0,2.5290728E0,1.7303014E-1,3.2547235E0,8.8882524E-1,1.3393345E0,0E0,2.6184797E-1,2.2317905E0,0E0,5.1162815E-1,0E0,5.098633E0,1.2299653E1,1.0602086E0,0E0,1.5452423E0,4.4070578E-1,7.0754147E-1,8.2329476E-1,1.4744234E0,0E0,0E0,0E0,0E0,1.7777624E0,0E0,0E0,1.623308E0,9.5726323E-1,0E0,0E0,0E0,0E0,0E0,0E0,0E0,0E0,0E0,0E0,0E0,0E0,0E0,0E0,0E0,0E0,0E0,0E0,0E0,0E0,0E0,0E0,0E0,0E0,0E0,0E0,0E0,0E0,0E0,0E0,0E0,0E0],"parents":[2147483647,0,0,1,1,2,2,3,3,4,4,5,5,7,7,8,8,9,9,10,10,11,11,12,12,13,13,14,14,21,21,22,22,23,23,25,25,26,26,28,28,29,29,30,30,31,31,32,32,33,33,34,34,36,36,39,39,40,40,41,41,42,42,43,43,44,44,45,45,46,46,47,47,48,48,49,49,50,50,52,52,53,53,55,55,57,57,58,58,59,59,61,61,62,62,63,63,64,64,65,65,70,70,73,73,74,74],"right_children":[2,4,6,8,10,12,-1,14,16,18,20,22,24,26,28,-1,-1,-1,-1,-1,-1,30,32,34,-1,36,38,-1,40,42,44,46,48,50,52,-1,54,-1,-1,56,58,60,62,64,66,68,70,72,74,76,78,-1,80,82,-1,84,-1,86,88,90,-1,92,94,96,98,100,-1,-1,-1,-1,102,-1,-1,104,106,-1,-1,-1,-1,-1,-1,-1,-1,-1,-1,-1,-1,-1,-1,-1,-1,-1,-1,-1,-1,-1,-1,-1,-1,-1,-1,-1,-1,-1,-1,-1,-1],"split_conditions":[1.2051213E0,2.5510545E0,7.730404E-1,3.1362967E0,6.7547107E-1,3.7117898E-1,-2.9810545E-1,-2.8042684E0,1.5246032E0,-3.9547443E-1,8.66992E-1,-5.566834E-2,6.150547E-1,1.0473785E-1,-4.0886483E0,-2.0413342E-1,3.2382584E-1,1.0747577E-2,-2.9268917E-1,3.9617938E-1,-9.4557844E-2,-1.0612728E-1,1.7529151E-1,1.8328881E-1,5.367511E-1,-7.381538E-1,1.4978787E0,2.6661155E-1,-2.9459677E0,1.9865467E-1,6.017821E-1,-2.2951147E-1,-8.2699525E-1,2.6650315E-2,-2.9390287E-1,4.4829276E-1,1.5838492E0,-2.8515875E-1,-2.5143092E-2,9.3684626E-1,2.6409383E0,-3.63582E-2,-1.6809168E-1,2.9958063E-1,1.2761791E0,6.936887E-2,-1.0308757E0,-4.0785334E-1,-6.2446244E-2,1.5056077E-1,-6.5418944E-2,2.002821E-1,2.8577566E-1,-1.8769339E-1,2.3965925E-1,-1.1792972E0,5.264278E-1,1.7622252E0,1.4555235E0,6.899605E-1,-2.4830106E-1,1.9870254E-1,-3.0770725E-1,-1.8107181E-2,-4.8441073E-1,2.5132475E0,9.608992E-2,1.3424532E-1,-2.0705155E-1,-7.01369E-2,-4.0236986E-1,3.684195E-2,2.2749543E-1,-2.872736E-1,-3.9725816E-1,1.3805076E-1,-1.4195289E-1,2.942729E-1,-3.3100355E-2,-2.6324195E-1,-3.924875E-2,1.0260959E-1,-2.587652E-1,-2.0665077E-2,-2.733551E-1,-2.969222E-1,3.6357004E-2,-2.4746217E-1,6.341003E-1,1.611873E-1,-1.1959357E-1,-1.7729701E-1,1.8183336E-1,4.6123173E-2,3.1309462E-1,-2.2887011E-1,3.3365853E-2,2.4706647E-1,-3.1953122E-2,-2.875097E-1,-1.4279583E-2,3.0934626E-1,-3.859408E-2,6.824375E-2,-2.916575E-1,2.3475254E-1,-5.0268E-2],"split_indices":[287,344,293,371,313,275,0,282,353,376,337,273,277,290,381,0,0,0,0,0,0,359,111,262,0,172,300,0,373,281,122,312,21,297,374,0,135,0,0,109,332,339,321,155,243,350,23,66,185,259,339,0,36,327,0,361,0,277,155,291,0,350,227,383,149,99,0,0,0,0,293,0,0,8,114,0,0,0,0,0,0,0,0,0,0,0,0,0,0,0,0,0,0,0,0,0,0,0,0,0,0,0,0,0,0,0,0],"split_type":[0,0,0,0,0,0,0,0,0,0,0,0,0,0,0,0,0,0,0,0,0,0,0,0,0,0,0,0,0,0,0,0,0,0,0,0,0,0,0,0,0,0,0,0,0,0,0,0,0,0,0,0,0,0,0,0,0,0,0,0,0,0,0,0,0,0,0,0,0,0,0,0,0,0,0,0,0,0,0,0,0,0,0,0,0,0,0,0,0,0,0,0,0,0,0,0,0,0,0,0,0,0,0,0,0,0,0],"sum_hessian":[1.5294248E3,1.4281304E3,1.0129437E2,1.4038558E3,2.42746E1,8.480419E1,1.6490183E1,1.3989642E3,4.891538E0,1.6532635E1,7.7419634E0,6.500997E1,1.9794218E1,1.7423601E1,1.3815406E3,2.6573E0,2.2342384E0,1.8891617E0,1.4643474E1,6.611859E0,1.1301043E0,3.4478485E1,3.053149E1,1.6225391E1,3.5688272E0,7.7935886E0,9.6300125E0,1.038514E0,1.3805022E3,1.4489101E1,1.9989382E1,1.9249887E1,1.1281604E1,1.2080507E1,4.1448836E0,1.0227213E0,6.7708673E0,8.0266285E0,1.6033844E0,8.296407E0,1.3722057E3,6.2197304E0,8.269372E0,6.249852E0,1.373953E1,2.7034993E0,1.6546389E1,3.1817327E0,8.099871E0,2.0816393E0,9.998868E0,1.3126848E0,2.8321986E0,4.939E0,1.8318675E0,6.5945325E0,1.7018747E0,1.3674161E3,4.7895947E0,2.8914313E0,3.328299E0,2.342108E0,5.9272633E0,2.8816988E0,3.3681533E0,1.2235035E1,1.5044951E0,1.2096645E0,1.4938349E0,1.702283E0,1.4844105E1,1.0129145E0,2.1688182E0,5.11841E0,2.9814606E0,1.0350462E0,1.0465931E0,8.94482E0,1.0540483E0,1.7812111E0,1.0509875E0,1.7417595E0,3.1972404E0,1.0031788E0,5.5913534E0,1.3634792E3,3.9369295E0,3.7552247E0,1.0343701E0,1.5373483E0,1.3540831E0,1.3324813E0,1.0096269E0,1.04059E0,4.8866735E0,1.8449401E0,1.0367589E0,2.3260682E0,1.0420852E0,9.9854965E0,2.2495384E0,1.3619441E1,1.2246643E0,1.0262595E0,4.0921507E0,1.7318212E0,1.2496394E0],"tree_param":{"num_deleted":"0","num_feature":"384","num_nodes":"107","size_leaf_vector":"0"}},{"base_weights":[-8.439739E-1,-9.1578734E-1,6.0545594E-2,-9.371943E-1,-4.21593E-1,2.4429691E-1,-9.635723E-1,-9.711683E-1,-6.9947267E-1,-6.986789E-1,1.9157536E0,1.56232E0,1.854423E-1,-9.7702837E-1,2.0870772E-1,9.6902974E-2,-8.059268E-1,-9.3745023E-1,4.029161E-1,-3.6465323E-1,2.5569673E0,4.6183592E-1,1.9051943E0,3.1399998E-1,-3.8956502E-1,-9.8136365E-1,1.5165477E-1,-4.4058606E-1,1.301365E0,-5.5552125E-1,1.3702419E0,-8.618901E-1,7.0217824E-1,-9.9210405E-1,4.093811E-2,-5.9625006E-1,9.863602E-1,3.7433803E0,7.8738385E-1,-9.192128E-3,5.302471E-1,-6.6258055E-1,1.05635576E-1,-9.854313E-1,9.810852E-2,6.334363E-1,-6.902988E-1,2.2184768E-1,-7.320686E-1,6.5526277E-1,-8.313296E-1,1.9475777E0,-5.710649E-1,7.4810314E-1,-8.8604176E-1,1.6803812E0,-4.2772833E-1,-2.6232323E-1,1.5494145E0,5.0172246E-1,-3.3164218E-1,8.326238E-1,2.747217E-1,-8.0558914E-1,2.1562113E-1,4.9287927E-1,-5.8283395E-1,-1.8041678E-2,-9.899692E-1,-6.77084E-1,9.8858833E-1,-5.488694E-2,-9.522321E-1,2.9366894E0,4.0250286E-1,-9.0755165E-1,7.5348014E-1,-5.3128123E-1,-1.0929717E-1,7.620219E-1,-3.446897E-1,-5.611959E-1,3.9398038E-1,-2.7607855E-1,9.397778E-1,6.369592E-1,-2.1168597E-1,-9.434537E-1,-1.7814338E-1,8.566684E-1,-3.3759078E-1,-8.1023157E-1,1.4042767E0,-9.938938E-1,9.161525E-2,-3.3613303E-1,9.299468E-1,-2.8804354E-2,-9.3225646E-1,-1.35218E-2,8.857185E-1,-6.1704016E-1,9.15935E-2,-7.4813414E-1,3.148924E-1,6.3046855E-1,-1.9776608E-1,1.0385278E0,2.3330814E-1,7.834324E-1,-4.3845868E-1,2.3243724E-1,-6.086137E-1],"categories":[],"categories_nodes":[],"categories_segments":[],"categories_sizes":[],"default_left":[1,1,1,1,1,1,0,1,1,1,1,1,1,1,1,1,1,1,1,0,1,0,0,1,1,1,1,1,0,1,1,1,1,0,0,0,1,0,0,1,1,1,1,1,1,0,0,0,0,0,1,1,0,0,1,0,1,0,0,1,1,1,1,1,0,1,0,1,1,0,0,0,0,0,1,1,0,0,0,1,1,1,1,0,1,1,1,0,0,0,0,0,0,0,0,0,0,0,0,0,0,0,0,0,0,0,0,0,0,0,0,0,0],"id":9,"left_children":[1,3,5,7,9,11,-1,13,15,17,19,21,23,25,27,29,31,33,35,-1,37,-1,-1,39,41,43,45,47,-1,49,51,53,55,-1,-1,-1,57,-1,-1,59,61,63,65,67,69,-1,-1,-1,-1,-1,71,73,-1,-1,75,-1,77,-1,-1,79,81,83,85,87,-1,89,-1,91,93,-1,-1,-1,-1,-1,95,97,-1,-1,-1,99,101,103,105,-1,107,109,111,-1,-1,-1,-1,-1,-1,-1,-1,-1,-1,-1,-1,-1,-1,-1,-1,-1,-1,-1,-1,-1,-1,-1,-1,-1,-1],"loss_changes":[7.680853E1,1.1186523E1,1.6767275E1,7.788574E0,3.1952797E1,5.5501323E0,0E0,6.5290527E0,1.149604E1,1.1686144E1,8.648697E0,2.8352642E-1,5.5333815E0,4.603882E0,4.365456E0,1.4695621E1,1.0640877E1,1.946106E0,5.4605536E0,0E0,5.9620304E0,0E0,0E0,4.224677E0,1.9386411E0,4.079651E0,2.2017288E0,9.540349E-1,0E0,4.486003E0,7.80441E0,5.1384964E0,6.03034E0,0E0,0E0,0E0,4.3813467E0,0E0,0E0,4.3158193E0,2.5675764E0,1.3099289E0,1.8267927E0,3.949768E0,3.6478133E0,0E0,0E0,0E0,0E0,0E0,8.914752E-1,6.197956E0,0E0,0E0,4.699173E0,0E0,4.1746974E-2,0E0,0E0,2.4974768E0,2.8934698E0,2.1702127E0,3.8539054E0,5.231972E-1,0E0,1.5694476E0,0E0,7.0401025E0,3.9094238E0,0E0,0E0,0E0,0E0,0E0,1.4983536E0,2.4227905E0,0E0,0E0,0E0,7.860694E-1,4.2181095E-1,2.2991989E0,7.4647427E-1,0E0,7.9671E-1,2.288476E0,1.862041E0,0E0,0E0,0E0,0E0,0E0,0E0,0E0,0E0,0E0,0E0,0E0,0E0,0E0,0E0,0E0,0E0,0E0,0E0,0E0,0E0,0E0,0E0,0E0,0E0,0E0,0E0],"parents":[2147483647,0,0,1,1,2,2,3,3,4,4,5,5,7,7,8,8,9,9,10,10,11,11,12,12,13,13,14,14,15,15,16,16,17,17,18,18,20,20,23,23,24,24,25,25,26,26,27,27,29,29,30,30,31,31,32,32,36,36,39,39,40,40,41,41,42,42,43,43,44,44,50,50,51,51,54,54,56,56,59,59,60,60,61,61,62,62,63,63,65,65,67,67,68,68,74,74,75,75,79,79,80,80,81,81,82,82,84,84,85,85,86,86],"right_children":[2,4,6,8,10,12,-1,14,16,18,20,22,24,26,28,30,32,34,36,-1,38,-1,-1,40,42,44,46,48,-1,50,52,54,56,-1,-1,-1,58,-1,-1,60,62,64,66,68,70,-1,-1,-1,-1,-1,72,74,-1,-1,76,-1,78,-1,-1,80,82,84,86,88,-1,90,-1,92,94,-1,-1,-1,-1,-1,96,98,-1,-1,-1,100,102,104,106,-1,108,110,112,-1,-1,-1,-1,-1,-1,-1,-1,-1,-1,-1,-1,-1,-1,-1,-1,-1,-1,-1,-1,-1,-1,-1,-1,-1,-1],"split_conditions":[1.2051213E0,1.8289106E0,7.730404E-1,3.9637417E-1,1.2008649E0,-1.7597263E0,-2.890717E-1,3.046093E0,-1.4845297E0,4.8522067E-1,-1.564965E-1,-1.1811752E-1,5.8621526E-1,2.7115107E0,2.3197076E-1,7.267103E-1,1.4056807E0,7.6409066E-1,1.3234992E-1,-1.0939597E-1,2.5986032E0,1.3855079E-1,5.715583E-1,-5.158025E-1,5.944065E-1,3.1362967E0,-5.6312215E-1,6.6376306E-2,3.9040953E-1,-7.066765E-1,2.802953E-1,-8.830438E-1,5.8561957E-1,-2.9763123E-1,1.2281434E-2,-1.7887503E-1,-2.808568E-1,1.1230141E0,2.3621516E-1,-9.28025E-1,1.447431E-2,1.0329211E0,4.514495E-1,-3.0606217E0,8.501098E-1,1.900309E-1,-2.0708965E-1,6.655431E-2,-2.1962059E-1,1.9657885E-1,-1.2132323E0,-1.5382707E-1,-1.7131947E-1,2.2443095E-1,1.1503067E0,5.041144E-1,-2.1875631E-2,-7.869697E-2,4.6482438E-1,3.8769796E-1,1.6418956E-1,-1.3723034E-1,3.0008686E-1,9.891221E-1,6.468634E-2,-7.685491E-1,-1.748502E-1,9.8519146E-1,3.2531033E0,-2.0312522E-1,2.965765E-1,-1.6466083E-2,-2.8566965E-1,8.8100684E-1,4.733377E-2,-8.966451E-1,2.2604404E-1,-1.5938437E-1,-3.2789152E-2,-6.8804777E-1,-1.3440113E0,4.173152E-1,4.2889446E-1,-8.282357E-2,-4.2304868E-1,9.944532E-1,3.729267E-1,-2.8303614E-1,-5.344302E-2,2.5700054E-1,-1.0127724E-1,-2.4306948E-1,4.2128304E-1,-2.9816815E-1,2.7484577E-2,-1.0083991E-1,2.7898404E-1,-8.641306E-3,-2.7967694E-1,-4.0565403E-3,2.6571557E-1,-1.8511206E-1,2.747805E-2,-2.2444025E-1,9.446773E-2,1.8914057E-1,-5.9329826E-2,3.1155837E-1,6.9992445E-2,2.3502974E-1,-1.3153762E-1,6.9731176E-2,-1.8258412E-1],"split_indices":[287,351,293,271,314,378,0,295,355,295,319,276,374,277,125,297,358,287,334,0,344,0,0,213,79,371,323,270,0,363,352,293,162,0,0,0,331,0,0,219,322,361,290,373,309,0,0,0,0,0,124,111,0,0,272,0,353,0,0,272,173,81,281,34,0,285,0,344,302,0,0,0,0,0,32,198,0,0,0,248,181,324,352,0,48,5,79,0,0,0,0,0,0,0,0,0,0,0,0,0,0,0,0,0,0,0,0,0,0,0,0,0,0],"split_type":[0,0,0,0,0,0,0,0,0,0,0,0,0,0,0,0,0,0,0,0,0,0,0,0,0,0,0,0,0,0,0,0,0,0,0,0,0,0,0,0,0,0,0,0,0,0,0,0,0,0,0,0,0,0,0,0,0,0,0,0,0,0,0,0,0,0,0,0,0,0,0,0,0,0,0,0,0,0,0,0,0,0,0,0,0,0,0,0,0,0,0,0,0,0,0,0,0,0,0,0,0,0,0,0,0,0,0,0,0,0,0,0,0],"sum_hessian":[1.180604E3,1.093754E3,8.684999E1,1.0474839E3,4.627013E1,7.428326E1,1.2566741E1,9.138026E2,1.3368134E2,4.199305E1,4.2770786E0,2.083298E0,7.219996E1,9.094575E2,4.3450747E0,1.5773161E1,1.1790817E2,3.4634922E1,7.358131E0,1.0333586E0,3.24372E0,1.0524201E0,1.0308777E0,5.9378326E1,1.2821631E1,9.0610767E2,3.3498633E0,3.099828E0,1.2452466E0,1.0802157E1,4.971003E0,1.14102516E2,3.805663E0,3.278926E1,1.8456612E0,2.7045522E0,4.6535788E0,1.2741003E0,1.9696198E0,2.4187056E1,3.519127E1,8.047084E0,4.774547E0,9.027929E2,3.3147683E0,2.2881815E0,1.0616815E0,1.020195E0,2.079633E0,1.7488792E0,9.053278E0,3.829035E0,1.141968E0,1.2433511E0,1.1285916E2,1.7786406E0,2.0270224E0,1.6122359E0,3.0413427E0,9.143471E0,1.5043585E1,1.5083588E1,2.0107681E1,6.991288E0,1.0557959E0,3.237592E0,1.5369552E0,4.238369E0,8.985545E2,1.9002117E0,1.4145567E0,1.4156804E0,7.637598E0,1.7853978E0,2.0436373E0,1.1183834E2,1.020821E0,1.0251975E0,1.001825E0,7.0691724E0,2.0742986E0,1.1600363E1,3.4432223E0,1.1903892E0,1.3893198E1,1.1347474E1,8.760207E0,5.318948E0,1.6723403E0,2.2294364E0,1.0081556E0,2.9985876E0,1.2397815E0,8.9538666E2,3.1678772E0,1.0024762E0,1.0411611E0,3.1174352E0,1.0872091E2,1.0949324E0,5.97424E0,1.0220016E0,1.0522971E0,9.680752E0,1.9196105E0,2.413317E0,1.0299054E0,1.1776991E1,2.1162076E0,1.0226167E1,1.1213075E0,4.3298926E0,4.430315E0],"tree_param":{"num_deleted":"0","num_feature":"384","num_nodes":"113","size_leaf_vector":"0"}}]},"name":"gbtree"},"learner_model_param":{"base_score":"5E-1","num_class":"0","num_feature":"384","num_target":"1"},"objective":{"name":"binary:logistic","reg_loss_param":{"scale_pos_weight":"1"}}},"version":[1,6,0]}