{"learner":{"attributes":{"best_iteration":"9","best_ntree_limit":"10"},"feature_names":[],"feature_types":[],"gradient_booster":{"model":{"gbtree_model_param":{"num_parallel_tree":"1","num_trees":"10","size_leaf_vector":"0"},"tree_info":[0,0,0,0,0,0,0,0,0,0],"trees":[{"base_weights":[-1.7913947E0,1.9459764E0,-1.9886986E0,-1.25E0,1.9705383E0,-1.992734E0,1.0638298E0,-1.3333334E-1,1.9840364E0,1.1578947E0,-1.99428E0,-7.5E-1,1.7714286E0,1.1111112E0,-1.2E0,-0E0,1.9885714E0,-0E0,1.4666667E0,-1.3953488E0,-1.99558E0,5E-1,-1.3333334E0,1.9931192E0,4E-1,7.368421E-1,-1.887324E0,-1.9958183E0,-2.2222222E-1,1.4666667E0,-1E0,-1.9959372E0,-5E-1,-1.9960563E0,-5E-1,-1.9961753E0,-5E-1],"categories":[],"categories_nodes":[],"categories_segments":[],"categories_sizes":[],"default_left":[1,1,1,0,1,1,1,1,1,1,1,1,0,0,0,0,1,0,0,1,1,0,0,0,0,1,0,1,0,0,0,1,0,1,0,0,0],"id":0,"left_children":[1,3,5,-1,7,9,11,13,15,17,19,21,-1,-1,-1,-1,23,-1,-1,25,27,-1,-1,-1,-1,29,-1,31,-1,-1,-1,33,-1,35,-1,-1,-1],"loss_changes":[6.529285E3,3.7336548E1,1.0566406E2,0E0,1.2795288E1,4.319922E1,1.6409271E1,6.311111E0,3.9454346E0,1.6982455E0,3.75E0,3.5833335E0,0E0,0E0,0E0,0E0,2.3635254E0,0E0,0E0,2.3943832E1,3.0898438E0,0E0,0E0,0E0,0E0,7.4877195E0,0E0,4.921875E-1,0E0,0E0,0E0,4.921875E-1,0E0,4.921875E-1,0E0,0E0,0E0],"parents":[2147483647,0,0,1,1,2,2,4,4,5,5,6,6,7,7,8,8,9,9,10,10,11,11,16,16,19,19,20,20,25,25,27,27,31,31,33,33],"right_children":[2,4,6,-1,8,10,12,14,16,18,20,22,-1,-1,-1,-1,24,-1,-1,26,28,-1,-1,-1,-1,30,-1,32,-1,-1,-1,34,-1,36,-1,-1,-1],"split_conditions":[-1.2337437E0,9.446667E-3,3.042708E0,-3.75E-1,-1.8686166E0,-8.606763E-1,8.044386E-1,-4.4519877E-1,-8.098702E-1,1.2378938E-1,-1.3338459E0,-1.0305173E0,5.314286E-1,3.3333337E-1,-3.6E-1,-0E0,3.3367343E0,-0E0,4.4000003E-1,-1.2688754E-1,2.648222E0,1.5E-1,-4.0000004E-1,5.979358E-1,1.20000005E-1,1.1142626E0,-5.661972E-1,3.9753976E0,-6.666667E-2,4.4000003E-1,-3E-1,1.1345568E0,-1.5E-1,1.8017623E0,-1.5E-1,-5.9885263E-1,-1.5E-1],"split_indices":[284,282,329,0,272,268,330,324,265,0,283,259,0,0,0,0,94,0,0,284,329,0,0,0,0,20,0,124,0,0,0,275,0,284,0,0,0],"split_type":[0,0,0,0,0,0,0,0,0,0,0,0,0,0,0,0,0,0,0,0,0,0,0,0,0,0,0,0,0,0,0,0,0,0,0,0,0],"sum_hessian":[8.84825E3,4.4325E2,8.405E3,3E0,4.4025E2,8.39425E3,1.075E1,2.75E0,4.375E2,3.75E0,8.3905E3,3E0,7.75E0,1.25E0,1.5E0,1E0,4.365E2,1E0,2.75E0,2.05E1,8.37E3,1E0,2E0,4.35E2,1.5E0,3.75E0,1.675E1,8.36875E3,1.25E0,2.75E0,1E0,8.36775E3,1E0,8.36675E3,1E0,8.36575E3,1E0],"tree_param":{"num_deleted":"0","num_feature":"384","num_nodes":"37","size_leaf_vector":"0"}},{"base_weights":[-1.3864869E0,1.5139456E0,-1.538898E0,-9.981715E-1,1.5254349E0,-1.5425743E0,8.8614625E-1,-1.03209645E-1,1.5365319E0,9.324987E-1,-1.5438621E0,-6.026373E-1,1.4137336E0,9.4189215E-1,-1.005434E0,1.5410041E0,1.5775986E-2,-0E0,1.1900182E0,-1.0859205E0,-1.5448745E0,-1.094842E0,2.628042E-1,1.5432763E0,4.1080236E-1,1.0783445E0,-1.3685863E0,-1.5450718E0,-1.8531317E-1,4.2446786E-1,1.54549E0,-3.4036685E-2,-1.4802636E0,-3.6050463E-1,-1.5452018E0,1.5479997E0,4.7561926E-1,-1.5453316E0,-3.6050463E-1,-3.6050463E-1,-1.5454615E0],"categories":[],"categories_nodes":[],"categories_segments":[],"categories_sizes":[],"default_left":[1,1,1,0,1,1,1,1,1,1,1,1,0,0,0,1,0,0,0,1,1,0,0,1,0,0,1,1,0,0,1,0,0,0,1,0,0,1,0,0,0],"id":1,"left_children":[1,3,5,-1,7,9,11,13,15,17,19,21,-1,-1,-1,23,-1,-1,-1,25,27,-1,-1,29,-1,-1,31,33,-1,-1,35,-1,-1,-1,37,-1,-1,39,-1,-1,-1],"loss_changes":[3.584249E3,1.3212952E1,7.000391E1,0E0,7.4525757E0,2.5941406E1,1.0504269E1,4.4059496E0,2.7023315E0,1.1096907E0,1.8828125E0,1.9560499E0,0E0,0E0,0E0,3.9263916E-1,0E0,0E0,0E0,1.3904709E1,1.7714844E0,0E0,0E0,3.310547E-1,0E0,0E0,2.6934624E0,6.230469E-1,0E0,0E0,3.307495E-1,0E0,0E0,0E0,6.230469E-1,0E0,0E0,6.2109375E-1,0E0,0E0,0E0],"parents":[2147483647,0,0,1,1,2,2,4,4,5,5,6,6,7,7,8,8,9,9,10,10,11,11,15,15,19,19,20,20,23,23,26,26,27,27,30,30,34,34,37,37],"right_children":[2,4,6,-1,8,10,12,14,16,18,20,22,-1,-1,-1,24,-1,-1,-1,26,28,-1,-1,30,-1,-1,32,34,-1,-1,36,-1,-1,-1,38,-1,-1,40,-1,-1,-1],"split_conditions":[-1.2658772E0,-1.6532438E-1,3.042708E0,-2.9945147E-1,-1.8686166E0,-8.606763E-1,8.044386E-1,-4.4519877E-1,6.750031E-1,1.2378938E-1,-1.3338459E0,7.929063E-1,4.241201E-1,2.8256765E-1,-3.0163023E-1,2.06292E0,4.732796E-3,-0E0,3.5700548E-1,-8.3203924E-1,2.648222E0,-3.284526E-1,7.884127E-2,-1.1114216E0,1.2324072E-1,3.2350335E-1,-7.904622E-1,-2.1837704E1,-5.5593953E-2,1.2734036E-1,2.4025195E0,-1.0211006E-2,-4.440791E-1,-1.0815139E-1,3.1089191E0,4.6439993E-1,1.4268579E-1,-4.3250604E0,-1.0815139E-1,-1.0815139E-1,-4.6363848E-1],"split_indices":[284,282,329,0,272,268,330,324,275,0,283,9,0,0,0,9,0,0,0,299,329,0,0,257,0,0,284,266,0,0,79,0,0,0,347,0,0,363,0,0,0],"split_type":[0,0,0,0,0,0,0,0,0,0,0,0,0,0,0,0,0,0,0,0,0,0,0,0,0,0,0,0,0,0,0,0,0,0,0,0,0,0,0,0,0],"sum_hessian":[8.1018193E3,4.0403186E2,7.6977876E3,1.4484775E0,4.0258337E2,7.686499E3,1.1288671E1,2.6683416E0,3.9991504E2,3.62108E0,7.682878E3,2.916482E0,8.372188E0,1.2159108E0,1.4524307E0,3.987292E2,1.1858671E0,1E0,2.62108E0,1.9316498E1,7.663561E3,1.6901635E0,1.2263185E0,3.975644E2,1.1647886E0,1.9062399E0,1.741026E1,7.6623125E3,1.2486122E0,1.1656865E0,3.963987E2,1.4451694E0,1.596509E1,1.1443032E0,7.6611685E3,3.9502518E2,1.3735297E0,7.660024E3,1.1443032E0,1.1443032E0,7.65888E3],"tree_param":{"num_deleted":"0","num_feature":"384","num_nodes":"41","size_leaf_vector":"0"}},{"base_weights":[-1.2021977E0,1.2940614E0,-1.3354844E0,-1.1024572E0,1.3207805E0,-1.3381999E0,6.2414104E-1,-8.281574E-2,1.3313657E0,7.845686E-1,-1.339434E0,-6.6646093E-1,1.1873201E0,8.1997424E-1,-8.701064E-1,-1.2633981E-1,1.3363858E0,1.0846841E0,-3.1739637E-2,-9.8895735E-1,-1.3406146E0,-4.2062633E-2,-9.494007E-1,1.3411138E0,4.028911E-2,9.206284E-1,-1.244736E0,-4.5564458E-1,-1.3409189E0,2.3232336E-1,1.34377E0,1.1343099E0,2.0560054E-1,-1.3056073E0,3.7762737E-3,-8.1309897E-1,1.6707861E-1,-1.3410678E0,-2.9117075E-1,5.585831E-1,1.3466752E0,-3.0927032E-1,-1.3411982E0,-1.3413286E0,-3.0927032E-1],"categories":[],"categories_nodes":[],"categories_segments":[],"categories_sizes":[],"default_left":[1,1,1,0,1,1,1,1,1,1,1,1,0,0,0,0,1,0,0,1,1,0,0,1,0,1,1,1,1,0,1,0,0,0,0,0,0,1,0,1,1,0,1,0,0],"id":2,"left_children":[1,3,5,-1,7,9,11,13,15,17,19,21,-1,-1,-1,-1,23,-1,-1,25,27,-1,-1,29,-1,31,33,35,37,-1,-1,-1,-1,-1,-1,-1,-1,41,-1,-1,-1,-1,43,-1,-1],"loss_changes":[2.2514346E3,2.3434692E1,3.4993164E1,0E0,5.1604614E0,1.7845703E1,7.7432694E0,3.1909437E0,2.6381226E0,1.1015117E0,1.3242188E0,5.865674E-1,0E0,0E0,0E0,0E0,2.00708E0,0E0,0E0,1.3514101E1,1.109375E0,0E0,0E0,6.7474365E-1,0E0,3.1162333E-1,1.7343712E0,9.614966E-1,6.064453E-1,0E0,9.82666E-3,0E0,0E0,0E0,0E0,0E0,0E0,4.4335938E-1,0E0,0E0,0E0,0E0,4.4335938E-1,0E0,0E0],"parents":[2147483647,0,0,1,1,2,2,4,4,5,5,6,6,7,7,8,8,9,9,10,10,11,11,16,16,19,19,20,20,23,23,25,25,26,26,27,27,28,28,30,30,37,37,42,42],"right_children":[2,4,6,-1,8,10,12,14,16,18,20,22,-1,-1,-1,-1,24,-1,-1,26,28,-1,-1,30,-1,32,34,36,38,-1,-1,-1,-1,-1,-1,-1,-1,42,-1,-1,-1,-1,44,-1,-1],"split_conditions":[-1.2011348E0,-1.4669092E-1,3.042708E0,-3.3073717E-1,-1.8686166E0,-8.606763E-1,8.044386E-1,-4.4519877E-1,-1.7717299E-1,-1.0435793E0,-1.2179475E0,7.092426E-1,3.5619605E-1,2.4599229E-1,-2.6103193E-1,-3.7901945E-2,7.044598E-1,3.2540524E-1,-9.521891E-3,-1.3608971E0,-7.810213E-1,-1.261879E-2,-2.8482023E-1,-1.2790961E0,1.2086734E-2,-4.743E-1,1.0517094E0,-1.2915027E-1,3.4317255E0,6.9697015E-2,4.0313104E-1,3.40293E-1,6.1680164E-2,-3.916822E-1,1.1328822E-3,-2.439297E-1,5.0123587E-2,-2.1837704E1,-8.7351225E-2,1.6757493E-1,4.0400258E-1,-9.27811E-2,3.1089191E0,-4.0239862E-1,-9.27811E-2],"split_indices":[284,282,329,0,272,268,330,324,301,1,283,24,0,0,0,0,353,0,0,361,268,0,0,104,0,0,318,0,364,0,272,0,0,0,0,0,0,266,0,2147483647,2147483647,0,347,0,0],"split_type":[0,0,0,0,0,0,0,0,0,0,0,0,0,0,0,0,0,0,0,0,0,0,0,0,0,0,0,0,0,0,0,0,0,0,0,0,0,0,0,0,0,0,0,0,0],"sum_hessian":[6.760594E3,3.4224042E2,6.4183535E3,3.3296862E0,3.389107E2,6.409789E3,8.564646E0,2.485685E0,3.3642505E2,3.3556807E0,6.406433E3,2.546227E0,6.0184193E0,1.1385689E0,1.3471162E0,1.0716825E0,3.3535336E2,2.2132223E0,1.1424583E0,2.4322216E1,6.382111E3,1.1521959E0,1.394031E0,3.3409988E2,1.253478E0,2.5659673E0,2.1756248E1,2.7091792E0,6.379402E3,1.0098766E0,3.3309E2,1.5241109E0,1.0418564E0,2.070123E1,1.0550195E0,1.5269611E0,1.1822181E0,6.3782197E3,1.1822181E0,1.9403006E0,3.311497E2,1.1059437E0,6.377114E3,6.376008E3,1.1059437E0],"tree_param":{"num_deleted":"2","num_feature":"384","num_nodes":"45","size_leaf_vector":"0"}},{"base_weights":[-1.097704E0,1.1912202E0,-1.2188712E0,-6.945084E-1,1.2034615E0,-1.2223362E0,5.033975E-1,1.213088E0,-3.3522317E-1,6.6753095E-1,-1.2236154E0,-5.3356737E-1,1.128242E0,5.643181E-2,1.2260709E0,9.8253626E-1,-1.257656E-1,-7.713664E-1,-1.224689E0,-1.079274E0,4.8120773E-1,7.944592E-1,-7.7719265E-1,1.229163E0,2.534609E-1,5.8579165E-1,-1.1191585E0,-3.9436537E-1,-1.2250265E0,9.1579556E-1,-1.4539905E-1,-7.770051E-1,2.8374067E-1,-4.6217996E-1,-1.2254146E0,-8.383747E-1,3.318011E-1,-2.0510747E-1,-1.2255914E0,-1.2257663E0,-2.103226E-1],"categories":[],"categories_nodes":[],"categories_segments":[],"categories_sizes":[],"default_left":[1,1,1,0,1,1,1,1,0,1,1,1,0,1,1,0,0,1,1,0,0,0,0,0,0,1,0,1,1,0,0,0,0,1,1,0,0,0,1,0,0],"id":3,"left_children":[1,3,5,-1,7,9,11,13,-1,15,17,19,-1,21,23,-1,-1,25,27,-1,-1,-1,-1,-1,-1,29,-1,31,33,-1,-1,-1,-1,35,37,-1,-1,-1,39,-1,-1],"loss_changes":[1.5008965E3,7.1219482E0,3.125879E1,0E0,4.419647E0,1.3207031E1,7.7413507E0,3.9771423E0,0E0,1.15159E0,1.5419922E0,3.1895845E0,0E0,3.1025145E0,4.8968506E-1,0E0,0E0,7.6566277E0,9.4873047E-1,0E0,0E0,0E0,0E0,0E0,0E0,1.0216255E0,0E0,1.1415954E0,9.453125E-1,0E0,0E0,0E0,0E0,1.5333089E0,6.689453E-1,0E0,0E0,0E0,6.479492E-1,0E0,0E0],"parents":[2147483647,0,0,1,1,2,2,4,4,5,5,6,6,7,7,9,9,10,10,11,11,13,13,14,14,17,17,18,18,25,25,27,27,28,28,33,33,34,34,38,38],"right_children":[2,4,6,-1,8,10,12,14,-1,16,18,20,-1,22,24,-1,-1,26,28,-1,-1,-1,-1,-1,-1,30,-1,32,34,-1,-1,-1,-1,36,38,-1,-1,-1,40,-1,-1],"split_conditions":[-1.2658772E0,1.6268167E-1,2.7880936E0,-2.0835252E-1,8.927763E-1,-8.606763E-1,-3.0446667E-2,-1.3193083E0,-1.0056695E-1,-1.1045676E0,-1.3338459E0,5.9518147E-1,3.384726E-1,5.9979665E-1,2.0759935E0,2.9476088E-1,-3.7729684E-2,-8.81949E-2,-7.810213E-1,-3.2378224E-1,1.4436233E-1,2.3833777E-1,-2.331578E-1,3.6874893E-1,7.603828E-2,-3.470243E-1,-3.3574757E-1,-6.72065E-2,-2.9580417E0,2.7473867E-1,-4.3619715E-2,-2.3310153E-1,8.5122205E-2,2.403801E-1,-4.3111544E0,-2.515124E-1,9.954033E-2,-6.153224E-2,1.7934439E0,-3.677299E-1,-6.3096784E-2],"split_indices":[284,280,329,0,346,268,364,272,0,7,283,205,0,273,137,0,0,328,268,0,0,0,0,0,0,1,0,0,368,0,0,0,0,11,363,0,0,0,284,0,0],"split_type":[0,0,0,0,0,0,0,0,0,0,0,0,0,0,0,0,0,0,0,0,0,0,0,0,0,0,0,0,0,0,0,0,0,0,0,0,0,0,0,0,0],"sum_hessian":[5.4054673E3,2.713157E2,5.1341514E3,1.3904414E0,2.6992526E2,5.124133E3,1.0018517E1,2.6845734E2,1.4679449E0,3.1138494E0,5.121019E3,3.8219142E0,6.196603E0,3.0391974E0,2.6541812E2,2.0580733E0,1.0557762E0,1.3832421E1,5.1071865E3,2.4440427E0,1.3778714E0,1.6369493E0,1.402248E0,2.6431406E2,1.1040821E0,2.682077E0,1.1150345E1,2.5500305E0,5.1046367E3,1.6740613E0,1.0080156E0,1.5369301E0,1.0131005E0,3.2021127E0,5.1014346E3,2.1347418E0,1.0673709E0,1.084917E0,5.1003496E3,5.099264E3,1.0855646E0],"tree_param":{"num_deleted":"0","num_feature":"384","num_nodes":"41","size_leaf_vector":"0"}},{"base_weights":[-1.0314748E0,1.0945103E0,-1.146908E0,-8.271351E-1,1.1279745E0,-1.149538E0,2.8264722E-1,1.5637851E-1,1.1434941E0,5.7206047E-1,-1.1509197E0,-5.734593E-1,9.363205E-1,7.245179E-1,-6.755233E-1,-2.2871627E-1,1.1517348E0,-1.6655655E-1,8.880487E-1,-7.001262E-1,-1.1520026E0,2.2271399E-1,-9.4327575E-1,1.1555798E0,1.7954707E-1,5.6257874E-1,-1.0640821E0,-3.6380526E-1,-1.1524904E0,1.1593301E0,1.9065602E-1,7.950102E-1,8.580904E-3,3.850805E-1,-7.603328E-1,-3.9480993E-1,-1.1529516E0,-7.9502237E-1,3.8977382E-1,-3.4053054E-1,-1.1533536E0,3.1047168E-1,-7.52932E-1,-1.60312E-1,-1.1535691E0],"categories":[],"categories_nodes":[],"categories_segments":[],"categories_sizes":[],"default_left":[1,1,1,0,1,1,1,1,1,1,1,1,0,0,0,0,1,0,0,1,1,0,0,1,0,1,0,1,1,0,0,0,0,0,0,1,1,0,0,1,1,0,0,0,0],"id":4,"left_children":[1,3,5,-1,7,9,11,13,15,17,19,21,-1,-1,-1,-1,23,-1,-1,25,27,-1,-1,29,-1,31,-1,33,35,-1,-1,-1,-1,-1,-1,37,39,-1,-1,41,43,-1,-1,-1,-1],"loss_changes":[1.0371245E3,1.4944855E1,1.5378906E1,0E0,3.0568848E0,1.0166016E1,5.10078E0,2.631498E0,2.6500244E0,1.051909E0,1.1430664E0,1.4323215E0,0E0,0E0,0E0,0E0,5.7736206E-1,0E0,0E0,6.16872E0,1.1123047E0,0E0,0E0,5.350952E-1,0E0,4.266045E-1,0E0,1.4583496E0,9.350586E-1,0E0,0E0,0E0,0E0,0E0,0E0,1.5476338E0,9.0625E-1,0E0,0E0,1.142703E0,6.660156E-1,0E0,0E0,0E0,0E0],"parents":[2147483647,0,0,1,1,2,2,4,4,5,5,6,6,7,7,8,8,9,9,10,10,11,11,16,16,19,19,20,20,23,23,25,25,27,27,28,28,35,35,36,36,39,39,40,40],"right_children":[2,4,6,-1,8,10,12,14,16,18,20,22,-1,-1,-1,-1,24,-1,-1,26,28,-1,-1,30,-1,32,-1,34,36,-1,-1,-1,-1,-1,-1,38,40,-1,-1,42,44,-1,-1,-1,-1],"split_conditions":[-1.1748909E0,1.3390064E-2,2.7880936E0,-2.4814053E-1,-1.3193083E0,-8.606763E-1,-3.0446667E-2,-1.2442453E0,-1.7717299E-1,3.799116E-1,-1.3338459E0,-2.2548702E-2,2.8089616E-1,2.1735537E-1,-2.02657E-1,-6.8614885E-2,3.207264E0,-4.996697E-2,2.664146E-1,-1.2688754E-1,-3.2015269E0,6.68142E-2,-2.8298274E-1,1.1144605E0,5.3864125E-2,-2.0391157E-1,-3.1922466E-1,-4.0828425E-1,-2.9580417E0,3.4779906E-1,5.7196807E-2,2.3850307E-1,2.5742715E-3,1.1552415E-1,-2.2809985E-1,5.346763E-1,-7.810213E-1,-2.3850672E-1,1.16932146E-1,-1.0956472E-1,-2.1818779E1,9.314151E-2,-2.2587961E-1,-4.8093602E-2,-3.4607074E-1],"split_indices":[284,282,329,0,272,268,364,334,301,13,283,359,0,0,0,0,94,0,0,284,339,0,0,281,0,182,0,0,368,0,0,0,0,0,0,16,268,0,0,16,266,0,0,0,0],"split_type":[0,0,0,0,0,0,0,0,0,0,0,0,0,0,0,0,0,0,0,0,0,0,0,0,0,0,0,0,0,0,0,0,0,0,0,0,0,0,0,0,0,0,0,0,0],"sum_hessian":[4.2199854E3,2.1689282E2,4.0030928E3,3.3064518E0,2.1358636E2,3.9959375E3,7.155333E0,3.5321736E0,2.1005418E2,2.8732686E0,3.9930642E3,3.1510978E0,4.0042353E0,2.1755114E0,1.3566623E0,1.0942217E0,2.0895998E2,1.0026033E0,1.8706652E0,1.1120248E1,3.9819438E3,1.1255932E0,2.0255046E0,2.079489E2,1.011078E0,2.3659868E0,8.754261E0,2.9250553E0,3.9790188E3,2.069431E2,1.0057878E0,1.3602483E0,1.0057384E0,1.0226109E0,1.9024445E0,2.9418921E0,3.976077E3,1.9393395E0,1.0025526E0,2.3855715E0,3.9736914E3,1.0210074E0,1.364564E0,1.0238581E0,3.9726675E3],"tree_param":{"num_deleted":"0","num_feature":"384","num_nodes":"45","size_leaf_vector":"0"}},{"base_weights":[-9.863383E-1,1.0445607E0,-1.0969065E0,1.0718868E0,-8.2972664E-1,-1.1000407E0,2.8639495E-1,1.0837857E0,-4.1619113E-1,4.9408942E-1,-1.1015733E0,8.3942825E-1,-4.9851924E-1,1.8122056E-1,1.0997603E0,-1.4857945E-1,7.9378945E-1,-6.808688E-1,-1.103112E0,9.492641E-1,2.1354699E-1,-7.859513E-1,1.4836635E-1,7.7757585E-1,-6.0045356E-1,4.6022043E-2,1.1064616E0,1.0004405E0,-9.6196675E-1,-3.1058425E-1,-1.1037127E0,1.6439332E-1,1.1117507E0,-5.9604857E-2,-1.0366939E0,3.8333616E-1,-7.2123426E-1,-3.8721606E-1,-1.1043576E0,4.3971148E-1,-7.741684E-1,-3.3604613E-1,-1.1049334E0,3.7775788E-1,-7.4895453E-1,-2.9409802E-1,-1.10544E0],"categories":[],"categories_nodes":[],"categories_segments":[],"categories_sizes":[],"default_left":[1,1,1,1,0,1,1,1,0,1,1,1,1,1,1,0,0,1,1,0,0,0,0,0,0,0,1,0,1,1,1,0,0,0,0,0,0,1,1,0,0,1,1,0,0,0,0],"id":5,"left_children":[1,3,5,7,-1,9,11,13,-1,15,17,19,21,23,25,-1,-1,27,29,-1,-1,-1,-1,-1,-1,-1,31,-1,33,35,37,-1,-1,-1,-1,-1,-1,39,41,-1,-1,43,45,-1,-1,-1,-1],"loss_changes":[7.3049243E2,9.5047E0,1.3671631E1,3.3944397E0,0E0,8.055176E0,3.7859864E0,2.1824493E0,0E0,8.1963664E-1,1.2370605E0,1.3576555E-1,8.29491E-1,2.3642328E0,1.0938873E0,0E0,0E0,7.4866858E0,1.1130371E0,0E0,0E0,0E0,0E0,0E0,0E0,0E0,6.1968994E-1,0E0,7.7011395E-1,1.3330047E0,9.8461914E-1,0E0,0E0,0E0,0E0,0E0,0E0,1.7125862E0,9.7924805E-1,0E0,0E0,1.3802332E0,9.277344E-1,0E0,0E0,0E0,0E0],"parents":[2147483647,0,0,1,1,2,2,3,3,5,5,6,6,7,7,9,9,10,10,11,11,12,12,13,13,14,14,17,17,18,18,26,26,28,28,29,29,30,30,37,37,38,38,41,41,42,42],"right_children":[2,4,6,8,-1,10,12,14,-1,16,18,20,22,24,26,-1,-1,28,30,-1,-1,-1,-1,-1,-1,-1,32,-1,34,36,38,-1,-1,-1,-1,-1,-1,40,42,-1,-1,44,46,-1,-1,-1,-1],"split_conditions":[-1.2011348E0,-4.543625E-1,2.7880936E0,1.433268E0,-2.48918E-1,-8.606763E-1,-2.832433E-1,-1.3193083E0,-1.24857344E-1,-5.535578E-1,-1.231103E0,1.204403E-1,-2.175535E-1,5.9979665E-1,-1.455445E0,-4.4573836E-2,2.3813684E-1,-1.6625011E0,-3.2015269E0,2.8477925E-1,6.40641E-2,-2.3578541E-1,4.4509906E-2,2.3327276E-1,-1.8013607E-1,1.3806613E-2,-1.268018E0,3.0013216E-1,-8.285351E-1,1.1157505E-1,-4.1703496E0,4.9317997E-2,3.3352524E-1,-1.7881459E-2,-3.110082E-1,1.1500085E-1,-2.1637028E-1,-3.5456505E-1,-2.9580417E0,1.3191345E-1,-2.3225053E-1,-6.726339E-1,-7.810213E-1,1.1332737E-1,-2.2468637E-1,-8.822941E-2,-3.3163202E-1],"split_indices":[284,283,329,331,0,268,257,272,0,187,283,271,145,273,263,0,0,364,339,0,0,0,0,0,0,0,104,0,332,40,312,0,0,0,0,0,0,0,368,0,0,285,268,0,0,0,0],"split_type":[0,0,0,0,0,0,0,0,0,0,0,0,0,0,0,0,0,0,0,0,0,0,0,0,0,0,0,0,0,0,0,0,0,0,0,0,0,0,0,0,0,0,0,0,0,0,0],"sum_hessian":[3.246995E3,1.6721265E2,3.0797825E3,1.6523175E2,1.980882E0,3.073025E3,6.757756E0,1.6419055E2,1.0412055E0,2.643132E0,3.0703816E3,3.9237301E0,2.8340263E0,3.0701754E0,1.6112038E2,1.0009532E0,1.6421787E0,1.2804743E1,3.057577E3,2.8984053E0,1.0253247E0,1.8133286E0,1.0206976E0,1.744502E0,1.3256736E0,1.0679064E0,1.6005247E2,1.4676082E0,1.1337134E1,2.7076626E0,3.0548694E3,1.0726641E0,1.5897981E2,1.004539E0,1.0332596E1,1.0313652E0,1.6762973E0,3.2882962E0,3.051581E3,1.0047572E0,2.283539E0,2.7230299E0,3.048858E3,1.0291113E0,1.6939186E0,2.2670393E0,3.0465908E3],"tree_param":{"num_deleted":"0","num_feature":"384","num_nodes":"47","size_leaf_vector":"0"}},{"base_weights":[-9.535958E-1,9.9458635E-1,-1.0613539E0,-6.299055E-1,1.0330648E0,-1.0644988E0,1.9882809E-1,-1.9095746E-1,-7.2578126E-1,1.0625185E0,4.9415726E-2,1.278385E-1,-1.0668952E0,6.5835327E-1,-6.055908E-1,1.0779314E0,2.2569861E-2,7.7844393E-1,-1.0266842E0,-9.414735E-1,1.108414E0,-5.0737464E-1,-1.0684963E0,8.874815E-1,-8.4643185E-2,1.3818392E0,-9.410654E-1,1.8825674E-2,-1.0690566E0,-2.6577923E-1,-1.0698189E0,3.8847587E-1,-6.834145E-1,-5.507221E-1,-1.0711973E0,1.0634028E0,-9.3075156E-1,-3.289077E-1,-1.072018E0],"categories":[],"categories_nodes":[],"categories_segments":[],"categories_sizes":[],"default_left":[1,1,1,1,1,1,1,0,0,1,1,1,1,1,0,0,0,0,0,0,0,1,1,0,0,0,0,0,1,1,1,0,0,1,1,0,0,0,0],"id":6,"left_children":[1,3,5,7,9,11,13,-1,-1,15,17,19,21,23,-1,-1,-1,-1,-1,-1,-1,25,27,-1,-1,-1,-1,-1,29,31,33,-1,-1,35,37,-1,-1,-1,-1],"loss_changes":[5.209834E2,8.797058E0,9.514648E0,1.4456034E-2,3.6468658E0,6.8273926E0,2.8701718E0,0E0,0E0,1.9620667E0,4.534264E0,6.904929E0,1.5515137E0,8.810978E-1,0E0,0E0,0E0,0E0,0E0,0E0,0E0,8.324392E0,1.4389648E0,0E0,0E0,0E0,0E0,0E0,1.1413574E0,1.2321856E0,1.0742188E0,0E0,0E0,6.030542E0,1.0600586E0,0E0,0E0,0E0,0E0],"parents":[2147483647,0,0,1,1,2,2,3,3,4,4,5,5,6,6,9,9,10,10,11,11,12,12,13,13,21,21,22,22,28,28,29,29,30,30,33,33,34,34],"right_children":[2,4,6,8,10,12,14,-1,-1,16,18,20,22,24,-1,-1,-1,-1,-1,-1,-1,26,28,-1,-1,-1,-1,-1,30,32,34,-1,-1,36,38,-1,-1,-1,-1],"split_conditions":[-1.1748909E0,5.8325853E-2,2.7880936E0,-3.4666502E-1,9.8273337E-1,-7.810213E-1,1.9662918E-1,-5.728724E-2,-2.1773438E-1,1.595753E0,6.067811E-1,6.980746E-1,-2.9617596E0,-2.972623E-1,-1.8167725E-1,3.2337943E-1,6.7709587E-3,2.3353319E-1,-3.0800527E-1,-2.8244206E-1,3.3252424E-1,-2.7301189E-2,-3.3582158E0,2.6624447E-1,-2.5392957E-2,4.1455176E-1,-2.8231964E-1,5.6477026E-3,-3.2015269E0,-7.226965E-1,-1.0001191E0,1.16542764E-1,-2.0502436E-1,-3.510534E-2,-4.1703496E0,3.1902084E-1,-2.7922547E-1,-9.8672315E-2,-3.216054E-1],"split_indices":[284,282,329,190,281,268,360,0,0,271,2,263,256,257,0,0,0,0,0,0,0,263,324,0,0,0,0,0,339,155,284,0,0,283,312,0,0,0,0],"split_type":[0,0,0,0,0,0,0,0,0,0,0,0,0,0,0,0,0,0,0,0,0,0,0,0,0,0,0,0,0,0,0,0,0,0,0,0,0,0,0],"sum_hessian":[2.475645E3,1.2932469E2,2.3463203E3,2.636719E0,1.2668797E2,2.3406343E3,5.6859837E0,1.0089877E0,1.6277313E0,1.22926956E2,3.7610126E0,4.59004E0,2.3360442E3,3.7343254E0,1.9516584E0,1.2109569E2,1.8312671E0,2.4069655E0,1.354047E0,2.2147474E0,2.3752928E0,7.5728E0,2.3284714E3,2.7055228E0,1.0288026E0,1.0056826E0,6.5671177E0,1.1822544E0,2.3272893E3,2.5378983E0,2.3247512E3,1.0160325E0,1.521866E0,7.2175655E0,2.3175337E3,1.0327758E0,6.1847897E0,3.0033054E0,2.3145305E3],"tree_param":{"num_deleted":"0","num_feature":"384","num_nodes":"39","size_leaf_vector":"0"}},{"base_weights":[-9.283436E-1,9.620492E-1,-1.0335581E0,-6.872931E-1,9.9513644E-1,-1.0374668E0,2.1340874E-1,1.0281574E0,9.5890425E-2,1.14124164E-1,-1.0400872E0,-4.8088083E-1,6.4215755E-1,7.926899E-3,1.0478206E0,7.6319796E-1,-8.3565706E-1,-8.447385E-1,9.9213684E-1,-8.572422E-1,-1.0479641E0,-5.493918E-3,8.3598137E-1,5.976827E-1,-9.307175E-1,-1.04969E0,-3.9088738E-1,-5.919711E-1,1.8807456E0,-2.6514184E-1,-1.016406E0,-4.7534622E-2,-1.0502646E0,-8.4937626E-1,9.429842E-1,1.6335781E0,-8.90162E-1,4.1025764E-1,-1.0445689E0,-6.494435E-2,-1.0508384E0,-6.514152E-2,-1.0513936E0],"categories":[],"categories_nodes":[],"categories_segments":[],"categories_sizes":[],"default_left":[1,1,1,0,1,1,1,1,1,1,1,0,1,0,0,0,0,0,0,1,1,0,0,1,1,1,1,0,0,1,1,0,1,0,0,0,0,0,0,0,1,0,0],"id":7,"left_children":[1,3,5,-1,7,9,11,13,15,17,19,-1,21,-1,-1,-1,-1,-1,-1,23,25,-1,-1,27,29,31,33,-1,-1,35,37,-1,39,-1,-1,-1,-1,-1,-1,-1,41,-1,-1],"loss_changes":[3.7447156E2,6.1148834E0,8.893433E0,0E0,2.8105087E0,5.4716797E0,2.210663E0,1.8853912E0,3.480448E0,4.987276E0,1.6506348E0,0E0,5.541711E-1,0E0,0E0,0E0,0E0,0E0,0E0,8.957821E0,1.5089111E0,0E0,0E0,7.8098507E0,4.0195923E0,9.2163086E-1,4.486765E0,0E0,0E0,1.3239291E1,3.0913544E0,0E0,8.852539E-1,0E0,0E0,0E0,0E0,0E0,0E0,0E0,8.5388184E-1,0E0,0E0],"parents":[2147483647,0,0,1,1,2,2,4,4,5,5,6,6,7,7,8,8,9,9,10,10,12,12,19,19,20,20,23,23,24,24,25,25,26,26,29,29,30,30,32,32,40,40],"right_children":[2,4,6,-1,8,10,12,14,16,18,20,-1,22,-1,-1,-1,-1,-1,-1,24,26,-1,-1,28,30,32,34,-1,-1,36,38,-1,40,-1,-1,-1,-1,-1,-1,-1,42,-1,-1],"split_conditions":[-1.2011348E0,-1.4669092E-1,2.7880936E0,-2.0618795E-1,9.8273337E-1,-7.810213E-1,-4.4715834E-1,-1.8686166E0,6.067811E-1,6.980746E-1,-3.601834E-1,-1.4426425E-1,-7.871727E-1,2.3780698E-3,3.143462E-1,2.289594E-1,-2.5069714E-1,-2.5342155E-1,2.9764107E-1,-5.4930043E-1,1.5416601E0,-1.6481754E-3,2.507944E-1,1.6153964E-1,-7.4170995E-1,-4.0412426E0,7.66804E-1,-1.7759134E-1,5.642237E-1,2.1978241E-1,-2.7603958E0,-1.4260387E-2,-3.3617373E0,-2.548129E-1,2.8289527E-1,4.9007344E-1,-2.670486E-1,1.23077296E-1,-3.1337067E-1,-1.9483306E-2,-2.1382027E1,-1.9542458E-2,-3.154181E-1],"split_indices":[284,282,329,0,281,268,114,272,2,263,283,0,91,0,0,0,0,0,0,284,264,0,0,265,299,363,283,0,0,303,339,0,324,0,0,0,0,0,0,0,266,0,0],"split_type":[0,0,0,0,0,0,0,0,0,0,0,0,0,0,0,0,0,0,0,0,0,0,0,0,0,0,0,0,0,0,0,0,0,0,0,0,0,0,0,0,0,0,0],"sum_hessian":[1.876745E3,9.8518326E1,1.7782266E3,1.5486488E0,9.696968E1,1.7728375E3,5.3890367E0,9.339673E1,3.5729496E0,3.9283898E0,1.7689092E3,2.010983E0,3.3780534E0,1.7925588E0,9.160417E1,2.1870162E0,1.3859334E0,1.8958557E0,2.0325344E0,7.7591774E1,1.6913174E3,1.0019035E0,2.37615E0,3.38712E0,7.420466E1,1.6862905E3,5.0268564E0,2.0370226E0,1.3500973E0,8.930702E0,6.527396E1,1.0142381E0,1.6852764E3,4.0112896E0,1.0155672E0,1.8121163E0,7.1185856E0,1.0009472E0,6.427301E1,1.0473924E0,1.6842289E3,1.014843E0,1.6832141E3],"tree_param":{"num_deleted":"0","num_feature":"384","num_nodes":"43","size_leaf_vector":"0"}},{"base_weights":[-9.076368E-1,9.19865E-1,-1.0116884E0,-5.449112E-1,9.6734905E-1,-6.793647E-1,-1.028565E0,1.0066415E0,2.0760536E-2,5.836178E-1,-8.852351E-1,-2.5735053E-1,-1.0308216E0,1.0324047E0,-1.367258E-3,-7.1227354E-1,6.700605E-1,-2.8199452E-1,1.2480183E0,1.5637714E-1,-9.544875E-1,9.506789E-1,-7.906186E-1,-4.0645074E-2,-1.0315701E0,4.1308805E-1,-5.7549894E-1,-2.3141464E-2,1.5650914E0,-7.342411E-1,1.4280484E0,-9.875007E-1,4.0177214E-1,-5.5525925E-2,-1.0323181E0,4.1841855E-3,-7.8014255E-1,2.5682231E-2,-1.0218357E0,-7.493661E-2,-1.0330427E0,-9.0841964E-2,-1.0337785E0,-1.854634E-1,-1.034558E0],"categories":[],"categories_nodes":[],"categories_segments":[],"categories_sizes":[],"default_left":[1,1,1,0,1,1,1,1,1,1,1,1,1,0,0,0,0,1,1,1,1,0,0,0,1,0,1,0,0,0,0,1,0,0,1,0,0,0,0,0,1,0,1,0,0],"id":8,"left_children":[1,3,5,-1,7,9,11,13,15,17,19,21,23,-1,-1,-1,-1,25,27,29,31,-1,-1,-1,33,-1,35,-1,-1,-1,-1,37,-1,-1,39,-1,-1,-1,-1,-1,41,-1,43,-1,-1],"loss_changes":[2.7074683E2,5.880005E0,6.833374E0,0E0,2.7650757E0,1.8158575E1,1.9554443E0,1.868576E0,2.3841426E0,6.16774E0,4.386303E0,4.0084314E0,9.01001E-1,0E0,0E0,0E0,0E0,1.3000054E0,2.4164248E0,6.168941E0,2.8690796E0,0E0,0E0,0E0,8.7060547E-1,0E0,4.8713982E-1,0E0,0E0,0E0,0E0,1.9115372E0,0E0,0E0,8.0358887E-1,0E0,0E0,0E0,0E0,0E0,7.858887E-1,0E0,6.464844E-1,0E0,0E0],"parents":[2147483647,0,0,1,1,2,2,4,4,5,5,6,6,7,7,8,8,9,9,10,10,11,11,12,12,17,17,18,18,19,19,20,20,24,24,26,26,31,31,34,34,40,40,42,42],"right_children":[2,4,6,-1,8,10,12,14,16,18,20,22,24,-1,-1,-1,-1,26,28,30,32,-1,-1,-1,34,-1,36,-1,-1,-1,-1,38,-1,-1,40,-1,-1,-1,-1,-1,42,-1,44,-1,-1],"split_conditions":[-1.1748909E0,5.8325853E-2,-3.601834E-1,-1.6347337E-1,9.8273337E-1,-4.681967E-1,-2.9617596E0,1.595753E0,5.5663204E-1,-3.4964297E-2,-1.7331724E0,-6.960883E-1,-4.0412426E0,3.097214E-1,-4.1017742E-4,-2.1368207E-1,2.0101817E-1,-5.5377555E-1,-2.9506674E-1,8.990101E-2,1.9277841E0,2.8520367E-1,-2.3718558E-1,-1.2193522E-2,-3.3617373E0,1.2392642E-1,-3.0356264E-1,-6.9424394E-3,4.6952742E-1,-2.2027235E-1,4.2841452E-1,-1.9611211E0,1.2053165E-1,-1.6657779E-2,-2.1310312E1,1.2552557E-3,-2.3404278E-1,7.7046696E-3,-3.065507E-1,-2.2480985E-2,-2.9580417E0,-2.725259E-2,-3.1938877E0,-5.563902E-2,-3.1036744E-1],"split_indices":[284,282,283,0,281,284,256,271,297,270,373,75,363,0,0,0,0,298,340,270,373,0,0,0,324,0,223,0,0,0,0,354,0,0,266,0,0,0,0,0,368,0,361,0,0],"split_type":[0,0,0,0,0,0,0,0,0,0,0,0,0,0,0,0,0,0,0,0,0,0,0,0,0,0,0,0,0,0,0,0,0,0,0,0,0,0,0,0,0,0,0,0,0],"sum_hessian":[1.4179323E3,7.596074E1,1.3419716E3,2.0561898E0,7.390455E1,6.685081E1,1.2751207E3,7.089816E1,3.0063875E0,9.1124525E0,5.7738358E1,4.055556E0,1.2710652E3,6.9107666E1,1.7904923E0,1.3665826E0,1.6398048E0,4.206974E0,4.905479E0,3.5210383E0,5.421732E1,1.0022916E0,3.0532644E0,1.0019722E0,1.2700631E3,1.1280562E0,3.0789177E0,1.1643928E0,3.741086E0,2.3193164E0,1.201722E0,5.319439E1,1.0229316E0,1.0301837E0,1.269033E3,1.0589213E0,2.0199964E0,1.7518378E0,5.144255E1,1.0386192E0,1.2679944E3,1.0866758E0,1.2669077E3,1.3824605E0,1.2655253E3],"tree_param":{"num_deleted":"0","num_feature":"384","num_nodes":"45","size_leaf_vector":"0"}},{"base_weights":[-8.894064E-1,9.156824E-1,-9.9085265E-1,9.701072E-1,-4.5298845E-2,-6.0163015E-1,-1.0122072E0,-2.3499925E-1,1.0012726E0,6.783244E-1,-5.3839105E-1,5.2432E-1,-8.3486825E-1,-2.0588136E-1,-1.0151297E0,1.50514E-1,1.0149779E0,1.1279944E0,-1.4743301E-1,-7.153699E-2,-9.624231E-1,-7.669492E-1,9.3967986E-1,-6.9954586E-1,-1.0221714E0,1.4392248E0,-1.1458454E-1,-5.3508276E-1,4.831271E-1,1.1572539E0,-8.464553E-1,3.7526494E-1,-1.0078295E0,1.6069957E0,-9.427468E-1,-2.9905477E-1,-1.0242661E0,-7.34482E-1,-7.8806475E-2,-2.3386799E-1,1.8832718E0,-9.8536944E-1,-1.9110747E-2,-7.0340604E-1,4.6522266E-1,-5.7049923E-2,-1.0252692E0,-6.417415E-2,-1.0262564E0,-1.1939402E-1,-1.0273042E0],"categories":[],"categories_nodes":[],"categories_segments":[],"categories_sizes":[],"default_left":[1,1,1,1,1,1,1,0,1,0,0,1,1,1,1,0,0,1,1,1,1,0,0,1,1,0,0,1,0,1,0,0,0,0,1,1,1,0,0,0,0,0,0,0,0,0,1,0,1,0,0],"id":9,"left_children":[1,3,5,7,9,11,13,-1,15,-1,-1,17,19,21,23,-1,-1,25,27,29,31,-1,-1,33,35,-1,-1,37,-1,39,-1,-1,-1,-1,41,43,45,-1,-1,-1,-1,-1,-1,-1,-1,-1,47,-1,49,-1,-1],"loss_changes":[1.9691986E2,3.050003E0,7.8184814E0,2.27993E0,1.8053155E0,1.4934317E1,2.0526123E0,0E0,4.6821213E-1,0E0,0E0,4.2566986E0,4.421135E0,3.754621E0,1.4094238E0,0E0,0E0,2.2641487E0,1.6416805E0,8.295236E0,2.7732468E0,0E0,0E0,1.4997157E1,1.1069336E0,0E0,0E0,3.0411017E-1,0E0,3.8680143E0,0E0,0E0,0E0,0E0,8.619118E-1,1.5965482E0,8.436279E-1,0E0,0E0,0E0,0E0,0E0,0E0,0E0,0E0,0E0,8.154907E-1,0E0,7.5891113E-1,0E0,0E0],"parents":[2147483647,0,0,1,1,2,2,3,3,4,4,5,5,6,6,8,8,11,11,12,12,13,13,14,14,17,17,18,18,19,19,20,20,23,23,24,24,27,27,29,29,34,34,35,35,36,36,46,46,48,48],"right_children":[2,4,6,8,10,12,14,-1,16,-1,-1,18,20,22,24,-1,-1,26,28,30,32,-1,-1,34,36,-1,-1,38,-1,40,-1,-1,-1,-1,42,44,46,-1,-1,-1,-1,-1,-1,-1,-1,-1,48,-1,50,-1,-1],"split_conditions":[-1.2658772E0,7.768175E-1,-3.601834E-1,-1.5154378E0,-4.4411528E-1,-4.681967E-1,-2.9617596E0,-7.049978E-2,-9.391275E-1,2.0349734E-1,-1.6151732E-1,-3.362224E-1,-7.4170995E-1,5.7123196E-1,-2.4199595E0,4.5154203E-2,3.044934E-1,6.6035776E-3,3.868879E-1,-2.1906698E-1,-2.6389842E0,-2.3008476E-1,2.8190398E-1,-1.0727534E0,-2.6893263E0,4.3176746E-1,-3.4375366E-2,1.832397E-1,1.4493813E-1,-3.1889148E-2,-2.539366E-1,1.1257949E-1,-3.0234888E-1,4.8209873E-1,1.5515894E0,5.7286835E-1,-2.9533706E0,-2.203446E-1,-2.3641944E-2,-7.01604E-2,5.649816E-1,-2.9561085E-1,-5.733224E-3,-2.1102183E-1,1.3956681E-1,-1.7114978E-2,-2.1310312E1,-1.9252246E-2,-4.2984447E0,-3.5818208E-2,-3.0819127E-1],"split_indices":[284,271,283,106,324,284,256,0,51,0,0,357,299,280,363,0,0,65,364,357,339,0,0,320,362,0,0,167,0,306,0,0,0,0,77,3,368,0,0,0,0,0,0,0,0,0,266,0,312,0,0],"split_type":[0,0,0,0,0,0,0,0,0,0,0,0,0,0,0,0,0,0,0,0,0,0,0,0,0,0,0,0,0,0,0,0,0,0,0,0,0,0,0,0,0,0,0,0,0,0,0,0,0,0,0],"sum_hessian":[1.0694082E3,5.6475876E1,1.0129323E3,5.3439835E1,3.0360408E0,5.420099E1,9.587313E2,1.1822978E0,5.2257538E1,1.0781616E0,1.9578792E0,9.086786E0,4.5114204E1,3.7203317E0,9.5501105E2,1.0184668E0,5.123907E1,4.4281898E0,4.6585965E0,6.6828146E0,3.843139E1,2.7190912E0,1.0012406E0,2.3034391E1,9.319766E2,3.4146593E0,1.0135309E0,2.9787595E0,1.6798369E0,2.3937104E0,4.289104E0,1.0231936E0,3.7408195E1,1.6622037E0,2.1372189E1,3.1073058E0,9.288693E2,1.6485772E0,1.3301823E0,1.0533205E0,1.34039E0,2.0365551E1,1.0066376E0,2.0842505E0,1.0230552E0,1.0222014E0,9.278471E2,1.0199468E0,9.2682715E2,1.2021831E0,9.25625E2],"tree_param":{"num_deleted":"0","num_feature":"384","num_nodes":"51","size_leaf_vector":"0"}}]},"name":"gbtree"},"learner_model_param":{"base_score":"5E-1","num_class":"0","num_feature":"384","num_target":"1"},"objective":{"name":"binary:logistic","reg_loss_param":{"scale_pos_weight":"1"}}},"version":[1,6,0]}