{"learner":{"attributes":{"best_iteration":"9","best_ntree_limit":"10"},"feature_names":[],"feature_types":[],"gradient_booster":{"model":{"gbtree_model_param":{"num_parallel_tree":"1","num_trees":"10","size_leaf_vector":"0"},"tree_info":[0,0,0,0,0,0,0,0,0,0],"trees":[{"base_weights":[-1.7910558E0,1.8996328E0,-1.9694376E0,1.9430693E0,-1.6363636E0,-1.9761488E0,1.8064516E0,1.9602238E0,-1.2727273E0,6.101695E-1,-1.9849977E0,5E-1,1.862069E0,-4.6153846E-1,1.975E0,1.8285714E0,-1.0769231E0,-1.9872483E0,4E-1,5E-1,-1.1111112E0,1.9799498E0,-0E0,1.8787879E0,5E-1,1.3333334E0,-1.6363636E0,1E0,-1.9877235E0,1.4545455E0,-1.0588236E0,-0E0,1.9849247E0,-0E0,-1.8E0,-3.3333334E-1,-1.9886702E0,-0E0,-1.3846154E0,1.9874055E0,5E-1,-1.4285715E0,8.5714287E-1,-1.9899681E0,-9.8039216E-1,-0E0,1.2E0,5E-1,-1.9903252E0,1.4285715E0,-1.7073171E0],"categories":[],"categories_nodes":[],"categories_segments":[],"categories_sizes":[],"default_left":[1,1,1,1,0,1,1,1,0,1,1,0,0,1,1,1,1,1,1,0,0,1,0,0,0,0,1,0,1,0,1,0,1,0,0,1,1,0,0,0,0,0,1,1,1,0,0,0,0,0,0],"id":0,"left_children":[1,3,5,7,-1,9,11,13,-1,15,17,-1,-1,19,21,23,25,27,29,-1,-1,31,-1,-1,-1,-1,33,-1,35,-1,37,-1,39,-1,-1,41,43,-1,-1,-1,-1,-1,45,47,49,-1,-1,-1,-1,-1,-1],"loss_changes":[5.829662E3,6.592163E1,2.1749023E2,2.4781616E1,0E0,1.9408203E2,1.9521713E-1,1.5305786E1,0E0,6.260816E1,4.5871094E1,0E0,0E0,2.58547E0,3.9104004E0,2.2813797E-1,1.9710957E1,1.3902344E1,1.500107E1,0E0,0E0,3.9300537E0,0E0,0E0,0E0,0E0,2.9454556E0,0E0,1.2480469E1,0E0,1.4660635E0,0E0,4.7253418E-1,0E0,0E0,9.047619E0,9.019531E0,0E0,0E0,0E0,0E0,0E0,1.0285714E0,8.441406E0,2.4766003E1,0E0,0E0,0E0,0E0,0E0,0E0],"parents":[2147483647,0,0,1,1,2,2,3,3,5,5,6,6,7,7,9,9,10,10,13,13,14,14,15,15,16,16,17,17,18,18,21,21,26,26,28,28,30,30,32,32,35,35,36,36,42,42,43,43,44,44],"right_children":[2,4,6,8,-1,10,12,14,-1,16,18,-1,-1,20,22,24,26,28,30,-1,-1,32,-1,-1,-1,-1,34,-1,36,-1,38,-1,40,-1,-1,42,44,-1,-1,-1,-1,-1,46,48,50,-1,-1,-1,-1,-1,-1],"split_conditions":[-1.1494532E0,4.535923E-1,3.5854797E0,1.8870368E0,-4.909091E-1,-1.5865957E0,-1.2940388E0,-1.122071E0,-3.818182E-1,-4.4025588E-1,3.7496147E0,1.5E-1,5.5862075E-1,-7.537587E-2,9.424288E-1,1.6180177E0,-2.3024929E0,-3.4190125E0,-2.6349884E-1,1.5E-1,-3.3333337E-1,-4.3928057E-1,-0E0,5.6363636E-1,1.5E-1,4.0000004E-1,-9.0701604E-1,3E-1,-1.708926E0,4.3636367E-1,1.031042E0,-0E0,2.3506942E0,-0E0,-5.4E-1,1.5731182E-2,3.408381E0,-0E0,-4.1538465E-1,5.962217E-1,1.5E-1,-4.2857146E-1,2.6196793E-1,-3.390602E0,-1.1608443E0,-0E0,3.6E-1,1.5E-1,-5.970976E-1,4.2857146E-1,-5.1219517E-1],"split_indices":[267,337,350,382,0,280,2,380,0,337,267,0,0,7,270,7,278,304,298,0,0,284,0,0,0,0,2,0,278,0,3,0,68,0,0,345,357,0,0,0,0,0,0,292,110,0,0,0,0,0,0],"split_type":[0,0,0,0,0,0,0,0,0,0,0,0,0,0,0,0,0,0,0,0,0,0,0,0,0,0,0,0,0,0,0,0,0,0,0,0,0,0,0,0,0,0,0,0,0,0,0,0,0,0,0],"sum_hessian":[8.84825E3,4.075E2,8.44075E3,4.03E2,4.5E0,8.42625E3,1.45E1,4.0125E2,1.75E0,2.85E1,8.39775E3,1E0,1.35E1,2.25E0,3.99E2,1.65E1,1.2E1,8.39E3,7.75E0,1E0,1.25E0,3.98E2,1E0,1.55E1,1E0,2E0,1E1,1E0,8.389E3,4.5E0,3.25E0,1E0,3.97E2,1E0,9E0,5E0,8.384E3,1E0,2.25E0,3.96E2,1E0,2.5E0,2.5E0,8.37225E3,1.175E1,1E0,1.5E0,1E0,8.37125E3,2.5E0,9.25E0],"tree_param":{"num_deleted":"0","num_feature":"384","num_nodes":"51","size_leaf_vector":"0"}},{"base_weights":[-1.3851606E0,1.4678451E0,-1.5231105E0,1.5085865E0,-9.9747723E-1,2.49087E-1,-1.532365E0,1.5254332E0,-3.739726E-1,4.8388344E-1,-1.3929209E0,1.1995509E0,-1.4046504E0,-1.5349374E0,1.3861771E0,1.5340874E0,-2.405158E-1,8.2792366E-1,-1.126643E0,-9.165113E-1,1.4409335E0,-4.925484E-1,-1.5383246E0,1.5408584E0,-2.8455722E-1,1.5614301E0,-5.1351637E-1,-1.1630569E0,7.640964E-1,1.0526925E0,-1.5390965E0,9.059155E-1,-1.36565E0,1.2524318E0,-1.0265899E0,-1.5402571E0,-7.225651E-1,-6.39347E-2,-1.4623541E0,1.6663705E0,-6.1499494E-1,2.2275735E-1,-1.5405682E0,9.7646576E-1,-1.427242E0,-1.541179E0,-5.8521E-1,1.986311E-1,1.2061825E0],"categories":[],"categories_nodes":[],"categories_segments":[],"categories_sizes":[],"default_left":[1,1,1,1,1,1,1,1,1,0,0,1,0,1,0,1,0,0,0,0,1,1,1,0,0,0,0,1,1,0,1,0,1,1,0,1,1,0,0,0,0,0,1,1,0,0,0,0,0],"id":1,"left_children":[1,3,5,7,9,11,13,15,17,-1,-1,19,-1,21,-1,23,-1,-1,-1,-1,25,27,29,-1,-1,-1,-1,31,33,-1,35,-1,37,39,-1,41,43,-1,-1,-1,-1,-1,45,47,-1,-1,-1,-1,-1],"loss_changes":[3.1931846E3,3.9115295E1,1.2723047E2,1.2265686E1,4.5927033E0,6.6190506E1,5.989258E1,5.9578857E0,4.6180873E0,0E0,0E0,1.4907467E1,0E0,2.6386719E1,0E0,4.9212646E0,0E0,0E0,0E0,0E0,6.516403E0,2.3109537E1,1.6945312E1,0E0,0E0,0E0,0E0,8.611441E0,9.837083E0,0E0,6.1464844E0,0E0,1.9738159E0,7.312476E0,0E0,4.5390625E0,1.6666971E1,0E0,0E0,0E0,0E0,0E0,3.5585938E0,5.3474665E-1,0E0,0E0,0E0,0E0,0E0],"parents":[2147483647,0,0,1,1,2,2,3,3,4,4,5,5,6,6,7,7,8,8,11,11,13,13,15,15,20,20,21,21,22,22,27,27,28,28,30,30,32,32,33,33,35,35,36,36,42,42,43,43],"right_children":[2,4,6,8,10,12,14,16,18,-1,-1,20,-1,22,-1,24,-1,-1,-1,-1,26,28,30,-1,-1,-1,-1,32,34,-1,36,-1,38,40,-1,42,44,-1,-1,-1,-1,-1,46,48,-1,-1,-1,-1,-1],"split_conditions":[-1.1538403E0,-1.0985628E-1,-1.7644763E0,7.233E-2,-4.4371036E-1,-5.81448E-1,3.8632324E0,5.677569E-1,-7.133903E-1,1.4516504E-1,-4.1787627E-1,-5.776831E-1,-4.2139515E-1,-6.1108637E0,4.1585314E-1,1.5045788E0,-7.2154745E-2,2.483771E-1,-3.379929E-1,-2.749534E-1,1.9472349E0,5.6817476E-2,-3.4664466E0,4.6225753E-1,-8.536717E-2,4.6842906E-1,-1.5405491E-1,-5.522421E-1,1.4494811E0,3.1580776E-1,3.2544353E0,2.7177465E-1,-9.38831E-2,-2.3985797E-1,-3.0797696E-1,-3.389863E0,-2.1774392E0,-1.918041E-2,-4.3870625E-1,4.9991116E-1,-1.8449849E-1,6.682721E-2,3.6209714E0,-4.427347E-1,-4.2817262E-1,-4.623537E-1,-1.7556301E-1,5.958933E-2,3.6185476E-1],"split_indices":[267,293,281,295,292,280,350,302,239,0,0,325,0,261,0,311,0,0,0,0,9,281,304,0,0,0,0,34,108,0,357,0,290,178,0,292,366,0,0,0,0,0,355,12,0,0,0,0,0],"split_type":[0,0,0,0,0,0,0,0,0,0,0,0,0,0,0,0,0,0,0,0,0,0,0,0,0,0,0,0,0,0,0,0,0,0,0,0,0,0,0,0,0,0,0,0,0,0,0,0,0],"sum_hessian":[8.1066646E3,3.7345386E2,7.7332104E3,3.677643E2,5.689532E0,4.003883E1,7.693172E3,3.646905E2,3.0738266E0,1.1516647E0,4.537867E0,2.5600132E1,1.4438696E1,7.6868706E3,6.301022E0,3.6304263E2,1.6478566E0,1.1451771E0,1.9286494E0,2.3348582E0,2.3265274E1,2.5372047E1,7.6614985E3,3.618482E2,1.1944351E0,2.210362E1,1.1616524E0,1.6592993E1,8.779055E0,1.8758196E0,7.659623E3,1.1702532E0,1.542274E1,7.1341085E0,1.6449467E0,7.647866E3,1.1756808E1,1.1813903E0,1.424135E1,5.927801E0,1.2063072E0,1.2233734E0,7.6466426E3,3.3335845E0,8.4232235E0,7.641145E3,5.4976287E0,1.1851779E0,2.1484067E0],"tree_param":{"num_deleted":"0","num_feature":"384","num_nodes":"49","size_leaf_vector":"0"}},{"base_weights":[-1.1992819E0,1.2653967E0,-1.3189409E0,1.2985065E0,-1.1445558E0,-1.3239671E0,1.1967732E0,1.3136611E0,-7.902131E-1,4.2739153E-1,-1.3303497E0,-2.0354335E-1,1.3278186E0,1.3261656E0,-1.8947707E-1,1.2582906E0,-6.99671E-1,-3.6055025E-1,-1.3335519E0,1.3306503E0,9.499203E-2,7.326857E-1,-9.0778804E-1,3.081893E-1,1.3081282E0,8.3506423E-1,-1.1144271E0,-7.701351E-1,1.0414041E0,-1.8546298E-1,-1.3341916E0,1.3346997E0,1.1856749E-1,-6.1384607E-2,-1.2432618E0,7.693803E-1,-1.0655527E0,1.2765026E0,9.8681E-3,-1.0067734E0,1.1696235E0,-1.3354499E0,-6.726061E-1,1.3379457E0,4.192993E-1,1.1079928E0,-2.7618085E-3,3.1093275E-2,-1.2256119E0,1.8615983E-1,-1.3357701E0,9.605457E-1,-1.2634473E0,-1.2837814E0,-2.5883672E-1,2.1217164E-1,-1.3360814E0,1.1530455E0,1.8290181E-1],"categories":[],"categories_nodes":[],"categories_segments":[],"categories_sizes":[],"default_left":[1,1,1,1,0,1,1,1,0,1,1,0,0,1,1,1,1,1,1,1,0,0,0,0,0,0,1,1,1,1,1,1,0,0,0,1,1,0,0,0,0,1,1,0,0,0,0,0,1,0,1,1,0,0,0,0,0,0,0],"id":2,"left_children":[1,3,5,7,-1,9,11,13,-1,15,17,-1,-1,19,21,23,25,27,29,31,-1,-1,-1,-1,-1,-1,33,35,37,39,41,43,-1,-1,-1,45,47,-1,-1,-1,-1,49,51,-1,-1,-1,-1,-1,53,-1,55,57,-1,-1,-1,-1,-1,-1,-1],"loss_changes":[1.9997158E3,2.6556976E1,8.329004E1,1.0863586E1,0E0,7.265918E1,2.7309666E0,6.05072E0,0E0,2.351942E1,1.9475586E1,0E0,0E0,1.5638428E0,2.930915E0,2.7268982E-1,7.869974E0,1.3733175E1,4.4570312E0,1.338501E0,0E0,0E0,0E0,0E0,0E0,0E0,1.1461468E0,9.007488E0,1.325283E0,6.439356E0,4.4296875E0,3.4173584E-1,0E0,0E0,0E0,9.126923E-1,2.7629566E0,0E0,0E0,0E0,0E0,3.3603516E0,1.4882291E1,0E0,0E0,0E0,0E0,0E0,4.3091583E-1,0E0,3.3613281E0,4.3749714E-1,0E0,0E0,0E0,0E0,0E0,0E0,0E0],"parents":[2147483647,0,0,1,1,2,2,3,3,5,5,6,6,7,7,9,9,10,10,13,13,14,14,15,15,16,16,17,17,18,18,19,19,26,26,27,27,28,28,29,29,30,30,31,31,35,35,36,36,41,41,42,42,48,48,50,50,51,51],"right_children":[2,4,6,8,-1,10,12,14,-1,16,18,-1,-1,20,22,24,26,28,30,32,-1,-1,-1,-1,-1,-1,34,36,38,40,42,44,-1,-1,-1,46,48,-1,-1,-1,-1,50,52,-1,-1,-1,-1,-1,54,-1,56,58,-1,-1,-1,-1,-1,-1,-1],"split_conditions":[-1.1538403E0,4.535923E-1,3.516823E0,9.675379E-1,-3.4336674E-1,-1.5865957E0,-5.8314025E-1,6.56079E-2,-2.3706394E-1,-4.4025588E-1,-6.1108637E0,-6.1063007E-2,3.9834562E-1,5.677569E-1,2.3316753E-1,-2.660329E-1,-6.343565E-1,1.1433775E0,-1.7987044E0,-5.382407E-2,2.8497608E-2,2.1980572E-1,-2.7233642E-1,9.2456795E-2,3.924385E-1,2.5051928E-1,-5.693146E-1,-8.273492E-1,3.6797667E-1,1.7804015E-1,3.180171E0,2.6474288E0,3.557025E-2,-1.8415382E-2,-3.7297857E-1,3.2524687E-1,9.869565E-2,3.829508E-1,2.9604302E-3,-3.0203202E-1,3.5088706E-1,-3.389863E0,-1.168721E0,4.0138373E-1,1.2578979E-1,3.3239785E-1,-8.285426E-4,9.327983E-3,1.0159844E0,5.5847954E-2,-5.141406E0,-2.076304E-1,-3.790342E-1,-3.8513443E-1,-7.765102E-2,6.3651495E-2,-4.0082443E-1,3.4591368E-1,5.4870546E-2],"split_indices":[267,337,350,270,0,280,17,295,0,337,261,0,0,302,53,8,327,15,278,293,0,0,0,0,0,0,9,317,105,117,357,45,0,0,0,14,135,0,0,0,0,292,374,0,0,0,0,0,11,0,342,76,0,0,0,0,0,0,0],"split_type":[0,0,0,0,0,0,0,0,0,0,0,0,0,0,0,0,0,0,0,0,0,0,0,0,0,0,0,0,0,0,0,0,0,0,0,0,0,0,0,0,0,0,0,0,0,0,0,0,0,0,0,0,0,0,0,0,0,0,0],"sum_hessian":[6.773857E3,3.1319705E2,6.4606597E3,3.0940735E2,3.7896986E0,6.4482505E3,1.2409436E1,3.0754703E2,1.8603126E0,2.3174725E1,6.4250757E3,1.0145879E0,1.1394849E1,3.0512646E2,2.4205813E0,1.3273057E1,9.901668E0,2.1519543E1,6.403556E3,3.039385E2,1.1879433E0,1.0511326E0,1.3694487E0,1.0195862E0,1.225347E1,1.8909903E0,8.010677E0,1.7002798E1,4.516744E0,3.7278192E0,6.399828E3,3.0282562E2,1.1128919E0,1.0341792E0,6.9764986E0,2.4790897E0,1.4523708E1,3.4849973E0,1.0317469E0,2.4810872E0,1.2467319E0,6.386663E3,1.3165425E1,3.012957E2,1.5299387E0,1.420979E0,1.0581108E0,1.9524214E0,1.2571286E1,1.2215558E0,6.3854414E3,3.3313823E0,9.8340435E0,1.1548528E1,1.0227593E0,1.146913E0,6.3842944E3,2.2834015E0,1.0479805E0],"tree_param":{"num_deleted":"0","num_feature":"384","num_nodes":"59","size_leaf_vector":"0"}},{"base_weights":[-1.092613E0,1.1465157E0,-1.2019137E0,-9.3627584E-1,1.1797504E0,1.0943782E-1,-1.2105498E0,1.1969957E0,-6.8998724E-1,-1.1128445E0,8.135932E-1,-1.2139531E0,1.1126306E0,1.2059364E0,-2.8852475E-1,-1.1580075E0,-2.8406963E-1,1.2359997E0,-1.0378314E0,-2.1153542E-1,-1.2171984E0,-1.7716129E-1,1.2128198E0,-1.1300685E-1,1.3272324E0,5.0945413E-1,-8.5926E-1,-1.4010508E-1,-1.2178829E0,1.2172792E0,2.2986217E-1,7.045648E-2,1.4013155E0,-6.412555E-1,9.6805215E-1,-1.1469042E0,4.5945373E-1,-8.905999E-1,9.820826E-1,-1.2190573E0,-5.1415956E-1,1.2211986E0,3.7811685E-1,1.2538282E0,-3.3030272E-1,-1.2197714E0,-2.408713E-1,7.542208E-1,-1.1048499E0,1.2252631E0,5.216821E-1,-1.226914E0,-1.1004044E0,-9.724297E-1,1.2401434E0,1.2873203E-1,9.334738E-1],"categories":[],"categories_nodes":[],"categories_segments":[],"categories_sizes":[],"default_left":[1,1,1,0,1,1,1,1,0,1,1,1,0,1,0,0,0,1,0,1,1,0,1,0,1,1,1,1,1,1,0,0,0,0,1,0,0,0,0,1,1,1,0,0,0,1,1,1,0,0,0,0,0,0,0,0,0],"id":3,"left_children":[1,3,5,-1,7,9,11,13,-1,15,17,19,-1,21,-1,-1,-1,23,-1,25,27,-1,29,-1,31,33,35,37,39,41,-1,-1,-1,-1,43,-1,-1,-1,-1,45,47,49,-1,-1,-1,51,53,55,-1,-1,-1,-1,-1,-1,-1,-1,-1],"loss_changes":[1.3295708E3,1.8623993E1,5.8737793E1,0E0,8.872894E0,3.0834562E1,4.1998047E1,3.637085E0,0E0,1.6261292E-1,1.8989237E1,1.6444336E1,0E0,2.5603027E0,0E0,0E0,0E0,2.4750195E0,0E0,8.740157E0,3.6020508E0,0E0,7.952881E-1,0E0,1.556057E0,5.3918257E0,4.220415E0,4.56345E0,3.6000977E0,3.4051514E-1,0E0,0E0,0E0,0E0,2.9606147E0,0E0,0E0,0E0,0E0,3.2714844E0,8.512908E0,4.9835205E-2,0E0,0E0,0E0,2.9985352E0,6.5899425E0,3.1162262E-1,0E0,0E0,0E0,0E0,0E0,0E0,0E0,0E0,0E0],"parents":[2147483647,0,0,1,1,2,2,4,4,5,5,6,6,7,7,9,9,10,10,11,11,13,13,17,17,19,19,20,20,22,22,24,24,25,25,26,26,27,27,28,28,29,29,34,34,39,39,40,40,41,41,45,45,46,46,47,47],"right_children":[2,4,6,-1,8,10,12,14,-1,16,18,20,-1,22,-1,-1,-1,24,-1,26,28,-1,30,-1,32,34,36,38,40,42,-1,-1,-1,-1,44,-1,-1,-1,-1,46,48,50,-1,-1,-1,52,54,56,-1,-1,-1,-1,-1,-1,-1,-1,-1],"split_conditions":[-1.1538403E0,-2.9864477E-2,-1.0577552E0,-2.8088278E-1,9.675379E-1,1.6014922E-1,3.8632324E0,1.9391105E-2,-2.0699619E-1,4.6664846E-1,-1.1564059E-1,-6.1108637E0,3.337892E-1,-1.2399764E0,-8.6557426E-2,-3.4740227E-1,-8.522089E-2,-8.6652356E-1,-3.1134945E-1,-2.8932673E-1,-1.7987044E0,-5.314839E-2,5.728445E-1,-3.3902057E-2,-7.0630074E-1,-1.3287582E0,1.1543875E0,1.7804015E-1,3.2544353E0,2.4181223E0,6.8958655E-2,2.1136945E-2,4.2039466E-1,-1.9237666E-1,-2.8756064E-1,-3.4407127E-1,1.3783613E-1,-2.6718E-1,2.946248E-1,3.6209714E0,-1.168721E0,2.3261094E0,1.1343506E-1,3.7614846E-1,-9.909082E-2,1.8761744E0,1.19911805E-1,2.2961327E-1,-3.31455E-1,3.6757895E-1,1.5650463E-1,-3.6807424E-1,-3.3012134E-1,-2.917289E-1,3.7204304E-1,3.8619608E-2,2.8004217E-1],"split_indices":[267,296,280,0,270,301,350,293,0,80,278,261,0,324,0,0,0,322,0,298,278,0,302,0,102,38,15,117,357,88,0,0,0,0,84,0,0,0,0,355,374,64,0,0,0,328,26,8,0,0,0,0,0,0,0,0,0],"split_type":[0,0,0,0,0,0,0,0,0,0,0,0,0,0,0,0,0,0,0,0,0,0,0,0,0,0,0,0,0,0,0,0,0,0,0,0,0,0,0,0,0,0,0,0,0,0,0,0,0,0,0,0,0,0,0,0,0],"sum_hessian":[5.425988E3,2.5209502E2,5.173893E3,3.5326767E0,2.4856233E2,3.3773987E1,5.140119E3,2.4664722E2,1.9151284E0,1.2132988E1,2.1640999E1,5.133077E3,7.042058E0,2.4535872E2,1.2884905E0,1.1129262E1,1.0037262E0,1.7891436E1,3.7495632E0,1.6778065E1,5.116299E3,1.0925485E0,2.4426617E2,1.1182235E0,1.6773212E1,8.041003E0,8.737061E0,3.3799858E0,5.112919E3,2.429257E2,1.340472E0,1.0422968E0,1.5730916E1,2.1779122E0,5.863091E0,7.2795057E0,1.4575553E0,2.1490917E0,1.2308942E0,5.103669E3,9.250135E0,2.4134323E2,1.5824753E0,4.8335023E0,1.0295889E0,5.099699E3,3.969308E0,2.851121E0,6.399015E0,2.3920178E2,2.1414466E0,4.8030146E3,2.966847E2,2.8867693E0,1.0825385E0,1.0177886E0,1.8333324E0],"tree_param":{"num_deleted":"0","num_feature":"384","num_nodes":"57","size_leaf_vector":"0"}},{"base_weights":[-1.0240897E0,1.0898107E0,-1.1258096E0,1.1142974E0,-5.1072E-1,3.5929397E-2,-1.1354816E0,1.1270617E0,-4.3987268E-1,1.5564267E-1,-8.3480984E-1,-9.7887146E-1,6.700188E-1,-1.138996E0,9.238757E-1,1.138892E0,2.0659496E-1,-1.0935762E0,1.9957802E-1,1.0169502E0,-9.4779855E-1,-2.1081223E-1,-1.1426728E0,-5.285681E-2,1.0879334E0,1.143642E0,2.1702716E-1,8.165677E-1,-5.9894675E-1,-2.0185085E-1,1.1672742E0,-7.3644054E-1,5.71754E-1,-9.44865E-1,-1.1494328E0,1.148452E0,4.4963518E-1,7.3662414E-3,1.2423973E0,-5.4309558E-2,-1.0014541E0,-6.2902874E-1,1.0055546E0,1.5766016E-1,-1.0748192E0,3.0584973E-1,-1.1499239E0,3.5862887E-1,1.2790096E0,8.102198E-1,-6.9039154E-1,-7.05937E-2,1.3313915E0,-5.7970953E-1,1.3547034E0,-1.0980182E0,1.9115898E-1,-2.7437266E-2,-1.1504375E0,4.5769688E-1,-1.0097642E0,-1.9152912E-1,1.7757666E0,-1.1140962E0,3.609015E-1,-1.1509485E0,-1.6901699E-1],"categories":[],"categories_nodes":[],"categories_segments":[],"categories_sizes":[],"default_left":[1,1,1,1,1,1,1,1,0,0,0,1,1,1,1,1,1,0,0,1,0,1,1,0,0,1,0,0,0,0,1,1,1,1,1,0,0,0,1,1,0,0,1,1,1,0,1,0,0,0,0,0,0,1,1,1,0,0,1,0,0,0,0,0,0,0,0],"id":4,"left_children":[1,3,5,7,9,11,13,15,-1,-1,-1,17,19,21,23,25,27,-1,-1,29,-1,31,33,-1,-1,35,-1,-1,-1,-1,37,39,41,43,45,-1,-1,-1,47,49,-1,-1,51,53,55,-1,57,-1,-1,-1,-1,-1,-1,59,61,63,-1,-1,65,-1,-1,-1,-1,-1,-1,-1,-1],"loss_changes":[9.144199E2,8.2304535E0,4.5575684E1,4.321594E0,9.141705E-1,2.2810154E1,3.013916E1,1.8507233E0,0E0,0E0,0E0,2.06287E0,1.3189992E1,1.3453125E1,1.2431359E0,5.789795E-1,2.2837327E0,0E0,0E0,3.610239E0,0E0,7.4378E0,4.258301E0,0E0,0E0,1.1024475E-1,0E0,0E0,0E0,0E0,1.4324284E0,1.8692961E0,4.4959927E0,1.9896912E1,3.1108398E0,0E0,0E0,0E0,4.386711E-2,2.7781665E0,0E0,0E0,2.139451E0,1.4369489E1,3.8310547E0,0E0,2.1923828E0,0E0,0E0,0E0,0E0,0E0,0E0,5.02345E0,4.3546267E0,3.2456207E0,0E0,0E0,1.7397461E0,0E0,0E0,0E0,0E0,0E0,0E0,0E0,0E0],"parents":[2147483647,0,0,1,1,2,2,3,3,4,4,5,5,6,6,7,7,11,11,12,12,13,13,14,14,15,15,16,16,19,19,21,21,22,22,25,25,30,30,31,31,32,32,33,33,34,34,38,38,39,39,42,42,43,43,44,44,46,46,53,53,54,54,55,55,58,58],"right_children":[2,4,6,8,10,12,14,16,-1,-1,-1,18,20,22,24,26,28,-1,-1,30,-1,32,34,-1,-1,36,-1,-1,-1,-1,38,40,42,44,46,-1,-1,-1,48,50,-1,-1,52,54,56,-1,58,-1,-1,-1,-1,-1,-1,60,62,64,-1,-1,66,-1,-1,-1,-1,-1,-1,-1,-1],"split_conditions":[-1.2286363E0,-1.21303424E-1,-9.8429424E-1,9.675379E-1,-8.243554E-2,1.6014922E-1,3.516823E0,3.6952373E-1,-1.3196181E-1,4.6692804E-2,-2.5044295E-1,4.73634E-1,-1.2551732E-1,-5.607404E0,-3.756625E-1,2.6474288E0,-3.96964E-1,-3.2807288E-1,5.9873406E-2,-7.7574027E-1,-2.8433958E-1,3.9471775E-1,-1.673837E0,-1.5857045E-2,3.2638004E-1,2.3261094E0,6.510815E-2,2.4497032E-1,-1.7968403E-1,-6.0555257E-2,-1.6504087E0,-2.908091E-1,-6.6292155E-1,-1.0789571E0,-5.00478E0,3.4453562E-1,1.3489056E-1,2.2098725E-3,-1.1055019E0,-1.7791343E-1,-3.0043626E-1,-1.8870863E-1,-7.454828E-1,8.9871204E-1,1.995146E0,9.175492E-2,-2.2319229E0,1.0758866E-1,3.837029E-1,2.4306595E-1,-2.0711747E-1,-2.1178111E-2,3.9941746E-1,8.632196E-1,-6.185995E-1,1.7096616E0,5.7347696E-2,-8.23118E-3,3.6614099E0,1.3730907E-1,-3.0292928E-1,-5.745874E-2,5.3273E-1,-3.3422887E-1,1.0827046E-1,-3.4528458E-1,-5.0705098E-2],"split_indices":[267,293,280,270,292,301,350,302,0,0,0,334,278,261,114,45,257,0,0,322,0,284,294,0,0,64,0,0,0,0,363,298,245,110,342,0,0,0,266,200,0,0,199,315,178,0,337,0,0,0,0,0,0,77,324,252,0,0,181,0,0,0,0,0,0,0,0],"split_type":[0,0,0,0,0,0,0,0,0,0,0,0,0,0,0,0,0,0,0,0,0,0,0,0,0,0,0,0,0,0,0,0,0,0,0,0,0,0,0,0,0,0,0,0,0,0,0,0,0,0,0,0,0,0,0,0,0,0,0,0,0,0,0,0,0,0,0],"sum_hessian":[4.2459067E3,1.9448486E2,4.0514216E3,1.9185349E2,2.6313834E0,3.342917E1,4.0179924E3,1.905632E2,1.2902753E0,1.031096E0,1.6002874E0,1.2646263E1,2.0782906E1,4.0115935E3,6.399073E0,1.8791078E2,2.6524296E0,1.1590153E1,1.0561098E0,1.7418926E1,3.36398E0,1.6058287E1,3.9955352E3,1.0177317E0,5.3813415E0,1.8670819E2,1.2025845E0,1.5016565E0,1.1507729E0,1.874888E0,1.5544038E1,9.641377E0,6.4169083E0,1.3668687E2,3.8588481E3,1.8477272E2,1.9354696E0,1.0122867E0,1.4531752E1,3.0348263E0,6.606551E0,1.5835416E0,4.833367E0,1.4389957E1,1.2229691E2,1.0921934E0,3.857756E3,1.0074973E0,1.3524254E1,1.1703632E0,1.864463E0,1.3053862E0,3.5279806E0,9.22385E0,5.166107E0,1.2022644E2,2.0704691E0,1.7890607E0,3.855967E3,2.684308E0,6.539542E0,1.2223842E0,3.943723E0,1.19149704E2,1.0767338E0,3.8537878E3,2.1791637E0],"tree_param":{"num_deleted":"0","num_feature":"384","num_nodes":"67","size_leaf_vector":"0"}},{"base_weights":[-9.760515E-1,9.2963934E-1,-1.0787836E0,1.0479211E0,-8.654854E-1,-1.0822941E0,8.2378376E-1,1.0719547E0,-3.693933E-1,2.0706871E-1,-1.037805E0,-1.7393994E-1,-1.0884702E0,-6.4902306E-2,1.0050923E0,-3.265474E-1,1.0860327E0,2.5501025E-1,-7.449023E-1,1.0387443E0,-6.6049016E-1,-1.7079812E-1,-1.0923584E0,1.0937394E0,9.80658E-3,1.7884403E-1,1.1694133E0,-8.725406E-1,8.132549E-1,-8.209561E-1,3.8447338E-1,-1.1033783E0,-9.1509396E-1,1.0996718E0,1.8737379E-1,6.179636E-2,-9.837849E-1,-1.4399779E-1,-9.9605304E-1,-2.9027593E-1,9.6717453E-1,5.016095E-1,-1.104189E0,-9.86048E-2,-9.9987924E-1,1.1047316E0,1.7382452E-1,-1.0581765E0,-3.7051085E-2,4.769321E-1,-8.2953745E-1,1.7504063E-1,-1.1051533E0,-7.448975E-1,1.389272E0,-1.0284172E0,7.49896E-1,1.1106019E0,4.1244194E-1,3.389303E-1,-1.105785E0,-9.3810993E-1,2.4141335E-1,-4.7439983E-1,2.6519334E0,-1.0457827E0,5.8074605E-1,1.8815219E0,-6.1831546E-1],"categories":[],"categories_nodes":[],"categories_segments":[],"categories_sizes":[],"default_left":[1,1,1,1,1,1,1,1,1,0,0,1,1,0,0,0,1,0,0,1,1,1,1,1,0,0,0,1,0,1,1,1,1,1,0,0,1,0,0,1,0,0,1,1,1,1,0,0,0,0,0,0,1,1,1,1,1,0,0,0,0,0,0,0,0,0,0,0,0],"id":5,"left_children":[1,3,5,7,9,11,13,15,17,-1,-1,19,21,-1,-1,-1,23,-1,-1,25,27,29,31,33,-1,-1,-1,35,-1,37,39,41,43,45,-1,-1,47,-1,-1,49,-1,-1,51,53,55,57,-1,-1,-1,-1,-1,-1,59,61,63,65,67,-1,-1,-1,-1,-1,-1,-1,-1,-1,-1,-1,-1],"loss_changes":[6.4267236E2,3.661821E1,2.1665771E1,5.7862396E0,2.2376928E0,1.7230713E1,1.079742E0,3.4232178E0,9.8300886E-1,0E0,0E0,1.37611475E1,1.0816895E1,0E0,0E0,0E0,1.2710419E0,0E0,0E0,5.474901E-1,5.842883E0,5.440876E0,4.9887695E0,6.18927E-1,0E0,0E0,0E0,1.6034985E0,0E0,6.6954136E-1,3.5591362E0,4.309326E0,1.2748703E1,5.2108765E-1,0E0,0E0,8.990679E-1,0E0,0E0,2.3124518E0,0E0,0E0,3.7521973E0,1.8889746E1,9.161148E0,1.5644836E-1,0E0,0E0,0E0,0E0,0E0,0E0,3.0046387E0,2.8174028E0,1.5311174E1,5.238785E0,6.2334623E0,0E0,0E0,0E0,0E0,0E0,0E0,0E0,0E0,0E0,0E0,0E0,0E0],"parents":[2147483647,0,0,1,1,2,2,3,3,4,4,5,5,6,6,7,7,8,8,11,11,12,12,16,16,19,19,20,20,21,21,22,22,23,23,27,27,29,29,30,30,31,31,32,32,33,33,36,36,39,39,42,42,43,43,44,44,45,45,52,52,53,53,54,54,55,55,56,56],"right_children":[2,4,6,8,10,12,14,16,18,-1,-1,20,22,-1,-1,-1,24,-1,-1,26,28,30,32,34,-1,-1,-1,36,-1,38,40,42,44,46,-1,-1,48,-1,-1,50,-1,-1,52,54,56,58,-1,-1,-1,-1,-1,-1,60,62,64,66,68,-1,-1,-1,-1,-1,-1,-1,-1,-1,-1,-1,-1],"split_conditions":[-9.561511E-1,-1.0979982E-1,3.516823E0,7.233E-2,-5.611441E-1,-9.332241E-1,5.756545E-2,-1.1450696E0,-1.5958292E0,6.2120616E-2,-3.113415E-1,-7.851181E-1,-5.607404E0,-1.9470692E-2,3.0152768E-1,-9.796423E-2,5.677569E-1,7.6503076E-2,-2.234707E-1,-6.8814385E-1,9.3358845E-2,3.6774492E-1,1.8761744E0,2.4181223E0,2.9419742E-3,5.3653214E-2,3.50824E-1,-6.4080167E-1,2.4397647E-1,-9.401281E-2,-2.4204096E-1,-3.389863E0,-1.4157186E0,1.1667211E0,5.621214E-2,1.8538909E-2,1.9482062E0,-4.3199338E-2,-2.9881594E-1,-4.1279662E-1,2.9015237E-1,1.5048286E-1,-1.7961822E0,1.1970482E0,2.608047E0,2.3261094E0,5.214736E-2,-3.1745297E-1,-1.1115326E-2,1.4307964E-1,-2.4886124E-1,5.251219E-2,-5.141406E0,7.5563204E-1,6.77477E-2,2.3854475E0,2.9456694E0,3.3318058E-1,1.2373259E-1,1.01679094E-1,-3.3173552E-1,-2.81433E-1,7.242401E-2,-1.4231996E-1,7.955801E-1,-3.1373483E-1,1.7422383E-1,5.644566E-1,-1.8549465E-1],"split_indices":[267,293,350,295,292,280,291,380,278,0,0,337,261,0,0,0,302,0,0,219,95,284,328,88,0,0,0,317,0,243,245,292,370,126,0,0,351,0,0,276,0,0,278,168,102,64,0,0,0,0,0,0,342,196,124,305,50,0,0,0,0,0,0,0,0,0,0,0,0],"split_type":[0,0,0,0,0,0,0,0,0,0,0,0,0,0,0,0,0,0,0,0,0,0,0,0,0,0,0,0,0,0,0,0,0,0,0,0,0,0,0,0,0,0,0,0,0,0,0,0,0,0,0,0,0,0,0,0,0,0,0,0,0,0,0,0,0,0,0,0,0],"sum_hessian":[3.2765762E3,1.6718715E2,3.109389E3,1.5724258E2,9.944562E0,3.1040925E3,5.2963614E0,1.5486026E2,2.382326E0,1.3486451E0,8.595917E0,2.1159937E1,3.0829326E3,1.0062494E0,4.290112E0,1.3221481E0,1.5353812E2,1.0151724E0,1.3671536E0,5.733863E0,1.5426075E1,1.3196782E1,3.0697358E3,1.5243031E2,1.1078076E0,1.068831E0,4.665032E0,1.3842311E1,1.583764E0,5.858586E0,7.3381963E0,2.8851516E3,1.8458434E2,1.512272E2,1.2030993E0,1.5200404E0,1.232227E1,1.5784364E0,4.2801495E0,3.6330662E0,3.70513E0,1.144815E0,2.8840068E3,1.7567812E1,1.6701653E2,1.5021307E2,1.01413E0,1.1315425E1,1.0068461E0,1.5473014E0,2.0857646E0,2.0363672E0,2.8819705E3,1.2595869E1,4.9719434E0,1.6474191E2,2.2746084E0,1.483509E2,1.8621786E0,1.0258789E0,2.8809446E3,1.0573461E1,2.0224078E0,2.2602015E0,2.7117417E0,1.6332944E2,1.4124733E0,1.0396014E0,1.2350068E0],"tree_param":{"num_deleted":"0","num_feature":"384","num_nodes":"69","size_leaf_vector":"0"}},{"base_weights":[-9.392975E-1,8.8104165E-1,-1.0389555E0,9.978391E-1,-7.856542E-1,-9.67978E-2,-1.0480272E0,-1.5715723E-1,1.0371073E0,1.710311E-1,-9.741317E-1,8.9871603E-1,-6.718885E-1,-1.0506251E0,6.390103E-1,-7.186699E-1,6.8419987E-1,-3.0175155E-1,1.05511E0,1.0982525E0,-3.3199993E-1,6.0272735E-1,-8.8941973E-1,-3.4780046E-1,-1.0542473E0,8.760347E-1,-6.1508477E-2,-2.0166537E-1,-8.515614E-1,1.0626915E0,1.0406054E-1,1.1786045E0,2.713021E-1,-1.1637995E-1,-1.0026157E0,-8.265046E-1,7.542646E-1,-1.0677108E0,-8.4194064E-1,1.0689408E0,2.067601E-1,1.6412523E-1,-9.6753776E-1,1.1305422E0,-2.2960997E-1,-3.1769115E-1,-1.0703073E0,-3.8618135E-1,-1.0486721E0,3.9892974E-1,1.0774289E0,-8.7232655E-1,3.4252766E-1,3.8517404E-1,-1.0713916E0,1.9073468E0,-5.664354E-1,-1.0778764E0,5.943805E-1,5.515931E-1,4.5675755E-2,1.0847903E0,4.207796E-1,7.996852E-1,-5.1874125E-1,2.7796078E-1,-1.0721874E0,3.0975618E0,-5.675203E-1,7.093764E-1,-6.911622E-1],"categories":[],"categories_nodes":[],"categories_segments":[],"categories_sizes":[],"default_left":[1,1,1,1,1,1,1,1,1,0,0,1,1,1,1,1,0,0,1,1,0,0,1,1,1,0,0,0,0,1,0,0,0,0,0,1,1,1,1,1,0,0,0,0,0,1,1,1,1,1,1,0,1,0,1,1,1,0,0,0,0,0,0,0,0,0,0,0,0,0,0],"id":6,"left_children":[1,3,5,7,9,11,13,15,17,-1,-1,19,21,23,25,27,-1,-1,29,31,-1,-1,33,35,37,-1,-1,-1,-1,39,-1,-1,-1,-1,-1,41,43,45,47,49,-1,-1,-1,-1,-1,51,53,55,57,59,61,-1,63,-1,65,67,69,-1,-1,-1,-1,-1,-1,-1,-1,-1,-1,-1,-1,-1,-1],"loss_changes":[4.56292E2,2.6252693E1,2.0243408E1,5.728256E0,1.812418E0,1.4231124E1,1.1003906E1,2.8080742E0,3.1818848E0,0E0,0E0,2.6099772E0,4.8779187E0,5.626709E0,7.590066E-1,6.381047E-2,0E0,0E0,7.3625183E-1,2.1845531E-1,0E0,0E0,1.0891685E0,7.778919E0,5.7946777E0,0E0,0E0,0E0,0E0,4.016571E-1,0E0,0E0,0E0,0E0,0E0,1.5465679E0,1.9737413E0,3.941162E0,1.3198143E1,2.2608948E-1,0E0,0E0,0E0,0E0,0E0,3.5967925E0,3.8693848E0,2.0360485E1,5.3786697E0,1.3825047E-1,9.120178E-2,0E0,2.3165364E0,0E0,2.6486816E0,1.2442103E1,7.4933167E0,0E0,0E0,0E0,0E0,0E0,0E0,0E0,0E0,0E0,0E0,0E0,0E0,0E0,0E0],"parents":[2147483647,0,0,1,1,2,2,3,3,4,4,5,5,6,6,7,7,8,8,11,11,12,12,13,13,14,14,15,15,18,18,19,19,22,22,23,23,24,24,29,29,35,35,36,36,37,37,38,38,39,39,45,45,46,46,47,47,48,48,49,49,50,50,52,52,54,54,55,55,56,56],"right_children":[2,4,6,8,10,12,14,16,18,-1,-1,20,22,24,26,28,-1,-1,30,32,-1,-1,34,36,38,-1,-1,-1,-1,40,-1,-1,-1,-1,-1,42,44,46,48,50,-1,-1,-1,-1,-1,52,54,56,58,60,62,-1,64,-1,66,68,70,-1,-1,-1,-1,-1,-1,-1,-1,-1,-1,-1,-1,-1,-1],"split_conditions":[-9.561511E-1,-1.0979982E-1,-1.204802E0,-8.5065913E-1,-5.611441E-1,-8.746804E-1,3.516823E0,5.9339285E-1,-1.1450696E0,5.1309332E-2,-2.9223952E-1,1.0286043E0,-6.3824925E0,-9.331543E-1,3.473335E-1,3.7557116E-1,2.0525996E-1,-9.052547E-2,2.6474288E0,1.257086E0,-9.959998E-2,1.8081822E-1,-2.8556484E-1,8.553966E-1,1.9082121E0,2.628104E-1,-1.8452544E-2,-6.0499612E-2,-2.5546843E-1,1.2132909E0,3.1218162E-2,3.5358137E-1,8.1390634E-2,-3.4913987E-2,-3.007847E-1,-9.762962E-1,-3.5998516E-2,-5.607404E0,-9.620873E-1,-3.8472807E-1,6.202803E-2,4.923757E-2,-2.9026133E-1,3.3916265E-1,-6.8882994E-2,9.793937E-1,-8.644449E0,-1.1460426E0,2.7289693E0,3.527857E-1,2.2527301E0,-2.6169798E-1,9.711138E-3,1.1555222E-1,-5.141406E0,1.6796428E-1,-8.09963E-1,-3.2336295E-1,1.7831415E-1,1.6547795E-1,1.3702727E-2,3.2543713E-1,1.2623388E-1,2.3990557E-1,-1.5562238E-1,8.338824E-2,-3.2165623E-1,9.292686E-1,-1.7025611E-1,2.1281293E-1,-2.0734867E-1],"split_indices":[267,293,278,324,292,274,350,371,380,0,0,375,261,280,225,245,0,0,45,173,0,0,265,334,328,0,0,0,0,254,0,0,0,0,0,139,352,261,378,112,0,0,0,0,0,361,260,353,320,88,192,0,118,0,342,270,33,0,0,0,0,0,0,0,0,0,0,0,0,0,0],"split_type":[0,0,0,0,0,0,0,0,0,0,0,0,0,0,0,0,0,0,0,0,0,0,0,0,0,0,0,0,0,0,0,0,0,0,0,0,0,0,0,0,0,0,0,0,0,0,0,0,0,0,0,0,0,0,0,0,0,0,0,0,0,0,0,0,0,0,0,0,0,0,0],"sum_hessian":[2.509186E3,1.298331E2,2.379353E3,1.2170561E2,8.127489E0,2.2802675E1,2.3565503E3,3.9030485E0,1.1780256E2,1.3529041E0,6.7745843E0,8.143349E0,1.4659326E1,2.3533037E3,3.246706E0,2.4282687E0,1.4747796E0,1.353873E0,1.1644869E2,7.0998745E0,1.0434746E0,1.8789469E0,1.2780379E1,1.2563336E1,2.3407402E3,2.2386837E0,1.0080222E0,1.0113207E0,1.4169481E0,1.15411285E2,1.0374006E0,6.0835176E0,1.0163571E0,1.8914422E0,1.0888937E1,8.933103E0,3.630233E0,2.1973638E3,1.4337651E2,1.143277E2,1.083589E0,1.0928799E0,7.8402233E0,2.5181203E0,1.1121129E0,8.006471E0,2.1893574E3,4.563587E1,9.774063E1,2.0307446E0,1.1229695E2,4.176563E0,3.8299084E0,1.3661503E0,2.1879912E3,2.627134E0,4.300874E1,9.637166E1,1.3689746E0,1.0259174E0,1.004827E0,1.1040721E2,1.8897412E0,2.5486176E0,1.2812907E0,1.084277E0,2.186907E3,1.6040877E0,1.0230465E0,3.412755E0,3.9595985E1],"tree_param":{"num_deleted":"0","num_feature":"384","num_nodes":"71","size_leaf_vector":"0"}},{"base_weights":[-9.09351E-1,7.694E-1,-1.0111783E0,9.0306187E-1,-5.435032E-1,-1.0159049E0,8.6847585E-1,-7.9733986E-1,9.5822525E-1,-9.5942026E-1,7.2479737E-1,-1.0197951E0,2.586449E-1,9.872886E-1,-4.339387E-1,-1.0357263E0,-7.584794E-1,1.1827742E0,-7.775235E-1,-1.8440303E-1,1.0019462E0,-4.7841948E-1,-1.0422857E0,-2.2979936E-1,-9.87309E-1,1.3880122E0,3.2429674E-1,1.0132926E0,-2.093087E-2,-6.2295943E-1,1.0397134E0,4.4532365E-1,-1.0435623E0,5.940012E-1,-7.194208E-1,-1.037581E0,6.877347E-1,1.0304583E0,2.7979496E-1,6.0336345E-1,-7.2281945E-1,4.561923E-1,-1.0447522E0,-4.352732E-1,1.530896E0,9.068605E-1,-8.83876E-1,-1.0506477E0,-5.4419603E-2,1.040844E0,7.534311E-2,7.3678267E-1,-4.233377E-1,4.0942114E-2,-8.846769E-1,3.7613198E-1,-1.0459286E0,-7.8348774E-1,7.4930483E-1,2.3796322E0,-6.8236136E-1,-1.0253676E0,5.894351E-1],"categories":[],"categories_nodes":[],"categories_segments":[],"categories_sizes":[],"default_left":[1,1,1,1,1,1,0,0,1,0,0,1,1,1,0,1,1,1,0,0,1,1,1,1,1,0,0,1,0,1,0,0,1,1,1,1,0,1,1,0,1,0,1,1,1,0,1,0,0,0,0,0,0,0,0,0,0,0,0,0,0,0,0],"id":7,"left_children":[1,3,5,7,9,11,-1,-1,13,-1,-1,15,17,19,-1,21,23,25,-1,-1,27,29,31,33,35,-1,-1,37,-1,39,-1,-1,41,43,45,47,-1,49,51,-1,53,-1,55,57,59,-1,61,-1,-1,-1,-1,-1,-1,-1,-1,-1,-1,-1,-1,-1,-1,-1,-1],"loss_changes":[3.2780542E2,1.9789406E1,1.691101E1,1.0161583E1,6.384933E0,9.188599E0,0E0,0E0,4.373085E0,0E0,0E0,6.6862793E0,6.9282594E0,1.8301392E0,0E0,5.675293E0,1.2701706E1,2.0415163E-1,0E0,0E0,1.1211777E0,5.364439E0,3.6331787E0,1.3974292E1,6.9686584E0,0E0,0E0,8.921814E-1,0E0,2.9161983E0,0E0,0E0,3.4520264E0,1.3268175E1,6.556554E0,8.7442017E-1,0E0,8.2663727E-1,1.4419081E0,0E0,2.4075127E0,0E0,3.1784668E0,3.4768128E0,1.4890312E1,0E0,4.7836733E0,0E0,0E0,0E0,0E0,0E0,0E0,0E0,0E0,0E0,0E0,0E0,0E0,0E0,0E0,0E0,0E0],"parents":[2147483647,0,0,1,1,2,2,3,3,4,4,5,5,8,8,11,11,12,12,13,13,15,15,16,16,17,17,20,20,21,21,22,22,23,23,24,24,27,27,29,29,32,32,33,33,34,34,35,35,37,37,38,38,40,40,42,42,43,43,44,44,46,46],"right_children":[2,4,6,8,10,12,-1,-1,14,-1,-1,16,18,20,-1,22,24,26,-1,-1,28,30,32,34,36,-1,-1,38,-1,40,-1,-1,42,44,46,48,-1,50,52,-1,54,-1,56,58,60,-1,62,-1,-1,-1,-1,-1,-1,-1,-1,-1,-1,-1,-1,-1,-1,-1,-1],"split_conditions":[-1.2129554E0,-4.804539E-1,3.8340843E0,-3.4453812E-1,1.2141414E0,3.279077E0,2.6054278E-1,-2.3920196E-1,1.226682E0,-2.878261E-1,2.1743922E-1,2.013021E0,-1.3176411E-1,-3.197298E-1,-1.3018163E-1,-1.3554076E0,-1.0709264E0,-6.0449326E-1,-2.3325707E-1,-5.532091E-2,1.4106622E0,1.440687E0,-3.389863E0,-4.663887E-1,2.7289693E0,4.1640368E-1,9.7289026E-2,3.4108394E-1,-6.2792613E-3,-9.516777E-1,3.1191403E-1,1.335971E-1,-3.256998E0,-1.4895703E0,-8.136854E-1,2.7933788E0,2.0632042E-1,4.8203483E0,3.4935492E-1,1.8100904E-1,-2.641893E-1,1.368577E-1,-2.2319229E0,1.1347282E0,-7.8216445E-1,2.7205816E-1,1.0894837E0,-3.1519434E-1,-1.6325882E-2,3.122532E-1,2.2602934E-2,2.2103481E-1,-1.2700132E-1,1.2282635E-2,-2.6540306E-1,1.128396E-1,-3.1377858E-1,-2.3504633E-1,2.2479145E-1,7.138897E-1,-2.0470841E-1,-3.076103E-1,1.7683053E-1],"split_indices":[278,261,350,301,367,355,0,0,24,0,0,328,299,275,0,261,378,244,0,0,311,150,292,16,320,0,0,302,0,346,0,0,348,135,33,17,0,58,307,0,9,0,337,61,348,0,373,0,0,0,0,0,0,0,0,0,0,0,0,0,0,0,0],"split_type":[0,0,0,0,0,0,0,0,0,0,0,0,0,0,0,0,0,0,0,0,0,0,0,0,0,0,0,0,0,0,0,0,0,0,0,0,0,0,0,0,0,0,0,0,0,0,0,0,0,0,0,0,0,0,0,0,0,0,0,0,0,0,0],"sum_hessian":[1.9120834E3,1.0897281E2,1.8031106E3,9.9187096E1,9.785712E0,1.7990461E3,4.0644584E0,2.6939027E0,9.6493195E1,7.552531E0,2.2331815E0,1.7937711E3,5.2749753E0,9.480484E1,1.6883552E0,1.6879036E3,1.0586757E2,2.7134435E0,2.5615315E0,1.0282571E0,9.377658E1,2.0495335E1,1.6674082E3,3.258607E1,7.32815E1,1.6920835E0,1.02136E0,9.2757034E1,1.019546E0,1.9252022E1,1.243312E0,1.1314498E0,1.6662769E3,1.2068062E1,2.0518007E1,7.151571E1,1.7657896E0,9.0240326E1,2.5167115E0,1.0699906E0,1.8182032E1,1.0178463E0,1.6652589E3,6.005651E0,6.0624113E0,1.4697247E0,1.9048283E1,7.050995E1,1.0057582E0,8.918084E1,1.0594879E0,1.4963378E0,1.0203737E0,3.3100152E0,1.4872017E1,1.1138093E0,1.6641451E3,4.902981E0,1.1026701E0,4.3276706E0,1.7347404E0,1.7656641E1,1.391642E0],"tree_param":{"num_deleted":"0","num_feature":"384","num_nodes":"63","size_leaf_vector":"0"}},{"base_weights":[-8.822055E-1,8.026248E-1,-9.783373E-1,9.198292E-1,-6.551133E-1,-1.0290973E-1,-9.907346E-1,9.6807456E-1,-6.7572646E-2,1.863197E-1,-8.773881E-1,6.6120225E-1,-5.4100454E-1,-1.0122726E0,-6.9957525E-1,9.851372E-1,-9.6079044E-2,6.124799E-1,-4.5579532E-1,-2.4125049E-1,9.208281E-1,9.219612E-3,-9.282043E-1,-1.017216E0,1.0579795E-1,-2.5173214E-1,-1.0059927E0,9.9823004E-1,5.962285E-2,2.4608115E-2,-6.721914E-1,1.7475188E-1,1.0819285E0,9.196987E-1,-3.6588496E-1,-1.0199031E0,4.9289244E-1,7.284786E-1,-4.5725507E-1,4.028811E-1,-7.127082E-1,-1.0350579E0,-7.870706E-2,1.0114757E0,1.0845521E-1,4.646025E-1,-6.64634E-1,-1.0230147E0,1.4828372E-1,1.0077847E0,5.757364E-2,1.7236298E-1,-7.344106E-1,8.1309265E-1,-8.513463E-1,-8.565713E-1,1.119295E0,2.1623124E-1,1.025636E0,-1.5729278E-1,-7.701893E-1,3.7112278E-1,-1.0247233E0,9.289842E-1,-6.614952E-1,1.861237E0,-1.00003146E-1,1.2723255E-1,-9.716525E-1,1.91582E-1,1.0357343E0,3.0578437E-1,-1.0262805E0,2.7215748E0,-5.560566E-2,9.508336E-1,-8.8714534E-1,9.094491E-1,-6.0977256E-1,-1.0116112E0,-9.165208E-2],"categories":[],"categories_nodes":[],"categories_segments":[],"categories_sizes":[],"default_left":[1,1,1,1,1,1,1,1,1,0,0,1,1,1,1,1,0,0,1,0,1,1,0,1,1,1,1,1,0,0,0,0,0,0,1,1,0,1,1,1,1,0,0,1,0,0,1,1,1,0,0,0,0,1,0,1,0,0,1,0,0,0,1,0,0,1,1,1,1,0,0,0,0,0,0,0,0,0,0,0,0],"id":8,"left_children":[1,3,5,7,9,11,13,15,17,-1,-1,19,21,23,25,27,-1,-1,29,-1,31,33,-1,35,37,39,41,43,-1,-1,-1,-1,-1,-1,45,47,-1,49,51,53,55,-1,-1,57,-1,-1,59,61,63,-1,-1,-1,-1,65,-1,67,-1,-1,69,-1,-1,-1,71,-1,-1,73,75,77,79,-1,-1,-1,-1,-1,-1,-1,-1,-1,-1,-1,-1],"loss_changes":[2.367096E2,1.4129822E1,1.4858398E1,3.576229E0,1.3746896E0,7.1746945E0,7.8146973E0,1.371666E0,1.432364E0,0E0,0E0,2.0663023E0,2.8832564E0,7.0895996E0,1.3037033E1,7.803421E-1,0E0,0E0,3.652087E-1,0E0,5.7055426E-1,2.5781093E0,0E0,5.6065674E0,2.600244E0,1.2562319E1,1.4593773E0,6.9501495E-1,0E0,0E0,0E0,0E0,0E0,0E0,1.6395948E0,4.716675E0,0E0,5.896381E-1,8.263689E-1,9.669064E0,7.3449535E0,0E0,0E0,5.3448486E-1,0E0,0E0,1.1214101E-1,3.3641357E0,3.2758708E0,0E0,0E0,0E0,0E0,1.3258683E1,0E0,2.7313595E0,0E0,0E0,3.5505676E-1,0E0,0E0,0E0,2.9066162E0,0E0,0E0,1.0722733E1,7.66663E0,2.4548979E0,6.3646126E-1,0E0,0E0,0E0,0E0,0E0,0E0,0E0,0E0,0E0,0E0,0E0,0E0],"parents":[2147483647,0,0,1,1,2,2,3,3,4,4,5,5,6,6,7,7,8,8,11,11,12,12,13,13,14,14,15,15,18,18,20,20,21,21,23,23,24,24,25,25,26,26,27,27,34,34,35,35,37,37,38,38,39,39,40,40,43,43,46,46,47,47,48,48,53,53,55,55,58,58,62,62,65,65,66,66,67,67,68,68],"right_children":[2,4,6,8,10,12,14,16,18,-1,-1,20,22,24,26,28,-1,-1,30,-1,32,34,-1,36,38,40,42,44,-1,-1,-1,-1,-1,-1,46,48,-1,50,52,54,56,-1,-1,58,-1,-1,60,62,64,-1,-1,-1,-1,66,-1,68,-1,-1,70,-1,-1,-1,72,-1,-1,74,76,78,80,-1,-1,-1,-1,-1,-1,-1,-1,-1,-1,-1,-1],"split_conditions":[-9.561511E-1,-1.0979982E-1,-7.2806764E-1,3.052352E-1,-5.611441E-1,-1.0950079E-1,1.8761744E0,9.1459656E-1,-5.2769876E-1,5.589591E-2,-2.6321644E-1,-4.925965E-1,-2.2877032E-1,3.0541515E0,2.0304937E-2,4.8203483E0,-2.8823715E-2,1.8374398E-1,-4.2764443E-1,-7.237515E-2,-1.4838466E-1,-7.9631925E-1,-2.784613E-1,3.516823E0,-2.898175E-1,-1.560338E0,1.7721457E0,2.3261094E0,1.7886857E-2,7.382435E-3,-2.0165743E-1,5.2425567E-2,3.2457855E-1,2.7590963E-1,-6.266372E-1,3.408381E0,1.4786774E-1,-6.808636E-1,-6.8405266E0,-7.422172E-1,1.6599221E0,-3.1051737E-1,-2.361212E-2,-3.8472807E-1,3.2536566E-2,1.3938075E-1,-8.811446E-2,-8.644449E0,-5.103129E-1,3.0233544E-1,1.7272092E-2,5.1708896E-2,-2.2032319E-1,2.6983045E-2,-2.554039E-1,-1.2273805E0,3.3578852E-1,6.4869374E-2,-1.2607131E0,-4.718784E-2,-2.310568E-1,1.11336835E-1,-3.256998E0,2.786953E-1,-1.9844857E-1,3.1660485E-1,1.0349686E0,1.1337192E0,1.1796918E0,5.7474602E-2,3.107203E-1,9.173532E-2,-3.0788416E-1,8.164725E-1,-1.66817E-2,2.852501E-1,-2.6614362E-1,2.7283475E-1,-1.8293178E-1,-3.0348337E-1,-2.7495624E-2],"split_indices":[267,293,280,302,292,352,328,270,257,0,0,286,337,267,274,58,0,0,359,0,77,162,0,350,298,296,252,64,0,0,0,0,0,0,181,357,0,116,261,193,256,0,0,112,0,0,325,260,298,0,0,0,0,280,0,110,0,0,379,0,0,0,348,0,0,75,338,114,21,0,0,0,0,0,0,0,0,0,0,0,0],"split_type":[0,0,0,0,0,0,0,0,0,0,0,0,0,0,0,0,0,0,0,0,0,0,0,0,0,0,0,0,0,0,0,0,0,0,0,0,0,0,0,0,0,0,0,0,0,0,0,0,0,0,0,0,0,0,0,0,0,0,0,0,0,0,0,0,0,0,0,0,0,0,0,0,0,0,0,0,0,0,0,0,0],"sum_hessian":[1.4556311E3,7.817457E1,1.3774565E3,7.26985E1,5.476067E0,1.9364182E1,1.3580923E3,6.933052E1,3.3679805E0,1.1780933E0,4.297974E0,6.870898E0,1.2493283E1,1.2622434E3,9.584889E1,6.8309494E1,1.0210226E0,1.0140355E0,2.3539448E0,1.5508746E0,5.320023E0,5.5635195E0,6.929764E0,1.256777E3,5.4664264E0,3.967849E1,5.6170403E1,6.727916E1,1.0303339E0,1.0062757E0,1.3476691E0,1.3149699E0,4.005053E0,1.1996943E0,4.3638253E0,1.2548687E3,1.9083074E0,2.4562533E0,3.010173E0,1.6447746E1,2.3230745E1,5.4350594E1,1.8198082E0,6.615753E1,1.1216321E0,1.0076146E0,3.3562105E0,1.2516589E3,3.2097027E0,1.379728E0,1.0765253E0,1.0356264E0,1.9745467E0,1.2659129E1,3.7886164E0,2.2032984E1,1.1977608E0,1.4420502E0,6.471548E1,1.0068808E0,2.3493297E0,1.26749E0,1.2503915E3,1.5592432E0,1.6504595E0,5.410279E0,7.2488503E0,2.2963552E0,1.9736628E1,1.0130796E0,6.37024E1,1.2333764E0,1.2491581E3,3.4444723E0,1.9658066E0,3.015369E0,4.2334814E0,1.0005001E0,1.295855E0,1.87363E1,1.0003299E0],"tree_param":{"num_deleted":"0","num_feature":"384","num_nodes":"81","size_leaf_vector":"0"}},{"base_weights":[-8.5645366E-1,7.017293E-1,-9.574014E-1,8.612662E-1,-1.9048648E-1,-4.6206632E-1,-9.8243165E-1,9.436822E-1,-1.9037041E-1,6.112638E-1,-6.796426E-1,5.7933545E-1,-7.226541E-1,-1.0050435E0,-6.8320525E-1,1.4367748E-2,9.743092E-1,-6.206236E-1,5.604523E-1,9.626811E-1,-7.7829644E-2,1.0411471E-1,-8.223167E-1,1.4933147E0,-5.0448996E-1,9.7407967E-1,-8.7574166E-1,-6.950767E-2,-1.0110557E0,1.1048278E-1,-8.280693E-1,1.0103889E0,1.510151E-1,-7.1745586E-1,-1.8833338E-1,-5.884477E-3,1.9276379E0,3.8040048E-1,-7.8322077E-1,2.3353854E-1,1.1514298E0,-9.236856E-1,3.230212E-1,-5.370861E-1,1.0027435E0,4.6646845E-1,-1.0131887E0,-3.6448437E-1,1.1974138E0,-8.8908E-1,5.3952307E-1,1.0250206E0,1.5351972E-1,-4.636566E-1,6.082992E-1,4.5862353E-1,2.2235596E0,-9.7742563E-1,9.9588506E-2,-7.817038E-1,1.1638583E-1,4.0001288E-1,-1.0152979E0,8.018497E-1,-7.421866E-1,1.7890689E0,8.634349E-2,-9.391761E-1,3.4478128E-1,1.0047684E0,-2.1026714E-1,2.8829143E0,9.323479E-1,-1.0008857E0,-8.2767114E-2,2.7852544E-1,-1.0174721E0,-9.129011E-1,1.7665201E-1,-9.731948E-1,-8.287717E-2,1.0763574E0,-5.4495656E-1,-2.649924E-1,-1.0150406E0,-1.0196512E0,2.1420845E-1,-1.0054214E0,-2.2799629E-1,-6.067826E-1,5.4729474E-1],"categories":[],"categories_nodes":[],"categories_segments":[],"categories_sizes":[],"default_left":[1,1,1,1,1,1,1,1,1,1,1,1,1,1,1,0,1,1,0,0,0,0,0,1,1,1,1,1,1,1,1,1,1,0,0,0,1,0,0,0,0,1,0,1,0,0,1,1,1,1,1,0,0,0,0,0,1,1,0,0,0,0,1,0,1,0,0,1,1,0,0,0,0,1,0,0,1,0,0,1,1,0,0,0,0,0,0,0,0,0,0],"id":9,"left_children":[1,3,5,7,9,11,13,15,17,19,21,23,25,27,29,-1,31,33,-1,-1,-1,-1,-1,35,37,39,41,43,45,47,49,51,53,-1,-1,-1,55,-1,-1,-1,-1,57,-1,59,-1,-1,61,63,65,67,69,-1,-1,-1,-1,-1,71,73,-1,-1,-1,-1,75,-1,77,-1,-1,79,81,-1,-1,-1,-1,83,-1,-1,85,-1,-1,87,89,-1,-1,-1,-1,-1,-1,-1,-1,-1,-1],"loss_changes":[1.7511176E2,9.850773E0,1.2464478E1,5.1988983E0,4.784955E0,1.4532128E1,6.0181274E0,1.5192642E0,1.976215E0,1.2247704E0,9.123452E-1,1.1614247E1,1.1773647E1,5.0999146E0,8.455433E0,0E0,1.3960953E0,1.8880248E-2,0E0,0E0,0E0,0E0,0E0,4.048774E0,1.7194643E0,2.5023913E-1,2.5450096E0,4.0196657E0,3.350708E0,6.6884575E0,5.622303E0,4.6665573E-1,1.2277665E0,0E0,0E0,0E0,1.0715466E0,0E0,0E0,0E0,0E0,2.1785202E0,0E0,9.679421E-1,0E0,0E0,3.1252441E0,4.645434E0,2.4198236E0,3.9941673E0,1.3465674E0,0E0,0E0,0E0,0E0,0E0,4.999256E-1,6.7380524E-1,0E0,0E0,0E0,0E0,2.8466797E0,0E0,1.3321352E0,0E0,0E0,1.5894203E0,2.5707302E0,0E0,0E0,0E0,0E0,9.600067E-2,0E0,0E0,2.6603394E0,0E0,0E0,1.0927505E0,1.4162039E0,0E0,0E0,0E0,0E0,0E0,0E0,0E0,0E0,0E0,0E0],"parents":[2147483647,0,0,1,1,2,2,3,3,4,4,5,5,6,6,7,7,8,8,9,9,10,10,11,11,12,12,13,13,14,14,16,16,17,17,23,23,24,24,25,25,26,26,27,27,28,28,29,29,30,30,31,31,32,32,36,36,41,41,43,43,46,46,47,47,48,48,49,49,50,50,56,56,57,57,62,62,64,64,67,67,68,68,73,73,76,76,79,79,80,80],"right_children":[2,4,6,8,10,12,14,16,18,20,22,24,26,28,30,-1,32,34,-1,-1,-1,-1,-1,36,38,40,42,44,46,48,50,52,54,-1,-1,-1,56,-1,-1,-1,-1,58,-1,60,-1,-1,62,64,66,68,70,-1,-1,-1,-1,-1,72,74,-1,-1,-1,-1,76,-1,78,-1,-1,80,82,-1,-1,-1,-1,84,-1,-1,86,-1,-1,88,90,-1,-1,-1,-1,-1,-1,-1,-1,-1,-1],"split_conditions":[-1.204802E0,-6.252229E-1,-2.9791E-1,3.4108394E-1,-7.9145753E-1,-8.7962437E-1,1.9082121E0,-1.0158575E0,-1.1298448E-1,-6.065024E-1,-7.241812E-1,4.6781536E-2,-1.0695163E0,-3.287568E0,-1.4426848E0,4.310325E-3,2.0053086E0,3.795027E-1,1.6813569E-1,2.8880435E-1,-2.3348894E-2,3.1234415E-2,-2.4669503E-1,7.007438E-2,-8.1609833E-1,1.0482682E0,2.4635544E0,-2.688008E-1,-2.2205615E0,1.4928508E0,2.55226E0,-9.900299E-2,8.454748E-1,-2.1523677E-1,-5.6500014E-2,-1.7653431E-3,-1.5164113E-1,1.1412015E-1,-2.3496623E-1,7.0061564E-2,3.4542894E-1,2.931588E0,9.6906364E-2,1.8644702E-1,3.0082306E-1,1.3994054E-1,-2.8964143E0,8.080666E-1,-2.9996508E-1,2.3034425E0,1.3130734E0,3.075062E-1,4.6055917E-2,-1.3909699E-1,1.8248977E-1,1.3758707E-1,-6.7106056E-1,1.7539283E0,2.9876553E-2,-2.3451115E-1,3.4915753E-2,1.2000387E-1,-9.634146E0,2.4055493E-1,1.3599305E0,5.367207E-1,2.5903048E-2,2.1569662E0,7.0662576E-1,3.0143052E-1,-6.308015E-2,8.648743E-1,2.797044E-1,-1.6051011E0,-2.4830135E-2,8.3557636E-2,2.6779861E0,-2.7387035E-1,5.2995607E-2,3.8113482E-2,-1.512513E0,3.229072E-1,-1.6348697E-1,-7.949772E-2,-3.045122E-1,-3.0589536E-1,6.426254E-2,-3.0162644E-1,-6.839889E-2,-1.8203479E-1,1.6418843E-1],"split_indices":[278,267,280,302,260,139,328,182,324,333,266,283,337,264,370,0,45,317,0,0,0,0,0,176,138,334,355,185,337,202,230,293,13,0,0,0,177,0,0,0,0,330,0,184,0,0,331,321,223,305,98,0,0,0,0,0,378,180,0,0,0,0,279,0,44,0,0,181,321,0,0,0,0,348,0,0,307,0,0,32,348,0,0,0,0,0,0,0,0,0,0],"split_type":[0,0,0,0,0,0,0,0,0,0,0,0,0,0,0,0,0,0,0,0,0,0,0,0,0,0,0,0,0,0,0,0,0,0,0,0,0,0,0,0,0,0,0,0,0,0,0,0,0,0,0,0,0,0,0,0,0,0,0,0,0,0,0,0,0,0,0,0,0,0,0,0,0,0,0,0,0,0,0,0,0,0,0,0,0,0,0,0,0,0,0],"sum_hessian":[1.1079983E3,6.7052666E1,1.0409456E3,5.6911095E1,1.0141573E1,5.100695E1,9.899386E2,5.2870342E1,4.0407553E0,3.7483006E0,6.3932724E0,9.964013E0,4.104294E1,9.181941E2,7.174455E1,1.7337047E0,5.1136635E1,2.6789896E0,1.3617657E0,2.219431E0,1.5288697E0,1.0262104E0,5.367062E0,5.2005887E0,4.763424E0,2.952811E0,3.8090126E1,5.9433055E0,9.122508E2,1.1110295E1,6.063426E1,4.8772022E1,2.3646147E0,1.6497794E0,1.0292101E0,1.389782E0,3.8108068E0,1.0536445E0,3.7097795E0,1.0181707E0,1.9346403E0,3.684596E1,1.2441683E0,4.4861336E0,1.4571719E0,1.0012169E0,9.112496E2,8.194242E0,2.9160535E0,5.837973E1,2.2545273E0,4.7760235E1,1.0117863E0,1.0027728E0,1.3618419E0,1.0664672E0,2.7443397E0,3.505002E1,1.7959411E0,3.1214373E0,1.3646963E0,1.0768367E0,9.101727E2,1.7297754E0,6.464466E0,1.5046124E0,1.4114412E0,5.6331448E1,2.048285E0,1.1814013E0,1.0731261E0,1.0006434E0,1.7436963E0,3.4038708E1,1.0113093E0,1.3137891E0,9.0885895E2,5.4570436E0,1.0074226E0,5.404775E1,2.283699E0,1.0089453E0,1.0393397E0,1.0145515E0,3.302416E1,9.074257E2,1.4332244E0,5.147258E1,2.5751672E0,1.2672567E0,1.0164423E0],"tree_param":{"num_deleted":"0","num_feature":"384","num_nodes":"91","size_leaf_vector":"0"}}]},"name":"gbtree"},"learner_model_param":{"base_score":"5E-1","num_class":"0","num_feature":"384","num_target":"1"},"objective":{"name":"binary:logistic","reg_loss_param":{"scale_pos_weight":"1"}}},"version":[1,6,0]}