{"learner":{"attributes":{"best_iteration":"9","best_ntree_limit":"10"},"feature_names":[],"feature_types":[],"gradient_booster":{"model":{"gbtree_model_param":{"num_parallel_tree":"1","num_trees":"10","size_leaf_vector":"0"},"tree_info":[0,0,0,0,0,0,0,0,0,0],"trees":[{"base_weights":[-1.915812E0,-1.9724935E0,5.73957E-1,-1.1125828E0,-1.9875331E0,-1.4666667E0,1.6190476E0,1.3197279E0,-1.8785249E0,-1.9891742E0,1.0476191E0,-1.9148936E0,1.3846154E0,-6.4615387E-1,1.9224138E0,1.9354838E0,-1.7037038E0,-1.9644444E0,1.2E0,1.4285715E0,-1.9903481E0,-5E-1,1.5294118E0,-1.9653679E0,5E-1,1.7714286E0,-1E0,-1.4782609E0,1.1304348E0,1.947826E0,-5E-1,-5E-1,-1.9730942E0,-1.9914042E0,5.882353E-1,-1.804878E0,6.666667E-1,-5E-1,1.5789474E0,1.9649123E0,-0E0,-5E-1,-1.9819005E0,-5.217391E-1,-1.993162E0,1.3846154E0,-1E0,5E-1,1.9734514E0,1.4E0,-1.7333333E0,-9.019608E-1,-1.9945692E0,1.9821428E0,5E-1,-1.7948718E0,1.5E0,-1.995393E0,-4.347826E-1],"categories":[],"categories_nodes":[],"categories_segments":[],"categories_sizes":[],"default_left":[1,1,1,1,1,1,1,1,1,1,1,1,1,1,1,0,0,1,0,0,1,0,0,0,0,0,0,1,1,1,0,0,1,1,1,0,0,0,0,1,0,0,0,1,1,0,0,0,1,0,0,1,1,0,0,0,0,0,0],"id":0,"left_children":[1,3,5,7,9,11,13,15,17,19,21,23,25,27,29,-1,-1,31,-1,-1,33,-1,-1,-1,-1,-1,-1,35,37,39,-1,-1,41,43,45,-1,-1,-1,-1,47,-1,-1,-1,49,51,-1,-1,-1,53,-1,-1,55,57,-1,-1,-1,-1,-1,-1],"loss_changes":[1.2499707E3,1.096875E2,4.2410352E2,2.8379355E2,4.44375E1,8.891785E1,9.143527E1,7.171483E1,3.2841553E1,3.6941406E1,4.6792717E0,8.143723E0,1.0764835E1,2.5693645E1,8.114777E0,0E0,0E0,4.3850708E-1,0E0,0E0,2.4304688E1,0E0,0E0,0E0,0E0,0E0,0E0,9.2598095E0,4.994279E0,3.827301E0,0E0,0E0,4.5547485E-1,2.0898438E1,6.760181E0,0E0,0E0,0E0,0E0,4.3930054E-1,0E0,0E0,0E0,2.9202898E1,1.1222656E1,0E0,0E0,0E0,4.560547E-1,0E0,0E0,3.0037706E1,1.0015625E1,0E0,0E0,0E0,0E0,0E0,0E0],"parents":[2147483647,0,0,1,1,2,2,3,3,4,4,5,5,6,6,7,7,8,8,9,9,10,10,11,11,12,12,13,13,14,14,17,17,20,20,27,27,28,28,29,29,32,32,33,33,34,34,39,39,43,43,44,44,48,48,51,51,52,52],"right_children":[2,4,6,8,10,12,14,16,18,20,22,24,26,28,30,-1,-1,32,-1,-1,34,-1,-1,-1,-1,-1,-1,36,38,40,-1,-1,42,44,46,-1,-1,-1,-1,48,-1,-1,-1,50,52,-1,-1,-1,54,-1,-1,56,58,-1,-1,-1,-1,-1,-1],"split_conditions":[2.1816263E0,-2.1804116E0,6.6346925E-1,-1.4125629E-1,3.052486E0,5.40419E0,5.802824E-1,-8.582294E-1,2.2096338E0,-5.8317795E0,1.8276778E-1,2.1276772E0,-3.5232133E-1,1.2458904E0,4.4355413E-1,5.8064514E-1,-5.1111114E-1,-8.957414E-1,3.6E-1,4.2857146E-1,4.081696E0,-1.5E-1,4.5882356E-1,-5.896104E-1,1.5E-1,5.314286E-1,-3E-1,1.9453974E0,-7.4652004E-1,7.1467E-2,-1.5E-1,-1.5E-1,-2.6792035E0,-1.3169475E0,-9.656005E-1,-5.4146343E-1,2.0000002E-1,-1.5E-1,4.7368425E-1,-8.36962E-1,-0E0,-1.5E-1,-5.9457016E-1,-5.051191E-1,-3.640236E0,4.1538465E-1,-3E-1,1.5E-1,2.2994576E0,4.2000002E-1,-5.2000004E-1,-1.2188825E-1,3.0833352E0,5.946429E-1,1.5E-1,-5.3846157E-1,4.5000002E-1,-5.986179E-1,-1.3043478E-1],"split_indices":[310,348,267,275,320,310,332,323,359,346,0,381,298,373,261,0,0,14,0,0,381,0,0,0,0,0,0,29,249,305,0,0,260,52,6,0,0,0,0,12,0,0,0,323,355,0,0,0,46,0,0,0,286,0,0,0,0,0,0],"split_type":[0,0,0,0,0,0,0,0,0,0,0,0,0,0,0,0,0,0,0,0,0,0,0,0,0,0,0,0,0,0,0,0,0,0,0,0,0,0,0,0,0,0,0,0,0,0,0,0,0,0,0,0,0,0,0,0,0,0,0],"sum_hessian":[8.84825E3,8.6515E3,1.9675E2,1.5E2,8.5015E3,6.65E1,1.3025E2,3.575E1,1.1425E2,8.49725E3,4.25E0,5.775E1,8.75E0,1.525E1,1.15E2,3E1,5.75E0,1.115E2,2.75E0,2.5E0,8.49475E3,1E0,3.25E0,5.675E1,1E0,7.75E0,1E0,1.05E1,4.75E0,1.14E2,1E0,1E0,1.105E2,8.4915E3,3.25E0,9.25E0,1.25E0,1E0,3.75E0,1.13E2,1E0,1E0,1.095E2,1.05E1,8.481E3,2.25E0,1E0,1E0,1.12E2,4E0,6.5E0,1.175E1,8.46925E3,1.11E2,1E0,8.75E0,3E0,8.4645E3,4.75E0],"tree_param":{"num_deleted":"0","num_feature":"384","num_nodes":"59","size_leaf_vector":"0"}},{"base_weights":[-1.4823194E0,-1.5264665E0,4.4363853E-1,-8.595986E-1,-1.5381776E0,-1.129438E0,1.2490859E0,9.7204936E-1,-1.4657979E0,-1.5395217E0,8.2378775E-1,-1.4814974E0,1.0617087E0,1.4248956E0,-1.0817184E0,1.4843127E0,-1.363013E0,1.0676244E0,-1.5177655E0,1.1640917E0,-1.5405015E0,1.2432224E0,-2.7616042E-1,3.0582368E-1,-1.5280007E0,1.389156E0,-6.0246843E-1,1.483037E0,-1.106901E0,-1.4358314E0,2.917283E-1,-5.4346077E-2,-1.5341396E0,-1.5414913E0,2.887153E-1,1.5033101E0,-2.2427958E-1,-4.087044E-1,-1.5430937E0,-3.9876774E-1,-1.5428979E0,-1.0381869E0,1.248007E0,1.5176755E0,9.164405E-2,1.1067809E0,-1.3692952E0,3.1235176E-1,-1.5435399E0,1.530627E0,4.088173E-1,-8.966408E-1,1.5047232E0,-6.85661E-1,-1.5446687E0,1.5391197E0,4.0867722E-1],"categories":[],"categories_nodes":[],"categories_segments":[],"categories_sizes":[],"default_left":[1,1,1,1,1,1,1,1,1,1,1,1,1,1,1,0,0,0,1,0,1,0,0,0,0,0,0,1,0,0,0,0,1,1,1,1,0,0,0,1,1,0,0,1,0,0,0,1,1,1,0,0,0,0,0,0,0],"id":1,"left_children":[1,3,5,7,9,11,13,15,17,19,21,23,25,27,29,-1,-1,-1,31,-1,33,-1,-1,-1,-1,-1,-1,35,-1,-1,-1,-1,37,39,41,43,-1,-1,-1,45,47,-1,-1,49,-1,-1,-1,51,53,55,-1,-1,-1,-1,-1,-1,-1],"loss_changes":[6.8980273E2,6.0558594E1,2.3251004E2,1.5577841E2,2.5984375E1,4.9624245E1,5.1167267E1,4.409088E1,1.542395E1,2.2408203E1,2.6866393E0,4.9626083E0,5.8532305E0,1.8281586E1,4.826475E0,0E0,0E0,0E0,2.3883667E0,0E0,1.4527344E1,0E0,0E0,0E0,0E0,0E0,0E0,4.1768036E0,0E0,0E0,0E0,0E0,3.9691162E-1,1.18828125E1,7.722476E0,2.0867462E0,0E0,0E0,0E0,1.74545E1,9.730469E0,0E0,0E0,9.337616E-1,0E0,0E0,0E0,6.420113E0,6.4570312E0,3.902588E-1,0E0,0E0,0E0,0E0,0E0,0E0,0E0],"parents":[2147483647,0,0,1,1,2,2,3,3,4,4,5,5,6,6,7,7,8,8,9,9,10,10,11,11,12,12,13,13,14,14,18,18,20,20,27,27,32,32,33,33,34,34,35,35,39,39,40,40,43,43,47,47,48,48,49,49],"right_children":[2,4,6,8,10,12,14,16,18,20,22,24,26,28,30,-1,-1,-1,32,-1,34,-1,-1,-1,-1,-1,-1,36,-1,-1,-1,-1,38,40,42,44,-1,-1,-1,46,48,-1,-1,50,-1,-1,-1,52,54,56,-1,-1,-1,-1,-1,-1,-1],"split_conditions":[2.1816263E0,-2.1804116E0,6.6346925E-1,-1.1157945E-1,3.052486E0,5.40419E0,4.3949822E-1,-8.582294E-1,-3.2324598E0,-5.8317795E0,-1.1673019E0,-2.2726588E0,-1.0629479E0,-2.934119E-1,4.067636E0,4.452938E-1,-4.0890393E-1,3.2028735E-1,-1.8920848E0,3.4922752E-1,3.9792333E0,3.729667E-1,-8.284813E-2,9.1747105E-2,-4.5840022E-1,4.1674682E-1,-1.8074054E-1,7.372347E-1,-3.3207032E-1,-4.3074945E-1,8.751849E-2,-1.6303824E-2,-1.7484972E0,-1.3169475E0,1.9547512E-1,-8.913352E-3,-6.7283876E-2,-1.2261132E-1,-4.6292812E-1,-5.051191E-1,-4.724898E0,-3.1145608E-1,3.7440214E-1,1.8119903E0,2.7493216E-2,3.320343E-1,-4.107886E-1,9.5941705E-1,-3.640236E0,-4.8893481E-1,1.2264519E-1,-2.6899225E-1,4.5141697E-1,-2.0569831E-1,-4.6340063E-1,4.6173593E-1,1.2260317E-1],"split_indices":[310,348,267,275,320,310,261,323,347,346,1,360,257,325,315,0,0,0,351,0,381,0,0,0,0,0,0,282,0,0,0,0,20,52,140,268,0,0,0,323,342,0,0,346,0,0,0,75,355,6,0,0,0,0,0,0,0],"split_type":[0,0,0,0,0,0,0,0,0,0,0,0,0,0,0,0,0,0,0,0,0,0,0,0,0,0,0,0,0,0,0,0,0,0,0,0,0,0,0,0,0,0,0,0,0,0,0,0,0,0,0,0,0,0,0,0,0],"sum_hessian":[8.1039395E3,7.922545E3,1.8139441E2,1.3801425E2,7.784531E3,6.1289967E1,1.2010444E2,3.416879E1,1.0384546E2,7.7804517E3,4.0791764E0,5.3084553E1,8.205413E0,1.12041916E2,8.062516E0,2.8320261E1,5.8485293E0,1.6945026E0,1.02150955E2,2.388629E0,7.778063E3,2.8587978E0,1.2203786E0,1.2047411E0,5.187981E1,6.9944324E0,1.210981E0,1.0993163E2,2.1102853E0,6.37376E0,1.6887558E0,1.1781054E0,1.0097285E2,7.774014E3,4.0490065E0,1.0875968E2,1.1719503E0,1.1651785E0,9.980767E1,9.908329E0,7.7641055E3,1.6644621E0,2.3845444E0,1.0758973E2,1.1699557E0,3.8286595E0,6.079669E0,2.5176392E0,7.761588E3,1.0597161E2,1.6181161E0,1.3732576E0,1.1443814E0,1.0998298E1,7.75059E3,1.0480645E2,1.1651592E0],"tree_param":{"num_deleted":"0","num_feature":"384","num_nodes":"57","size_leaf_vector":"0"}},{"base_weights":[-1.2843353E0,-1.3230709E0,3.7649256E-1,-8.1786805E-1,-1.3372102E0,-7.2230613E-1,1.2328199E0,5.3177667E-1,-1.2565894E0,-1.3379104E0,4.0043697E-1,-1.2764412E0,4.8628038E-1,1.2985651E0,-7.673933E-1,-9.765761E-1,1.4208584E0,8.232813E-1,-1.2822751E0,-1.3407588E0,-9.065505E-1,8.1859404E-1,-2.5448915E-1,-1.3355807E0,3.025861E-1,-1.0066432E0,1.0293595E0,1.3218182E0,-2.702696E-1,-1.1923524E0,9.235266E-1,-7.6532584E-1,1.5725948E0,8.7513363E-1,-1.3065821E0,4.7107053E-1,-1.3411624E0,1.1268297E0,-1.3105621E0,-1.199827E0,-4.819382E-3,1.3022505E0,-2.3907365E-1,2.0326945E-1,1.3329073E0,-2.0382333E-1,-1.2564564E0,-2.3230393E-1,1.6603919E0,4.326926E-1,-1.3228161E0,4.8802117E-1,-1.3415408E0,1.3751353E0,-3.0541208E-1,-9.224842E-1,6.195812E-1,2.3084997E-1,1.3436815E0,1.2855656E0,2.0640922E0,2.3361966E-1,-1.336747E0,-4.003821E-1,-1.3417943E0,4.695956E-1,2.182457E0,-1.3431249E0,-1.0613873E0],"categories":[],"categories_nodes":[],"categories_segments":[],"categories_sizes":[],"default_left":[1,1,1,1,1,1,1,1,1,1,1,1,1,1,0,1,1,0,1,1,1,0,0,0,0,1,1,1,0,1,0,0,1,0,1,0,1,1,0,0,0,0,1,0,1,0,0,0,1,0,1,0,1,0,0,0,0,0,0,0,1,0,0,0,1,0,0,0,0],"id":2,"left_children":[1,3,5,7,9,11,13,15,17,19,21,23,25,27,-1,29,31,-1,33,35,37,-1,-1,-1,-1,39,41,43,-1,45,-1,-1,47,-1,49,-1,51,53,-1,-1,-1,-1,55,-1,57,-1,-1,-1,59,-1,61,-1,63,-1,-1,-1,-1,-1,-1,-1,65,-1,-1,-1,67,-1,-1,-1,-1],"loss_changes":[4.359336E2,4.6154297E1,1.46774E2,1.088207E2,8.363281E0,4.652156E1,1.2503693E1,6.2420273E1,8.435638E0,6.6845703E0,1.1287605E0,4.818115E0,1.909198E1,3.46138E0,0E0,8.26396E0,1.083709E1,0E0,8.319778E0,5.3027344E0,3.866662E1,0E0,0E0,0E0,0E0,1.2417064E0,6.134861E0,7.7119446E-1,0E0,7.6573944E-1,0E0,0E0,4.7408676E0,0E0,4.4046173E0,0E0,5.073242E0,3.2798004E0,0E0,0E0,0E0,0E0,2.815281E0,0E0,6.7549133E-1,0E0,0E0,0E0,1.3308411E0,0E0,3.2332916E0,0E0,9.8535156E-1,0E0,0E0,0E0,0E0,0E0,0E0,0E0,1.0560989E0,0E0,0E0,0E0,9.560547E-1,0E0,0E0,0E0,0E0],"parents":[2147483647,0,0,1,1,2,2,3,3,4,4,5,5,6,6,7,7,8,8,9,9,10,10,11,11,12,12,13,13,15,15,16,16,18,18,19,19,20,20,25,25,26,26,27,27,29,29,32,32,34,34,36,36,37,37,42,42,44,44,48,48,50,50,52,52,60,60,64,64],"right_children":[2,4,6,8,10,12,14,16,18,20,22,24,26,28,-1,30,32,-1,34,36,38,-1,-1,-1,-1,40,42,44,-1,46,-1,-1,48,-1,50,-1,52,54,-1,-1,-1,-1,56,-1,58,-1,-1,-1,60,-1,62,-1,64,-1,-1,-1,-1,-1,-1,-1,66,-1,-1,-1,68,-1,-1,-1,-1],"split_conditions":[2.1816263E0,-2.0685067E0,1.2744933E0,1.9603495E-2,4.127038E0,3.5859203E0,-5.5375457E-1,3.6840665E-1,-3.6066754E0,2.431705E0,6.408552E-1,1.4605298E0,-2.8664413E-1,4.2286676E-1,-2.30218E-1,1.5628868E0,-5.0257887E-3,2.4698439E-1,-2.994011E0,-5.1979885E0,-1.3626621E0,2.4557821E-1,-7.634675E-2,-4.0067422E-1,9.077583E-2,6.9931036E-1,4.587955E-1,-1.1609465E0,-8.1080884E-2,-1.2310891E0,2.7705798E-1,-2.2959776E-1,-3.948821E-1,2.625401E-1,-2.0847464E0,1.4132117E-1,-4.9674015E0,-1.1314098E0,-3.9316866E-1,-3.599481E-1,-1.4458146E-3,3.9067516E-1,1.32002E-1,6.0980838E-2,-1.1433126E0,-6.1147E-2,-3.7693694E-1,-6.969118E-2,-2.163558E0,1.2980779E-1,-2.3003173E0,1.4640635E-1,-2.9290226E0,4.125406E-1,-9.162363E-2,-2.767453E-1,1.8587437E-1,6.9254994E-2,4.0310445E-1,3.856697E-1,-1.5790249E0,7.00859E-2,-4.0102413E-1,-1.2011463E-1,2.6133008E0,1.4087869E-1,6.547371E-1,-4.0293747E-1,-3.184162E-1],"split_indices":[310,9,373,275,381,315,360,267,338,373,211,267,221,261,0,266,320,0,260,342,323,0,0,0,0,291,261,19,0,257,0,0,94,0,349,0,338,130,0,0,0,0,260,0,123,0,0,0,348,0,347,0,35,0,0,0,0,0,0,0,309,0,0,0,335,0,0,0,0],"split_type":[0,0,0,0,0,0,0,0,0,0,0,0,0,0,0,0,0,0,0,0,0,0,0,0,0,0,0,0,0,0,0,0,0,0,0,0,0,0,0,0,0,0,0,0,0,0,0,0,0,0,0,0,0,0,0,0,0,0,0,0,0,0,0,0,0,0,0,0,0],"sum_hessian":[6.767439E3,6.6133975E3,1.5404161E2,1.8165363E2,6.431744E3,6.753737E1,8.650424E1,4.451117E1,1.3714246E2,6.429383E3,2.3609521E0,4.62676E1,2.1269768E1,8.4091034E1,2.4132092E0,1.6470345E1,2.8040825E1,1.2941934E0,1.3584827E2,6.385113E3,4.4270126E1,1.2884195E0,1.0725328E0,4.47459E1,1.5216988E0,5.4457693E0,1.58239975E1,8.3018005E1,1.0730278E0,1.51252E1,1.3451431E0,1.5574638E0,2.648336E1,1.1235366E0,1.3472472E2,1.1625172E0,6.38395E3,7.0414724E0,3.7228653E1,4.3997197E0,1.0460496E0,1.30004225E1,2.8235757E0,1.0047075E0,8.20133E1,1.1756357E0,1.3949565E1,1.1521434E0,2.5331219E1,1.0086334E0,1.337161E2,1.0537096E0,6.3828965E3,6.035056E0,1.0064161E0,1.5308349E0,1.2927407E0,1.0111604E0,8.100214E1,1.5305174E1,1.0026044E1,1.0463206E0,1.3266977E2,2.1442037E0,6.3807524E3,1.036098E0,8.989946E0,6.3468447E3,3.39078E1],"tree_param":{"num_deleted":"0","num_feature":"384","num_nodes":"69","size_leaf_vector":"0"}},{"base_weights":[-1.171376E0,-1.2072679E0,3.347948E-1,-1.2220489E0,-7.5756425E-1,-6.4338267E-1,1.1074778E0,-9.790449E-2,-1.2229993E0,4.6087337E-1,-1.1582754E0,-1.0879563E0,5.606317E-1,-6.330075E-1,1.1805164E0,8.636753E-1,-8.946806E-1,-1.0408131E0,-1.2275325E0,1.1487654E0,-8.7442183E-1,-1.1815166E0,4.7880673E-1,-1.1928616E0,4.965737E-1,-8.351892E-1,9.707513E-1,-9.390896E-2,-8.199598E-1,1.2058742E0,-2.2034697E-1,-1.1759274E0,1.1762422E0,-5.246103E-2,-1.2279601E0,1.2796328E0,-8.6452645E-1,3.5526732E-1,-1.1359622E0,5.4038286E-1,-1.20124E0,-1.2151061E0,-2.4067578E-1,-5.606109E-2,7.6190543E-1,1.1579577E0,-2.0518222E-4,1.227784E0,2.8260145E-1,-1.2003433E0,6.849293E-1,1.5383401E0,-5.2288026E-1,-1.228301E0,-2.4503198E-1,1.3810807E0,-6.3559055E-1,8.2473683E-1,-3.91653E-1,9.477283E-2,-1.2148955E0,7.395091E-1,-7.348057E-1,-3.143395E-2,-1.2111952E0,-1.2286413E0,-3.0491292E-1,2.4910605E-1,1.416608E0,-1.2191879E0,-3.4435302E-1,-1.6548003E-1,-1.2186711E0,-1.2288347E0,-1.9480632E-1],"categories":[],"categories_nodes":[],"categories_segments":[],"categories_sizes":[],"default_left":[1,1,1,1,1,1,1,1,1,1,1,1,1,1,1,0,0,1,1,1,1,1,0,1,1,0,1,0,0,1,0,1,1,0,1,1,0,1,0,0,1,0,0,0,0,0,1,0,0,1,0,0,0,1,0,1,0,0,0,0,1,0,0,0,1,1,0,0,0,0,0,0,0,0,0],"id":3,"left_children":[1,3,5,7,9,11,13,15,17,19,21,23,25,27,29,-1,-1,31,33,35,37,39,-1,41,43,-1,45,-1,-1,47,-1,49,51,-1,53,55,-1,57,-1,-1,59,-1,-1,-1,-1,-1,61,-1,-1,63,-1,-1,-1,65,-1,67,-1,-1,-1,-1,69,-1,-1,-1,71,73,-1,-1,-1,-1,-1,-1,-1,-1,-1],"loss_changes":[2.9327783E2,3.4248535E1,9.661078E1,5.352051E0,8.4036285E1,3.0920599E1,9.805145E0,4.92025E0,2.9487305E0,4.0539856E1,5.473343E0,7.5233116E0,9.930157E0,2.7782702E-1,2.707283E0,0E0,0E0,4.056932E1,2.4414062E0,8.704723E0,5.292775E0,4.9781494E0,0E0,5.421028E-1,5.2589214E-1,0E0,2.3223658E0,0E0,0E0,1.0218048E0,0E0,6.44693E0,5.7351027E0,0E0,1.3696289E0,6.217514E0,0E0,1.5250592E0,0E0,0E0,2.3509827E0,0E0,0E0,0E0,0E0,0E0,2.2087946E0,0E0,0E0,1.5165863E0,0E0,0E0,0E0,1.1914062E0,0E0,7.094269E-1,0E0,0E0,0E0,0E0,4.7592163E-2,0E0,0E0,0E0,7.474365E-1,7.5683594E-1,0E0,0E0,0E0,0E0,0E0,0E0,0E0,0E0,0E0],"parents":[2147483647,0,0,1,1,2,2,3,3,4,4,5,5,6,6,7,7,8,8,9,9,10,10,11,11,12,12,13,13,14,14,17,17,18,18,19,19,20,20,21,21,23,23,24,24,26,26,29,29,31,31,32,32,34,34,35,35,37,37,40,40,46,46,49,49,53,53,55,55,60,60,64,64,65,65],"right_children":[2,4,6,8,10,12,14,16,18,20,22,24,26,28,30,-1,-1,32,34,36,38,40,-1,42,44,-1,46,-1,-1,48,-1,50,52,-1,54,56,-1,58,-1,-1,60,-1,-1,-1,-1,-1,62,-1,-1,64,-1,-1,-1,66,-1,68,-1,-1,-1,-1,70,-1,-1,-1,72,74,-1,-1,-1,-1,-1,-1,-1,-1,-1],"split_conditions":[2.1816263E0,1.8585498E0,1.2744933E0,-1.3168862E0,-8.825369E-1,3.978754E0,-4.30844E-1,-5.5151606E-1,-1.8530818E0,1.2820965E-2,9.525047E-1,1.4605298E0,-2.8384247E-1,-2.041474E0,-2.2593197E-1,2.591026E-1,-2.684042E-1,2.02062E0,-4.724898E0,7.094432E-1,-9.601505E-1,-2.373946E0,1.4364202E-1,2.3718448E0,-3.4617323E-1,-2.5055677E-1,4.587955E-1,-2.8172689E-2,-2.4598795E-1,9.029443E-1,-6.610409E-2,2.4661016E0,4.1776523E-2,-1.573831E-2,3.9649181E0,-1.3913602E0,-2.5935796E-1,-4.966569E-3,-3.407887E-1,1.6211486E-1,-2.2311282E0,-3.6453184E-1,-7.2202735E-2,-1.6818328E-2,2.2857164E-1,3.473873E-1,-5.524857E-1,3.6833522E-1,8.478044E-2,-4.296873E-1,2.054788E-1,4.6150205E-1,-1.5686408E-1,3.13821E0,-7.35096E-2,-9.947612E-1,-1.9067718E-1,2.4742106E-1,-1.174959E-1,2.843185E-2,2.1896996E0,2.2185273E-1,-2.2044171E-1,-9.430186E-3,-2.035717E0,5.7986803E0,-9.147388E-2,7.473182E-2,4.249824E-1,-3.6575636E-1,-1.0330591E-1,-4.9644012E-2,-3.6560133E-1,-3.6865044E-1,-5.84419E-2],"split_indices":[310,38,373,52,323,315,281,323,348,275,267,267,221,1,91,0,0,359,342,321,259,338,0,356,19,0,261,0,0,307,0,373,290,0,381,9,0,22,0,0,342,0,0,0,0,0,116,0,0,275,0,0,0,286,0,258,0,0,0,0,315,0,0,0,20,75,0,0,0,0,0,0,0,0,0],"split_type":[0,0,0,0,0,0,0,0,0,0,0,0,0,0,0,0,0,0,0,0,0,0,0,0,0,0,0,0,0,0,0,0,0,0,0,0,0,0,0,0,0,0,0,0,0,0,0,0,0,0,0,0,0,0,0,0,0,0,0,0,0,0,0,0,0,0,0,0,0,0,0,0,0,0,0],"sum_hessian":[5.416622E3,5.290742E3,1.2587957E2,5.1207153E3,1.7002696E2,5.5626534E1,7.025304E1,4.4133806E0,5.116302E3,4.204156E1,1.27985405E2,4.0696163E1,1.4930372E1,2.5206246E0,6.773241E1,1.9618196E0,2.451561E0,1.2981415E2,4.986488E3,2.783945E1,1.420211E1,1.2646825E2,1.5171618E0,3.8400974E1,2.2951899E0,3.1552358E0,1.1775136E1,1.0358748E0,1.4847498E0,6.666486E1,1.0675458E0,1.22799934E2,7.0142126E0,1.858541E0,4.9846294E3,2.6482454E1,1.3569952E0,2.4279962E0,1.1774114E1,1.1332617E0,1.25334984E2,3.7254524E1,1.1464471E0,1.0003557E0,1.2948343E0,9.710329E0,2.064807E0,6.479736E1,1.8675003E0,1.2155993E2,1.2400078E0,5.860018E0,1.1541948E0,4.9826514E3,1.9779896E0,2.5415129E1,1.0673268E0,1.42693E0,1.0010661E0,1.2448936E0,1.2409009E2,1.0254931E0,1.0393138E0,1.1540061E0,1.2040592E2,4.9804854E3,2.1659546E0,1.0171826E0,2.4397945E1,1.2308272E2,1.0073719E0,1.0188937E0,1.1938703E2,4.979365E3,1.1201975E0],"tree_param":{"num_deleted":"0","num_feature":"384","num_nodes":"75","size_leaf_vector":"0"}},{"base_weights":[-1.1002197E0,-1.1346865E0,3.0506745E-1,-6.5695775E-1,-1.1486062E0,-8.1223416E-1,8.7144715E-1,-1.0624231E0,4.5180982E-1,-1.149621E0,1.7519815E-1,-1.0837483E0,6.715513E-1,-3.357195E-1,1.0760086E0,-1.10073E0,6.5365976E-1,1.0041251E0,-9.6323603E-1,1.6967292E-1,-1.1503508E0,-7.7905595E-1,9.5232284E-1,-1.131124E0,1.3079947E-1,-3.6167097E-1,9.59768E-1,-7.157675E-1,5.819118E-1,1.1052489E0,-2.532664E-1,-1.1242129E0,2.8848082E-1,1.1909457E0,-6.0865295E-1,-1.6132097E-1,-1.0372108E0,-3.3804035E-1,5.8149755E-1,-9.168121E-1,-1.1557832E0,-1.0134479E0,5.818923E-1,7.9816735E-1,2.92349E-3,2.5479746E-1,1.1297452E0,-1.1444713E0,3.992033E-2,1.2877836E0,-3.520054E-1,-1.0897549E0,1.0452405E0,4.0333492E-1,-1.1562924E0,1.3752675E-1,1.1455162E0,1.3366029E0,2.0363106E-1,-1.1305301E0,5.8024603E-1,1.3364958E0,-5.0884E-1,-1.1567082E0,-2.510219E-1,-2.9067743E-1,-1.1514257E0,-1.156963E0,-2.2362468E-1],"categories":[],"categories_nodes":[],"categories_segments":[],"categories_sizes":[],"default_left":[1,1,1,1,1,1,1,1,1,1,1,1,1,1,1,1,0,1,1,1,1,0,0,0,0,0,0,1,1,1,0,1,0,1,0,0,0,0,0,1,1,0,0,0,0,0,1,0,0,1,0,1,1,0,1,0,0,0,0,1,0,0,0,1,0,0,0,0,0],"id":4,"left_children":[1,3,5,7,9,11,13,15,17,19,21,23,25,27,29,31,-1,33,35,37,39,-1,-1,-1,-1,-1,-1,41,43,45,-1,47,-1,49,-1,-1,-1,-1,-1,51,53,-1,-1,-1,-1,-1,55,-1,-1,57,-1,59,61,-1,63,-1,-1,-1,-1,65,-1,-1,-1,67,-1,-1,-1,-1,-1],"loss_changes":[2.0534912E2,2.671875E1,6.532541E1,5.4115303E1,5.5932617E0,1.4774656E1,1.7213383E1,6.481842E0,2.6483057E1,4.0561523E0,3.6653087E0,1.8658829E0,2.1370714E0,4.130929E0,2.557335E0,3.133644E0,0E0,7.947586E0,4.0666485E-1,8.423427E-1,4.0249023E0,0E0,0E0,0E0,0E0,0E0,0E0,3.6722875E0,4.572929E-1,9.104233E-1,0E0,2.047638E0,0E0,3.713787E0,0E0,0E0,0E0,0E0,0E0,3.369615E1,3.5737305E0,0E0,0E0,0E0,0E0,0E0,7.127609E-1,0E0,0E0,8.2593155E-1,0E0,6.6935806E0,4.4290123E0,0E0,1.1821289E0,0E0,0E0,0E0,0E0,1.1901703E0,0E0,0E0,0E0,6.7089844E-1,0E0,0E0,0E0,0E0,0E0],"parents":[2147483647,0,0,1,1,2,2,3,3,4,4,5,5,6,6,7,7,8,8,9,9,10,10,11,11,12,12,13,13,14,14,15,15,17,17,18,18,19,19,20,20,27,27,28,28,29,29,31,31,33,33,39,39,40,40,46,46,49,49,51,51,52,52,54,54,59,59,63,63],"right_children":[2,4,6,8,10,12,14,16,18,20,22,24,26,28,30,32,-1,34,36,38,40,-1,-1,-1,-1,-1,-1,42,44,46,-1,48,-1,50,-1,-1,-1,-1,-1,52,54,-1,-1,-1,-1,-1,56,-1,-1,58,-1,60,62,-1,64,-1,-1,-1,-1,66,-1,-1,-1,68,-1,-1,-1,-1,-1],"split_conditions":[2.1816263E0,-2.0685067E0,6.6346925E-1,5.775318E-1,3.9792333E0,5.40419E0,5.802824E-1,1.9553099E0,-6.2023413E-1,-4.735555E0,1.9547512E-1,1.8793442E0,2.2613581E-2,1.3403711E0,4.382757E-1,1.056654E0,1.9609794E-1,6.1173123E-1,-1.3368077E0,-6.41716E-1,-1.8521768E0,-2.337168E-1,2.8569686E-1,-3.3933723E-1,3.9239842E-2,-1.0850129E-1,2.879304E-1,1.9453974E0,-9.371977E-1,-1.5221759E0,-7.597992E-2,2.0615687E0,8.6544245E-2,6.775484E-1,-1.825959E-1,-4.8396293E-2,-3.1116325E-1,-1.0141211E-1,1.7444927E-1,2.0158813E0,-3.8065324E0,-3.0403438E-1,1.745677E-1,2.3945022E-1,8.77047E-4,7.643924E-2,-1.0873625E0,-3.433414E-1,1.19761E-2,5.3404474E-1,-1.0560162E-1,2.4536824E0,1.11965686E-1,1.21000476E-1,3.13821E0,4.1258026E-2,3.4365487E-1,4.009809E-1,6.108932E-2,-5.4577494E-1,1.7407382E-1,4.0094873E-1,-1.5265201E-1,3.7399366E0,-7.530657E-2,-8.7203234E-2,-3.4542772E-1,-3.470889E-1,-6.7087404E-2],"split_indices":[310,9,267,286,381,310,332,349,323,342,140,381,269,373,372,267,0,351,285,285,348,0,0,0,0,0,0,29,86,231,0,344,0,321,0,0,0,0,0,359,339,0,0,0,0,0,19,0,0,328,0,373,290,0,286,0,0,0,0,269,0,0,0,232,0,0,0,0,0],"split_type":[0,0,0,0,0,0,0,0,0,0,0,0,0,0,0,0,0,0,0,0,0,0,0,0,0,0,0,0,0,0,0,0,0,0,0,0,0,0,0,0,0,0,0,0,0,0,0,0,0,0,0,0,0,0,0,0,0,0,0,0,0,0,0,0,0,0,0,0,0],"sum_hessian":[4.2314854E3,4.1303745E3,1.0111103E2,1.1830436E2,4.01207E3,3.386709E1,6.724394E1,8.665667E1,3.164769E1,4.009128E3,2.9421477E0,2.8856342E1,5.010745E0,9.650839E0,5.75931E1,8.511529E1,1.5413837E0,2.2971813E1,8.675877E0,2.0885103E0,4.0070396E3,1.3194596E0,1.622688E0,2.7839113E1,1.0172286E0,1.0372982E0,3.973447E0,6.97998E0,2.670859E0,5.651839E1,1.0747106E0,8.388801E1,1.2272753E0,2.0821459E1,2.1503556E0,1.0013727E0,7.674504E0,1.0156016E0,1.0729086E0,9.494725E1,3.9120923E3,5.855711E0,1.124269E0,1.6689434E0,1.0019156E0,1.9015843E0,5.4616806E1,8.246975E1,1.4182593E0,1.9747456E1,1.0740035E0,8.7664734E1,7.282518E0,1.0191467E0,3.911073E3,1.0066141E0,5.3610195E1,1.8673725E1,1.0737293E0,8.589064E1,1.7740961E0,6.2510056E0,1.0315124E0,3.9089998E3,2.0731754E0,2.4470634E0,8.344357E1,3.9076929E3,1.306996E0],"tree_param":{"num_deleted":"0","num_feature":"384","num_nodes":"69","size_leaf_vector":"0"}},{"base_weights":[-1.0515628E0,-1.0855886E0,2.838067E-1,-1.1025968E0,-6.816416E-1,-5.435069E-1,9.549428E-1,-1.0298785E-2,-1.1032704E0,4.0126115E-1,-1.0321647E0,-1.0120137E0,3.4248284E-1,-5.0712574E-1,1.0339981E0,-4.3870074E-1,-1.1043818E0,1.0533856E0,-5.866855E-1,5.113737E-1,-1.0539142E0,2.3442945E-1,-1.0787376E0,-5.984476E-1,8.015042E-1,1.0666965E0,-1.6813576E-1,-9.206726E-1,1.1393521E0,-1.1065106E0,-7.113189E-1,-5.129425E-1,1.1857691E0,7.075991E-1,-8.343789E-1,-1.0838376E0,1.4325349E-1,-8.3189005E-1,2.7666597E-2,-1.6610928E-1,9.59012E-1,7.415426E-2,1.1019133E0,5.888294E-2,-1.1069459E0,1.2391845E0,-1.032789E0,1.2331717E0,1.8170215E-1,4.841378E-1,-1.0292385E0,-6.796751E-2,-1.0958996E0,-5.589969E-1,7.0122606E-1,1.0266038E0,2.358892E-1,-2.8231446E-2,-1.1073307E0,3.8348743E-1,1.4694146E0,-1.5929185E-1,-1.1048418E0,-3.0016133E-1,-1.1078942E0],"categories":[],"categories_nodes":[],"categories_segments":[],"categories_sizes":[],"default_left":[1,1,1,1,1,1,1,0,1,1,1,1,1,0,1,1,1,1,1,0,1,0,0,1,1,1,0,0,0,1,1,0,1,0,1,1,1,0,0,0,1,0,0,0,1,1,0,0,0,0,0,0,1,0,0,0,0,0,1,0,0,0,0,0,0],"id":5,"left_children":[1,3,5,7,9,11,13,-1,15,17,19,21,23,-1,25,27,29,31,33,-1,35,-1,-1,37,39,41,-1,-1,-1,43,45,-1,47,-1,49,51,53,-1,-1,-1,55,-1,-1,-1,57,59,-1,-1,-1,-1,-1,-1,61,-1,-1,-1,-1,-1,63,-1,-1,-1,-1,-1,-1],"loss_changes":[1.4837451E2,2.108252E1,4.5917194E1,2.2316895E0,5.0147327E1,1.5812076E1,5.784054E0,0E0,1.7651367E0,2.1723616E1,3.8712692E0,2.3007774E0,6.36841E0,0E0,1.8892403E0,6.178504E0,1.7568359E0,4.774269E0,4.9721727E0,0E0,3.6734467E0,0E0,0E0,7.6010644E-1,1.6210804E0,1.4032936E0,0E0,0E0,0E0,1.5981445E0,1.3304784E1,0E0,6.720314E-1,0E0,3.5637627E0,1.1009979E0,1.6764829E0,0E0,0E0,0E0,1.6822052E-1,0E0,0E0,0E0,1.2226562E0,6.0636997E-2,0E0,0E0,0E0,0E0,0E0,0E0,6.174774E-1,0E0,0E0,0E0,0E0,0E0,1.0412598E0,0E0,0E0,0E0,0E0,0E0,0E0],"parents":[2147483647,0,0,1,1,2,2,3,3,4,4,5,5,6,6,8,8,9,9,10,10,11,11,12,12,14,14,15,15,16,16,17,17,18,18,20,20,23,23,24,24,25,25,29,29,30,30,32,32,34,34,35,35,36,36,40,40,44,44,45,45,52,52,58,58],"right_children":[2,4,6,8,10,12,14,-1,16,18,20,22,24,-1,26,28,30,32,34,-1,36,-1,-1,38,40,42,-1,-1,-1,44,46,-1,48,-1,50,52,54,-1,-1,-1,56,-1,-1,-1,58,60,-1,-1,-1,-1,-1,-1,62,-1,-1,-1,-1,-1,64,-1,-1,-1,-1,-1,-1],"split_conditions":[2.1816263E0,1.7739648E0,1.2744933E0,-2.8717082E0,-8.825369E-1,3.5859203E0,-4.30844E-1,-3.0896356E-3,-3.6298137E0,-5.558423E-1,-2.3579655E0,-2.0042338E0,-2.260706E-1,-1.5213773E-1,-2.4909288E-1,9.3106246E-1,2.6533031E0,-1.2603341E-1,-2.518521E-1,1.5341212E-1,1.9644263E0,7.032884E-2,-3.236213E-1,-4.2066598E-1,-1.1064884E-1,9.378658E-1,-5.0440732E-2,-2.7620178E-1,3.4180564E-1,-5.141406E0,-1.1118672E-1,-1.5388276E-1,-1.5149329E0,2.1227974E-1,-1.5408475E0,-2.815464E0,9.263922E-1,-2.4956702E-1,8.299979E-3,-4.9832787E-2,-4.7041273E-1,2.2246279E-2,3.30574E-1,1.7664883E-2,-3.9073467E0,9.446074E-1,-3.0983672E-1,3.6995152E-1,5.451065E-2,1.4524135E-1,-3.0877155E-1,-2.0390254E-2,-1.2472203E0,-1.6769908E-1,2.1036783E-1,3.0798116E-1,7.076676E-2,-8.469434E-3,-1.7346816E0,1.1504623E-1,4.408244E-1,-4.778756E-2,-3.3145255E-1,-9.00484E-2,-3.3236825E-1],"split_indices":[310,38,373,35,323,315,281,0,260,298,355,360,114,0,91,58,381,320,275,0,333,0,0,289,300,36,0,0,0,342,275,0,137,0,351,350,46,0,0,0,219,0,0,0,347,267,0,0,0,0,0,0,308,0,0,0,0,0,122,0,0,0,0,0,0],"split_type":[0,0,0,0,0,0,0,0,0,0,0,0,0,0,0,0,0,0,0,0,0,0,0,0,0,0,0,0,0,0,0,0,0,0,0,0,0,0,0,0,0,0,0,0,0,0,0,0,0,0,0,0,0,0,0,0,0,0,0,0,0,0,0,0,0],"sum_hessian":[3.2577192E3,3.176956E3,8.076315E1,3.0469353E3,1.3002072E2,3.625794E1,4.450522E1,1.888261E0,3.045047E3,3.1759249E1,9.826147E1,2.362364E1,1.2634298E1,2.0052266E0,4.249999E1,5.7442656E0,3.0393027E3,1.9091248E1,1.2668001E1,1.0525298E0,9.720894E1,1.0726413E0,2.2550999E1,4.042987E0,8.591311E0,4.148427E1,1.015721E0,4.719426E0,1.0248393E0,3.021125E3,1.8177702E1,1.263784E0,1.7827463E1,1.7366494E0,1.0931352E1,9.4930786E1,2.278153E0,2.705576E0,1.3374107E0,1.1950684E0,7.396243E0,1.5279012E0,3.9956367E1,1.0776043E0,3.0200474E3,2.1681035E0,1.60096E1,1.680587E1,1.0215937E0,1.2163532E0,9.714999E0,1.191795E0,9.373899E1,1.0078553E0,1.2702975E0,6.3801913E0,1.0160518E0,1.1034812E0,3.018944E3,1.0248201E0,1.1432834E0,1.0644265E0,9.267456E1,2.4785268E0,3.0164653E3],"tree_param":{"num_deleted":"0","num_feature":"384","num_nodes":"65","size_leaf_vector":"0"}},{"base_weights":[-1.0150323E0,-1.0491437E0,2.6109836E-1,-1.0618421E0,-4.352628E-1,-8.2985765E-1,7.0993763E-1,-1.0674642E0,-3.0683458E-1,-9.704735E-1,1.232789E0,2.7730235E-1,-9.11986E-1,-8.4114295E-1,8.6606324E-1,8.007823E-1,-1.069068E0,-1.0050184E0,1.0640702E0,-1.0533069E0,7.0999116E-1,-1.2396616E-1,1.3642548E0,-1.0048083E0,1.01459116E-1,9.4757444E-1,-3.495447E-1,-8.9472085E-2,-1.0713065E0,3.3412036E-1,1.4625438E0,-2.3100236E-1,-1.0387857E0,9.95678E-1,-4.755605E-1,-7.3347986E-1,2.050909E-1,-8.700588E-1,1.3956095E0,-1.8643901E-1,-1.0732014E0,2.0526446E-1,1.0417047E0,7.025554E-1,-8.298386E-1,1.6821082E-1,-1.074324E0,-4.3502867E-1,6.518153E-1,1.0642812E0,1.1200184E-1,-1.0763904E0,-5.858688E-1],"categories":[],"categories_nodes":[],"categories_segments":[],"categories_sizes":[],"default_left":[1,1,1,1,1,1,1,1,1,1,1,0,1,0,1,0,1,0,0,0,0,0,1,1,0,1,1,1,1,0,0,0,0,1,0,0,0,0,0,1,1,1,1,0,0,0,1,0,0,0,0,0,0],"id":6,"left_children":[1,3,5,7,9,11,13,15,17,19,21,-1,23,-1,25,-1,27,-1,-1,-1,-1,-1,29,31,-1,33,35,37,39,-1,-1,-1,-1,41,-1,-1,-1,-1,-1,43,45,47,49,-1,-1,-1,51,-1,-1,-1,-1,-1,-1],"loss_changes":[1.0860547E2,1.8433838E1,3.270656E1,9.750244E0,4.656703E1,2.0333157E0,1.211269E1,7.91626E0,1.9209286E1,6.18145E0,2.449667E0,0E0,1.8386087E0,0E0,4.612118E0,0E0,5.067383E0,0E0,0E0,0E0,0E0,0E0,6.9997215E-1,2.0710564E-1,0E0,3.2637444E0,8.841226E-1,8.702191E0,3.7390137E0,0E0,0E0,0E0,0E0,1.2322502E0,0E0,0E0,0E0,0E0,0E0,4.146698E0,3.4475098E0,1.2650394E0,6.6405106E-1,0E0,0E0,0E0,1.7331543E0,0E0,0E0,0E0,0E0,0E0,0E0],"parents":[2147483647,0,0,1,1,2,2,3,3,4,4,5,5,6,6,7,7,8,8,9,9,10,10,12,12,14,14,16,16,22,22,23,23,25,25,26,26,27,27,28,28,33,33,39,39,40,40,41,41,42,42,46,46],"right_children":[2,4,6,8,10,12,14,16,18,20,22,-1,24,-1,26,-1,28,-1,-1,-1,-1,-1,30,32,-1,34,36,38,40,-1,-1,-1,-1,42,-1,-1,-1,-1,-1,44,46,48,50,-1,-1,-1,52,-1,-1,-1,-1,-1,-1],"split_conditions":[2.1816263E0,9.4150245E-1,3.65458E-1,2.6090956E0,1.4365482E0,-1.7562253E0,7.8003764E-1,-5.8317795E0,1.704618E0,2.3580122E0,-2.1669269E-1,8.319071E-2,5.0209236E0,-2.523429E-1,4.56647E-1,2.402347E-1,-3.6298137E0,-3.015055E-1,3.1922108E-1,-3.159921E-1,2.1299736E-1,-3.718985E-2,-4.6639383E-2,-1.0208384E0,3.0437736E-2,3.9751196E-1,-5.9462655E-1,1.5926691E0,-1.3166101E0,1.0023611E-1,4.3876317E-1,-6.930071E-2,-3.1163573E-1,-4.7931486E-1,-1.4266816E-1,-2.2004397E-1,6.152727E-2,-2.6101765E-1,4.1868287E-1,-7.5145304E-1,-4.735555E0,-2.4409139E-1,2.0914812E0,2.1076663E-1,-2.4895158E-1,5.0463248E-2,2.659028E0,-1.305086E-1,1.955446E-1,3.1928438E-1,3.3600554E-2,-3.2291713E-1,-1.7576064E-1],"split_indices":[310,267,332,335,359,360,315,346,365,336,332,0,315,0,261,0,260,0,0,0,0,0,276,374,0,306,123,256,52,0,0,0,0,222,0,0,0,0,0,323,342,160,46,0,0,0,373,0,0,0,0,0,0],"split_type":[0,0,0,0,0,0,0,0,0,0,0,0,0,0,0,0,0,0,0,0,0,0,0,0,0,0,0,0,0,0,0,0,0,0,0,0,0,0,0,0,0,0,0,0,0,0,0,0,0,0,0,0,0],"sum_hessian":[2.4876274E3,2.4230366E3,6.459072E1,2.373216E3,4.9820686E1,1.8580286E1,4.6010437E1,2.355264E3,1.7952097E1,3.803499E1,1.1785699E1,1.1189833E0,1.7461302E1,3.8064463E0,4.220399E1,1.5927578E0,2.3536711E3,1.2071259E1,5.8808384E0,3.6603916E1,1.4310726E0,1.0461587E0,1.073954E1,1.6004004E1,1.4572986E0,3.975852E1,2.44547E0,5.4593716E0,2.3482117E3,1.3186436E0,9.420897E0,1.0012019E0,1.5002802E1,3.874912E1,1.0094004E0,1.2545676E0,1.1909025E0,3.8499172E0,1.6094545E0,5.2304606E0,2.3429812E3,2.432671E0,3.631645E1,2.1574872E0,3.0729735E0,1.9823679E0,2.340999E3,1.0101115E0,1.4225597E0,3.5314137E1,1.0023102E0,2.3299385E3,1.1060445E1],"tree_param":{"num_deleted":"0","num_feature":"384","num_nodes":"53","size_leaf_vector":"0"}},{"base_weights":[-9.873615E-1,-1.0218686E0,2.333253E-1,-6.5825E-1,-1.0467803E0,-4.7164118E-1,8.422619E-1,4.63167E-1,-9.4575167E-1,1.5284447E-1,-1.0479678E0,-9.197275E-1,2.6884243E-1,9.281088E-1,-4.541335E-1,9.442133E-1,-7.0894396E-1,-9.980361E-1,5.362931E-1,-1.0487634E0,8.2420185E-2,-1.004103E0,1.24477975E-1,-6.55191E-1,6.108573E-1,9.918832E-1,-2.357991E-1,1.1569116E0,-2.899588E-1,2.799102E-1,-9.1337353E-1,6.273896E-1,-1.02246E0,8.100232E-1,-1.2069033E-1,-5.0730354E-1,-1.0506059E0,-2.7085355E-1,7.805265E-1,1.0317538E0,1.3898462E-2,1.2142334E0,1.8589199E-1,-7.097954E-1,3.7736502E-1,4.7694102E-1,-1.0442286E0,-9.034444E-1,1.0739589E0,-1.0511862E0,-3.4552865E-2,9.018052E-2,8.84967E-1,-1.0502518E0,-2.5372058E-1,-1.0517526E0,-6.3307755E-2,-1.2452998E-1,-1.0523343E0],"categories":[],"categories_nodes":[],"categories_segments":[],"categories_sizes":[],"default_left":[1,1,1,1,1,1,1,1,1,0,1,1,1,1,0,1,1,1,1,1,0,0,0,0,1,1,0,1,1,0,0,0,1,0,0,1,1,0,1,0,0,0,0,0,0,0,1,0,0,1,0,0,0,0,0,1,0,0,0],"id":7,"left_children":[1,3,5,7,9,11,13,15,17,-1,19,21,23,25,-1,27,29,31,33,35,-1,-1,-1,-1,37,39,-1,41,43,-1,-1,-1,45,-1,-1,47,49,-1,51,-1,-1,-1,-1,-1,-1,-1,53,-1,-1,55,-1,-1,-1,-1,-1,57,-1,-1,-1],"loss_changes":[7.978906E1,1.5949585E1,2.3034628E1,3.927782E1,2.6064453E0,8.569038E0,3.6102924E0,1.4908392E1,7.990631E0,0E0,1.6295166E0,1.5215921E0,3.6329699E0,2.253004E0,0E0,5.1482487E0,1.856622E0,4.3448105E0,8.043537E-1,1.1776123E0,0E0,0E0,0E0,0E0,1.4057035E0,9.987221E-1,0E0,6.5590286E-1,1.2469797E0,0E0,0E0,0E0,3.51017E0,0E0,0E0,5.8240333E0,9.708252E-1,0E0,4.214754E-1,0E0,0E0,0E0,0E0,0E0,0E0,0E0,1.6812897E-1,0E0,0E0,8.8842773E-1,0E0,0E0,0E0,0E0,0E0,7.890625E-1,0E0,0E0,0E0],"parents":[2147483647,0,0,1,1,2,2,3,3,4,4,5,5,6,6,7,7,8,8,10,10,11,11,12,12,13,13,15,15,16,16,17,17,18,18,19,19,24,24,25,25,27,27,28,28,32,32,35,35,36,36,38,38,46,46,49,49,55,55],"right_children":[2,4,6,8,10,12,14,16,18,-1,20,22,24,26,-1,28,30,32,34,36,-1,-1,-1,-1,38,40,-1,42,44,-1,-1,-1,46,-1,-1,48,50,-1,52,-1,-1,-1,-1,-1,-1,-1,54,-1,-1,56,-1,-1,-1,-1,-1,58,-1,-1,-1],"split_conditions":[2.1816263E0,-1.6371598E0,1.2744933E0,-1.1826605E0,-4.735555E0,3.5859203E0,-5.700332E-1,-4.0131754E-1,9.6388465E-1,4.5853343E-2,3.9649181E0,1.4605298E0,-3.8739926E-1,9.029443E-1,-1.3624007E-1,-3.50749E-1,-5.173043E-2,-3.3784735E0,-6.3222784E-1,-2.747237E0,2.4726057E-2,-3.012309E-1,3.7343394E-2,-1.9655731E-1,-4.4251955E-1,5.2854884E-1,-7.073973E-2,-5.794778E-1,2.1561119E-1,8.3973065E-2,-2.7401206E-1,1.882169E-1,-3.357862E0,2.4300696E-1,-3.6207102E-2,4.197502E-1,6.807719E0,-8.125607E-2,-2.3940809E-1,3.0952615E-1,4.1695386E-3,3.6427003E-1,5.57676E-2,-2.1293864E-1,1.1320951E-1,1.430823E-1,1.9426799E0,-2.7103335E-1,3.2218766E-1,4.0826044E0,-1.036586E-2,2.7054159E-2,2.654901E-1,-3.1507558E-1,-7.6116174E-2,-4.7616982E0,-1.8992327E-2,-3.7358996E-2,-3.157003E-1],"split_indices":[310,9,373,323,342,315,325,298,267,0,381,267,221,307,0,325,378,355,285,347,0,0,0,0,303,225,0,158,269,0,0,0,346,0,0,265,285,0,335,0,0,0,0,0,0,0,363,0,0,309,0,0,0,0,0,308,0,0,0],"split_type":[0,0,0,0,0,0,0,0,0,0,0,0,0,0,0,0,0,0,0,0,0,0,0,0,0,0,0,0,0,0,0,0,0,0,0,0,0,0,0,0,0,0,0,0,0,0,0,0,0,0,0,0,0,0,0,0,0,0,0],"sum_hessian":[1.8875579E3,1.8358245E3,5.1733383E1,1.19467316E2,1.7163572E3,2.4080654E1,2.7652729E1,2.425363E1,9.521369E1,1.5709152E0,1.7147863E3,1.4851533E1,9.229121E0,2.6201744E1,1.4509863E0,1.733401E1,6.91962E0,9.22846E1,2.9290867E0,1.7136523E3,1.133897E0,1.3776731E1,1.0748028E0,2.245823E0,6.9832983E0,2.4980762E1,1.2209808E0,1.4839208E1,2.4948008E0,1.1221927E0,5.7974277E0,1.0006889E0,9.128391E1,1.9031867E0,1.0259001E0,6.748644E0,1.7069037E3,1.0307088E0,5.9525895E0,2.3949413E1,1.0313501E0,1.3775531E1,1.0636777E0,1.4922991E0,1.0025017E0,1.0070858E0,9.0276825E1,5.739444E0,1.0092001E0,1.7058948E3,1.0089619E0,1.0270838E0,4.9255056E0,8.926808E1,1.0087469E0,1.7048528E3,1.0419993E0,1.2038248E0,1.7036489E3],"tree_param":{"num_deleted":"0","num_feature":"384","num_nodes":"59","size_leaf_vector":"0"}},{"base_weights":[-9.646294E-1,-1.0077564E0,5.3707026E-2,-1.0126392E0,3.7167922E-1,-8.4594285E-1,8.701914E-1,-1.0193255E0,-1.3249409E-1,-5.264297E-1,7.12484E-1,5.7797754E-1,-9.7543204E-1,9.889493E-1,-3.0112895E-1,7.126698E-1,-1.0214795E0,-9.0019166E-1,7.8088605E-1,-1.011058E0,-5.0897576E-2,-2.2307985E-1,1.0556878E0,3.3230957E-1,-6.8680716E-1,-1.0272804E0,-2.5918928E-1,8.913455E-1,1.3289884E-1,1.1145495E0,-2.3274767E-1,8.67674E-2,-1.0305253E0,-9.1799706E-1,9.7675467E-1,-7.384446E-1,1.1602802E0,1.0727033E-1,-1.0322782E0,1.3092388E-1,-1.0336686E0],"categories":[],"categories_nodes":[],"categories_segments":[],"categories_sizes":[],"default_left":[1,1,1,1,1,1,1,1,1,0,0,0,1,1,1,0,1,0,1,0,0,0,1,0,0,1,1,0,0,0,0,1,1,0,0,0,0,0,1,0,0],"id":8,"left_children":[1,3,5,7,9,11,13,15,17,-1,-1,-1,19,21,23,-1,25,-1,27,-1,-1,-1,29,-1,-1,31,33,-1,-1,-1,-1,35,37,-1,-1,-1,-1,-1,39,-1,-1],"loss_changes":[6.2780884E1,9.606079E0,4.4059772E1,7.9022217E0,2.078364E0,5.8311863E0,4.6673164E0,5.7841797E0,8.729248E0,0E0,0E0,0E0,8.2331276E-1,2.5613651E0,1.121944E0,0E0,5.7213135E0,0E0,2.9401875E-1,0E0,0E0,0E0,2.3395042E0,0E0,0E0,4.945923E0,1.0312301E1,0E0,0E0,0E0,0E0,5.1302915E0,2.7823486E0,0E0,0E0,0E0,0E0,0E0,2.2989502E0,0E0,0E0],"parents":[2147483647,0,0,1,1,2,2,3,3,4,4,5,5,6,6,7,7,8,8,12,12,13,13,14,14,16,16,18,18,22,22,25,25,26,26,31,31,32,32,38,38],"right_children":[2,4,6,8,10,12,14,16,18,-1,-1,-1,20,22,24,-1,26,-1,28,-1,-1,-1,30,-1,-1,32,34,-1,-1,-1,-1,36,38,-1,-1,-1,-1,-1,40,-1,-1],"split_conditions":[8.9901143E-1,4.8791447E0,1.3591127E0,2.659028E0,-9.223972E-2,-1.1964502E0,3.874421E-1,-5.8317795E0,1.170044E0,-1.5792891E-1,2.137452E-1,1.7339326E-1,2.3415747E0,-9.9328816E-1,-4.4519973E-1,2.1380095E-1,2.6090956E0,-2.700575E-1,-7.490519E-1,-3.033174E-1,-1.5269273E-2,-6.692395E-2,1.0538874E0,9.969287E-2,-2.0604216E-1,-3.6298137E0,7.261113E-1,2.6740366E-1,3.986965E-2,3.3436486E-1,-6.982431E-2,1.5504231E0,-4.735555E0,-2.7539912E-1,2.9302642E-1,-2.215334E-1,3.480841E-1,3.21811E-2,-3.0541449E0,3.9277166E-2,-3.1010062E-1],"split_indices":[267,310,359,373,279,297,261,346,310,0,0,0,310,147,334,0,335,0,355,0,0,0,378,0,0,260,264,0,0,0,0,339,342,0,0,0,0,0,350,0,0],"split_type":[0,0,0,0,0,0,0,0,0,0,0,0,0,0,0,0,0,0,0,0,0,0,0,0,0,0,0,0,0,0,0,0,0,0,0,0,0,0,0,0,0],"sum_hessian":[1.427278E3,1.3692982E3,5.7979836E1,1.3647333E3,4.564859E0,2.7567873E1,3.0411963E1,1.3542867E3,1.0446527E1,1.1058888E0,3.4589698E0,2.009291E0,2.555858E1,2.775376E1,2.6582026E0,1.2724566E0,1.3530143E3,5.6837573E0,4.7627687E0,2.4520136E1,1.0384445E0,1.3262008E0,2.6427559E1,1.0583472E0,1.5998554E0,1.3424507E3,1.0563584E1,3.7482595E0,1.0145091E0,2.5402035E1,1.0255245E0,3.8240278E0,1.3386267E3,7.0584154E0,3.505169E0,2.3385227E0,1.4855051E0,1.9663866E0,1.3366603E3,1.4847462E0,1.3351755E3],"tree_param":{"num_deleted":"0","num_feature":"384","num_nodes":"41","size_leaf_vector":"0"}},{"base_weights":[-9.4490254E-1,-9.893539E-1,4.207173E-2,-6.9793457E-1,-1.0218343E0,7.172605E-1,-9.0696967E-1,-9.3642324E-1,1.09524794E-1,-1.0232627E0,4.121658E-3,8.7518454E-1,-4.7980237E-1,-9.839184E-1,2.5342742E-1,-9.865057E-1,7.2645825E-1,6.33746E-1,-6.4765733E-1,-1.024335E0,-1.8383576E-2,9.588247E-1,-3.903893E-1,1.1953277E-1,-7.344382E-1,-2.2401021E-1,-1.0081539E0,-7.347115E-1,9.399047E-1,-8.784241E-1,3.318818E-1,-3.323871E-2,-1.0254017E0,-1.08496E-1,1.0406507E0,-6.212446E-1,3.8541657E-1,-1.0149114E0,-2.452375E-1,-5.4490453E-1,1.1570423E0,-3.5566667E-1,-1.0273834E0,1.0848842E0,2.0027335E-1,1.2465518E0,1.0445007E-1,3.9867422E-1,-7.1326596E-1,-2.428289E-1,-1.0284569E0,3.05027E-1,1.1085676E0,-3.132341E-1,-1.0295432E0],"categories":[],"categories_nodes":[],"categories_segments":[],"categories_sizes":[],"default_left":[1,1,1,1,1,1,1,1,1,1,0,1,1,0,0,1,0,1,1,1,0,1,0,0,0,1,1,0,1,0,0,0,1,0,1,0,0,0,0,0,1,1,1,1,0,0,0,0,0,0,1,0,0,0,0],"id":9,"left_children":[1,3,5,7,9,11,13,15,17,19,-1,21,23,-1,-1,25,-1,27,29,31,-1,33,-1,-1,-1,35,37,-1,39,-1,-1,-1,41,-1,43,-1,-1,-1,-1,-1,45,47,49,51,-1,-1,-1,-1,-1,-1,53,-1,-1,-1,-1],"loss_changes":[4.732135E1,9.048157E0,3.1025766E1,2.0624496E1,1.3609009E0,5.76163E0,2.0483055E0,7.576889E0,1.0410819E1,9.772339E-1,0E0,3.054203E0,6.889559E-1,0E0,0E0,1.1011429E0,0E0,7.1395693E0,2.7331624E0,9.421997E-1,0E0,2.2121716E0,0E0,0E0,0E0,1.0879585E0,1.5263367E-1,0E0,4.82736E0,0E0,0E0,0E0,8.5876465E-1,0E0,6.1613274E-1,0E0,0E0,0E0,0E0,0E0,9.6994114E-1,1.430968E0,5.2441406E-1,5.1057816E-2,0E0,0E0,0E0,0E0,0E0,0E0,3.9031982E-1,0E0,0E0,0E0,0E0],"parents":[2147483647,0,0,1,1,2,2,3,3,4,4,5,5,6,6,7,7,8,8,9,9,11,11,12,12,15,15,17,17,18,18,19,19,21,21,25,25,26,26,28,28,32,32,34,34,40,40,41,41,42,42,43,43,50,50],"right_children":[2,4,6,8,10,12,14,16,18,20,-1,22,24,-1,-1,26,-1,28,30,32,-1,34,-1,-1,-1,36,38,-1,40,-1,-1,-1,42,-1,44,-1,-1,-1,-1,-1,46,48,50,52,-1,-1,-1,-1,-1,-1,54,-1,-1,-1,-1],"split_conditions":[8.951179E-1,-1.3325157E0,-1.1884488E0,5.2230865E-1,5.0334415E0,4.3949822E-1,1.4849298E0,2.0952053E0,-3.856694E-1,3.5906212E0,1.2364974E-3,-8.703703E-2,1.2583987E-2,-2.9517555E-1,7.602823E-2,-9.674574E-1,2.1793748E-1,-5.2809138E-2,1.6719589E-1,-4.743252E0,-5.515073E-3,-1.0152434E0,-1.17116794E-1,3.5859834E-2,-2.2033146E-1,-7.462218E-1,2.2116857E0,-2.2041346E-1,9.3864095E-1,-2.6352724E-1,9.9564545E-2,-9.971613E-3,-2.2584863E0,-3.2548804E-2,-6.12509E-1,-1.8637338E-1,1.1562497E-1,-3.0447343E-1,-7.357125E-2,-1.6347137E-1,-1.4098307E-2,-6.1618847E-1,-3.1523843E0,-2.1463737E0,6.0082007E-2,3.7396553E-1,3.1335022E-2,1.1960227E-1,-2.139798E-1,-7.284868E-2,-9.247353E0,9.1508105E-2,3.3257028E-1,-9.397023E-2,-3.0886295E-1],"split_indices":[267,9,9,315,315,261,359,335,298,185,0,360,364,0,0,308,0,267,276,308,0,19,0,0,0,55,344,0,38,0,0,0,325,0,80,0,0,0,0,0,325,7,347,129,0,0,0,0,0,0,279,0,0,0,0],"split_type":[0,0,0,0,0,0,0,0,0,0,0,0,0,0,0,0,0,0,0,0,0,0,0,0,0,0,0,0,0,0,0,0,0,0,0,0,0,0,0,0,0,0,0,0,0,0,0,0,0,0,0,0,0,0,0],"sum_hessian":[1.0766656E3,1.0302622E3,4.6403374E1,1.0556872E2,9.2469354E2,2.7256302E1,1.9147074E1,8.137449E1,2.419423E1,9.2341046E2,1.2830974E0,2.4317123E1,2.9391782E0,1.8098972E1,1.0481018E0,7.9390175E1,1.984313E0,1.4392715E1,9.801514E0,9.224068E2,1.0036644E0,2.3037016E1,1.2801074E0,1.0346054E0,1.9045727E0,2.5050473E0,7.6885124E1,2.3754108E0,1.2017304E1,8.016222E0,1.7852914E0,1.0263036E0,9.213805E2,1.6171634E0,2.1419851E1,1.5048013E0,1.000246E0,7.5882706E1,1.0024242E0,1.3406069E0,1.0676698E1,3.2506022E0,9.181299E2,2.007239E1,1.3474617E0,9.67011E0,1.006588E0,1.0084518E0,2.2421505E0,1.5650711E0,9.165648E2,1.0006899E0,1.9071701E1,1.8286597E0,9.1473615E2],"tree_param":{"num_deleted":"0","num_feature":"384","num_nodes":"55","size_leaf_vector":"0"}}]},"name":"gbtree"},"learner_model_param":{"base_score":"5E-1","num_class":"0","num_feature":"384","num_target":"1"},"objective":{"name":"binary:logistic","reg_loss_param":{"scale_pos_weight":"1"}}},"version":[1,6,0]}