{"learner":{"attributes":{"best_iteration":"9","best_ntree_limit":"10"},"feature_names":[],"feature_types":[],"gradient_booster":{"model":{"gbtree_model_param":{"num_parallel_tree":"1","num_trees":"10","size_leaf_vector":"0"},"tree_info":[0,0,0,0,0,0,0,0,0,0],"trees":[{"base_weights":[-1.6229059E0,1.0918499E0,-1.7466844E0,1.4886274E0,-7.6363635E-1,-1.0456946E0,-1.8499186E0,-1.5862069E0,1.5552E0,-1.5244756E0,5.882353E-2,-1.2265307E0,5.785877E-1,-1.8630184E0,5.838509E-1,7.1755725E-1,1.6473731E0,5.714286E-1,-1.6992481E0,-7E-1,1.0666667E0,-1.3336898E0,9.782609E-1,1.2395437E0,-4E-1,-1.9056624E0,-1.3775167E0,1.6842105E0,-3.8202247E-1,-1.1111112E0,9.74359E-1,1.6633841E0,-8E-1,-5E-1,1.2E0,5E-1,-1.7829458E0,-1.0153847E0,5.263158E-1,-7.692308E-1,1.4509804E0,-9.6273917E-1,-1.7497156E0,1.4509804E0,-1.2E0,3.529412E-1,1.6263736E0,-1.0344827E0,7.058824E-1,-3.6809817E-2,-1.9167413E0,1.3422818E-1,-1.5904306E0,1.884058E0,-1.8181819E-1,-1.137255E0,5.714286E-1,-1.4285715E0,-0E0,-1.0769231E0,1.1851852E0,-4E-1,1.6759676E0,-1.8677686E0,-3.3333334E-1,3.1578946E-1,-1.44E0,-8E-1,1.3846154E0,-0E0,-1.1111112E0,1.7391304E0,-6.666667E-1,8.658009E-2,-1.2774869E0,6.666667E-1,-1.7664568E0,1.5646259E0,-8E-1,5E-1,-1.483871E0,-6.666667E-1,1.3636364E0,1.7948718E0,5.3333336E-1,3.3333334E-1,-1.3333334E0,-1E0,1.1428572E0,-1.8285714E0,1.2577319E0,-1.9705225E0,-1.8076404E0,-9.714286E-1,1.0864197E0,-1.6923077E0,-8.064516E-1,-1.4042553E0,1E0,1.3548387E0,-1.2E0,1.4166666E0,-5E-1,-5E-1,1.6856369E0,-5E-1,-1.8974359E0,-1E0,5E-1,1.1428572E0,-1.1111112E0,4E-1,-1.7272727E0,5E-1,1.8095238E0,-7.5982535E-1,9.0295357E-1,-1.850234E0,-8.597082E-1,-5E-1,1.2727273E0,-8E-2,-1.7867903E0,1.6811594E0,-1.5384616E-1,-1.7037038E0,-0E0,1.2727273E0,-1.1578947E0,-3.3333334E-1,1.7777778E0,-0E0,1.8421053E0,-9.0909094E-1,1.1304348E0,1.25E0,-1E0,-1.505618E0,5.4545456E-1,-0E0,-1.3333334E0,-4.6153846E-1,1.4893616E0,-5E-1,-1.8787879E0,1.505618E0,-1E0,3.3333334E-1,-1.9716264E0,-1.8569517E0,-1.2035139E0,1.1320755E-1,-1.5604396E0,-4.2857143E-1,1.3623189E0,-1.7722592E0,-9.9497485E-1,5.5172414E-1,-1.1958762E0,-0E0,-1.6923077E0,1.7037038E0,-5E-1,-1.8181819E-1,1.5505618E0,1E0,-1.3333334E0,-5E-1,1.6953763E0,-1.9292035E0,-5E-1,-5E-1,-1.8E0,-1.2380953E0,9.3023255E-2,1.475862E0,-0E0,1.2727273E0,-1.8927444E0,9.62963E-1,-1.036855E0,1.3846154E0,-1.25E0,8E-1,-1.7976744E0,1.7878788E0,-4E-1,1E0,-1.1111112E0,-1.5E0,4E-1,5E-1,-1E0,-0E0,1.8918918E0,1.5294118E0,-0E0,-1.6962025E0,-0E0,-1.1111112E0,5E-1,-4E-1,1.804878E0,1.6235294E0,-5E-1,1E0,-5E-1,4E-1,-1.9725109E0,2E-1,-1.8660965E0,-1.7002141E0,-1.2727273E-1,1.1666666E0,-6.666667E-1,5E-1,-1.6781609E0,9.0909094E-1,-1.0476191E0,1.4887218E0,-1.1111112E0,-8E-1,-1.8171428E0,5.4545456E-1,-1.3962264E0,-8.8E-1,1.4594594E0,7.692308E-1,-1.3081081E0,1E0,-1E0,-1.7714286E0,-5E-1],"categories":[],"categories_nodes":[],"categories_segments":[],"categories_sizes":[],"default_left":[1,1,1,1,1,1,1,0,1,1,1,1,1,1,1,1,1,1,1,1,1,1,1,1,1,1,1,1,1,1,1,1,0,0,0,0,1,1,1,1,1,1,1,1,1,1,1,1,1,1,1,1,1,0,0,1,1,0,0,0,1,0,1,1,1,1,1,0,0,0,0,1,0,1,1,1,1,1,0,0,1,1,1,1,1,1,1,1,1,1,1,1,1,1,1,1,1,1,0,1,0,1,1,0,1,0,1,0,0,0,0,0,1,0,0,1,1,1,1,0,0,1,1,1,1,0,0,0,1,1,0,0,1,0,1,0,0,1,0,0,0,1,1,0,0,1,0,1,1,1,1,1,1,1,1,1,1,1,1,1,1,0,0,0,0,0,0,0,0,0,0,0,0,0,0,0,0,0,0,0,0,0,0,0,0,0,0,0,0,0,0,0,0,0,0,0,0,0,0,0,0,0,0,0,0,0,0,0,0,0,0,0,0,0,0,0,0,0,0,0,0,0,0,0,0,0,0,0,0,0,0,0,0],"id":0,"left_children":[1,3,5,7,9,11,13,-1,15,17,19,21,23,25,27,29,31,33,35,37,39,41,43,45,47,49,51,53,55,57,59,61,-1,-1,-1,-1,63,65,67,69,71,73,75,77,79,81,83,85,87,89,91,93,95,-1,-1,97,99,-1,-1,-1,101,-1,103,105,107,109,111,-1,-1,-1,-1,113,-1,115,117,119,121,123,-1,-1,125,127,129,131,133,135,137,139,141,143,145,147,149,151,153,155,157,159,-1,161,-1,163,165,-1,167,-1,169,-1,-1,-1,-1,-1,171,-1,-1,173,175,177,179,-1,-1,181,183,185,187,-1,-1,-1,189,191,-1,-1,193,-1,195,-1,-1,197,-1,-1,-1,199,201,-1,-1,203,-1,205,207,209,211,213,215,217,219,221,223,225,227,229,231,-1,-1,-1,-1,-1,-1,-1,-1,-1,-1,-1,-1,-1,-1,-1,-1,-1,-1,-1,-1,-1,-1,-1,-1,-1,-1,-1,-1,-1,-1,-1,-1,-1,-1,-1,-1,-1,-1,-1,-1,-1,-1,-1,-1,-1,-1,-1,-1,-1,-1,-1,-1,-1,-1,-1,-1,-1,-1,-1,-1,-1,-1,-1,-1,-1,-1,-1,-1,-1,-1,-1,-1],"loss_changes":[2.9755059E3,2.856839E2,6.105547E2,6.7714905E1,4.3110653E1,3.2050684E2,2.362461E2,0E0,2.2945435E1,1.4066467E1,2.6749022E1,2.3284314E2,7.148249E1,1.4927344E2,4.3421432E1,1.6462189E1,1.2331848E1,2.9571428E0,7.011856E0,8.269635E0,1.1699547E1,1.4260938E2,4.910767E1,2.1975891E1,3.2305073E1,1.3951562E2,1.9204883E2,7.428055E0,1.6671577E1,1.5873017E0,1.3925926E1,7.9210205E0,0E0,0E0,0E0,0E0,3.3428802E0,9.639839E0,6.5149794E0,8.547008E-1,8.93947E0,1.6409009E2,1.8956787E1,1.1036575E1,4.9645157E0,2.2807487E1,7.422714E0,1.2298853E1,1.3815126E1,9.681989E1,3.576172E1,7.9488754E1,4.0367065E1,0E0,0E0,8.680017E0,1.6197235E1,0E0,0E0,0E0,1.1240742E1,0E0,6.6867065E0,2.7877045E-1,2.1666667E0,6.875522E0,7.2981815E0,0E0,0E0,0E0,0E0,9.8342896E-2,0E0,8.049462E1,8.981488E1,3.287879E0,1.4833984E1,7.6181793E0,0E0,0E0,2.5280762E0,1.2191387E1,8.323233E0,3.306343E0,7.48722E0,8.583333E0,8.589714E0,1.3333335E0,8.470423E0,2.2813797E-1,1.5077377E1,1.2046875E1,6.404834E1,2.2536842E1,1.751223E1,2.3966553E1,3.3452038E1,4.752863E0,0E0,5.866786E0,0E0,5.418621E0,6.3333335E0,0E0,6.7387695E0,0E0,3.3390045E-1,0E0,0E0,0E0,0E0,0E0,8.182144E-2,0E0,0E0,2.3466976E1,3.06506E1,2.3683533E1,7.2920074E1,0E0,0E0,1.2440769E1,1.3586914E1,8.377602E0,4.700855E0,0E0,0E0,0E0,5.6631575E0,2.1666667E0,0E0,0E0,3.4850616E0,0E0,2.5933504E0,0E0,0E0,6.3845825E0,0E0,0E0,0E0,2.58547E0,7.7264156E0,0E0,0E0,6.0735626E0,0E0,2.1666667E0,1.0177734E1,3.9033203E1,9.106128E1,1.1663523E1,6.3572693E0,6.7489176E0,1.2440521E1,1.6558228E1,3.1512035E1,2.012891E1,1.1702797E1,4E0,3.4067154E-2,0E0,0E0,0E0,0E0,0E0,0E0,0E0,0E0,0E0,0E0,0E0,0E0,0E0,0E0,0E0,0E0,0E0,0E0,0E0,0E0,0E0,0E0,0E0,0E0,0E0,0E0,0E0,0E0,0E0,0E0,0E0,0E0,0E0,0E0,0E0,0E0,0E0,0E0,0E0,0E0,0E0,0E0,0E0,0E0,0E0,0E0,0E0,0E0,0E0,0E0,0E0,0E0,0E0,0E0,0E0,0E0,0E0,0E0,0E0,0E0,0E0,0E0,0E0,0E0,0E0,0E0,0E0,0E0,0E0,0E0,0E0,0E0],"parents":[2147483647,0,0,1,1,2,2,3,3,4,4,5,5,6,6,8,8,9,9,10,10,11,11,12,12,13,13,14,14,15,15,16,16,17,17,18,18,19,19,20,20,21,21,22,22,23,23,24,24,25,25,26,26,27,27,28,28,29,29,30,30,31,31,36,36,37,37,38,38,39,39,40,40,41,41,42,42,43,43,44,44,45,45,46,46,47,47,48,48,49,49,50,50,51,51,52,52,55,55,56,56,60,60,62,62,63,63,64,64,65,65,66,66,71,71,73,73,74,74,75,75,76,76,77,77,80,80,81,81,82,82,83,83,84,84,85,85,86,86,87,87,88,88,89,89,90,90,91,91,92,92,93,93,94,94,95,95,96,96,97,97,99,99,101,101,102,102,104,104,106,106,112,112,115,115,116,116,117,117,118,118,121,121,122,122,123,123,124,124,128,128,129,129,132,132,134,134,137,137,141,141,142,142,145,145,147,147,148,148,149,149,150,150,151,151,152,152,153,153,154,154,155,155,156,156,157,157,158,158,159,159,160,160],"right_children":[2,4,6,8,10,12,14,-1,16,18,20,22,24,26,28,30,32,34,36,38,40,42,44,46,48,50,52,54,56,58,60,62,-1,-1,-1,-1,64,66,68,70,72,74,76,78,80,82,84,86,88,90,92,94,96,-1,-1,98,100,-1,-1,-1,102,-1,104,106,108,110,112,-1,-1,-1,-1,114,-1,116,118,120,122,124,-1,-1,126,128,130,132,134,136,138,140,142,144,146,148,150,152,154,156,158,160,-1,162,-1,164,166,-1,168,-1,170,-1,-1,-1,-1,-1,172,-1,-1,174,176,178,180,-1,-1,182,184,186,188,-1,-1,-1,190,192,-1,-1,194,-1,196,-1,-1,198,-1,-1,-1,200,202,-1,-1,204,-1,206,208,210,212,214,216,218,220,222,224,226,228,230,232,-1,-1,-1,-1,-1,-1,-1,-1,-1,-1,-1,-1,-1,-1,-1,-1,-1,-1,-1,-1,-1,-1,-1,-1,-1,-1,-1,-1,-1,-1,-1,-1,-1,-1,-1,-1,-1,-1,-1,-1,-1,-1,-1,-1,-1,-1,-1,-1,-1,-1,-1,-1,-1,-1,-1,-1,-1,-1,-1,-1,-1,-1,-1,-1,-1,-1,-1,-1,-1,-1,-1,-1],"split_conditions":[-1.8984777E0,2.0394717E-1,-9.3220675E-1,-2.8127715E-1,3.416349E-1,1.8031881E0,3.3820925E0,-4.758621E-1,-2.5689632E-1,-1.6636399E0,-2.0383513E-1,3.4819994E0,2.3692515E-1,6.2574935E-1,1.8173594E-2,-8.4615576E-1,4.6670395E-1,-4.454844E-2,-9.873266E-1,1.13138E0,-1.0299513E0,-5.268268E-1,7.94344E-2,2.2798762E-1,4.756152E-1,-2.5859709E0,-8.548747E-1,3.077233E-1,-2.7718168E-1,-9.745699E-1,-8.549186E-1,-9.531399E-1,-2.4000001E-1,-1.5E-1,3.6E-1,1.5E-1,1.6556861E0,-7.901429E-1,1.9921231E0,-6.47323E-1,1.1650275E0,-7.036848E-1,-2.208055E0,1.847718E0,1.0040605E0,8.5546565E-1,1.1460848E0,-1.0032256E0,4.1920272E-1,-3.254701E-1,-2.694447E-1,-3.2609838E-1,1.4062192E0,5.6521744E-1,-5.454546E-2,3.519452E-1,-5.5682426E-4,-4.2857146E-1,-0E0,-3.2307696E-1,2.4424534E0,-1.20000005E-1,-1.1641641E0,-6.784003E-1,-5.726189E-1,1.1157393E0,-9.166781E-1,-2.4000001E-1,4.1538465E-1,-0E0,-3.3333337E-1,-9.573241E-1,-2.0000002E-1,1.9165248E-1,-2.5534987E-1,4.1634384E-1,-1.8707814E0,-2.2002769E-1,-2.4000001E-1,1.5E-1,2.0673852E-1,-8.6937714E-1,-1.3032982E0,-5.254288E-1,-5.415027E-1,1.619786E0,1.8108108E0,8.1815076E-1,-3.096496E-1,-1.4934714E0,-3.282808E-1,-3.6364348E0,1.1412485E0,-4.9844403E-2,-5.8231417E-2,6.759651E-1,-1.0470667E0,7.138778E-2,3E-1,7.964407E-1,-3.6E-1,-5.5713475E-1,7.068812E-2,-1.5E-1,-2.580131E0,-1.5E-1,1.4305477E0,-3E-1,1.5E-1,3.4285718E-1,-3.3333337E-1,1.20000005E-1,-7.816483E-1,1.5E-1,5.4285717E-1,8.35004E-1,6.7084634E-1,-2.675335E0,-1.0521472E0,-1.5E-1,3.818182E-1,-1.1730762E0,-2.612643E0,-2.615622E-1,-7.5124013E-1,-5.1111114E-1,-0E0,3.818182E-1,3.2882792E-1,-6.629822E-1,5.3333336E-1,-0E0,-1.4701188E0,-2.7272728E-1,1.4412148E0,3.75E-1,-3E-1,7.076777E-1,1.6363637E-1,-0E0,-4.0000004E-1,1.1065435E-1,-1.3051395E0,-1.5E-1,-5.6363636E-1,2.1205643E-1,-3E-1,-3.6256236E-1,-4.367652E0,-3.0819619E0,-3.5605922E-2,2.1270123E-1,-1.0235786E0,-8.3850396E-1,1.74323E-1,-1.1463456E0,-7.8777015E-1,-7.556599E-3,-5.8041155E-1,2.3613162E-1,1.5125422E0,5.1111114E-1,-1.5E-1,-5.454546E-2,4.6516857E-1,3E-1,-4.0000004E-1,-1.5E-1,5.0861293E-1,-5.787611E-1,-1.5E-1,-1.5E-1,-5.4E-1,-3.714286E-1,2.7906979E-2,4.4275862E-1,-0E0,3.818182E-1,-5.6782335E-1,2.888889E-1,-3.110565E-1,4.1538465E-1,-3.75E-1,2.4000001E-1,-5.3930235E-1,5.3636366E-1,-1.20000005E-1,3E-1,-3.3333337E-1,-4.5000002E-1,1.20000005E-1,1.5E-1,-3E-1,-0E0,5.675676E-1,4.5882356E-1,-0E0,-5.0886077E-1,-0E0,-3.3333337E-1,1.5E-1,-1.20000005E-1,5.4146343E-1,4.8705885E-1,-1.5E-1,3E-1,-1.5E-1,1.20000005E-1,-5.917533E-1,6.0000002E-2,-5.59829E-1,-5.1006424E-1,-3.818182E-2,3.5E-1,-2.0000002E-1,1.5E-1,-5.034483E-1,2.7272728E-1,-3.1428576E-1,4.4661656E-1,-3.3333337E-1,-2.4000001E-1,-5.451429E-1,1.6363637E-1,-4.1886795E-1,-2.64E-1,4.3783784E-1,2.3076925E-1,-3.9243245E-1,3E-1,-3E-1,-5.314286E-1,-1.5E-1],"split_indices":[324,326,91,298,298,316,295,0,329,317,329,295,326,298,325,54,50,7,219,138,253,45,325,351,259,355,324,306,26,2,260,146,0,0,0,0,320,109,344,0,295,332,382,286,24,375,349,85,354,108,152,336,316,0,0,322,32,0,0,0,344,0,59,0,9,113,6,0,0,0,0,10,0,275,298,9,304,305,0,0,1,338,37,94,297,317,320,1,30,20,333,332,351,131,313,356,315,281,0,138,0,22,152,0,97,0,7,0,0,0,0,0,14,0,0,367,348,382,326,0,0,106,371,326,47,0,0,0,197,0,0,0,359,0,266,0,0,27,0,0,0,11,368,0,0,186,0,0,380,379,298,326,16,304,216,357,102,281,208,139,3,0,0,0,0,0,0,0,0,0,0,0,0,0,0,0,0,0,0,0,0,0,0,0,0,0,0,0,0,0,0,0,0,0,0,0,0,0,0,0,0,0,0,0,0,0,0,0,0,0,0,0,0,0,0,0,0,0,0,0,0,0,0,0,0,0,0,0,0,0,0,0,0],"split_type":[0,0,0,0,0,0,0,0,0,0,0,0,0,0,0,0,0,0,0,0,0,0,0,0,0,0,0,0,0,0,0,0,0,0,0,0,0,0,0,0,0,0,0,0,0,0,0,0,0,0,0,0,0,0,0,0,0,0,0,0,0,0,0,0,0,0,0,0,0,0,0,0,0,0,0,0,0,0,0,0,0,0,0,0,0,0,0,0,0,0,0,0,0,0,0,0,0,0,0,0,0,0,0,0,0,0,0,0,0,0,0,0,0,0,0,0,0,0,0,0,0,0,0,0,0,0,0,0,0,0,0,0,0,0,0,0,0,0,0,0,0,0,0,0,0,0,0,0,0,0,0,0,0,0,0,0,0,0,0,0,0,0,0,0,0,0,0,0,0,0,0,0,0,0,0,0,0,0,0,0,0,0,0,0,0,0,0,0,0,0,0,0,0,0,0,0,0,0,0,0,0,0,0,0,0,0,0,0,0,0,0,0,0,0,0,0,0,0,0,0,0,0,0,0,0,0,0,0,0,0,0,0,0],"sum_hessian":[8.84825E3,3.855E2,8.46275E3,3.1775E2,6.775E1,1.08775E3,7.375E3,6.25E0,3.115E2,3.475E1,3.3E1,9.79E2,1.0875E2,7.33575E3,3.925E1,3.175E1,2.7975E2,2.5E0,3.225E1,1.9E1,1.4E1,9.34E2,4.5E1,6.475E1,4.4E1,6.74075E3,5.95E2,1.8E1,2.125E1,3.5E0,2.825E1,2.7825E2,1.5E0,1E0,1.5E0,1E0,3.125E1,1.525E1,3.75E0,2.25E0,1.175E1,4.955E2,4.385E2,3.725E1,7.75E0,2.025E1,4.45E1,2.8E1,1.6E1,3.975E1,6.701E3,7.35E1,5.215E2,1.625E1,1.75E0,1.175E1,9.5E0,2.5E0,1E0,2.25E0,2.6E1,1.5E0,2.7675E2,2.925E1,2E0,3.75E0,1.15E1,1.5E0,2.25E0,1E0,1.25E0,1.05E1,1.25E0,1.145E2,3.81E2,2.75E0,4.3575E2,3.575E1,1.5E0,1E0,6.75E0,1.025E1,1E1,3.8E1,6.5E0,5E0,2.3E1,3E0,1.3E1,1.65E1,2.325E1,4.477E3,2.224E3,3.4E1,3.95E1,4.605E2,6.1E1,1.075E1,1E0,6.75E0,2.75E0,2.3E1,3E0,1E0,2.7575E2,1E0,2.825E1,1E0,1E0,2.5E0,1.25E0,1.5E0,1E1,1E0,9.5E0,5.625E1,5.825E1,1.5925E2,2.2175E2,1E0,1.75E0,5.25E0,4.305E2,3.35E1,2.25E0,5.75E0,1E0,1.75E0,8.5E0,2E0,8E0,1E0,3.7E1,1.75E0,4.75E0,3E0,2E0,2.125E1,1.75E0,1E0,2E0,2.25E0,1.075E1,1E0,1.55E1,2.125E1,2E0,2E0,4.475E3,2.05425E3,1.6975E2,1.225E1,2.175E1,6E0,3.35E1,4.1175E2,4.875E1,1.35E1,4.75E1,2E0,8.75E0,5.75E0,1E0,1.75E0,2.125E1,1E0,2E0,1E0,2.7475E2,2.725E1,1E0,1E0,9E0,3.575E1,2.05E1,3.525E1,2.3E1,1.75E0,1.575E2,1.925E1,2.025E2,2.25E0,3E0,1.5E0,4.29E2,3.2E1,1.5E0,1E0,1.25E0,7E0,1.5E0,1E0,1E0,1E0,3.6E1,3.25E0,1.5E0,1.875E1,2.5E0,1.25E0,1E0,1.5E0,9.25E0,2.025E1,1E0,1E0,1E0,1.5E0,4.4735E3,9E0,2.04525E3,1.1575E2,5.4E1,5E0,7.25E0,1E0,2.075E1,1.75E0,4.25E0,3.225E1,1.25E0,1.9E1,3.9275E2,1E1,3.875E1,5.25E0,8.25E0,2.25E0,4.525E1,1E0,1E0,7.75E0,1E0],"tree_param":{"num_deleted":"0","num_feature":"384","num_nodes":"233","size_leaf_vector":"0"}},{"base_weights":[-1.2407874E0,6.839069E-1,-1.3431423E0,1.1501454E0,-5.0711614E-1,-1.4880013E0,-1.0392885E0,1.1901641E0,-5.8100057E-1,6.338856E-1,-8.3918923E-1,-1.4920483E0,1.1236839E0,-3.730618E-1,-1.3320312E0,1.2507697E0,5.4726964E-1,1.0107987E0,-1.1274356E0,-6.780395E-1,1.1312633E0,-1.3804926E0,4.727312E-2,1.4746889E0,-1.4939467E0,1.3872769E0,-2.851237E-1,1.0446586E-1,-8.17604E-1,-1.3629756E0,4.1438574E-1,-6.192118E-1,1.2664926E0,-8.432115E-1,9.0150887E-1,-1.3343875E0,-1.4236002E-1,7.0164454E-1,-1.0832554E0,-6.1019635E-1,1.2984884E0,-1.9878091E-1,-1.446047E0,-4.3337765E-1,1.1376715E0,-5.259804E-1,-1.499608E0,-1.8447961E-1,1.010495E0,-1.0622562E0,-2.4838224E-1,-1.4063468E0,-5.7228273E-1,-9.088962E-1,1.0582433E0,6.202753E-1,1.3137459E0,5.20606E-1,-1.3763162E0,1.0825672E0,-1.2258799E0,-1.3209411E0,1.3969271E-2,1.5359184E0,3.554092E-1,-1.1096292E0,8.759539E-1,-1.664726E-1,-1.5075625E0,4.6404082E-1,-7.8216815E-1,-3.7787542E-1,1.3589939E0,-9.220457E-1,7.6336616E-1,-1.5135545E0,-1.1323463E0,-3.1403494E-1,1.7890586E0,1.2573237E0,-2.9185742E-1,1.3064153E0,-1.1109016E0,-9.820948E-1,2.4299288E-1,7.2224104E-1,-1.4211131E0,-1.2038387E0,4.2444286E-1,-1.3001006E0,9.6888226E-1,3.9938062E-2,1.331458E0,8.639339E-1,-9.5569724E-1,6.1309326E-2,1.3320185E0,1.3935289E0,2.5211117E-1,4.8858148E-1,1.5916117E0,1.0387343E0,-9.9645376E-1,-9.129982E-1,7.2159284E-1,-3.350769E-2,-1.5420702E0,9.9230564E-1,-1.0765313E0,-2.1043045E-3,-1.2166578E0,1.5262665E0,5.181159E-2,-1.1291414E0,6.283094E-1,1.2819017E0,-7.9066354E-1,-1.5177339E0,-5.9898657E-1,1.0794814E0,-1.2484745E0,-9.6699697E-1,3.197195E-2,-6.0958777E-2,1.9243519E0,-9.4693476E-1,1.3491102E0,-8.894762E-1,8.819374E-1,1.7121769E0,-1.7789637E-1,-7.0511645E-1,-1.2696579E0,1.2050929E0,-1.1773902E0,1.2372504E0,-1.20850384E-1,1.3558208E0,-4.973661E-1,-1.4479117E0,-7.438155E-1,-1.2982385E0,1.1891564E0,-7.517068E-1,1.0035036E0,-9.570452E-2,-1.4632264E0,-8.368365E-1,9.5852363E-1,1.4575535E0,-1.9332448E-1,-8.624687E-1,1.0682836E0,1.0954736E0,-1.0751992E0,1.342191E0,-2.2938791E-1,4.9861394E-2,1.5053E0,1.0492604E0,-1.036423E0,-6.500173E-1,-1.5720019E0,1.4505635E0,-3.3438966E-1,-9.565089E-1,6.0895807E-1,-1.4503988E0,1.3202742E-1,-1.3183252E0,1.2854859E-1,-4.7957087E-1,1.3597356E0,1.7557693E0,-2.381754E-1,9.927323E-1,-1.5186495E0,4.055438E-1,-1.33662E0,1.6686007E0,-8.280388E-1,1.3803043E0,-1.2976497E0,4.1032836E-2,-1.2488496E0,-1.0491111E0,3.5887566E-1,5.142586E-1,2.0005348E0,1.5364013E0,4.6306077E-1,7.79648E-1,-1.1872743E0,-4.2381966E-1,1.5606847E0,-4.1958275E-1,-1.4163564E0,-1.3283101E0,-1.1895647E-2,1.67981E0,-7.4541844E-2,8.978763E-1,-1.2647972E0,1.5324435E0,-6.2075293E-1,5.3245586E-1,-8.6584306E-1,1.5444065E0,1.420341E-1,-1.2197949E0,7.064408E-1,-1.4535094E0,1.4104683E0,4.1980308E-1,-1.0792699E0,9.8184144E-1,-1.3669143E0,1.0929306E0,-1.1913251E0,1.2676631E0,-9.91185E-1,-1.7851551E-1,-1.1007053E0,1.5072671E0,4.5415807E-1],"categories":[],"categories_nodes":[],"categories_segments":[],"categories_sizes":[],"default_left":[1,1,1,1,1,1,1,1,1,1,1,1,1,1,1,1,1,0,1,1,1,1,1,0,1,0,0,1,1,1,1,0,1,1,1,0,0,0,1,0,1,1,1,1,1,1,1,1,1,1,1,1,1,1,1,1,1,0,0,1,0,0,0,1,1,0,0,1,1,1,1,0,1,1,1,1,1,1,1,1,1,1,1,1,1,1,1,1,1,1,0,1,1,1,0,1,1,1,1,0,0,0,0,0,0,0,1,1,0,1,1,0,0,1,1,1,0,1,1,1,1,1,1,0,1,0,1,1,1,0,0,1,1,1,1,1,1,1,1,1,1,1,0,1,1,0,0,1,0,1,0,0,0,0,0,0,0,0,0,0,0,0,0,0,0,0,0,0,0,0,0,0,0,0,0,0,0,0,0,0,0,0,0,0,0,0,0,0,0,0,0,0,0,0,0,0,0,0,0,0,0,0,0,0,0,0,0,0,0,0,0,0,0,0,0,0,0,0,0,0,0,0,0,0,0],"id":1,"left_children":[1,3,5,7,9,11,13,15,17,19,21,23,25,27,29,31,33,-1,35,37,39,41,43,-1,45,-1,-1,47,49,51,53,-1,55,57,59,-1,-1,-1,61,-1,63,65,67,69,71,73,75,77,79,81,83,85,87,89,91,93,95,-1,-1,97,-1,-1,-1,99,101,-1,-1,103,105,107,109,-1,111,113,115,117,119,121,123,125,127,129,131,133,135,137,139,141,143,145,-1,147,149,151,-1,153,155,157,159,-1,-1,-1,-1,-1,-1,-1,161,163,-1,165,167,-1,-1,169,171,173,-1,175,177,179,181,183,185,-1,187,-1,189,191,193,-1,-1,195,197,199,201,203,205,207,209,211,213,215,-1,217,219,-1,-1,221,-1,223,-1,-1,-1,-1,-1,-1,-1,-1,-1,-1,-1,-1,-1,-1,-1,-1,-1,-1,-1,-1,-1,-1,-1,-1,-1,-1,-1,-1,-1,-1,-1,-1,-1,-1,-1,-1,-1,-1,-1,-1,-1,-1,-1,-1,-1,-1,-1,-1,-1,-1,-1,-1,-1,-1,-1,-1,-1,-1,-1,-1,-1,-1,-1,-1,-1,-1,-1,-1,-1,-1,-1,-1,-1,-1,-1],"loss_changes":[1.616041E3,2.308347E2,3.411123E2,2.1356903E1,4.4993767E1,5.737207E1,4.903081E2,1.0688232E1,7.5865364E0,1.8399994E1,4.3886124E1,3.1836914E1,3.6348658E0,1.6345764E2,9.502539E1,8.603912E0,1.4021667E1,0E0,1.0312667E0,5.262703E0,6.607603E0,4.1074753E0,1.9145689E1,0E0,2.8029297E1,0E0,0E0,9.755313E1,5.5256958E1,5.8101807E1,2.7543245E1,0E0,7.2487793E0,5.066586E0,9.778122E0,0E0,0E0,0E0,1.7445216E0,0E0,3.6053066E0,5.0258718E0,3.967453E0,8.321426E0,4.2583065E0,1.710537E1,2.5061523E1,7.2878296E1,2.9325653E1,3.3544983E1,4.3916393E1,5.21875E1,5.779908E1,9.156163E0,5.9143276E0,8.462797E0,5.529419E0,0E0,0E0,5.0072994E0,0E0,0E0,0E0,6.869888E-2,5.6813364E0,0E0,0E0,3.0338032E0,2.542984E0,7.3703556E0,6.329239E0,0E0,2.0985622E0,8.743719E0,7.536391E0,1.8331055E1,5.1491623E1,6.018786E1,4.5156746E0,1.6637894E1,1.1422287E1,3.9571753E0,1.672168E1,2.2259655E1,2.6687338E1,9.851866E0,2.8269775E1,1.4187202E1,2.5298515E1,1.6916628E0,0E0,5.286867E0,3.52742E0,7.183543E0,0E0,6.5537767E0,4.1454773E0,2.1591454E0,8.14818E0,0E0,0E0,0E0,0E0,0E0,0E0,0E0,3.0841827E-1,4.3072286E0,0E0,5.064296E0,3.9734287E0,0E0,0E0,5.50683E0,3.5621533E0,5.0648966E0,0E0,1.3021484E1,1.8732693E1,1.2928041E1,2.5828766E1,2.6262749E1,6.222608E1,0E0,7.3361206E-1,0E0,1.1452301E1,6.167942E0,5.640783E0,0E0,0E0,1.548E1,1.4392731E1,2.85493E0,9.352177E0,1.1779285E1,2.7043339E1,1.6312637E0,5.029303E0,2.6918457E1,2.5276794E1,9.848381E0,0E0,1.1407146E1,1.4206537E1,0E0,0E0,3.9115596E-1,0E0,9.9040985E-2,0E0,0E0,0E0,0E0,0E0,0E0,0E0,0E0,0E0,0E0,0E0,0E0,0E0,0E0,0E0,0E0,0E0,0E0,0E0,0E0,0E0,0E0,0E0,0E0,0E0,0E0,0E0,0E0,0E0,0E0,0E0,0E0,0E0,0E0,0E0,0E0,0E0,0E0,0E0,0E0,0E0,0E0,0E0,0E0,0E0,0E0,0E0,0E0,0E0,0E0,0E0,0E0,0E0,0E0,0E0,0E0,0E0,0E0,0E0,0E0,0E0,0E0,0E0,0E0,0E0,0E0,0E0,0E0,0E0,0E0,0E0,0E0,0E0,0E0,0E0],"parents":[2147483647,0,0,1,1,2,2,3,3,4,4,5,5,6,6,7,7,8,8,9,9,10,10,11,11,12,12,13,13,14,14,15,15,16,16,18,18,19,19,20,20,21,21,22,22,24,24,27,27,28,28,29,29,30,30,32,32,33,33,34,34,38,38,40,40,41,41,42,42,43,43,44,44,45,45,46,46,47,47,48,48,49,49,50,50,51,51,52,52,53,53,54,54,55,55,56,56,59,59,63,63,64,64,67,67,68,68,69,69,70,70,72,72,73,73,74,74,75,75,76,76,77,77,78,78,79,79,80,80,81,81,82,82,83,83,84,84,85,85,86,86,87,87,88,88,89,89,91,91,92,92,93,93,95,95,96,96,97,97,98,98,106,106,107,107,109,109,110,110,113,113,114,114,115,115,117,117,118,118,119,119,120,120,121,121,122,122,124,124,126,126,127,127,128,128,131,131,132,132,133,133,134,134,135,135,136,136,137,137,138,138,139,139,140,140,141,141,143,143,144,144,147,147,149,149],"right_children":[2,4,6,8,10,12,14,16,18,20,22,24,26,28,30,32,34,-1,36,38,40,42,44,-1,46,-1,-1,48,50,52,54,-1,56,58,60,-1,-1,-1,62,-1,64,66,68,70,72,74,76,78,80,82,84,86,88,90,92,94,96,-1,-1,98,-1,-1,-1,100,102,-1,-1,104,106,108,110,-1,112,114,116,118,120,122,124,126,128,130,132,134,136,138,140,142,144,146,-1,148,150,152,-1,154,156,158,160,-1,-1,-1,-1,-1,-1,-1,162,164,-1,166,168,-1,-1,170,172,174,-1,176,178,180,182,184,186,-1,188,-1,190,192,194,-1,-1,196,198,200,202,204,206,208,210,212,214,216,-1,218,220,-1,-1,222,-1,224,-1,-1,-1,-1,-1,-1,-1,-1,-1,-1,-1,-1,-1,-1,-1,-1,-1,-1,-1,-1,-1,-1,-1,-1,-1,-1,-1,-1,-1,-1,-1,-1,-1,-1,-1,-1,-1,-1,-1,-1,-1,-1,-1,-1,-1,-1,-1,-1,-1,-1,-1,-1,-1,-1,-1,-1,-1,-1,-1,-1,-1,-1,-1,-1,-1,-1,-1,-1,-1,-1,-1,-1,-1,-1,-1],"split_conditions":[-1.773827E0,8.840326E-3,1.802997E-1,3.4457228E-1,-1.5104905E-1,3.3536773E0,-4.645061E-1,6.4002395E-1,-1.7378383E0,4.129048E-1,4.2535198E-1,-4.547115E0,-9.134145E-2,-8.624627E-2,4.1687307E0,-1.091195E0,-3.9747033E-1,3.032396E-1,7.0522785E-1,-7.4607265E-1,-1.2792845E0,-1.2319434E0,-1.8080968E-1,4.4240668E-1,-2.1548314E0,4.1618308E-1,-8.553711E-2,1.0944408E0,2.4008445E-1,1.1494633E0,-1.5983066E-1,-1.8576354E-1,-1.9867904E-2,-5.3869784E-1,9.711753E-1,-4.0031627E-1,-4.2708006E-2,2.1049337E-1,-2.0013075E-1,-1.8305892E-1,1.1371157E0,-6.029264E-1,-3.0700774E0,-6.331071E-2,-7.2374515E-2,-4.13616E-1,1.6972084E0,2.3456554E0,6.1252236E-1,-2.0541587E0,-3.6634844E-2,-2.3589075E0,9.979812E-3,3.4330887E-1,-1.334E-1,7.433299E-1,-1.1628664E0,1.561818E-1,-4.1289487E-1,-5.293222E-1,-3.67764E-1,-3.9628235E-1,4.1907816E-3,-1.1129797E0,-1.2372855E-1,-3.3288875E-1,2.6278618E-1,-7.277419E-1,-1.5583863E0,-5.1243836E-1,-2.2572227E0,-1.1336263E-1,-1.9592965E-1,3.141655E-1,-2.13862E-1,2.0844102E0,-8.4912074E-1,-1.288217E-1,-5.456375E-1,-6.015315E-1,9.040306E-1,2.5740954E-1,-1.2637122E0,-6.080507E-1,-9.619385E-1,-5.9958994E-2,1.425451E0,9.0173805E-1,1.7485693E-1,-9.375585E-2,2.906647E-1,3.8330585E-2,-7.4760354E-1,-4.053374E-1,-2.867092E-1,1.570164E-1,3.8220062E0,-6.045948E-1,-2.1019256E-1,1.4657445E-1,4.7748354E-1,3.116203E-1,-2.9893613E-1,-2.7389947E-1,2.1647786E-1,-1.00523075E-2,-1.6711679E0,2.642287E-1,-3.229594E-1,-9.7910446E-1,-3.0442986E-1,4.5787996E-1,1.5543478E-2,9.449029E-1,-7.8801537E-1,8.855875E-2,-2.3719907E-1,-4.039944E0,-5.7039356E-1,-1.806014E-2,-1.4798214E0,-7.125082E-1,-4.95142E-1,-1.8287634E-2,-6.8395406E-1,-2.8408045E-1,-7.145126E-1,-3.36619E-1,2.2727603E-1,5.136531E-1,-5.336891E-2,4.8123866E-1,1.1667771E0,5.4757014E-2,-2.1529057E0,1.5750169E0,-2.5369135E-1,6.638243E-1,-4.9485183E-1,1.0419609E1,-1.1280658E0,-1.8655775E0,3.5674694E-1,-6.6400266E-1,1.4274778E0,-2.8711356E-2,-4.3896794E-1,-6.2122118E-2,2.875571E-1,-1.16631284E-1,-5.7997346E-2,-2.5874063E-1,3.204851E-1,3.286421E-1,-3.2255977E-1,4.026573E-1,-6.881638E-2,1.4958419E-2,4.5159003E-1,3.1477812E-1,-3.109269E-1,-1.9500521E-1,-4.716006E-1,4.3516907E-1,-1.00316904E-1,-2.8695267E-1,1.8268743E-1,-4.3511966E-1,3.9608225E-2,-3.9549756E-1,3.8564578E-2,-1.4387126E-1,4.079207E-1,5.267308E-1,-7.1452625E-2,2.978197E-1,-4.5559487E-1,1.21663146E-1,-4.0098602E-1,5.0058025E-1,-2.4841166E-1,4.1409132E-1,-3.8929495E-1,1.2309851E-2,-3.746549E-1,-3.1473336E-1,1.076627E-1,1.542776E-1,6.001605E-1,4.609204E-1,1.3891824E-1,2.3389441E-1,-3.561823E-1,-1.271459E-1,4.6820542E-1,-1.2587483E-1,-4.2490694E-1,-3.9849305E-1,-3.5686942E-3,5.03943E-1,-2.2362554E-2,2.693629E-1,-3.7943918E-1,4.5973307E-1,-1.8622589E-1,1.5973677E-1,-2.5975293E-1,4.6332198E-1,4.261023E-2,-3.6593848E-1,2.1193226E-1,-4.3605286E-1,4.2314053E-1,1.2594093E-1,-3.2378098E-1,2.9455245E-1,-4.100743E-1,3.278792E-1,-3.5739753E-1,3.8029894E-1,-2.973555E-1,-5.3554654E-2,-3.3021158E-1,4.5218015E-1,1.3624743E-1],"split_indices":[324,326,152,172,275,295,45,366,382,354,298,370,223,332,295,294,347,0,96,378,286,341,300,0,318,0,0,358,263,351,367,0,24,333,15,0,0,0,158,0,96,52,363,273,287,329,320,351,341,252,298,355,298,365,276,67,187,0,0,48,0,0,0,72,340,0,0,64,72,115,324,0,230,271,153,316,382,298,42,290,301,359,300,266,382,379,316,293,280,41,0,325,107,260,0,143,298,1,42,0,0,0,0,0,0,0,362,352,0,286,212,0,0,214,329,77,0,365,133,378,379,368,358,0,290,0,76,290,41,0,0,364,314,370,181,367,302,136,347,274,318,357,0,33,213,0,0,78,0,25,0,0,0,0,0,0,0,0,0,0,0,0,0,0,0,0,0,0,0,0,0,0,0,0,0,0,0,0,0,0,0,0,0,0,0,0,0,0,0,0,0,0,0,0,0,0,0,0,0,0,0,0,0,0,0,0,0,0,0,0,0,0,0,0,0,0,0,0,0,0,0,0,0,0,0],"split_type":[0,0,0,0,0,0,0,0,0,0,0,0,0,0,0,0,0,0,0,0,0,0,0,0,0,0,0,0,0,0,0,0,0,0,0,0,0,0,0,0,0,0,0,0,0,0,0,0,0,0,0,0,0,0,0,0,0,0,0,0,0,0,0,0,0,0,0,0,0,0,0,0,0,0,0,0,0,0,0,0,0,0,0,0,0,0,0,0,0,0,0,0,0,0,0,0,0,0,0,0,0,0,0,0,0,0,0,0,0,0,0,0,0,0,0,0,0,0,0,0,0,0,0,0,0,0,0,0,0,0,0,0,0,0,0,0,0,0,0,0,0,0,0,0,0,0,0,0,0,0,0,0,0,0,0,0,0,0,0,0,0,0,0,0,0,0,0,0,0,0,0,0,0,0,0,0,0,0,0,0,0,0,0,0,0,0,0,0,0,0,0,0,0,0,0,0,0,0,0,0,0,0,0,0,0,0,0,0,0,0,0,0,0,0,0,0,0,0,0,0,0,0,0,0,0],"sum_hessian":[8.197511E3,4.1364267E2,7.783868E3,2.9729697E2,1.1634571E2,5.268345E3,2.5155232E3,2.9088513E2,6.411837E0,2.6022758E1,9.032295E1,5.260622E3,7.7230473E0,7.6860297E2,1.7469203E3,2.6496164E2,2.5923475E1,1.4214013E0,4.9904356E0,7.0538096E0,1.8968948E1,5.5733147E1,3.458981E1,2.8680007E0,5.257754E3,6.5186644E0,1.2043828E0,3.7092258E2,3.976804E2,1.7167217E3,3.0198654E1,1.8892027E0,2.6307245E2,4.983113E0,2.0940361E1,3.8309891E0,1.1594467E0,1.4353116E0,5.618498E0,1.4298388E0,1.753911E1,3.141183E0,5.2591965E1,2.442552E1,1.0164289E1,3.111792E1,5.226636E3,2.818371E2,8.908545E1,2.7753104E2,1.2014935E2,1.6267142E3,9.0007484E1,9.749483E0,2.0449171E1,1.888842E1,2.4418402E2,1.4070265E0,3.5760863E0,1.9750555E1,1.189807E0,4.450515E0,1.1679834E0,1.3509365E1,4.029744E0,1.6826516E0,1.4585314E0,2.582384E0,5.000958E1,6.743764E0,1.7681755E1,1.2050604E0,8.959229E0,2.4023258E1,7.0946617E0,5.0324136E3,1.9422226E2,2.6526437E2,1.6572727E1,7.492066E1,1.416479E1,5.0646305E0,2.724664E2,4.7790607E1,7.235875E1,1.0876934E1,1.6158373E3,5.4969395E1,3.5038094E1,8.323133E0,1.4263496E0,4.5683904E0,1.5880781E1,1.6750467E1,2.1379535E0,3.5739446E0,2.4061008E2,1.3876511E1,5.8740435E0,1.1755412E0,1.2333824E1,2.8305938E0,1.1991504E0,1.3877436E0,1.1946404E0,1.1890314E0,4.882055E1,5.286797E0,1.4569669E0,6.6848702E0,1.0996885E1,7.794245E0,1.1649845E0,2.1432062E1,2.591197E0,5.450947E0,1.6437149E0,5.0088643E3,2.3549591E1,9.274797E0,1.8494745E2,9.125641E1,1.7400798E2,1.1668273E0,1.54059E1,2.6225798E0,7.229808E1,9.546543E0,4.6182475E0,3.8567946E0,1.2078357E0,7.815128E1,1.9431512E2,3.4936182E0,4.4296986E1,1.874223E1,5.361652E1,7.084754E0,3.79218E0,1.5532423E3,6.259493E1,5.3323357E1,1.6460363E0,1.146104E1,2.3577053E1,1.1821007E0,7.141033E0,2.3829238E0,2.1854665E0,1.4708516E1,1.1722652E0,1.4319974E0,1.5318469E1,1.8901299E0,1.6838146E0,2.3919215E2,1.4179304E0,1.1767083E0,1.2699802E1,3.7437031E0,2.1303406E0,2.3224192E0,4.6498127E1,3.8601012E0,1.4266956E0,2.388697E0,4.296173E0,9.308252E0,1.6886337E0,1.858784E1,2.8442228E0,1.1673555E0,1.4238416E0,4.0373073E0,1.4136395E0,1.431099E0,5.007433E3,1.0161532E1,1.3388059E1,7.1819673E0,2.0928302E0,2.8991237E0,1.8204832E2,2.0127165E1,7.112924E1,3.988791E1,1.3412007E2,1.1869307E0,1.4218969E1,5.907662E1,1.3221463E1,1.2003994E0,8.346144E0,1.7080085E0,2.9102387E0,5.6898712E1,2.125257E1,1.8560391E2,8.711216E0,2.3201616E0,1.1734567E0,1.4155614E0,4.2881428E1,1.6323956E1,2.4182727E0,2.8718075E1,2.4898447E1,5.8962655E0,1.1884886E0,2.3616345E0,1.4305456E0,1.550697E3,2.5453064E0,1.3950888E1,4.8644043E1,1.1703466E0,5.215301E1,1.919737E0,9.541303E0,2.1141705E1,2.4353476E0,1.1615434E0,1.2213806E0,1.3535717E1,1.1727991E0],"tree_param":{"num_deleted":"0","num_feature":"384","num_nodes":"225","size_leaf_vector":"0"}},{"base_weights":[-1.0440154E0,5.4948497E-1,-1.1318603E0,9.3012875E-1,-4.1592047E-1,-7.600389E-1,-1.2424134E0,9.7143096E-1,-3.7551352E-1,4.71458E-1,-7.0691437E-1,-3.6958376E-1,-1.0492846E0,-1.3143595E0,-1.0907719E0,9.9642396E-1,-5.183378E-1,7.361854E-1,-1.1361849E0,-6.384535E-1,9.2604995E-1,-1.1726937E0,1.2221995E-2,5.223367E-5,-8.39771E-1,-1.0902674E0,6.1419266E-1,-5.5827476E-2,-1.31746E0,-1.2342914E0,-7.8071946E-1,1.02861E0,7.262244E-2,7.2991973E-1,-1.0482352E0,9.827913E-1,1.0215506E-2,-1.4442453E0,1.1041828E-1,7.0951664E-1,-9.614021E-1,1.2461464E0,1.7083457E-2,-2.2109829E-1,-1.2442813E0,-5.8141845E-1,6.813067E-1,6.5911186E-1,-3.5025164E-1,5.883529E-1,-9.882271E-1,-1.1458924E0,-1.02517486E-1,9.7220695E-1,-5.8332944E-1,-1.0225904E0,1.117509E0,4.5570397E-1,-1.3187163E0,-1.2509618E0,1.2274692E0,-9.6276045E-1,-2.5042472E-2,1.047133E0,-3.8091776E-1,6.5912527E-1,-1.1672233E0,2.4727523E-1,-1.2176836E0,5.315373E-2,1.3396099E0,-9.1402614E-1,7.2766334E-1,-9.9200964E-1,1.0903305E0,1.4156725E-1,-1.2920649E0,-1.0919081E0,1.4912084E-1,9.861917E-1,-2.5447303E-1,1.1317445E0,2.4827488E-1,3.7924144E-1,-6.6451025E-1,1.0899194E0,-8.159493E-1,-1.1101557E0,-8.8198364E-2,-1.162628E0,8.24314E-1,-8.768703E-1,8.193942E-1,-5.108622E-1,1.1334876E0,8.057989E-1,-1.1021765E0,-2.754057E-1,-1.1284455E0,-4.2336885E-2,1.4677267E0,1.3584061E0,-7.303825E-1,-1.3196108E0,4.870398E-1,4.594268E-1,-1.2637652E0,-9.0498346E-1,1.9822274E0,-1.0087011E0,1.3021151E0,5.6607693E-1,-7.426924E-1,1.0606195E0,-4.3185493E-1,-1.1861749E0,7.658688E-1,-6.535577E-1,1.1569202E0,-1.5404087E0,-1.8522261E-1,3.8825563E-1,1.387234E0,2.891933E-2,9.7025895E-1,-1.3279918E0,6.426202E-2,-1.2605654E0,2.0624566E-1,7.003461E-1,-9.719337E-1,1.1837215E0,-2.2779506E-1,-9.4057125E-1,6.869183E-1,-8.904383E-2,1.3197262E0,1.3154392E0,2.9994785E-3,-6.2035406E-1,7.659818E-1,-8.017297E-1,4.4870204E-1,1.3677351E0,-1.0403427E0,7.4061066E-1,-1.5265958E0,-1.2161244E0,-4.447226E-1,-4.1895387E-1,9.3464506E-1,4.9182785E-1,-1.1801426E0,1.7714118E0,-9.6970576E-1,3.0703694E-1,-1.2426634E0,1.6002133E0,-1.6796756E-1,1.247719E0,-1.8773678E-1,-1.0801183E0,-1.3285544E0,9.3740696E-1,-7.131556E-1,-1.2726191E0,7.888007E-1,2.2537227E0,3.575026E-1,-1.0363879E0,1.1616044E0,2.2734985E0,-6.146927E-1,-1.1284446E0,7.5511557E-1,-9.4606197E-1,1.032709E0,-5.1928675E-1,1.0704097E0,-3.3281103E-1,-1.358648E0,-1.3826482E0,-1.810214E-1,1.2259698E0,-1.4390725E-1,1.3405124E0,1.3392949E-1,1.4584653E0,-8.3022106E-1,1.4133209E0,-5.797809E-1,1.6312749E0,-5.914955E-1,7.428025E-1,-4.1600978E-1,7.901814E-1,-1.0236824E0,1.1271586E0,-3.2669714E-1,-8.5947335E-1,1.0789828E0,1.0872753E0,-6.380381E-1,1.3138795E-1,1.5780448E0,6.5663904E-1,-1.2351285E0,-8.9049244E-1,5.223221E-1,1.3557157E-1,-1.2662514E0,1.5064919E0,-9.3046933E-1,1.3457998E0,-1.0191159E0,-8.5378295E-1,-1.2445388E0,-9.633635E-1,1.1134428E0,1.9206848E-2,-1.3156211E0,1.8965352E0,-4.0148786E-1,1.3156868E0,-8.852219E-1,1.3427734E0,1.6301942E-1,-1.1689498E0,4.247607E-1,-1.3307811E0,-5.8654785E-1,1.2369752E0,-3.1506145E-1,-1.184082E-2,-1.0430809E0,-1.279436E0,9.347097E-1,1.6624228E0,-9.1682875E-1,2.863376E-1,-1.0775309E0,1.909798E0,-3.8774222E-1,1.0261352E-1,-9.349188E-1,-3.179009E-1,-1.2299699E0,6.9144115E-2,1.1397516E0,-1.2381043E0,-6.803023E-3,-1.3009039E-1,1.5314993E0],"categories":[],"categories_nodes":[],"categories_segments":[],"categories_sizes":[],"default_left":[1,1,1,1,1,1,1,1,1,1,1,1,1,1,1,1,1,1,1,1,1,1,1,1,1,1,1,1,1,1,1,1,1,0,0,0,0,0,0,0,1,1,1,1,1,1,1,1,1,1,1,1,1,1,1,1,1,1,1,1,1,1,1,1,1,1,1,0,0,0,1,0,1,0,0,0,1,1,1,1,1,1,1,1,1,1,1,1,1,1,1,1,1,0,1,0,0,0,0,0,0,0,0,1,0,1,1,0,1,1,1,1,1,1,0,0,0,0,0,0,0,0,0,0,0,1,0,1,0,1,0,1,0,0,0,1,1,1,1,1,1,1,1,1,0,0,0,1,1,1,1,1,1,0,0,1,1,1,1,1,0,1,1,1,1,1,1,0,0,1,1,0,1,1,1,1,1,0,0,0,0,0,0,0,0,0,0,0,0,0,0,0,0,0,0,0,0,0,0,0,0,0,0,0,0,0,0,0,0,0,0,0,0,0,0,0,0,0,0,0,0,0,0,0,0,0,0,0,0,0,0,0,0,0,0,0,0,0,0,0,0,0,0,0,0,0,0,0,0,0,0,0,0],"id":2,"left_children":[1,3,5,7,9,11,13,15,17,19,21,23,25,27,29,31,33,35,37,39,41,43,45,47,49,51,53,55,57,59,61,63,65,-1,-1,-1,-1,-1,-1,-1,67,69,71,73,75,77,79,81,83,85,87,89,91,93,95,97,99,101,103,105,107,109,111,113,115,117,119,-1,-1,-1,121,-1,123,-1,-1,-1,125,127,129,131,133,135,137,139,141,143,145,147,149,151,153,155,157,-1,159,-1,-1,-1,-1,-1,-1,-1,-1,161,-1,163,165,-1,167,169,171,173,175,177,-1,-1,-1,-1,-1,-1,-1,-1,-1,-1,-1,179,-1,181,-1,183,-1,185,-1,-1,-1,187,189,191,193,195,197,199,201,203,-1,-1,-1,205,207,209,211,213,215,-1,-1,217,219,221,223,225,-1,227,229,231,233,235,237,-1,-1,239,241,-1,243,245,247,249,251,-1,-1,-1,-1,-1,-1,-1,-1,-1,-1,-1,-1,-1,-1,-1,-1,-1,-1,-1,-1,-1,-1,-1,-1,-1,-1,-1,-1,-1,-1,-1,-1,-1,-1,-1,-1,-1,-1,-1,-1,-1,-1,-1,-1,-1,-1,-1,-1,-1,-1,-1,-1,-1,-1,-1,-1,-1,-1,-1,-1,-1,-1,-1,-1,-1,-1,-1,-1,-1,-1,-1,-1,-1,-1,-1,-1],"loss_changes":[9.854038E2,1.3570444E2,2.7314648E2,1.4623474E1,2.7400818E1,1.7249188E2,5.4623047E1,1.0070068E1,8.302626E0,1.39546585E1,2.6589092E1,1.13482376E2,6.0580933E1,1.3504883E1,7.286963E1,7.438751E0,4.0005026E0,7.407558E-1,2.323604E0,4.2899723E0,5.564432E0,3.0057297E0,1.3176483E1,8.486041E1,6.1511765E1,4.702588E1,9.900543E0,1.2027678E1,8.333496E0,4.8011475E1,7.257333E1,6.7721863E0,7.738267E0,0E0,0E0,0E0,0E0,0E0,0E0,0E0,2.5036645E0,1.5103302E0,4.643969E0,5.717736E0,3.1347198E0,6.7223463E0,4.6981416E0,2.4489014E1,5.5272083E1,2.0391605E1,2.8511124E1,2.7738647E1,3.41584E1,4.677458E0,4.9498606E0,1.4663315E-1,2.0170197E0,4.419274E0,6.246582E0,2.5224731E1,1.4866332E1,4.556137E1,4.4317066E1,5.269287E0,4.509512E0,5.425037E0,9.7478724E-1,0E0,0E0,0E0,5.5477142E-2,0E0,6.444895E-1,0E0,0E0,0E0,2.1898499E0,2.5532055E0,5.695368E0,3.1381311E0,3.6335824E0,1.3666428E1,1.8194185E1,2.865617E1,2.6038261E1,1.3750362E1,9.823506E0,1.5643097E1,1.1281865E1,2.3929077E1,1.4335487E1,1.1615921E1,1.7153076E1,0E0,2.6135216E0,0E0,0E0,0E0,0E0,0E0,0E0,0E0,0E0,5.9921875E0,0E0,5.765947E0,2.1308472E1,0E0,1.9786873E0,2.628299E1,1.7952011E1,1.920956E1,1.8007954E1,4.257538E0,0E0,0E0,0E0,0E0,0E0,0E0,0E0,0E0,0E0,0E0,0E0,8.3283997E-1,0E0,9.89933E-1,0E0,2.8484259E0,0E0,1.5404224E0,0E0,0E0,0E0,1.1321395E1,9.926445E0,8.789038E0,1.8143703E1,1.2692507E1,2.128827E1,1.7218857E1,1.394039E1,4.696205E0,0E0,0E0,0E0,7.836731E0,1.4735876E1,1.1924873E1,1.0121153E1,1.3173328E1,1.5700317E1,0E0,0E0,8.167174E0,1.868042E0,8.071632E0,1.2419411E1,1.2906513E0,0E0,1.7899216E1,4.7353516E0,2.9760537E0,7.284608E-1,1.7941162E1,9.594599E0,0E0,0E0,2.276471E1,7.381454E0,0E0,9.6361625E-1,1.1528158E-1,1.3682381E1,1.1743561E1,3.2882352E0,0E0,0E0,0E0,0E0,0E0,0E0,0E0,0E0,0E0,0E0,0E0,0E0,0E0,0E0,0E0,0E0,0E0,0E0,0E0,0E0,0E0,0E0,0E0,0E0,0E0,0E0,0E0,0E0,0E0,0E0,0E0,0E0,0E0,0E0,0E0,0E0,0E0,0E0,0E0,0E0,0E0,0E0,0E0,0E0,0E0,0E0,0E0,0E0,0E0,0E0,0E0,0E0,0E0,0E0,0E0,0E0,0E0,0E0,0E0,0E0,0E0,0E0,0E0,0E0,0E0,0E0,0E0,0E0,0E0,0E0,0E0,0E0,0E0,0E0,0E0,0E0],"parents":[2147483647,0,0,1,1,2,2,3,3,4,4,5,5,6,6,7,7,8,8,9,9,10,10,11,11,12,12,13,13,14,14,15,15,16,16,17,17,18,18,19,19,20,20,21,21,22,22,23,23,24,24,25,25,26,26,27,27,28,28,29,29,30,30,31,31,32,32,40,40,41,41,42,42,43,43,44,44,45,45,46,46,47,47,48,48,49,49,50,50,51,51,52,52,53,53,54,54,55,55,56,56,57,57,58,58,59,59,60,60,61,61,62,62,63,63,64,64,65,65,66,66,70,70,72,72,76,76,77,77,78,78,79,79,80,80,81,81,82,82,83,83,84,84,85,85,86,86,87,87,88,88,89,89,90,90,91,91,92,92,94,94,103,103,105,105,106,106,108,108,109,109,110,110,111,111,112,112,113,113,125,125,127,127,129,129,131,131,135,135,136,136,137,137,138,138,139,139,140,140,141,141,142,142,143,143,147,147,148,148,149,149,150,150,151,151,152,152,155,155,156,156,157,157,158,158,159,159,161,161,162,162,163,163,164,164,165,165,166,166,169,169,170,170,172,172,173,173,174,174,175,175,176,176],"right_children":[2,4,6,8,10,12,14,16,18,20,22,24,26,28,30,32,34,36,38,40,42,44,46,48,50,52,54,56,58,60,62,64,66,-1,-1,-1,-1,-1,-1,-1,68,70,72,74,76,78,80,82,84,86,88,90,92,94,96,98,100,102,104,106,108,110,112,114,116,118,120,-1,-1,-1,122,-1,124,-1,-1,-1,126,128,130,132,134,136,138,140,142,144,146,148,150,152,154,156,158,-1,160,-1,-1,-1,-1,-1,-1,-1,-1,162,-1,164,166,-1,168,170,172,174,176,178,-1,-1,-1,-1,-1,-1,-1,-1,-1,-1,-1,180,-1,182,-1,184,-1,186,-1,-1,-1,188,190,192,194,196,198,200,202,204,-1,-1,-1,206,208,210,212,214,216,-1,-1,218,220,222,224,226,-1,228,230,232,234,236,238,-1,-1,240,242,-1,244,246,248,250,252,-1,-1,-1,-1,-1,-1,-1,-1,-1,-1,-1,-1,-1,-1,-1,-1,-1,-1,-1,-1,-1,-1,-1,-1,-1,-1,-1,-1,-1,-1,-1,-1,-1,-1,-1,-1,-1,-1,-1,-1,-1,-1,-1,-1,-1,-1,-1,-1,-1,-1,-1,-1,-1,-1,-1,-1,-1,-1,-1,-1,-1,-1,-1,-1,-1,-1,-1,-1,-1,-1,-1,-1,-1,-1,-1,-1],"split_conditions":[-1.773827E0,8.840326E-3,-8.048273E-1,-6.845101E-2,-1.4356926E-1,-5.65943E-1,-1.4724214E-1,7.95081E-1,-2.1133008E0,4.129048E-1,4.2535198E-1,3.8500953E-1,3.3536773E0,-2.2586055E0,-8.5074216E-2,1.5299926E0,-2.4106245E0,7.790602E-1,-1.282395E-1,2.1741937E-1,7.53538E-1,-1.7637012E0,8.979857E-2,-1.0144815E0,-1.2065959E0,1.6565256E0,-2.2700173E-1,-1.9777218E-1,-2.749272E0,2.7945018E0,5.757829E-1,1.2293577E0,1.1456916E-1,2.1897593E-1,-3.1447056E-1,2.9483742E-1,3.064652E-3,-4.332736E-1,3.3125486E-2,2.12855E-1,-1.0594947E0,-9.0106815E-1,-2.4930954E-1,1.2776388E0,-2.2494793E0,-7.3333704E-1,8.781682E-2,-2.975582E-1,-4.6310133E-1,1.2463033E0,1.7128229E0,2.5441976E0,1.8244407E-1,-6.085066E-1,-1.0190916E-1,-7.4419826E-1,-2.5986704E-1,2.5916383E-1,3.3873432E0,-2.5859709E0,-6.91046E-1,1.465609E0,-2.7395166E-2,1.8578396E0,8.78917E-2,-2.0363413E-1,-9.6065414E-1,7.418257E-2,-3.6530507E-1,1.594612E-2,-6.1590886E-1,-2.7420786E-1,-1.5547547E-1,-2.976029E-1,3.2709914E-1,4.2470176E-2,2.0344281E0,6.320565E-1,9.047545E-1,1.11402616E-1,5.955709E-1,-6.338624E-1,-1.2951801E0,1.3697886E-1,8.1320965E-1,5.4019535E-1,-6.912334E-1,5.1134694E-1,1.0007769E-1,-2.100125E0,-1.2555318E-1,-5.311398E-1,-6.903903E-1,-1.5325865E-1,-2.0450953E-1,2.4173968E-1,-3.3065298E-1,-8.2621716E-2,-3.3853367E-1,-1.2701066E-2,4.4031802E-1,4.0752184E-1,-2.1911477E-1,-1.2102969E0,1.4611195E-1,-3.9317757E-1,1.0239128E1,-2.7149504E-1,2.8262058E-1,2.478446E0,-6.1806273E-1,-8.049828E-1,1.3847198E0,-2.627212E0,-1.2955649E-1,-3.5585248E-1,2.2976065E-1,-1.9606732E-1,3.4707606E-1,-4.6212265E-1,-5.5566784E-2,1.1647669E-1,4.161702E-1,8.6758E-3,2.910777E-1,-1.0529191E0,1.9278606E-2,3.1095004E-1,6.18737E-2,-3.8905472E-1,-2.9158014E-1,7.7574456E-1,-6.833852E-2,-2.821714E-1,2.060755E-1,-8.871594E-1,1.428115E0,5.989257E-1,-1.0379696E0,-5.804422E-1,3.683957E-1,2.40027E0,6.1451644E-1,-2.4857163E-1,-3.1210282E-1,2.2218321E-1,-4.5797876E-1,-3.3158643E0,6.2154293E-1,4.9144924E-1,-6.363192E-1,1.6051275E-1,-4.655617E-1,5.3142357E-1,-2.9091173E-1,-9.549098E-2,-1.4446354E0,-2.0409986E-1,-8.626269E-1,-1.5564087E-1,-5.6321036E-2,1.4256649E0,2.3904486E0,6.9250464E-1,-7.945429E-1,3.6036453E0,-8.701152E-1,6.761168E-1,1.0725079E-1,-1.0212903E0,-3.9777642E-1,6.820496E-1,-3.0952257E-1,-2.1329107E0,8.588795E-2,1.1288414E0,-1.1418902E-1,-1.5578604E-1,3.211229E-1,-9.9843316E-2,-4.075944E-1,-4.1479447E-1,-5.4306425E-2,3.6779094E-1,-4.3172177E-2,4.0215373E-1,4.017885E-2,4.375396E-1,-2.4906632E-1,4.239963E-1,-1.7393427E-1,4.893825E-1,-1.7744866E-1,2.2284076E-1,-1.2480294E-1,2.3705442E-1,-3.071047E-1,3.381476E-1,-9.800915E-2,-2.57842E-1,3.2369485E-1,3.261826E-1,-1.9141144E-1,3.9416388E-2,4.7341344E-1,1.9699173E-1,-3.7053856E-1,-2.6714775E-1,1.5669665E-1,4.067147E-2,-3.7987545E-1,4.519476E-1,-2.791408E-1,4.0373996E-1,-3.0573478E-1,-2.561349E-1,-3.7336165E-1,-2.8900906E-1,3.3403283E-1,5.7620546E-3,-3.9468637E-1,5.6896055E-1,-1.2044636E-1,3.9470607E-1,-2.655666E-1,4.0283206E-1,4.8905827E-2,-3.5068497E-1,1.2742822E-1,-3.9923435E-1,-1.7596436E-1,3.7109256E-1,-9.451844E-2,-3.5522461E-3,-3.129243E-1,-3.8383082E-1,2.8041294E-1,4.9872684E-1,-2.7504864E-1,8.590129E-2,-3.2325926E-1,5.7293946E-1,-1.16322674E-1,3.0784057E-2,-2.8047565E-1,-9.537027E-2,-3.6899096E-1,2.0743236E-2,3.4192547E-1,-3.7143132E-1,-2.040907E-3,-3.9027117E-2,4.594498E-1],"split_indices":[324,326,91,47,275,109,152,237,318,354,298,324,295,318,298,66,324,75,160,337,222,318,280,59,363,320,305,170,332,330,356,253,107,0,0,0,0,0,0,0,308,53,350,36,334,213,147,326,343,349,380,369,292,210,86,99,340,5,295,355,320,294,382,347,372,329,127,0,0,0,93,0,268,0,0,0,166,118,117,361,66,277,364,280,279,325,376,367,283,382,329,382,334,0,154,0,0,0,0,0,0,0,0,328,0,114,274,0,331,345,306,320,369,225,0,0,0,0,0,0,0,0,0,0,0,91,0,127,0,46,0,20,0,0,0,338,292,78,213,57,274,323,367,298,0,0,0,341,281,364,167,270,77,0,0,348,334,25,328,114,0,359,320,72,76,287,165,0,0,293,49,0,145,317,280,357,258,0,0,0,0,0,0,0,0,0,0,0,0,0,0,0,0,0,0,0,0,0,0,0,0,0,0,0,0,0,0,0,0,0,0,0,0,0,0,0,0,0,0,0,0,0,0,0,0,0,0,0,0,0,0,0,0,0,0,0,0,0,0,0,0,0,0,0,0,0,0,0,0,0,0,0,0],"split_type":[0,0,0,0,0,0,0,0,0,0,0,0,0,0,0,0,0,0,0,0,0,0,0,0,0,0,0,0,0,0,0,0,0,0,0,0,0,0,0,0,0,0,0,0,0,0,0,0,0,0,0,0,0,0,0,0,0,0,0,0,0,0,0,0,0,0,0,0,0,0,0,0,0,0,0,0,0,0,0,0,0,0,0,0,0,0,0,0,0,0,0,0,0,0,0,0,0,0,0,0,0,0,0,0,0,0,0,0,0,0,0,0,0,0,0,0,0,0,0,0,0,0,0,0,0,0,0,0,0,0,0,0,0,0,0,0,0,0,0,0,0,0,0,0,0,0,0,0,0,0,0,0,0,0,0,0,0,0,0,0,0,0,0,0,0,0,0,0,0,0,0,0,0,0,0,0,0,0,0,0,0,0,0,0,0,0,0,0,0,0,0,0,0,0,0,0,0,0,0,0,0,0,0,0,0,0,0,0,0,0,0,0,0,0,0,0,0,0,0,0,0,0,0,0,0,0,0,0,0,0,0,0,0,0,0,0,0,0,0,0,0,0,0,0,0,0,0,0,0,0,0,0,0],"sum_hessian":[7.0341187E3,3.6723557E2,6.6668833E3,2.6341272E2,1.03822845E2,1.5297563E3,5.1371265E3,2.5558366E2,7.8290586E0,2.5485455E1,7.8337395E1,6.5195483E2,8.778015E2,3.4788992E3,1.6582274E3,2.5169232E2,3.8913481E0,3.1937203E0,4.6353383E0,7.2876935E0,1.819776E1,4.716092E1,3.1176476E1,3.6556622E2,2.8638864E2,8.5703156E2,2.0769938E1,8.595836E0,3.4703035E3,1.1314926E3,5.267349E2,2.4310873E2,8.583579E0,1.047149E0,2.8441992E0,2.1198585E0,1.0738618E0,3.5897062E0,1.045632E0,1.1771863E0,6.110507E0,1.3184007E1,5.013754E0,3.5856965E0,4.3575222E1,1.6589016E1,1.4587458E1,1.2656536E2,2.3900085E2,2.6688307E1,2.5970035E2,8.1118945E2,4.5842148E1,1.6134481E1,4.6354556E0,4.783214E0,3.8126218E0,2.2008712E0,3.4681025E3,1.1243704E3,7.122126E0,4.24258E2,1.02476906E2,2.402092E2,2.8995361E0,6.145067E0,2.4385118E0,1.0751263E0,5.035381E0,1.0718124E0,1.2112194E1,2.0462008E0,2.9675531E0,2.411616E0,1.1740805E0,1.3869632E0,4.218826E1,9.474042E0,7.114975E0,1.0962055E1,3.6254022E0,5.8040276E1,6.8525085E1,7.189746E1,1.671034E2,1.9829714E1,6.8585935E0,2.2851018E2,3.119017E1,8.0476337E2,6.426079E0,2.4941542E1,2.0900604E1,1.3699015E0,1.4764581E1,1.110151E0,3.5253043E0,1.0405004E0,3.7427135E0,1.0881188E0,2.724503E0,1.1672335E0,1.0336378E0,3.4666543E3,1.448193E0,8.094901E0,1.1162755E3,1.8097943E0,5.3123317E0,4.1636707E2,7.890927E0,5.630795E1,4.6168957E1,2.3831891E2,1.890291E0,1.6832414E0,1.2162946E0,1.6035658E0,4.5415015E0,1.3549522E0,1.0835595E0,1.0137479E0,1.1098446E1,1.0532123E0,1.9143409E0,4.1119946E1,1.0683132E0,8.41032E0,1.0637213E0,5.021279E0,2.0936959E0,9.44945E0,1.512606E0,2.0975509E0,1.5278511E0,7.8149385E0,5.0225338E1,1.1990915E1,5.653417E1,1.9888426E1,5.2009037E1,1.4901495E2,1.808843E1,1.7858648E1,1.9710655E0,2.1365817E0,4.722012E0,1.9640547E2,3.2104702E1,2.4014906E1,7.175265E0,8.146532E0,7.966168E2,4.2140183E0,2.2120602E0,5.9251466E0,1.9016396E1,1.13244095E1,9.576195E0,1.3640843E1,1.1237372E0,1.2918109E2,3.3374731E3,5.8932114E0,2.2016897E0,1.1118594E3,4.4161296E0,4.2200165E0,1.0923152E0,4.116382E2,4.728848E0,5.1134768E0,2.77745E0,5.1524606E0,5.1155487E1,4.184303E1,4.325928E0,1.1471974E0,2.371717E2,1.5831412E0,3.9536804E1,7.3036046E0,1.1067159E0,2.8159573E0,2.2053218E0,7.980585E0,1.4688646E0,2.2174144E0,5.597524E0,4.8110725E1,2.1146104E0,1.041113E1,1.5797851E0,2.0162495E1,3.6371674E1,4.209088E0,1.56793375E1,3.906488E1,1.2944159E1,1.4510286E2,3.9120967E0,1.1393228E1,6.695203E0,2.8324218E0,1.5026227E1,1.6359642E0,1.9476952E2,2.2029242E1,1.00754595E1,1.5022936E1,8.991969E0,5.6387076E0,1.5365573E0,5.274647E0,2.871885E0,1.3363127E2,6.6298553E2,2.2251065E0,3.70004E0,1.0796483E0,1.7936749E1,9.909931E0,1.4144784E0,2.848884E0,6.72731E0,1.23230295E1,1.3178141E0,1.2219148E2,6.989613E0,3.3266965E3,1.0776833E1,4.765709E0,1.1275027E0,1.0358006E0,1.1658891E0,1.1088552E3,3.0041091E0,2.9370875E0,1.479042E0,1.2237871E1,3.9940036E2,3.0320134E0,1.6968343E0,1.0669785E0,1.7104716E0,1.0333989E0,4.119062E0,1.8802431E1,3.2353058E1,3.1675915E1,1.0167115E1,1.5204902E0,2.805438E0],"tree_param":{"num_deleted":"0","num_feature":"384","num_nodes":"253","size_leaf_vector":"0"}},{"base_weights":[-9.13979E-1,4.098465E-1,-9.960388E-1,7.5205874E-1,-3.7113592E-1,-1.1686362E0,-7.388773E-1,2.9344726E-1,8.8509387E-1,-7.930455E-1,1.1377787E-1,-1.1711009E0,8.645964E-1,-2.7049834E-1,-1.012918E0,-9.202733E-1,4.7010234E-1,1.1068729E0,6.33216E-1,3.9926052E-1,-1.040742E0,-4.2033845E-1,7.1159136E-1,-8.467162E-1,-1.1868001E0,2.552093E-1,9.7752416E-1,5.684539E-2,-5.608182E-1,-1.0585713E0,-3.0727237E-1,7.0449196E-2,-1.2275972E0,7.0346785E-1,-4.508546E-1,-1.5251254E-1,1.132683E0,8.42791E-1,2.5300843E-1,1.1083229E0,-5.481709E-1,-1.2634577E-2,-1.1696523E0,6.2532884E-1,-6.551879E-1,1.0083611E0,9.236783E-3,1.6473666E-2,-1.028875E0,-3.3550265E-1,-1.1920658E0,5.5895185E-1,-2.544294E-1,-1.0765455E0,-3.9747113E-1,-1.089365E0,-3.5854194E-1,1.1818674E-1,-1.0933912E0,8.9993185E-1,-3.2875612E-1,-1.5901861E0,8.876496E-1,1.5801387E-1,1.1679174E0,9.0083003E-1,-4.4921193E-1,6.4921355E-1,-5.086436E-1,6.064208E-1,-9.900838E-1,9.6876115E-1,-1.0365515E0,1.4526217E-1,-1.2062386E0,-5.069035E-1,1.1967638E0,-8.822552E-1,2.5064656E-1,-1.15736425E-1,1.18759E0,-9.85553E-1,4.9629343E-1,1.516859E0,-6.3420194E-1,7.2559464E-1,-1.0779271E0,7.460607E-1,-8.67362E-1,9.735648E-1,-1.1938709E0,8.344949E-1,-8.2636124E-1,-7.2332484E-1,1.5114039E-1,1.2208096E0,-1.1233189E0,-6.450944E-1,1.18725635E-1,-4.3375692E-1,-1.118361E0,2.7277696E-1,-1.0372597E0,-8.318539E-1,4.5996177E-1,9.4546044E-1,-1.209465E0,9.744729E-1,-6.7472786E-1,-1.2691517E0,7.6929677E-1,-2.2336695E0,4.7799695E-1,2.3934366E-1,9.9799055E-1,9.192341E-1,-1.2303692E0,9.7336754E-2,1.1851869E0,9.943074E-1,3.432679E-2,-1.1371657E0,4.322108E-1,-9.051384E-1,7.938663E-1,-1.4114243E0,5.749697E-1,-1.9240104E-2,1.382103E0,-1.2249787E-1,-1.2326677E0,-1.037135E0,3.8896185E-1,-5.045421E-1,9.692658E-1,-7.3581046E-1,5.009973E-1,1.770993E-1,1.3250474E0,-4.392197E-1,9.212966E-1,2.0465117E0,-7.5659096E-1,8.69849E-1,-1.0272831E0,1.7817703E0,-7.627664E-1,-6.37732E-1,-1.184526E0,-7.836109E-1,1.2735674E0,6.918008E-1,-1.0584651E0,9.385254E-1,-1.1955272E0,9.419095E-1,-5.5478185E-1,-1.015969E0,1.1199598E0,-1.0681844E0,-1.3810464E-2,7.7671653E-1,-1.6782902E-1,-1.1581899E0,5.8199155E-1,-7.8036845E-1,1.7034782E-1,4.9371675E-1,-3.277111E-1,-8.143195E-1,7.804439E-1,-1.1252598E0,7.9620165E-1,7.376613E-1,-5.222429E-1,-1.1674902E0,8.150138E-1,-1.0511147E0,7.446922E-1,-9.1873065E-2,1.3214784E0,-2.624998E-1,-1.2354743E0,1.048251E0,-6.5351886E-1,-1.8776622E0,3.2043764E-1,-2.6851537E0,-4.3177783E-1,1.2435352E0,7.778508E-1,1.0655284E0,-3.4014E-1,6.5471524E-1,-1.0395896E0,9.7606987E-1,-3.882381E-1,7.084281E-1,-2.0079029E0,1.05876E0,-8.731228E-1,-1.2002006E0,1.8917883E-2,5.6198362E-2,-7.830289E-1,2.7203063E-2,2.379649E0,1.42271E0,-5.092372E-1,1.746921E-1,-1.1776508E0,1.224076E0,-8.7780905E-1,6.990952E-2,-1.2131791E0,1.8392397E0,-4.6473825E-1,-1.1545042E0,-4.4878107E-3,7.845561E-1,-1.19707E0,-1.1089977E0,1.0209093E0,-1.2322145E0,5.746851E-1,1.9719335E-1,-1.3117275E0,9.706741E-1,-1.1233001E0,1.0309141E0,-4.021401E-1,-3.7454206E-1,1.0755452E0,-3.776246E-1,1.2130737E0,-1.1851815E0,6.440974E-1,-8.784864E-1,8.3311625E-2,-7.658262E-1,8.7096477E-1,-3.2698783E-1,8.063617E-1,-7.779675E-1,8.852051E-2,-1.3754293E-1,-1.0825027E0,1.5832638E0,-4.3371645E-1,1.3486711E0,-1.1300776E0,1.1719395E0,-2.2651868E-1,-6.7198205E-1,1.1811526E0,-1.0361265E0,6.870905E-1,4.7129244E-2,-1.2619616E0,-1.1887871E0,3.6460114E-1,-7.359054E-1,4.5123532E-1,1.4948959E0,-3.486928E-1],"categories":[],"categories_nodes":[],"categories_segments":[],"categories_sizes":[],"default_left":[1,1,1,1,1,1,1,1,1,1,1,1,1,1,1,1,1,1,1,1,1,1,1,1,1,0,0,1,1,1,1,0,0,1,1,0,1,1,1,0,1,1,1,1,1,1,1,1,1,1,1,1,1,1,1,1,1,1,1,1,1,1,1,1,1,1,1,1,1,0,0,1,0,0,1,0,0,1,1,1,1,0,1,1,1,1,1,1,1,0,1,1,1,1,1,0,1,1,1,1,1,1,1,1,1,0,1,1,0,1,0,1,0,0,0,0,0,0,1,1,1,0,0,0,1,1,1,0,0,0,0,1,0,1,0,0,0,0,0,0,0,1,0,1,1,0,0,1,1,0,1,0,1,0,1,1,1,1,0,1,1,1,1,1,0,1,1,1,1,1,1,1,1,1,1,1,0,1,0,1,1,0,0,0,0,0,0,0,0,0,0,0,0,0,0,0,0,0,0,0,0,0,0,0,0,0,0,0,0,0,0,0,0,0,0,0,0,0,0,0,0,0,0,0,0,0,0,0,0,0,0,0,0,0,0,0,0,0,0,0,0,0,0,0,0,0,0,0,0,0,0,0,0,0,0,0,0,0,0,0,0,0,0,0,0],"id":3,"left_children":[1,3,5,7,9,11,13,15,17,19,21,23,25,27,29,31,33,35,37,39,41,43,45,47,49,-1,-1,51,53,55,57,-1,-1,59,61,-1,63,65,67,-1,69,71,73,75,77,79,81,83,85,87,89,91,93,95,97,99,101,103,105,107,109,111,113,115,117,119,121,123,125,-1,-1,127,-1,-1,129,-1,-1,131,133,135,137,-1,139,141,143,145,147,149,151,-1,153,155,157,159,161,-1,163,165,167,169,171,173,175,177,179,-1,181,183,-1,185,-1,187,-1,-1,-1,-1,-1,-1,189,191,193,-1,-1,-1,195,197,199,-1,-1,-1,-1,201,-1,203,-1,-1,-1,-1,-1,-1,-1,205,-1,207,209,-1,-1,211,213,-1,215,-1,217,-1,219,221,223,225,-1,227,229,231,233,235,-1,237,239,241,243,245,247,249,251,253,255,257,-1,259,-1,261,263,-1,-1,-1,-1,-1,-1,-1,-1,-1,-1,-1,-1,-1,-1,-1,-1,-1,-1,-1,-1,-1,-1,-1,-1,-1,-1,-1,-1,-1,-1,-1,-1,-1,-1,-1,-1,-1,-1,-1,-1,-1,-1,-1,-1,-1,-1,-1,-1,-1,-1,-1,-1,-1,-1,-1,-1,-1,-1,-1,-1,-1,-1,-1,-1,-1,-1,-1,-1,-1,-1,-1,-1,-1,-1,-1,-1,-1,-1,-1,-1,-1,-1,-1,-1],"loss_changes":[6.360127E2,9.174165E1,2.4368799E2,1.4278336E1,2.1559185E1,1.7524902E1,2.840968E2,1.2241365E1,9.589233E0,1.7024635E1,1.6167599E1,1.5758301E1,6.466174E-2,7.787907E1,4.4690918E1,2.320025E0,1.0792295E1,3.3133774E0,6.845669E0,7.5917916E0,6.1934547E0,7.009689E0,4.9560366E0,2.4458183E1,1.3663574E1,0E0,0E0,6.0460575E1,3.615158E1,2.7892212E1,2.9000202E1,0E0,0E0,8.26099E0,1.7367573E1,0E0,3.0710144E0,4.654911E0,1.026095E1,0E0,3.2124224E0,7.2644405E0,2.1771164E0,4.126772E0,4.83568E0,3.509409E0,4.406467E0,2.8366627E1,1.1829773E1,1.2541772E1,1.3348633E1,5.718535E1,4.554573E1,1.2531921E1,4.2430984E1,2.3396484E1,2.4609886E1,1.8861547E1,8.340263E0,4.5619373E0,8.217688E0,9.066366E0,1.5119743E-1,5.8487177E0,1.5732727E0,4.3864517E0,2.3736744E0,5.6845636E0,1.23761E1,0E0,0E0,1.5367587E0,0E0,0E0,1.0116959E0,0E0,0E0,3.9787693E0,3.3519552E0,1.5972706E0,1.7827053E0,0E0,2.8270848E0,1.212796E1,1.2886296E1,7.787018E0,5.123337E0,6.9319673E0,5.000183E0,0E0,1.2125977E1,1.9019203E1,1.0384901E1,2.714124E1,2.5859184E1,0E0,6.758087E0,2.4851593E1,1.8286634E1,2.5976742E1,1.6777588E1,1.1549091E1,7.6015835E0,6.110607E0,2.0325512E1,0E0,3.9515305E-1,4.5489674E0,0E0,4.6206565E0,0E0,2.7132149E0,0E0,0E0,0E0,0E0,0E0,0E0,1.1669083E0,5.0409126E0,4.91134E0,0E0,0E0,0E0,4.845789E0,9.942674E0,5.186163E0,0E0,0E0,0E0,0E0,2.857235E0,0E0,5.483838E-1,0E0,0E0,0E0,0E0,0E0,0E0,0E0,4.9104633E0,0E0,4.3418875E0,3.1952152E0,0E0,0E0,1.2959742E1,3.6680603E0,0E0,6.6062956E0,0E0,1.3264198E0,0E0,1.0450195E1,1.983326E1,7.995969E0,8.639303E0,0E0,9.481384E0,1.5552511E1,1.5443974E1,2.5436764E1,5.6569824E0,0E0,1.6376122E1,2.2118467E1,1.5464127E1,9.444255E0,7.5184135E0,1.3941012E1,1.5809326E1,2.1494756E0,1.2968728E1,8.002199E0,3.0621986E0,0E0,3.1515274E0,0E0,9.720076E0,5.3460445E0,0E0,0E0,0E0,0E0,0E0,0E0,0E0,0E0,0E0,0E0,0E0,0E0,0E0,0E0,0E0,0E0,0E0,0E0,0E0,0E0,0E0,0E0,0E0,0E0,0E0,0E0,0E0,0E0,0E0,0E0,0E0,0E0,0E0,0E0,0E0,0E0,0E0,0E0,0E0,0E0,0E0,0E0,0E0,0E0,0E0,0E0,0E0,0E0,0E0,0E0,0E0,0E0,0E0,0E0,0E0,0E0,0E0,0E0,0E0,0E0,0E0,0E0,0E0,0E0,0E0,0E0,0E0,0E0,0E0,0E0,0E0,0E0,0E0,0E0,0E0,0E0,0E0,0E0,0E0,0E0,0E0,0E0,0E0,0E0],"parents":[2147483647,0,0,1,1,2,2,3,3,4,4,5,5,6,6,7,7,8,8,9,9,10,10,11,11,12,12,13,13,14,14,15,15,16,16,17,17,18,18,19,19,20,20,21,21,22,22,23,23,24,24,27,27,28,28,29,29,30,30,33,33,34,34,36,36,37,37,38,38,40,40,41,41,42,42,43,43,44,44,45,45,46,46,47,47,48,48,49,49,50,50,51,51,52,52,53,53,54,54,55,55,56,56,57,57,58,58,59,59,60,60,61,61,62,62,63,63,64,64,65,65,66,66,67,67,68,68,71,71,74,74,77,77,78,78,79,79,80,80,82,82,83,83,84,84,85,85,86,86,87,87,88,88,90,90,91,91,92,92,93,93,94,94,96,96,97,97,98,98,99,99,100,100,101,101,102,102,103,103,104,104,106,106,107,107,109,109,111,111,118,118,119,119,120,120,124,124,125,125,126,126,131,131,133,133,141,141,143,143,144,144,147,147,148,148,150,150,152,152,154,154,155,155,156,156,157,157,159,159,160,160,161,161,162,162,163,163,165,165,166,166,167,167,168,168,169,169,170,170,171,171,172,172,173,173,174,174,175,175,177,177,179,179,180,180],"right_children":[2,4,6,8,10,12,14,16,18,20,22,24,26,28,30,32,34,36,38,40,42,44,46,48,50,-1,-1,52,54,56,58,-1,-1,60,62,-1,64,66,68,-1,70,72,74,76,78,80,82,84,86,88,90,92,94,96,98,100,102,104,106,108,110,112,114,116,118,120,122,124,126,-1,-1,128,-1,-1,130,-1,-1,132,134,136,138,-1,140,142,144,146,148,150,152,-1,154,156,158,160,162,-1,164,166,168,170,172,174,176,178,180,-1,182,184,-1,186,-1,188,-1,-1,-1,-1,-1,-1,190,192,194,-1,-1,-1,196,198,200,-1,-1,-1,-1,202,-1,204,-1,-1,-1,-1,-1,-1,-1,206,-1,208,210,-1,-1,212,214,-1,216,-1,218,-1,220,222,224,226,-1,228,230,232,234,236,-1,238,240,242,244,246,248,250,252,254,256,258,-1,260,-1,262,264,-1,-1,-1,-1,-1,-1,-1,-1,-1,-1,-1,-1,-1,-1,-1,-1,-1,-1,-1,-1,-1,-1,-1,-1,-1,-1,-1,-1,-1,-1,-1,-1,-1,-1,-1,-1,-1,-1,-1,-1,-1,-1,-1,-1,-1,-1,-1,-1,-1,-1,-1,-1,-1,-1,-1,-1,-1,-1,-1,-1,-1,-1,-1,-1,-1,-1,-1,-1,-1,-1,-1,-1,-1,-1,-1,-1,-1,-1,-1,-1,-1,-1,-1,-1],"split_conditions":[-1.721883E0,8.840326E-3,-8.233041E-2,7.0545273E-3,3.416349E-1,3.3536773E0,-3.311805E-1,-5.6425726E-1,-1.2574992E0,-1.2813121E0,1.1828564E-1,-1.2104552E0,-2.4396612E-1,-1.1857332E-1,7.590015E-1,2.857566E-1,7.897492E-1,-2.3347578E0,-8.8239E-1,-1.2257748E0,-1.2319434E0,-6.2825555E-1,2.8558648E-1,-2.6570672E-1,-2.2875543E0,7.656279E-2,2.9325727E-1,-1.1768794E0,-3.5103685E-1,1.4235654E0,3.3569533E-1,2.113476E-2,-3.682792E-1,4.2406064E-1,-1.2981966E-1,-4.5753762E-2,-1.6496203E0,1.1926389E0,4.642021E-1,3.3249688E-1,-1.3047199E0,-4.296931E-1,-1.5229366E0,6.349722E-1,7.2936416E-1,-2.1699688E-1,-8.148314E-1,-1.3218405E0,-3.6726558E-1,-8.342522E-1,-4.32176E0,2.6802784E-1,1.9432414E-1,-2.675335E0,1.8247324E-1,-1.0825897E0,-2.7805412E-1,3.1934142E-1,-1.7125685E0,1.3280347E-1,3.3920374E-2,-1.136235E-1,-3.4496665E-1,1.7961456E0,-1.2836156E0,-1.6590716E-1,8.5858333E-1,-1.0348198E0,-8.5142374E-1,1.8192625E-1,-2.9702514E-1,-1.9368738E-1,-3.1096545E-1,4.357865E-2,-1.0006201E0,-1.5207106E-1,3.5902914E-1,1.7533445E0,-6.972571E-1,-6.586579E-1,-1.435909E0,-2.9566592E-1,-2.2435303E-1,3.1621283E-1,-1.0890136E0,8.2618105E-1,-1.4713696E0,-1.16259E-3,-1.1210041E0,2.9206946E-1,-4.613797E0,4.2375946E-1,1.3984393E0,4.8949784E-1,1.2286039E-1,3.662429E-1,1.674288E0,5.6728333E-1,-2.1936312E-1,1.0131226E0,2.456278E0,6.696965E-1,1.4953351E0,5.99528E-1,3.841618E-1,2.8363815E-1,-1.6466906E0,2.2478585E0,-2.0241837E-1,4.0021977E-1,2.3078904E-1,-4.752466E-1,1.4339909E-1,7.18031E-2,2.9939717E-1,2.7577025E-1,-3.6911076E-1,2.9201027E-2,-6.347443E-1,1.0502672E0,3.5408068E-1,-3.4114972E-1,1.2966324E-1,-2.7154154E-1,4.6796283E-1,-7.667147E-1,1.1081429E0,-5.7720314E-3,4.1463092E-1,-3.6749363E-2,-3.6980033E-1,-2.0197512E-1,1.1668856E-1,-6.574056E-1,2.9077977E-1,-2.2074315E-1,1.5029919E-1,5.3129792E-2,3.9751422E-1,-1.3176592E-1,2.76389E-1,-1.5618885E0,-2.269773E-1,-7.309367E-1,-9.012368E-1,5.345311E-1,-2.2882994E-1,-1.6466122E0,-1.1498992E0,-2.3508327E-1,-2.4467781E-1,2.0754024E-1,1.3228319E0,2.8155762E-1,-3.6364348E0,-2.09969E0,2.9176494E-1,-1.1511581E-1,3.3598796E-1,-1.8391793E0,-3.0929714E-1,-1.3501427E-1,1.7731481E0,7.1650904E-1,1.7459747E-1,3.8288328E-1,-8.7617554E-2,-5.91228E-1,-1.3702409E-1,2.5792843E-1,-9.7138363E-1,-5.9694138E0,-9.6420154E-2,-1.10281885E-1,-1.02545425E-1,-2.4284723E-1,2.4450415E-1,1.7678738E0,2.2340767E-1,-6.0015596E-2,1.0271065E0,-7.874995E-2,-3.706423E-1,3.1447533E-1,-1.9605567E-1,-5.632987E-1,9.6131295E-2,-8.0554616E-1,-1.2953335E-1,3.7306055E-1,2.3335525E-1,3.1965852E-1,-1.0204201E-1,1.9641457E-1,-3.118769E-1,2.9282096E-1,-1.1647143E-1,2.1252844E-1,-6.0237086E-1,3.1762803E-1,-2.6193684E-1,-3.600602E-1,5.675365E-3,1.6859509E-2,-2.3490869E-1,8.160919E-3,7.138947E-1,4.26813E-1,-1.5277116E-1,5.240763E-2,-3.5329527E-1,3.6722282E-1,-2.6334274E-1,2.0972857E-2,-3.6395374E-1,5.5177194E-1,-1.3942148E-1,-3.4635127E-1,-1.3463432E-3,2.3536684E-1,-3.5912102E-1,-3.3269933E-1,3.062728E-1,-3.6966434E-1,1.7240554E-1,5.915801E-2,-3.9351827E-1,2.9120225E-1,-3.3699003E-1,3.0927423E-1,-1.20642036E-1,-1.1236262E-1,3.2266358E-1,-1.1328738E-1,3.6392212E-1,-3.5555446E-1,1.9322923E-1,-2.6354593E-1,2.4993489E-2,-2.2974788E-1,2.6128945E-1,-9.8096356E-2,2.419085E-1,-2.3339026E-1,2.6556155E-2,-4.126288E-2,-3.2475084E-1,4.7497913E-1,-1.3011494E-1,4.0460134E-1,-3.390233E-1,3.5158187E-1,-6.7955606E-2,-2.0159462E-1,3.543458E-1,-3.1083795E-1,2.0612717E-1,1.4138774E-2,-3.785885E-1,-3.5663614E-1,1.0938034E-1,-2.2077163E-1,1.353706E-1,4.484688E-1,-1.0460784E-1],"split_indices":[324,326,152,313,298,295,45,201,326,317,280,328,32,332,274,263,382,1,76,362,341,162,290,271,341,0,0,88,298,316,307,0,0,293,311,0,139,100,110,0,60,114,200,298,65,268,111,363,283,375,380,293,356,382,122,293,306,296,318,88,296,372,3,52,337,93,3,163,325,0,0,151,0,0,219,0,0,157,54,2,319,0,329,330,339,379,318,258,321,0,370,305,365,358,326,0,371,273,256,222,356,331,246,68,349,0,29,344,0,10,0,140,0,0,0,0,0,0,244,349,166,0,0,0,287,142,207,0,0,0,0,54,0,2,0,0,0,0,0,0,0,304,0,352,324,0,0,361,92,0,215,0,64,0,332,360,365,265,0,352,381,298,351,262,0,321,347,375,362,45,147,283,276,378,271,275,0,324,0,338,164,0,0,0,0,0,0,0,0,0,0,0,0,0,0,0,0,0,0,0,0,0,0,0,0,0,0,0,0,0,0,0,0,0,0,0,0,0,0,0,0,0,0,0,0,0,0,0,0,0,0,0,0,0,0,0,0,0,0,0,0,0,0,0,0,0,0,0,0,0,0,0,0,0,0,0,0,0,0,0,0,0,0,0,0],"split_type":[0,0,0,0,0,0,0,0,0,0,0,0,0,0,0,0,0,0,0,0,0,0,0,0,0,0,0,0,0,0,0,0,0,0,0,0,0,0,0,0,0,0,0,0,0,0,0,0,0,0,0,0,0,0,0,0,0,0,0,0,0,0,0,0,0,0,0,0,0,0,0,0,0,0,0,0,0,0,0,0,0,0,0,0,0,0,0,0,0,0,0,0,0,0,0,0,0,0,0,0,0,0,0,0,0,0,0,0,0,0,0,0,0,0,0,0,0,0,0,0,0,0,0,0,0,0,0,0,0,0,0,0,0,0,0,0,0,0,0,0,0,0,0,0,0,0,0,0,0,0,0,0,0,0,0,0,0,0,0,0,0,0,0,0,0,0,0,0,0,0,0,0,0,0,0,0,0,0,0,0,0,0,0,0,0,0,0,0,0,0,0,0,0,0,0,0,0,0,0,0,0,0,0,0,0,0,0,0,0,0,0,0,0,0,0,0,0,0,0,0,0,0,0,0,0,0,0,0,0,0,0,0,0,0,0,0,0,0,0,0,0,0,0,0,0,0,0,0,0,0,0,0,0,0,0,0,0,0,0,0,0,0,0,0,0],"sum_hessian":[5.849943E3,3.4122083E2,5.508722E3,2.3728423E2,1.03936584E2,3.294218E3,2.2145044E3,5.4075546E1,1.8320868E2,5.523915E1,4.8697437E1,3.290653E3,3.5648084E0,8.181474E2,1.3963569E3,6.3357706E0,4.7739777E1,9.56203E1,8.758838E1,9.396498E0,4.5842655E1,2.5875687E1,2.282175E1,1.5444145E2,3.1362117E3,1.0669898E0,2.4978185E0,3.849311E2,4.332163E2,1.3110361E3,8.53208E1,1.6825348E0,4.653236E0,3.8276794E1,9.462979E0,1.821718E0,9.3798584E1,5.568015E1,3.1908228E1,5.2771983E0,4.1192994E0,5.2299447E0,4.061271E1,4.4407167E0,2.1434969E1,1.5736734E1,7.0850167E0,2.7070917E1,1.2737053E2,1.9677761E1,3.116534E3,1.4700569E2,2.3792542E2,1.028627E2,3.303536E2,1.2552621E3,5.577401E1,5.591074E1,2.941006E1,3.2264107E1,6.01269E0,5.0102415E0,4.452738E0,3.4638803E0,9.03347E1,5.357618E1,2.1039696E0,2.1086716E1,1.0821512E1,1.0371805E0,3.0821187E0,2.6979258E0,2.532019E0,1.0190082E0,3.95937E1,1.5273595E0,2.9133573E0,1.7159575E1,4.2753935E0,2.2127757E0,1.3523959E1,1.9923171E0,5.0926995E0,7.7860193E0,1.9284897E1,3.0890982E0,1.2428143E2,6.3539453E0,1.3323815E1,2.1471097E0,3.1143867E3,1.2294847E2,2.4057217E1,1.0998448E2,1.2794093E2,1.55162E0,1.0131108E2,2.2308731E2,1.0726629E2,5.3841686E1,1.2014204E3,2.9205864E1,2.6568146E1,1.4412904E1,4.1497837E1,1.199276E0,2.8210785E1,3.116975E1,1.0943561E0,3.1549253E0,2.8577647E0,3.7602744E0,1.249967E0,1.1085582E0,3.3441796E0,2.4554958E0,1.0083846E0,1.539402E0,8.87953E1,4.822611E1,5.3500705E0,1.0187126E0,1.085257E0,1.3477099E0,1.9739006E1,5.7382994E0,5.0832124E0,1.0770148E0,1.6209109E0,1.0767286E0,3.851697E1,1.5460119E1,1.6994566E0,2.229909E0,2.0454848E0,1.0071223E0,1.2056534E0,1.8933997E0,1.1630559E1,1.5804272E0,3.5122724E0,6.3957925E0,1.3902265E0,3.7444735E0,1.5540423E1,1.6915786E0,1.3975196E0,2.559025E1,9.869118E1,1.504801E0,4.849144E0,1.1686938E0,1.2155122E1,1.9782181E0,3.1124087E3,1.1442361E2,8.524863E0,2.2357216E1,1.7000022E0,7.367111E1,3.6313366E1,4.2720543E1,8.522039E1,9.959534E1,1.7157414E0,1.9138191E2,3.170541E1,5.8240456E1,4.9025833E1,4.124405E1,1.2597635E1,1.1975176E3,3.9027662E0,1.8474897E1,1.0730966E1,2.5168299E1,1.3998461E0,1.2945735E1,1.4671688E0,2.58398E1,1.5658036E1,1.050648E0,2.7160137E1,3.0159094E1,1.0106564E0,2.150477E0,1.0044484E0,2.6148968E0,1.1453776E0,7.5873985E1,1.2921314E1,4.5973946E1,2.2521632E0,3.638501E0,1.7115695E0,1.7253876E1,2.4851298E0,1.2188586E0,4.519441E0,4.0117826E0,1.0714297E0,1.3273981E1,2.1861374E0,1.0048394E0,1.2250695E0,1.0589049E0,5.336888E0,2.6503456E0,1.0941278E0,1.7099614E0,1.3830462E1,2.4547634E0,2.3135487E1,2.1717515E0,9.651943E1,3.6147742E0,1.2343698E0,1.1052622E1,1.1025004E0,2.0280714E0,3.1103806E3,3.7604666E0,1.1066314E2,5.2719054E0,3.252958E0,4.447484E0,1.790973E1,1.5018686E0,7.216924E1,9.391809E0,2.6921556E1,8.751481E0,3.396906E1,7.461147E1,1.0608916E1,9.846313E1,1.1322106E0,1.7184267E2,1.9539242E1,1.353144E1,1.8173971E1,1.6053513E1,4.2186943E1,2.3132883E1,2.589295E1,1.2134582E1,2.9109468E1,7.4003925E0,5.1972423E0,1.7854326E0,1.1957322E3,2.747468E0,1.1552982E0,4.2981043E0,1.4176793E1,7.631379E0,3.099587E0,1.8524485E0,2.3315851E1,1.1944477E1,1.0012578E0,1.1659119E1,1.4180681E1,1.4280232E1,1.3778042E0],"tree_param":{"num_deleted":"0","num_feature":"384","num_nodes":"265","size_leaf_vector":"0"}},{"base_weights":[-8.1532776E-1,-9.481893E-1,-8.0970794E-2,-1.0944788E0,-7.404876E-1,4.1912976E-1,-6.494598E-1,-7.1432495E-1,-1.1135384E0,-2.241143E-1,-9.1639096E-1,-2.4516107E-1,6.5833026E-1,-3.08675E-1,-9.116893E-1,1.9089986E-1,-9.062717E-1,-1.1188757E0,-2.235062E-4,-5.3744125E-1,2.2882959E-1,-9.491776E-1,3.129093E-1,-6.4303386E-1,3.3982956E-1,7.1312064E-1,-1.809669E-1,-9.915955E-1,8.6139895E-2,-9.854877E-1,-1.7120289E-2,-8.929356E-1,8.940067E-1,2.1673284E-1,-1.0307671E0,8.111432E-1,-1.1208937E0,-8.82234E-1,9.294728E-1,-7.918803E-1,5.4606396E-1,-1.7922129E-1,7.8320414E-1,-3.016414E-1,-9.939613E-1,1.0909891E0,-7.828365E-2,-1.1371918E-1,-1.0520389E0,8.8298136E-1,-1.3087429E-1,-6.3126063E-1,7.4194014E-1,-9.059016E-1,5.945609E-1,-1.1172007E0,8.3449624E-2,-8.4199655E-1,2.5606963E-1,5.6539863E-1,-1.0067354E0,-6.0798144E-1,1.3720392E0,-1.0365134E0,9.996614E-2,-7.0721364E-1,1.2479428E0,-7.393411E-1,9.6026075E-1,-1.0713803E0,3.95821E-1,1.0337844E0,-1.1225207E0,-1.07895724E-1,-1.0024087E0,2.2215085E0,-3.22709E-1,-8.738664E-1,7.2779065E-1,-7.185342E-1,1.0205866E0,1.6589361E0,-3.3178565E-1,1.0523239E0,-3.524908E-1,-7.643967E-1,6.185597E-1,-1.0163434E0,4.4549033E-1,1.2388692E0,-4.1520238E-2,-8.870357E-1,4.217706E-1,5.147483E-1,-6.1025006E-1,-1.1720141E0,2.5229272E-1,1.0555143E0,-3.3097965E-1,-5.919404E-1,7.818139E-1,-1.1548854E0,7.7878386E-1,8.8280755E-1,5.071942E-1,4.8193258E-1,-1.114995E0,-7.9383314E-1,1.0575023E0,5.924712E-1,-1.1645293E0,-6.9705373E-1,1.970803E0,-1.0321931E0,7.958542E-1,1.8836957E0,9.392484E-2,1.2051388E0,-3.4488782E-1,4.7929418E-1,-1.0266452E0,6.8782234E-1,-1.0158453E0,1.6447475E0,2.8027213E-1,1.6458733E0,1.696992E-1,-9.56225E-1,7.489236E-2,1.3568934E0,-1.9743277E-1,6.0155416E-1,-1.1015253E0,-5.974535E-1,1.1637106E0,1.8434736E-1,-1.1250782E0,5.068028E-1,-8.069019E-1,-9.5346785E-1,-1.4968547E-2,-9.2432046E-1,1.2943771E0,2.3494245E-1,-1.0186368E0,-3.0935502E-1,1.3036592E0,2.1873963E-1,1.859112E0,-5.679521E-1,5.104297E-1,1.1332434E0,-6.783713E-1,4.597793E-1,-1.1171758E0,-9.184209E-1,9.370992E-1,1.4046215E0,-1.473338E-1,-1.0273422E0,7.537833E-1,1.1862961E0,-1.0099212E0,2.4380964E-1,-1.2029206E0,9.3731534E-1,-3.4465614E-1,9.352058E-1,-4.5215297E-1,4.9815935E-1,-8.854015E-1,9.060102E-2,-1.2380807E0,-8.98802E-1,1.1224555E0,1.1920676E0,-5.0345075E-1,4.4440258E-1,-9.502881E-1,4.4522282E-1,-8.915371E-1,-9.520746E-1,1.1748712E0,-3.288001E-1,-1.284091E0,3.781475E-1,1.0007602E0,6.648969E-1,-2.269421E-1,-2.4473625E-1,-1.1957805E0,1.5607047E0,-9.0986945E-2,-3.9427456E-2,-1.2046026E0,-9.727478E-1,2.6979965E-1,4.0880817E-1,-1.1807324E0,2.264166E0,-1.6866933E-1,-1.7245838E-1,7.346099E-1,1.3364924E0,-6.146258E-1,3.791729E-1,-1.0409685E0,1.5145209E0,-6.528484E-1,1.873204E-1,-1.1847405E0,2.0820634E0,2.78026E-1,-5.34552E-1,7.7991664E-1,4.0151846E-1,-1.1248416E0,1.5809708E0,-7.276984E-1,-1.1346701E0,-7.541632E-1,2.6013792E-1,-1.0154934E0,1.3127862E0,-4.634025E-1,3.4012866E-1,1.3865683E0,-8.221117E-1,1.5138493E0,-2.5621876E-2,-1.1787367E0,-1.035159E0,7.404462E-1,1.3794266E0,-3.074995E-1,-5.513719E-2,-8.7793666E-1,1.551074E0,-5.912417E-1,1.2498338E0,4.736042E-2,-7.123097E-1,1.0805391E0,-1.2297729E0,-1.6920298E-1,6.803719E-1,-9.806632E-1,2.0770988E0,-2.9492724E-1,-9.681669E-2,1.697187E0,6.656163E-1,-1.172984E0,1.3350321E0,-1.0329362E0,1.6805614E0,-6.805645E-1,-6.739846E-1,1.6771224E0,-1.6404764E-1,1.10498E0,-1.0745842E0,7.1616536E-1,1.156742E0,-3.3036307E-1,-9.089462E-1,2.996595E-1,-3.6711952E-1,1.0514668E0,5.819676E-1,-1.1799395E0,-7.7392526E-2,-1.2816919E0,1.3523694E0,-1.9359274E-1,1.0998261E0,-6.180713E-1,3.7744623E-1,-1.0868523E0,1.5162945E0,-4.328963E-1,-1.3753498E-1,1.1323061E0,-1.2102156E-1,1.0741107E0,7.867866E-1,-2.625983E-1,-5.550507E-1,8.845095E-1,6.7297304E-1,-8.0797464E-1,1.9924182E-1,2.6138775E0,3.6513582E-1,-6.1007315E-1,1.6880219E0,-2.5440073E-1,-7.374575E-1,-1.1296436E0],"categories":[],"categories_nodes":[],"categories_segments":[],"categories_sizes":[],"default_left":[1,1,1,1,1,1,1,1,1,1,1,1,1,1,1,1,1,1,1,1,1,1,1,1,1,1,1,1,1,1,1,1,1,1,1,0,1,1,1,1,1,1,1,1,1,1,1,1,1,1,1,1,1,1,1,1,1,1,1,1,1,1,1,0,0,0,1,1,1,1,1,0,1,0,0,0,1,1,1,1,1,1,1,1,1,1,1,1,1,0,0,1,1,1,1,1,1,1,1,1,1,1,0,1,1,0,1,0,1,0,1,1,0,1,0,1,1,0,0,1,1,1,1,0,0,1,1,0,0,0,0,0,1,0,0,1,1,0,0,1,1,0,1,1,1,1,1,0,0,1,1,1,0,1,1,1,1,1,1,1,1,1,0,0,0,1,1,1,1,1,1,0,1,0,0,1,0,0,0,1,1,0,1,0,0,1,1,1,1,0,0,0,1,0,0,0,0,0,0,1,0,1,1,0,0,0,1,0,0,0,0,0,0,0,0,0,0,0,0,0,0,0,0,0,0,0,0,0,0,0,0,0,0,0,0,0,0,0,0,0,0,0,0,0,0,0,0,0,0,0,0,0,0,0,0,0,0,0,0,0,0,0,0,0,0,0,0,0,0,0,0,0,0,0,0,0,0,0,0,0,0,0,0,0,0,0,0,0,0,0,0,0,0,0,0,0,0,0,0],"id":4,"left_children":[1,3,5,7,9,11,13,15,17,19,21,23,25,27,29,31,33,35,37,39,41,43,45,47,49,51,53,55,57,59,61,63,65,67,69,-1,71,73,75,77,79,81,83,85,87,89,91,93,95,97,99,101,103,105,107,109,111,113,115,117,119,121,123,-1,-1,-1,125,127,129,131,133,-1,135,-1,-1,-1,137,139,141,143,145,147,149,151,153,155,157,159,161,-1,-1,163,165,167,169,171,173,175,177,179,181,183,-1,185,187,-1,189,-1,191,-1,193,195,-1,197,-1,199,201,-1,-1,203,205,207,209,-1,-1,211,213,-1,-1,-1,-1,-1,215,-1,-1,217,219,-1,-1,221,223,-1,225,227,229,231,233,-1,-1,235,237,239,-1,241,243,245,247,249,251,253,255,257,-1,-1,-1,259,261,263,265,267,269,-1,271,-1,-1,273,-1,-1,-1,275,277,-1,279,-1,-1,281,283,285,287,-1,-1,-1,289,-1,-1,-1,-1,-1,-1,291,-1,293,295,-1,-1,-1,297,-1,-1,-1,-1,-1,-1,-1,-1,-1,-1,-1,-1,-1,-1,-1,-1,-1,-1,-1,-1,-1,-1,-1,-1,-1,-1,-1,-1,-1,-1,-1,-1,-1,-1,-1,-1,-1,-1,-1,-1,-1,-1,-1,-1,-1,-1,-1,-1,-1,-1,-1,-1,-1,-1,-1,-1,-1,-1,-1,-1,-1,-1,-1,-1,-1,-1,-1,-1,-1,-1,-1,-1,-1,-1,-1,-1,-1,-1,-1,-1,-1,-1,-1,-1,-1,-1,-1,-1,-1,-1,-1,-1],"loss_changes":[4.681626E2,1.2266577E2,2.0961441E2,1.6465576E1,1.5261725E2,6.2503593E1,3.0549011E1,2.0420124E1,1.3469238E1,6.098255E1,5.0865112E1,2.4564596E1,1.3406815E1,4.0944637E1,1.2820892E1,1.6962954E1,1.3689072E1,9.695801E0,1.0508657E1,7.0396484E1,3.9965153E1,3.5145752E1,1.0235067E1,1.3433485E1,1.11085205E1,1.0977646E1,1.0934786E1,7.600239E0,1.5505593E1,6.488266E0,1.3833391E1,1.3647723E0,8.457152E0,8.130064E0,5.4575653E0,0E0,9.061768E0,5.0380087E-1,1.0811014E1,2.6292908E1,3.004963E1,2.9217201E1,2.3241272E1,3.475282E1,3.727124E1,1.9310217E0,9.7252865E0,9.179371E0,5.803089E0,4.5575256E0,1.0522683E1,5.5014277E0,8.348785E0,3.4258318E0,6.9698853E0,4.72348E0,1.1311909E1,5.5676317E0,2.165097E1,2.2022762E0,5.74527E0,6.937361E0,1.0375414E0,0E0,0E0,0E0,4.5724277E0,9.777827E-1,3.1638136E0,4.936226E0,3.0864272E0,0E0,7.7370605E0,0E0,0E0,0E0,2.0322266E0,1.337529E1,1.1574261E1,4.221468E0,1.3932571E1,1.8998852E0,1.9229645E1,9.275818E0,9.882721E0,1.5015722E1,1.6756863E1,2.2689453E1,2.0812872E1,0E0,0E0,3.564178E0,6.2364454E0,5.740918E0,5.420831E0,2.8154068E0,4.8024654E0,4.395878E0,1.9884664E0,5.508979E0,6.880358E0,1.0590172E-1,0E0,9.437363E0,1.1973196E1,0E0,3.367386E-1,0E0,4.523594E0,0E0,2.1546478E0,1.73156E0,0E0,3.4977293E0,0E0,6.191988E0,1.3143297E1,0E0,0E0,3.6618881E0,3.9290771E0,4.7817125E0,2.1284208E0,0E0,0E0,4.2804794E0,2.2060041E0,0E0,0E0,0E0,0E0,0E0,3.3812485E0,0E0,0E0,7.8496523E0,7.144043E0,0E0,0E0,1.375444E1,1.1103504E1,0E0,2.9130077E-1,6.846993E0,1.6824341E0,6.187706E0,4.0646744E0,0E0,0E0,1.1848654E1,2.542829E1,7.335144E0,0E0,6.6069555E0,6.5235233E-1,5.6461983E0,7.604872E0,6.165251E0,1.3144843E1,1.6167603E1,1.1150482E1,1.2558285E1,0E0,0E0,0E0,1.8831205E0,5.995988E0,3.0295906E0,1.8653538E0,2.2470465E0,6.495823E0,0E0,1.4630775E0,0E0,0E0,3.9693146E0,0E0,0E0,0E0,3.7103937E0,3.6564875E0,0E0,4.685334E0,0E0,0E0,1.2930219E1,1.1077972E1,9.738255E0,7.347692E0,0E0,0E0,0E0,2.3265183E0,0E0,0E0,0E0,0E0,0E0,0E0,4.0620346E0,0E0,1.3086815E1,2.1728754E1,0E0,0E0,0E0,3.8505096E0,0E0,0E0,0E0,0E0,0E0,0E0,0E0,0E0,0E0,0E0,0E0,0E0,0E0,0E0,0E0,0E0,0E0,0E0,0E0,0E0,0E0,0E0,0E0,0E0,0E0,0E0,0E0,0E0,0E0,0E0,0E0,0E0,0E0,0E0,0E0,0E0,0E0,0E0,0E0,0E0,0E0,0E0,0E0,0E0,0E0,0E0,0E0,0E0,0E0,0E0,0E0,0E0,0E0,0E0,0E0,0E0,0E0,0E0,0E0,0E0,0E0,0E0,0E0,0E0,0E0,0E0,0E0,0E0,0E0,0E0,0E0,0E0,0E0,0E0,0E0,0E0,0E0,0E0,0E0,0E0,0E0,0E0,0E0,0E0,0E0,0E0,0E0,0E0,0E0,0E0,0E0,0E0],"parents":[2147483647,0,0,1,1,2,2,3,3,4,4,5,5,6,6,7,7,8,8,9,9,10,10,11,11,12,12,13,13,14,14,15,15,16,16,17,17,18,18,19,19,20,20,21,21,22,22,23,23,24,24,25,25,26,26,27,27,28,28,29,29,30,30,31,31,32,32,33,33,34,34,36,36,37,37,38,38,39,39,40,40,41,41,42,42,43,43,44,44,45,45,46,46,47,47,48,48,49,49,50,50,51,51,52,52,53,53,54,54,55,55,56,56,57,57,58,58,59,59,60,60,61,61,62,62,66,66,67,67,68,68,69,69,70,70,72,72,76,76,77,77,78,78,79,79,80,80,81,81,82,82,83,83,84,84,85,85,86,86,87,87,88,88,91,91,92,92,93,93,94,94,95,95,96,96,97,97,98,98,99,99,100,100,101,101,103,103,104,104,106,106,108,108,110,110,111,111,113,113,115,115,116,116,119,119,120,120,121,121,122,122,125,125,126,126,132,132,135,135,136,136,139,139,140,140,142,142,143,143,144,144,145,145,146,146,149,149,150,150,151,151,153,153,154,154,155,155,156,156,157,157,158,158,159,159,160,160,161,161,165,165,166,166,167,167,168,168,169,169,170,170,172,172,175,175,179,179,180,180,182,182,185,185,186,186,187,187,188,188,192,192,199,199,201,201,202,202,206,206],"right_children":[2,4,6,8,10,12,14,16,18,20,22,24,26,28,30,32,34,36,38,40,42,44,46,48,50,52,54,56,58,60,62,64,66,68,70,-1,72,74,76,78,80,82,84,86,88,90,92,94,96,98,100,102,104,106,108,110,112,114,116,118,120,122,124,-1,-1,-1,126,128,130,132,134,-1,136,-1,-1,-1,138,140,142,144,146,148,150,152,154,156,158,160,162,-1,-1,164,166,168,170,172,174,176,178,180,182,184,-1,186,188,-1,190,-1,192,-1,194,196,-1,198,-1,200,202,-1,-1,204,206,208,210,-1,-1,212,214,-1,-1,-1,-1,-1,216,-1,-1,218,220,-1,-1,222,224,-1,226,228,230,232,234,-1,-1,236,238,240,-1,242,244,246,248,250,252,254,256,258,-1,-1,-1,260,262,264,266,268,270,-1,272,-1,-1,274,-1,-1,-1,276,278,-1,280,-1,-1,282,284,286,288,-1,-1,-1,290,-1,-1,-1,-1,-1,-1,292,-1,294,296,-1,-1,-1,298,-1,-1,-1,-1,-1,-1,-1,-1,-1,-1,-1,-1,-1,-1,-1,-1,-1,-1,-1,-1,-1,-1,-1,-1,-1,-1,-1,-1,-1,-1,-1,-1,-1,-1,-1,-1,-1,-1,-1,-1,-1,-1,-1,-1,-1,-1,-1,-1,-1,-1,-1,-1,-1,-1,-1,-1,-1,-1,-1,-1,-1,-1,-1,-1,-1,-1,-1,-1,-1,-1,-1,-1,-1,-1,-1,-1,-1,-1,-1,-1,-1,-1,-1,-1,-1,-1,-1,-1,-1,-1,-1,-1],"split_conditions":[7.7715886E-1,-2.695399E-1,1.3708255E-1,-1.2104552E0,-7.0364213E-1,1.142644E-1,1.3741675E-1,-1.278635E0,2.3680358E0,3.4406352E-1,4.1687307E0,-7.9924095E-1,4.458987E-1,-1.134773E0,9.5853454E-1,7.1705294E-1,-1.0005808E0,-4.613797E0,5.298456E-1,7.453331E-1,8.639699E-1,-1.2705493E0,-2.1402094E-1,-1.2894604E0,2.1258295E-1,-1.311691E0,-3.640588E-1,-4.730597E-2,-2.8339303E-1,-3.273959E0,-2.5175565E-1,9.0195453E-1,-8.284967E-2,3.6005923E-1,1.0822666E0,2.4334298E-1,-4.729167E0,-2.3895513E-1,-1.2420659E0,1.6427056E0,-1.7413907E-2,-2.2580705E0,4.616862E-1,1.322248E-1,5.031767E0,1.3203335E0,-1.5983066E-1,8.62698E-1,1.0458024E0,2.2974458E0,1.1915944E0,9.336997E-3,2.0300293E0,-2.3778176E-1,-4.8160428E-1,-1.9623582E0,-4.399709E-1,2.7244644E0,-1.0098429E0,1.929378E0,-2.4058657E0,-2.6749E-1,-2.075837E-1,-3.1095403E-1,2.9989842E-2,-2.121641E-1,-1.2141572E-2,6.337296E-2,3.4515578E-1,-2.2235408E0,-3.9249408E-1,3.1013533E-1,-1.0661806E0,-3.236872E-2,-3.0072263E-1,6.664526E-1,-7.397158E-1,1.2203746E0,7.0955354E-1,-4.505479E-1,-8.599185E-1,5.745133E-1,7.797083E-1,1.1939806E-1,3.8500953E-1,9.6638805E-1,-3.8054004E-2,3.5752916E0,-2.754238E-1,3.7166077E-1,-1.2456072E-2,5.971732E-1,1.4563341E0,-3.8395137E-1,6.6626765E-2,-1.6648108E0,-1.0563414E0,1.2770944E0,3.134475E-1,-1.7424836E0,-6.046593E-1,-8.5287905E-1,2.3363517E-1,-1.9213626E0,4.5670295E-1,1.4457978E-1,-5.480696E-1,-2.3814996E-1,4.675925E-1,1.7774136E-1,-9.9452806E-1,1.2353501E0,5.9124094E-1,-1.4549513E0,2.3875627E-1,1.7810643E-1,-8.247389E-2,3.6154166E-1,-1.03466354E-1,4.221902E-1,-2.4175315E0,-5.247711E-1,-5.6060255E-1,4.9342427E-1,8.408164E-2,-1.0316369E-1,-4.3211946E-1,-2.868675E-1,2.2467708E-2,4.0706804E-1,-5.9229832E-2,1.8046625E-1,-2.0363088E0,-1.7923605E-1,3.491132E-1,-5.854015E-1,1.6691675E0,1.5204084E-1,-2.4207057E-1,-2.3948126E0,8.2079016E-2,-2.7729616E-1,-1.3888385E0,3.7075126E-1,-1.0650524E0,6.5275836E-1,7.508298E-1,6.562189E-2,5.5773365E-1,-4.3406916E-1,6.3560164E-1,2.176834E0,-2.035114E-1,-7.4261767E-1,6.432514E-1,-2.276371E0,7.3679954E-2,-7.6861477E-1,-6.4584297E-1,-6.077774E0,2.2281173E-1,-2.5930327E-1,-3.0297637E-1,7.314289E-2,-3.6087617E-1,-9.718582E-1,-1.05725944E-1,1.6286385E0,-8.778769E-1,-6.266721E-1,-5.809183E-1,2.7180307E-2,-9.86583E-1,-2.696406E-1,3.3673665E-1,-3.545009E-1,-1.5103523E-1,1.3332078E-1,-2.8508645E-1,1.2310121E0,-1.1891224E0,-2.856224E-1,6.855927E-2,-9.864004E-2,-3.8522732E-1,1.6917851E0,-1.7681594E0,6.090028E-1,2.7533504E-1,-7.342088E-2,-3.5873416E-1,4.6821144E-1,-7.687452E-1,-1.1828237E-2,-3.613808E-1,-2.9182434E-1,8.09399E-2,1.2264246E-1,-3.5421973E-1,-6.6835195E-2,-5.06008E-2,4.2950445E-1,-7.405306E-1,4.0094775E-1,-1.8438774E-1,1.1375187E-1,-8.4356904E-1,4.5435628E-1,-1.9585453E-1,5.619612E-2,-3.5542217E-1,6.2461907E-1,8.3407804E-2,-1.603656E-1,2.3397501E-1,1.2045554E-1,-3.3745247E-1,4.7429124E-1,-2.1830952E-1,-3.4040105E-1,-2.2624896E-1,7.8041375E-2,-3.0464804E-1,3.9383587E-1,-1.3902076E-1,1.020386E-1,4.159705E-1,-2.4663353E-1,4.541548E-1,-7.6865633E-3,-3.53621E-1,-3.105477E-1,2.2213387E-1,4.13828E-1,-9.2249855E-2,-1.6541159E-2,-2.63381E-1,4.6532223E-1,-1.7737252E-1,3.7495017E-1,1.4208127E-2,-2.1369292E-1,3.2416174E-1,-3.689319E-1,-5.07609E-2,2.0411158E-1,-2.9419896E-1,6.2312967E-1,-8.847818E-2,-2.9045008E-2,5.091561E-1,1.9968489E-1,-3.518952E-1,4.0050966E-1,-3.0988088E-1,5.0416845E-1,-2.0416936E-1,-2.0219539E-1,5.0313675E-1,-4.9214296E-2,3.31494E-1,-3.223753E-1,2.1484962E-1,3.470226E-1,-9.910893E-2,-2.726839E-1,8.989785E-2,-1.1013586E-1,3.1544006E-1,1.7459029E-1,-3.5398185E-1,-2.3217758E-2,-3.845076E-1,4.0571085E-1,-5.8077823E-2,3.2994783E-1,-1.854214E-1,1.1323387E-1,-3.260557E-1,4.5488837E-1,-1.298689E-1,-4.1260496E-2,3.3969185E-1,-3.630647E-2,3.2223323E-1,2.3603599E-1,-7.8779496E-2,-1.665152E-1,2.6535287E-1,2.0189191E-1,-2.423924E-1,5.9772547E-2,7.841633E-1,1.0954075E-1,-1.8302195E-1,5.064066E-1,-7.632022E-2,-2.2123726E-1,-3.388931E-1],"split_indices":[298,152,324,328,88,280,359,317,320,316,295,349,319,263,356,302,382,370,273,291,369,363,347,364,283,305,156,354,358,341,376,305,257,314,279,0,380,301,155,319,263,334,270,315,274,41,367,379,41,356,301,310,316,283,73,124,47,380,256,24,343,379,292,0,0,0,268,319,217,207,270,0,293,0,0,0,219,287,296,335,8,284,263,328,324,322,382,287,344,0,0,81,81,58,7,163,376,104,55,300,306,149,0,328,270,0,22,0,203,0,23,64,0,79,0,328,372,0,0,49,168,278,286,0,0,313,329,0,0,0,0,0,316,0,0,244,316,0,0,366,314,0,353,301,19,296,366,0,0,66,366,344,0,47,373,364,284,113,330,283,213,265,0,0,0,352,276,144,334,163,292,0,124,0,0,47,0,0,0,366,199,0,95,0,0,331,374,284,361,0,0,0,255,0,0,0,0,0,0,331,0,183,302,0,0,0,302,0,0,0,0,0,0,0,0,0,0,0,0,0,0,0,0,0,0,0,0,0,0,0,0,0,0,0,0,0,0,0,0,0,0,0,0,0,0,0,0,0,0,0,0,0,0,0,0,0,0,0,0,0,0,0,0,0,0,0,0,0,0,0,0,0,0,0,0,0,0,0,0,0,0,0,0,0,0,0,0,0,0,0,0,0,0,0,0,0,0,0,0],"split_type":[0,0,0,0,0,0,0,0,0,0,0,0,0,0,0,0,0,0,0,0,0,0,0,0,0,0,0,0,0,0,0,0,0,0,0,0,0,0,0,0,0,0,0,0,0,0,0,0,0,0,0,0,0,0,0,0,0,0,0,0,0,0,0,0,0,0,0,0,0,0,0,0,0,0,0,0,0,0,0,0,0,0,0,0,0,0,0,0,0,0,0,0,0,0,0,0,0,0,0,0,0,0,0,0,0,0,0,0,0,0,0,0,0,0,0,0,0,0,0,0,0,0,0,0,0,0,0,0,0,0,0,0,0,0,0,0,0,0,0,0,0,0,0,0,0,0,0,0,0,0,0,0,0,0,0,0,0,0,0,0,0,0,0,0,0,0,0,0,0,0,0,0,0,0,0,0,0,0,0,0,0,0,0,0,0,0,0,0,0,0,0,0,0,0,0,0,0,0,0,0,0,0,0,0,0,0,0,0,0,0,0,0,0,0,0,0,0,0,0,0,0,0,0,0,0,0,0,0,0,0,0,0,0,0,0,0,0,0,0,0,0,0,0,0,0,0,0,0,0,0,0,0,0,0,0,0,0,0,0,0,0,0,0,0,0,0,0,0,0,0,0,0,0,0,0,0,0,0,0,0,0,0,0,0,0,0,0,0,0,0,0,0,0,0,0,0,0,0,0],"sum_hessian":[4.798116E3,4.0627778E3,7.353383E2,2.3812993E3,1.6814786E3,3.913393E2,3.43999E2,1.1552685E2,2.2657725E3,4.2783157E2,1.253647E3,1.0360098E2,2.877383E2,1.5053969E2,1.934593E2,2.0212015E1,9.5314835E1,2.254957E3,1.0815393E1,2.5278166E2,1.7504993E2,1.2213015E3,3.2345432E1,6.1603233E1,4.1997753E1,2.702466E2,1.7491713E1,5.45946E1,9.594509E1,1.7862207E2,1.4837246E1,7.8465757E0,1.2365439E1,9.438094E0,8.587674E1,1.9365523E0,2.2530205E3,5.57623E0,5.2391634E0,2.049277E2,4.7853947E1,1.0122173E2,7.3828186E1,7.9501976E1,1.1417996E3,1.022303E1,2.2122404E1,2.7409376E1,3.419386E1,1.90917E1,2.2906054E1,5.232978E0,2.6501364E2,8.953863E0,8.53785E0,4.884811E1,5.7464867E0,1.42358055E1,8.170929E1,2.0679975E0,1.7655406E2,1.080417E1,4.0330763E0,6.8169E0,1.0296762E0,2.0577881E0,1.03076515E1,4.131364E0,5.3067303E0,8.3741714E1,2.1350274E0,1.2212081E0,2.2517993E3,1.0041133E0,4.572117E0,2.1975553E0,3.041608E0,1.9484103E2,1.0086682E1,1.291674E1,3.4937206E1,7.0007067E0,9.422103E1,5.9744297E1,1.4083889E1,5.3012234E1,2.6489742E1,1.124607E3,1.719256E1,8.95924E0,1.2637897E0,8.156609E0,1.39657955E1,1.2081247E1,1.5328128E1,3.1406467E1,2.78739E0,1.6830238E1,2.2614603E0,1.5451695E1,7.454358E0,3.9478781E0,1.2850999E0,1.6389943E2,1.01114204E2,1.0015194E0,7.952344E0,1.9562267E0,6.581623E0,1.0055602E0,4.7842552E1,4.5114684E0,1.2350186E0,1.3085976E1,1.1498293E0,6.440591E0,7.526869E1,1.0242519E0,1.0437455E0,2.0291417E0,1.7452492E2,2.422228E0,8.381942E0,2.8217432E0,1.211333E0,7.1445026E0,3.1631489E0,3.1246717E0,1.0066922E0,3.8244019E0,1.4823287E0,1.1467451E0,8.259497E1,1.0276734E0,1.107354E0,4.259275E0,2.24754E3,1.1038364E0,1.9377717E0,1.7821426E2,1.662676E1,2.4145894E0,7.672093E0,3.144203E0,9.772537E0,6.114938E0,2.8822268E1,1.1096799E0,5.8910265E0,7.384088E1,2.0380148E1,5.7405483E1,2.3388126E0,7.0228024E0,7.061086E0,4.9033787E1,3.9784486E0,1.2661185E1,1.3828557E1,1.1180793E3,6.527709E0,1.1515877E1,5.6766844E0,1.8307654E0,6.325843E0,8.21615E0,5.749645E0,8.442711E0,3.6385367E0,2.8871508E0,1.2440977E1,1.5431705E0,2.9863297E1,1.1858182E0,1.6015718E0,1.5691162E1,1.1390768E0,1.1296035E0,1.1318568E0,3.354118E0,1.2097577E1,1.1147311E0,6.3396273E0,1.0134016E0,2.9344764E0,3.18472E1,1.3205223E2,8.331195E1,1.7802252E1,1.0177826E0,6.9345613E0,4.326902E0,2.2547212E0,1.7136554E0,4.6128895E1,3.5057285E0,1.0057397E0,1.0591192E0,1.2026856E1,5.3462896E0,1.0943016E0,5.3680363E1,2.1588331E1,1.01334E0,1.0158017E0,1.503321E0,1.730216E2,1.4181064E0,1.0041217E0,1.0183553E0,7.3635864E0,5.021167E0,2.1233358E0,1.5259962E0,1.6371527E0,1.0139142E0,8.1581055E1,1.3928927E0,2.8663821E0,2.1888762E3,5.8663868E1,8.5100765E0,1.697042E2,3.7111213E0,1.2915639E1,1.0890445E0,6.5830483E0,1.9169574E0,1.2272456E0,1.5178926E0,8.254644E0,3.6236162E0,2.4913218E0,2.76651E1,1.1571674E0,2.8262848E1,4.5578033E1,1.0270578E1,1.0109569E1,5.1703175E1,5.7023096E0,2.3805263E0,4.6422763E0,6.045728E0,1.015358E0,1.4652572E0,4.7568527E1,1.7101337E0,2.268315E0,2.173894E0,1.0487291E1,7.9099827E0,5.918575E0,2.0798643E0,1.1159995E3,3.8612049E0,2.666504E0,2.3261962E0,9.18968E0,1.0883725E0,7.127778E0,3.3983448E0,2.3513002E0,7.2581687E0,1.1845424E0,2.1333373E0,1.5051994E0,1.2573574E0,1.6297934E0,1.9166224E0,1.0524355E1,1.1819158E0,2.8681381E1,1.4085669E1,1.6054928E0,2.054769E0,1.2993492E0,1.4892528E0,1.0608324E1,5.276097E0,1.0635303E0,1.9399643E1,1.2447557E1,8.064735E0,1.2398749E2,7.376907E1,9.542884E0,1.4131221E1,3.6710312E0,1.1213238E0,1.1333973E0,1.0016464E0,4.344643E0,2.4162819E1,2.9517544E1,1.0632125E1,1.0956207E1,4.122744E1,1.3179416E2],"tree_param":{"num_deleted":"0","num_feature":"384","num_nodes":"299","size_leaf_vector":"0"}},{"base_weights":[-7.347889E-1,-8.832953E-1,-1.3632235E-1,-5.755032E-1,-9.907758E-1,3.6067837E-1,-4.9158162E-1,-7.8815967E-1,-2.0613892E-1,4.7169873E-1,-9.990967E-1,-2.8686523E-1,5.894243E-1,-9.821408E-1,-3.2443452E-1,-5.6392457E-2,-8.4695315E-1,-6.9660723E-1,1.3990536E-1,-7.5376165E-1,9.951025E-1,-2.8623736E-1,-1.0147423E0,7.804617E-1,-4.377627E-1,6.360453E-1,-1.842706E-1,-1.03336E0,6.9574547E-1,-1.8261094E-2,-5.4892486E-1,6.537285E-1,-6.668663E-1,-9.048636E-1,-1.7217249E-1,-8.8211936E-1,4.7211805E-1,5.747825E-1,-2.0276538E-1,-8.688671E-1,-1.6994531E-1,1.2793732E0,1.6463871E-1,-6.348282E-1,2.1614556E0,1.1379721E0,-1.0192308E0,-4.8252466E-1,1.0898982E0,6.840861E-2,-6.808809E-1,-6.7405915E-1,6.5834516E-1,-8.000274E-1,4.388024E-1,5.200527E-1,-1.061397E0,1.3854969E0,-3.37122E-1,-3.5836294E-1,4.4720027E-1,-7.098025E-1,-1.846064E-2,-8.582105E-1,8.593263E-1,9.3436235E-1,-9.136295E-1,2.2727242E-2,-9.477711E-1,-3.8689318E-1,1.4600432E0,-9.742458E-1,2.9957682E-1,1.0887824E0,-6.139142E-1,-3.3515993E-1,8.0072725E-1,-4.7964233E-1,6.1042625E-1,-7.5256234E-1,8.182343E-1,2.4173723E-1,-9.384138E-1,2.8275986E0,-8.986526E-2,-5.5236095E-1,2.0044773E0,-1.025911E0,3.4019217E-1,2.8458273E-2,1.4944514E0,3.9804587E-1,-6.4481544E-1,-8.6822456E-1,2.6181644E-2,4.6095857E-1,-1.3098106E0,5.9697735E-1,1.179321E0,5.291635E-1,-1.1093585E0,9.143059E-1,-6.073566E-1,4.489347E-1,-1.0835916E0,-4.6875426E-1,9.930855E-1,-6.043025E-1,6.693481E-1,-7.7960056E-1,3.4099275E-1,-6.954262E-1,6.597778E-1,-6.4517033E-1,1.1446928E0,1.2762286E-1,1.2360839E0,-1.089701E0,3.6370537E-1,-6.3476926E-1,1.3465937E0,-1.7489438E-1,-9.836528E-1,-6.4059794E-1,6.562553E-1,-4.826848E-2,1.8941741E0,5.8695686E-4,-1.0530365E0,-8.0557245E-1,1.6416954E0,1.4019626E0,-4.54012E-1,5.852562E-1,-1.0023701E0,1.0692407E0,-7.735848E-1,9.0169984E-1,-6.1880416E-1,-6.7608553E-1,2.9849556E-1,-1.22818025E-2,1.8702404E0,-8.18217E-1,9.4174474E-1,-1.0471088E0,1.13350764E-1,3.3744075E0,5.711142E-1,-5.798884E-1,-1.0432967E0,1.0529299E0,-8.715097E-1,-6.335816E-1,8.4594226E-1,3.8690764E-1,1.6375264E0,-3.892227E-1,7.3128426E-1,4.305583E-1,-1.0819508E0,-1.6636723E-1,-9.916378E-1,-5.6395876E-1,9.1316235E-1,7.442144E-1,3.5826492E-1,-4.0896937E-2,1.2421244E0,-1.4349282E-1,-1.3552477E0,-1.3446082E-1,1.2218407E0,-6.8189666E-2,-8.412422E-1,1.9956994E-1,-1.1078944E0,-8.1101924E-1,5.629613E-3,-3.9597815E-1,1.593553E0,5.1719975E-1,-1.0478637E0,-3.0041698E-2,1.0339754E0,-2.5231415E-1,-9.005466E-1,1.995399E0,-3.9754635E-1,-9.636581E-1,7.41801E-1,1.0831394E0,-7.3576564E-1,-9.2393994E-1,-3.2474194E-2,-3.0891037E-1,1.2750846E0,-1.1539195E0,-2.012378E-1,-2.2143446E-1,7.751428E-1,1.080164E0,-1.0457257E0,-3.915394E-1,1.7811946E0,1.367752E0,-5.1421046E-1,-9.9390084E-1,8.9319843E-1,1.1272701E0,-8.040606E-1,-5.97599E-1,1.4746518E0,-7.4638206E-1,8.719069E-1,-1.0832485E0,6.964899E-1,-9.5729715E-1,-7.519916E-2,2.2521944E0,1.0409846E-1,-3.2409853E-1,1.6463997E0,4.895062E-2,1.4859467E0,5.509869E-1,-1.0184531E0,-3.8423514E-1,1.0223842E0,-9.367245E-1,2.8486773E-1,3.6550623E-1,-8.049673E-1,9.9052066E-1,-2.5638258E-1,1.3244572E0,-3.4976745E-1,-3.9116412E-2,2.2322762E0,-9.674784E-1,-7.437791E-2,1.9309578E0,-4.540834E-1,-1.1045412E0,-3.332074E-1,1.3923907E0,-7.7064365E-1,-9.504973E-1,1.2352867E-1,-1.0508939E0,-9.149961E-2,-3.9587304E-1,1.4286435E0,5.535863E-1,-1.0293926E0,-6.775692E-1,9.241381E-1,-1.410269E-1,7.6351035E-1,5.547371E-1,-8.814367E-1,1.660787E-1,-1.0763677E0,5.276562E-1,-1.0012705E0,1.1317543E0,3.4613334E-2,1.1088398E0,5.608275E-1,-6.1244804E-1,4.3908364E-1,1.9695593E-1,1.3059703E0,-1.116809E0,-9.570226E-2,-9.967281E-1,8.9904857E-1,-7.43148E-1,5.663775E-1,1.595095E0,-7.237822E-1,-5.93468E-1,1.1488391E0,-2.6861966E-1,1.225473E0,2.0189128E0,-4.8651615E-1,5.422292E-1,-9.290156E-1,-6.1229065E-2,3.026822E0,7.6709676E-1,-9.278175E-1,7.91212E-2,-1.1042368E0,-4.7843742E-1,1.2779285E0,1.2382599E0,-7.106391E-1,5.7245094E-1,-1.1203281E0],"categories":[],"categories_nodes":[],"categories_segments":[],"categories_sizes":[],"default_left":[1,1,1,1,1,1,1,1,1,1,1,1,1,1,1,1,1,1,1,1,1,1,1,1,1,1,1,1,1,1,1,1,1,1,1,1,1,1,1,0,0,0,1,1,1,1,1,0,1,1,1,1,1,1,1,0,1,0,0,1,1,1,1,0,1,1,1,1,1,1,1,1,1,1,1,1,1,1,1,0,0,1,1,1,0,0,0,1,1,1,1,1,1,1,1,0,0,1,1,0,1,1,1,0,1,1,1,1,1,1,1,1,1,1,1,0,0,1,1,1,1,1,1,1,1,0,0,1,1,1,1,1,0,0,0,1,1,1,1,1,1,1,1,1,1,1,1,0,0,1,1,1,0,0,0,0,0,1,1,1,0,1,1,1,1,1,1,0,1,0,0,0,0,0,0,0,1,1,1,0,0,1,0,1,1,1,1,1,1,1,1,1,1,0,0,0,0,0,0,0,0,0,0,0,0,0,0,0,0,0,0,0,0,0,0,0,0,0,0,0,0,0,0,0,0,0,0,0,0,0,0,0,0,0,0,0,0,0,0,0,0,0,0,0,0,0,0,0,0,0,0,0,0,0,0,0,0,0,0,0,0,0,0,0,0,0,0,0,0,0,0,0,0,0,0,0,0,0,0,0,0,0,0,0,0,0,0,0,0,0,0,0,0,0,0,0,0,0,0,0,0],"id":5,"left_children":[1,3,5,7,9,11,13,15,17,19,21,23,25,27,29,31,33,35,37,39,41,43,45,47,49,51,53,55,57,59,61,63,65,67,69,71,73,75,77,-1,-1,-1,79,81,83,85,87,-1,89,91,93,95,97,99,101,-1,103,-1,-1,105,107,109,111,-1,113,115,117,119,121,123,125,127,129,131,133,135,137,139,141,-1,-1,143,145,147,-1,-1,-1,149,151,153,155,157,159,161,163,-1,-1,165,167,-1,169,171,173,-1,175,177,179,181,183,185,187,189,191,193,195,-1,-1,197,199,201,203,205,207,209,211,-1,-1,213,215,217,219,221,-1,-1,-1,223,225,227,229,231,233,235,237,239,241,243,245,-1,-1,247,249,251,-1,-1,-1,-1,-1,253,255,257,-1,259,261,263,265,267,269,-1,271,-1,-1,-1,-1,-1,-1,-1,273,275,277,-1,-1,279,-1,281,283,285,287,289,291,293,295,297,299,-1,-1,-1,-1,-1,-1,-1,-1,-1,-1,-1,-1,-1,-1,-1,-1,-1,-1,-1,-1,-1,-1,-1,-1,-1,-1,-1,-1,-1,-1,-1,-1,-1,-1,-1,-1,-1,-1,-1,-1,-1,-1,-1,-1,-1,-1,-1,-1,-1,-1,-1,-1,-1,-1,-1,-1,-1,-1,-1,-1,-1,-1,-1,-1,-1,-1,-1,-1,-1,-1,-1,-1,-1,-1,-1,-1,-1,-1,-1,-1,-1,-1,-1,-1,-1,-1,-1,-1,-1,-1,-1,-1,-1,-1,-1,-1,-1,-1,-1,-1,-1,-1,-1,-1,-1,-1,-1,-1],"loss_changes":[3.4687622E2,1.0290527E2,1.3743729E2,6.3613586E1,2.866626E1,4.8254078E1,3.6888123E1,2.2105835E1,5.0678177E1,9.593281E0,2.5407959E1,1.4098096E1,8.781868E0,1.05870285E1,2.3355106E1,1.7501434E1,1.8466553E1,2.7181942E1,2.6279648E1,1.6786242E-1,2.1718216E0,4.4782932E1,2.2942139E1,4.8011107E0,9.334401E0,7.0694275E0,5.8863306E0,5.4223404E0,3.316022E0,2.3089338E1,1.6721928E1,6.551237E0,9.41329E0,1.7480316E1,1.4198564E1,1.1928215E1,1.2430212E1,1.6229845E1,2.2568007E1,0E0,0E0,0E0,2.846579E0,1.2283842E1,1.0106405E1,8.669426E0,2.078247E1,0E0,3.8622465E0,6.2277417E0,6.788553E0,3.6992157E0,6.4414673E0,3.7161922E0,4.443866E0,0E0,4.1795807E0,0E0,0E0,1.30340185E1,1.4792602E1,1.1299576E1,2.188229E1,0E0,8.021534E0,6.666982E-1,4.7315598E0,1.8585892E1,1.1455627E1,9.727948E0,3.1899862E0,7.6347046E0,1.392297E1,6.223116E0,3.8474076E0,1.0769651E1,9.5145035E0,1.15691185E1,2.0081772E1,0E0,0E0,1.0008369E1,3.989336E0,4.3659134E0,0E0,0E0,0E0,1.6759766E1,1.1068558E1,2.4457877E0,4.06662E-1,5.0037265E0,4.4190373E0,3.3350582E0,6.6232276E0,0E0,0E0,6.8321075E0,1.7771473E0,0E0,1.3484812E0,2.0263882E0,3.264407E-1,0E0,3.6161575E0,1.2760521E1,6.204822E0,6.1477585E0,1.3120264E1,8.788597E0,1.3092425E1,9.90484E0,1.4870863E1,5.411756E-1,3.1648235E0,0E0,0E0,7.4864006E-1,9.143367E-1,1.1200808E1,6.0456543E0,1.1077164E1,8.590393E0,9.227566E0,8.448206E0,0E0,0E0,6.138775E0,5.615181E0,5.1863027E-1,3.6756973E0,4.6919403E0,0E0,0E0,0E0,1.7390666E0,4.740738E0,9.509533E0,1.6293813E0,8.305946E0,6.276093E0,8.630817E0,5.938341E0,5.372517E-1,1.1872199E1,8.941345E-1,5.6789165E0,0E0,0E0,2.2606085E1,1.5480469E1,4.840519E0,0E0,0E0,0E0,0E0,0E0,4.192554E0,4.1544127E0,7.063556E-1,0E0,4.224382E0,3.5299454E0,4.1685133E0,9.294834E-1,7.6691666E0,6.464938E0,0E0,1.1745644E0,0E0,0E0,0E0,0E0,0E0,0E0,0E0,8.585968E-1,1.5391396E1,1.4662982E1,0E0,0E0,6.322266E0,0E0,1.3010201E1,8.751892E0,1.5751888E1,5.2111435E0,7.127857E0,5.524641E0,3.0960674E0,3.4338586E0,6.0779896E0,3.7303035E0,0E0,0E0,0E0,0E0,0E0,0E0,0E0,0E0,0E0,0E0,0E0,0E0,0E0,0E0,0E0,0E0,0E0,0E0,0E0,0E0,0E0,0E0,0E0,0E0,0E0,0E0,0E0,0E0,0E0,0E0,0E0,0E0,0E0,0E0,0E0,0E0,0E0,0E0,0E0,0E0,0E0,0E0,0E0,0E0,0E0,0E0,0E0,0E0,0E0,0E0,0E0,0E0,0E0,0E0,0E0,0E0,0E0,0E0,0E0,0E0,0E0,0E0,0E0,0E0,0E0,0E0,0E0,0E0,0E0,0E0,0E0,0E0,0E0,0E0,0E0,0E0,0E0,0E0,0E0,0E0,0E0,0E0,0E0,0E0,0E0,0E0,0E0,0E0,0E0,0E0,0E0,0E0,0E0,0E0,0E0,0E0,0E0,0E0,0E0,0E0,0E0,0E0,0E0,0E0,0E0,0E0,0E0,0E0],"parents":[2147483647,0,0,1,1,2,2,3,3,4,4,5,5,6,6,7,7,8,8,9,9,10,10,11,11,12,12,13,13,14,14,15,15,16,16,17,17,18,18,19,19,20,20,21,21,22,22,23,23,24,24,25,25,26,26,27,27,28,28,29,29,30,30,31,31,32,32,33,33,34,34,35,35,36,36,37,37,38,38,42,42,43,43,44,44,45,45,46,46,48,48,49,49,50,50,51,51,52,52,53,53,54,54,56,56,59,59,60,60,61,61,62,62,64,64,65,65,66,66,67,67,68,68,69,69,70,70,71,71,72,72,73,73,74,74,75,75,76,76,77,77,78,78,81,81,82,82,83,83,87,87,88,88,89,89,90,90,91,91,92,92,93,93,94,94,97,97,98,98,100,100,101,101,102,102,104,104,105,105,106,106,107,107,108,108,109,109,110,110,111,111,112,112,113,113,114,114,117,117,118,118,119,119,120,120,121,121,122,122,123,123,124,124,127,127,128,128,129,129,130,130,131,131,135,135,136,136,137,137,138,138,139,139,140,140,141,141,142,142,143,143,144,144,145,145,146,146,149,149,150,150,151,151,157,157,158,158,159,159,161,161,162,162,163,163,164,164,165,165,166,166,168,168,176,176,177,177,178,178,181,181,183,183,184,184,185,185,186,186,187,187,188,188,189,189,190,190,191,191,192,192],"right_children":[2,4,6,8,10,12,14,16,18,20,22,24,26,28,30,32,34,36,38,40,42,44,46,48,50,52,54,56,58,60,62,64,66,68,70,72,74,76,78,-1,-1,-1,80,82,84,86,88,-1,90,92,94,96,98,100,102,-1,104,-1,-1,106,108,110,112,-1,114,116,118,120,122,124,126,128,130,132,134,136,138,140,142,-1,-1,144,146,148,-1,-1,-1,150,152,154,156,158,160,162,164,-1,-1,166,168,-1,170,172,174,-1,176,178,180,182,184,186,188,190,192,194,196,-1,-1,198,200,202,204,206,208,210,212,-1,-1,214,216,218,220,222,-1,-1,-1,224,226,228,230,232,234,236,238,240,242,244,246,-1,-1,248,250,252,-1,-1,-1,-1,-1,254,256,258,-1,260,262,264,266,268,270,-1,272,-1,-1,-1,-1,-1,-1,-1,274,276,278,-1,-1,280,-1,282,284,286,288,290,292,294,296,298,300,-1,-1,-1,-1,-1,-1,-1,-1,-1,-1,-1,-1,-1,-1,-1,-1,-1,-1,-1,-1,-1,-1,-1,-1,-1,-1,-1,-1,-1,-1,-1,-1,-1,-1,-1,-1,-1,-1,-1,-1,-1,-1,-1,-1,-1,-1,-1,-1,-1,-1,-1,-1,-1,-1,-1,-1,-1,-1,-1,-1,-1,-1,-1,-1,-1,-1,-1,-1,-1,-1,-1,-1,-1,-1,-1,-1,-1,-1,-1,-1,-1,-1,-1,-1,-1,-1,-1,-1,-1,-1,-1,-1,-1,-1,-1,-1,-1,-1,-1,-1,-1,-1,-1,-1,-1,-1,-1,-1],"split_conditions":[5.3318846E-1,-7.31272E-1,-6.095037E-1,-1.4586753E-1,-2.732624E0,-3.6684823E-1,-8.6520326E-1,-1.6793518E0,-2.9840404E-1,-2.8595793E-1,-2.1205587E0,-1.0682754E-1,4.422183E-1,1.1052201E0,-2.210615E-1,-5.258485E-1,1.7900751E0,8.988359E-1,-6.7503005E-1,8.143996E-1,1.3087095E0,5.739239E-1,-2.7451901E0,-9.352355E-1,-3.5416394E-2,-1.5511415E0,2.6053745E-1,-1.4986913E0,-8.6060536E-1,-5.404003E-1,5.749382E-1,-6.801956E-1,-2.6266676E-1,-1.8018211E0,5.542551E-1,9.6581185E-1,-1.5922996E-1,-7.233978E-1,1.4192044E0,-2.6066014E-1,-5.0983597E-2,3.8381198E-1,1.2060444E-1,2.2108123E-1,-7.4073493E-1,1.040814E0,4.4411736E0,-1.447574E-1,-4.1728723E-1,3.0059004E-1,1.5518554E0,5.4950267E-3,4.3275002E-1,-1.4415262E0,-1.05389476E-1,1.5601581E-1,-2.3424277E0,4.156491E-1,-1.011366E-1,1.1298978E0,-3.4845497E-2,4.4186014E-1,1.9743681E-1,-2.5746316E-1,-1.0542462E0,3.1218523E-1,1.8299407E0,-2.2314727E-1,-1.6145239E0,3.070014E-1,2.059196E0,-1.2112062E0,4.0384415E-1,4.1193175E-1,-3.1905836E-1,-4.5884818E-1,7.028955E-1,9.597969E-1,4.0158904E-1,-2.2576872E-1,2.454703E-1,-1.5754709E-1,1.6151254E0,1.5462403E0,-2.695958E-2,-1.6570829E-1,6.013432E-1,-1.4024234E0,2.3354845E-2,7.332874E-2,-1.5391707E-1,-5.1548076E-1,-7.1359634E-1,-4.6781898E-1,1.542411E-1,1.3828757E-1,-3.929432E-1,1.971137E0,-1.8621237E0,1.5874904E-1,-3.1983843E-1,-6.9600356E-1,2.717386E-1,1.3468042E-1,-6.0850775E-1,-5.955145E-1,-5.130913E-1,-1.730915E-1,-5.255109E-1,3.1224817E-1,-2.259846E-1,3.3517262E-1,7.892467E-1,1.2090518E0,-1.0317767E0,3.8286857E-2,3.7082517E-1,1.6447377E0,2.593848E-1,-7.719244E-1,-9.190421E-2,-4.3181878E-1,3.563591E0,-1.0155805E0,-2.3568892E-1,-1.4480544E-2,5.6825227E-1,-3.8553214E-1,1.9455248E0,6.088513E-1,-2.3903921E-1,-1.2492963E0,-1.362036E-1,1.7557687E-1,-3.0071104E-1,1.9282746E-1,-2.320044E0,-4.2240793E-1,-4.5988148E-1,-1.9587278E-1,-9.253405E-2,-4.9884757E-1,-8.783543E-1,-2.751088E-1,-5.3521764E-1,5.2385783E-1,-7.374551E-2,1.0123223E0,1.7133427E-1,4.731946E-1,3.046093E0,-2.539158E-1,-2.614529E-1,-1.9007449E-1,2.537827E-1,1.160723E-1,4.9125794E-1,7.295656E-1,1.95972E-1,-3.0107984E-1,-3.2458526E-1,-1.1378934E0,-9.570824E-1,-7.146425E-1,-2.7501157E-1,4.882225E-1,-2.9722783E-1,-1.2269082E-2,-1.2317047E0,-4.3047845E-2,-4.0657434E-1,-4.0338248E-2,3.6655223E-1,-2.04569E-2,-2.5237268E-1,5.9870984E-2,2.0333278E0,1.1042116E0,7.714933E-1,-1.1879345E-1,4.780659E-1,-2.9722753E-1,-3.1435913E-1,1.7918711E0,-1.3355877E0,-1.504729E0,-1.9387512E0,-8.853594E-1,-3.3445865E-1,-2.81993E-1,9.083036E-1,1.3241429E0,-2.6596946E-1,-2.7718198E-1,-9.742258E-3,-9.2673115E-2,3.825254E-1,-3.4617585E-1,-6.0371343E-2,-6.643034E-2,2.3254284E-1,3.240492E-1,-3.1371772E-1,-1.1746182E-1,5.343584E-1,4.1032562E-1,-1.5426314E-1,-2.9817027E-1,2.6795954E-1,3.3818105E-1,-2.4121818E-1,-1.7927971E-1,4.4239557E-1,-2.2391462E-1,2.6157206E-1,-3.2497457E-1,2.0894697E-1,-2.8718916E-1,-2.2559747E-2,6.7565835E-1,3.1229539E-2,-9.722956E-2,4.9391994E-1,1.4685187E-2,4.45784E-1,1.6529608E-1,-3.0553594E-1,-1.1527055E-1,3.0671525E-1,-2.8101736E-1,8.546032E-2,1.0965187E-1,-2.414902E-1,2.971562E-1,-7.691478E-2,3.9733717E-1,-1.0493024E-1,-1.1734924E-2,6.6968286E-1,-2.9024354E-1,-2.2313373E-2,5.7928735E-1,-1.3622503E-1,-3.3136237E-1,-9.996223E-2,4.1771725E-1,-2.3119311E-1,-2.8514922E-1,3.7058603E-2,-3.152682E-1,-2.7449885E-2,-1.1876192E-1,4.2859307E-1,1.660759E-1,-3.088178E-1,-2.0327078E-1,2.7724144E-1,-4.230807E-2,2.2905311E-1,1.6642113E-1,-2.6443103E-1,4.9823612E-2,-3.2291034E-1,1.5829687E-1,-3.0038118E-1,3.395263E-1,1.0384001E-2,3.3265194E-1,1.6824825E-1,-1.8373442E-1,1.317251E-1,5.908678E-2,3.917911E-1,-3.3504272E-1,-2.871068E-2,-2.9901844E-1,2.697146E-1,-2.2294442E-1,1.6991326E-1,4.7852853E-1,-2.1713467E-1,-1.7804042E-1,3.4465176E-1,-8.05859E-2,3.6764193E-1,6.0567385E-1,-1.4595485E-1,1.6266876E-1,-2.7870467E-1,-1.8368721E-2,9.0804666E-1,2.3012903E-1,-2.7834526E-1,2.3736361E-2,-3.3127105E-1,-1.4353123E-1,3.8337857E-1,3.71478E-1,-2.1319175E-1,1.7173529E-1,-3.3609843E-1],"split_indices":[298,91,324,298,355,336,358,363,358,108,295,269,343,356,359,74,286,279,98,282,123,325,332,250,100,36,291,366,181,330,356,7,270,332,261,263,270,286,320,0,0,0,360,204,105,357,274,0,346,371,316,148,300,315,362,0,343,0,0,294,246,280,281,0,232,287,357,313,200,375,286,293,258,378,302,271,283,296,367,0,0,356,81,15,0,0,0,318,257,286,367,292,355,162,310,0,0,316,29,0,34,128,261,0,210,10,20,264,368,65,30,182,324,34,369,0,0,40,283,356,266,381,371,292,207,0,0,247,369,44,112,339,0,0,0,281,324,269,177,275,60,293,76,337,285,94,265,0,0,369,295,265,0,0,0,0,0,150,316,13,0,328,289,381,26,159,84,0,200,0,0,0,0,0,0,0,345,354,316,0,0,84,0,209,305,276,203,232,67,379,259,344,261,0,0,0,0,0,0,0,0,0,0,0,0,0,0,0,0,0,0,0,0,0,0,0,0,0,0,0,0,0,0,0,0,0,0,0,0,0,0,0,0,0,0,0,0,0,0,0,0,0,0,0,0,0,0,0,0,0,0,0,0,0,0,0,0,0,0,0,0,0,0,0,0,0,0,0,0,0,0,0,0,0,0,0,0,0,0,0,0,0,0,0,0,0,0,0,0,0,0,0,0,0,0,0,0,0,0,0,0],"split_type":[0,0,0,0,0,0,0,0,0,0,0,0,0,0,0,0,0,0,0,0,0,0,0,0,0,0,0,0,0,0,0,0,0,0,0,0,0,0,0,0,0,0,0,0,0,0,0,0,0,0,0,0,0,0,0,0,0,0,0,0,0,0,0,0,0,0,0,0,0,0,0,0,0,0,0,0,0,0,0,0,0,0,0,0,0,0,0,0,0,0,0,0,0,0,0,0,0,0,0,0,0,0,0,0,0,0,0,0,0,0,0,0,0,0,0,0,0,0,0,0,0,0,0,0,0,0,0,0,0,0,0,0,0,0,0,0,0,0,0,0,0,0,0,0,0,0,0,0,0,0,0,0,0,0,0,0,0,0,0,0,0,0,0,0,0,0,0,0,0,0,0,0,0,0,0,0,0,0,0,0,0,0,0,0,0,0,0,0,0,0,0,0,0,0,0,0,0,0,0,0,0,0,0,0,0,0,0,0,0,0,0,0,0,0,0,0,0,0,0,0,0,0,0,0,0,0,0,0,0,0,0,0,0,0,0,0,0,0,0,0,0,0,0,0,0,0,0,0,0,0,0,0,0,0,0,0,0,0,0,0,0,0,0,0,0,0,0,0,0,0,0,0,0,0,0,0,0,0,0,0,0,0,0,0,0,0,0,0,0,0,0,0,0,0,0,0,0,0,0,0,0],"sum_hessian":[3.903272E3,3.1268772E3,7.763946E2,8.109406E2,2.3159368E3,3.2362888E2,4.527657E2,5.139227E2,2.970179E2,1.2787127E1,2.3031497E3,8.4413506E1,2.3921538E2,1.138251E2,3.3894058E2,3.8365814E1,4.755569E2,1.2244979E2,1.7456812E2,3.69524E0,9.0918865E0,4.987737E1,2.2532722E3,9.939236E0,7.4474266E1,2.2578787E2,1.3427505E1,1.1082615E2,2.9989524E0,1.4384181E2,1.9509877E2,1.7702684E1,2.066313E1,4.376558E2,3.7901093E1,1.0588747E2,1.6562323E1,7.6634865E1,9.793326E1,2.6788273E0,1.0164129E0,6.370641E0,2.721245E0,4.4307858E1,5.5695095E0,4.1630516E0,2.2491091E3,1.845861E0,8.093375E0,2.439746E1,5.007681E1,3.2897637E0,2.2249811E2,6.6105623E0,6.8169427E0,1.6536816E0,1.0917247E2,1.5934407E0,1.4055116E0,8.324599E1,6.059583E1,1.4943921E2,4.5659565E1,1.7391305E0,1.5963553E1,2.3870776E0,1.8276052E1,1.9370344E1,4.1828546E2,3.416906E1,3.7320323E0,9.839225E1,7.4952216E0,1.0562344E1,5.999979E0,1.5147657E1,6.1487206E1,7.336424E1,2.4569017E1,1.0692835E0,1.6519614E0,1.1450294E1,3.2857563E1,4.1002994E0,1.4692101E0,1.5337106E0,2.6293411E0,2.2383552E3,1.0753844E1,2.528806E0,5.564569E0,1.698791E1,7.4095507E0,3.940746E1,1.066935E1,1.2798196E0,2.0099442E0,2.0097083E2,2.1527273E1,1.1138211E0,5.4967413E0,4.7733703E0,2.043572E0,1.302623E0,1.0786984E2,7.756346E1,5.6825237E0,1.0268969E1,5.032686E1,1.4037314E2,9.066068E0,2.2838543E1,2.2821024E1,2.3441231E0,1.3619431E1,1.0370929E0,1.3499845E0,1.6191116E1,2.0849357E0,1.3290269E1,6.0800757E0,1.8818426E1,3.9946704E2,2.7794935E1,6.374123E0,1.0327479E0,2.6992846E0,7.4320626E0,9.096018E1,4.3297358E0,3.1654863E0,8.855916E0,1.7064269E0,1.344099E0,4.65588E0,3.2614555E0,1.1886202E1,5.7744568E1,3.742636E0,5.868116E1,1.4683083E1,1.7104675E1,7.4643426E0,4.487076E0,6.9632173E0,2.9783958E1,3.073605E0,2.901708E0,1.1985914E0,8.5265076E1,2.15309E3,6.853541E0,3.9003031E0,1.5215441E0,1.0072618E0,1.0603815E0,4.5041876E0,5.002235E0,1.1985675E1,2.1458077E0,5.263743E0,6.244237E0,3.3163223E1,6.6254077E0,4.0439425E0,1.22992096E2,7.797874E1,1.0708238E0,2.045645E1,1.4367354E0,4.0600057E0,1.2099462E0,3.5634243E0,1.0090352E0,1.0345368E0,1.8710082E0,1.0599884E2,4.4643696E1,3.291977E1,1.8178452E0,3.8646784E0,2.8633199E0,7.4056487E0,1.7560932E1,3.2765926E1,2.6766376E1,1.1360676E2,2.2728417E0,6.7932262E0,1.9524212E1,3.3143306E0,1.768104E1,5.139983E0,1.2619569E0,1.0821661E0,1.0084271E0,1.2611003E1,1.4821063E1,1.3700539E0,1.0514222E0,1.0335133E0,2.254357E0,1.10359125E1,1.2359854E0,4.84409E0,2.8464751E0,1.5971951E1,3.9776556E2,1.7014582E0,1.8534514E0,2.5941484E1,2.6238897E0,3.7502334E0,4.0787787E0,3.3532841E0,8.979045E1,1.1697295E0,3.3277473E0,1.0019882E0,1.9331745E0,1.2323117E0,1.0581352E0,7.797781E0,1.2698187E0,1.9916369E0,1.6594682E0,1.0226733E1,4.7669687E0,5.29776E1,2.741555E0,1.001081E0,6.2592664E0,5.2421894E1,6.184665E0,8.498418E0,2.8584042E0,1.424627E1,1.3319042E0,6.1324387E0,3.4867556E0,1.0003206E0,3.8508036E0,3.1124136E0,2.705984E1,2.7241197E0,1.0210904E0,2.0525148E0,5.561302E1,2.9652054E1,2.135937E3,1.7153242E1,1.4002664E0,5.4532743E0,2.0776422E0,2.924593E0,1.1405132E0,1.0845161E1,1.002033E0,1.1437746E0,3.2206376E0,3.0235994E0,2.196125E0,3.0967096E1,1.8359443E0,4.789463E0,3.0074499E0,1.0364925E0,3.946935E1,8.352274E1,5.487721E0,7.249102E1,1.4128432E0,1.9043606E1,1.0497098E2,1.0278571E0,4.064671E1,3.9969857E0,1.3957185E1,1.8962584E1,1.3796396E0,1.4836801E0,1.2218087E1,5.342846E0,4.1479874E0,2.861794E1,1.7897245E0,2.4976652E1,1.8491217E0,1.1175764E2,1.0733163E0,1.1995254E0,1.9856027E0,4.807624E0,2.3713422E0,1.715287E1,1.0445397E0,2.269791E0,1.6558779E1,1.1222609E0,1.056698E0,4.0832853E0],"tree_param":{"num_deleted":"0","num_feature":"384","num_nodes":"301","size_leaf_vector":"0"}},{"base_weights":[-6.5968823E-1,-8.68791E-1,-2.592725E-1,-6.245169E-1,-9.891422E-1,8.1281975E-2,-5.969774E-1,-4.5626453E-1,-9.480297E-1,-9.974766E-1,3.9482135E-1,4.8113024E-1,-1.4726909E-1,-8.5309607E-1,-2.4855459E-1,-1.4785987E-1,-7.5582075E-1,-9.6317303E-1,9.0475035E-1,-1.9337048E-1,-1.0126071E0,-4.350155E-1,1.1189859E0,-9.243853E-2,6.492789E-1,-6.1992025E-1,3.2870606E-2,-8.6946636E-1,8.7554175E-1,2.2316457E-1,-4.7129375E-1,-4.5413485E-1,2.2413248E-1,-7.967864E-1,6.8680817E-1,-9.9177593E-1,4.568778E-2,-5.702242E-1,7.369808E-1,2.0513994E-1,-1.0188608E0,-8.387391E-1,4.913601E-1,1.3260736E0,2.2827993E-1,-6.6297096E-1,4.594745E-1,2.3924856E-2,7.8327113E-1,-7.0547414E-1,1.0317801E0,3.3725685E-1,-2.2162382E-1,-8.8311243E-1,1.0431906E0,1.4688575E0,-5.639437E-3,-3.9336082E-1,4.260481E-1,-8.9865625E-1,-3.1866464E-1,-5.739807E-1,5.722983E-1,-1.198133E-1,7.0741045E-1,-8.030001E-2,-8.7298965E-1,-7.7327955E-1,1.6104443E0,5.290289E-1,-1.0071366E0,1.1574202E0,-8.658568E-1,1.0384456E0,-7.718071E-1,1.8877326E0,-4.1702294E-1,7.2823447E-1,-6.8993497E-1,1.1768255E0,-1.0215068E0,7.844617E-1,-8.4891796E-1,6.9966E-1,-5.751152E-1,-3.5913244E-1,6.956037E-1,8.4404635E-1,-2.6181057E-1,9.404288E-1,-7.599536E-1,-1.8122554E-1,1.4891658E0,-2.1213926E-1,5.601541E-1,-8.683342E-2,-8.2873774E-1,-9.2926514E-1,-3.0517855E-1,4.1889516E-1,-7.9090494E-1,6.5690273E-1,-1.9290196E-2,-9.6398914E-1,3.1536648E-1,8.487423E-2,-5.957148E-1,9.1069084E-1,-6.625277E-1,1.123756E0,-3.921941E-1,-3.475088E-1,1.2420995E0,8.8540274E-1,-8.8319135E-1,6.039827E-1,-7.5212765E-1,-9.552271E-1,-3.443483E-1,2.0765746E-1,2.232839E0,