{"learner":{"attributes":{"best_iteration":"9","best_ntree_limit":"10"},"feature_names":[],"feature_types":[],"gradient_booster":{"model":{"gbtree_model_param":{"num_parallel_tree":"1","num_trees":"10","size_leaf_vector":"0"},"tree_info":[0,0,0,0,0,0,0,0,0,0],"trees":[{"base_weights":[-1.9179591E0,-5.100529E-1,-1.9563501E0,1.5897436E0,-1.5353218E0,-1.9711317E0,-1.4864105E0,-1.4E0,1.7702702E0,2.2222222E-1,-1.7469244E0,-1.9737182E0,-5.4545456E-1,8.453608E-1,-1.7125257E0,-1.8181819E-1,1.8200692E0,1.0204082E0,-1.2592592E0,-1.9150743E0,-9.019608E-1,1.5384616E-1,-1.9751419E0,-1.8181819E0,1.6923077E0,-8.75E-1,1.5942029E0,-1.8503401E0,-3.75E-1,6.666667E-1,1.882353E0,1.4418604E0,-1.2E0,-1.6521739E0,5E-1,-0E0,-1.9314775E0,1.4666667E0,-1.2527473E0,-1.4285715E0,1.5E0,-1.9770205E0,-9.0909094E-1,1E0,-1.6666666E0,-1.1111112E0,1.875E0,-1.8760046E0,1.3333334E-1,8.148148E-1,-1.7391304E0,1.5E0,-1.1111112E0,-0E0,1.9104477E0,1.7777778E0,-1.8181819E-1,-1.9477124E0,-6.666667E-1,9.0909094E-1,-1.4761904E0,-1.8255757E0,-1.986671E0,1.6E0,-1.84E0,-1.8892734E0,5E-1,-1.1111112E0,1.2E0,1.4594594E0,-4.7619048E-1,-1.8095238E0,-5E-1,1.9391634E0,2.2222222E-1,-5E-1,-1.956044E0,-1E0,-0E0,-1.68E0,1.5384616E-1,9.4736844E-1,-1.8479763E0,-4E-1,-1.9869248E0,-3.529412E-1,-1.911007E0,1.7575758E0,-5E-1,1.1111112E0,-1.25E0,5E-1,1.953668E0,-8.5714287E-1,-1.9730337E0,-1.8309859E0,5E-1,1.1111112E0,-1E0,-5E-1,1.4666667E0,-7.5555557E-1,-1.8948454E0,-1.9870512E0,-5E-1,8E-1,-1.2727273E0,-1.9243499E0,-3.3333334E-1],"categories":[],"categories_nodes":[],"categories_segments":[],"categories_sizes":[],"default_left":[1,1,1,1,1,1,1,0,1,1,1,1,1,1,1,0,1,1,1,1,1,1,1,0,0,1,1,1,1,1,1,1,0,0,0,0,1,0,1,0,0,1,1,0,0,0,0,1,1,1,1,0,0,0,1,0,0,1,1,0,1,1,1,0,0,1,0,0,0,1,1,0,0,1,0,0,1,0,0,1,1,1,1,0,1,1,1,0,0,0,0,0,0,0,0,0,0,0,0,0,0,0,0,0,0,0,0,0,0],"id":0,"left_children":[1,3,5,7,9,11,13,-1,15,17,19,21,23,25,27,-1,29,31,33,35,37,39,41,-1,-1,43,45,47,49,51,53,55,-1,-1,-1,-1,57,-1,59,-1,-1,61,63,-1,-1,-1,-1,65,67,69,71,-1,-1,-1,73,-1,-1,75,77,-1,79,81,83,-1,-1,85,-1,-1,-1,87,89,-1,-1,91,-1,-1,93,-1,-1,95,97,99,101,-1,103,105,107,-1,-1,-1,-1,-1,-1,-1,-1,-1,-1,-1,-1,-1,-1,-1,-1,-1,-1,-1,-1,-1,-1],"loss_changes":[4.773125E2,5.1105304E2,5.690625E1,4.457721E1,5.9613403E1,2.9707031E1,1.4209137E2,0E0,7.524597E0,2.2569916E1,1.8483612E1,2.5544922E1,5.0069927E1,3.263568E1,4.419055E1,0E0,3.9354095E0,1.3193735E1,5.491948E0,3.698944E0,2.3024864E1,1.5989011E1,1.4878906E1,0E0,0E0,1.3541666E1,1.5187199E1,1.1475769E1,4.037057E1,9.444445E0,3.5961304E0,6.1865177E0,0E0,0E0,0E0,0E0,1.098877E0,0E0,1.2331337E1,0E0,0E0,8.521484E0,4.1483635E1,0E0,0E0,0E0,0E0,7.8095093E0,6.311111E0,1.1930216E1,9.8342896E-2,0E0,0E0,0E0,2.817154E0,0E0,0E0,4.060669E-1,6.666666E-1,0E0,7.235016E0,3.344519E1,2.3476562E0,0E0,0E0,6.562866E0,0E0,0E0,0E0,6.2821445E0,7.8373013E0,0E0,0E0,3.9564514E-1,0E0,0E0,4.3255615E-1,0E0,0E0,7.087044E0,4.700855E0,4.3035088E0,2.4501587E1,0E0,4.7460938E-1,5.5251336E0,3.8528442E0,0E0,0E0,0E0,0E0,0E0,0E0,0E0,0E0,0E0,0E0,0E0,0E0,0E0,0E0,0E0,0E0,0E0,0E0,0E0,0E0,0E0,0E0],"parents":[2147483647,0,0,1,1,2,2,3,3,4,4,5,5,6,6,8,8,9,9,10,10,11,11,12,12,13,13,14,14,16,16,17,17,18,18,19,19,20,20,21,21,22,22,25,25,26,26,27,27,28,28,29,29,30,30,31,31,36,36,38,38,41,41,42,42,47,47,48,48,49,49,50,50,54,54,57,57,58,58,60,60,61,61,62,62,65,65,69,69,70,70,73,73,76,76,79,79,80,80,81,81,82,82,84,84,85,85,86,86],"right_children":[2,4,6,8,10,12,14,-1,16,18,20,22,24,26,28,-1,30,32,34,36,38,40,42,-1,-1,44,46,48,50,52,54,56,-1,-1,-1,-1,58,-1,60,-1,-1,62,64,-1,-1,-1,-1,66,68,70,72,-1,-1,-1,74,-1,-1,76,78,-1,80,82,84,-1,-1,86,-1,-1,-1,88,90,-1,-1,92,-1,-1,94,-1,-1,96,98,100,102,-1,104,106,108,-1,-1,-1,-1,-1,-1,-1,-1,-1,-1,-1,-1,-1,-1,-1,-1,-1,-1,-1,-1,-1,-1],"split_conditions":[-2.2785287E0,-1.3512377E0,1.9770352E0,8.066292E-1,-1.5061955E0,3.7362149E0,-1.7318121E0,-4.2000002E-1,-1.1781735E0,-8.7643707E-1,1.870522E0,-3.6319256E0,8.6901474E-1,5.9813267E-1,1.157264E0,-5.454546E-2,-1.7145457E0,-5.619211E-1,1.5250785E0,-2.1174738E0,-3.5093677E-1,4.405582E-1,3.5437226E0,-5.4545456E-1,5.0769234E-1,-1.3348312E0,2.9216874E-1,3.2253022E0,-6.955984E-1,-3.6236703E-1,-3.1142607E-1,3.4682336E-1,-3.6E-1,-4.9565217E-1,1.5E-1,-0E0,4.6919698E-1,4.4000003E-1,-1.2461684E0,-4.2857146E-1,4.5000002E-1,-1.2964518E0,-7.8195685E-1,3E-1,-5E-1,-3.3333337E-1,5.625E-1,3.41612E0,-1.0332141E0,-6.665598E-2,1.9570338E0,4.5000002E-1,-3.3333337E-1,-0E0,2.9199467E0,5.3333336E-1,-5.454546E-2,-9.0007454E-1,-3.9343873E-1,2.7272728E-1,-3.671726E-1,-1.8262854E0,-3.987113E0,4.8000002E-1,-5.5200005E-1,-2.2804356E0,1.5E-1,-3.3333337E-1,3.6E-1,9.5229864E-2,-2.243178E0,-5.4285717E-1,-1.5E-1,-1.4997838E0,6.666667E-2,-1.5E-1,-1.576786E0,-3E-1,-0E0,2.0886955E0,2.2846949E-1,2.7014136E-1,-2.047979E0,-1.20000005E-1,4.6255627E0,-9.38655E-1,2.3539848E0,5.2727276E-1,-1.5E-1,3.3333337E-1,-3.75E-1,1.5E-1,5.861004E-1,-2.5714287E-1,-5.919101E-1,-5.492958E-1,1.5E-1,3.3333337E-1,-3E-1,-1.5E-1,4.4000003E-1,-2.2666667E-1,-5.684536E-1,-5.961154E-1,-1.5E-1,2.4000001E-1,-3.818182E-1,-5.77305E-1,-1.0000001E-1],"split_indices":[258,354,375,294,352,352,347,0,322,336,375,345,265,382,356,0,358,362,5,113,262,77,257,0,0,273,256,5,347,214,278,279,0,0,0,0,308,0,180,0,0,258,274,0,0,0,0,257,22,369,0,0,0,0,294,0,0,14,0,0,191,296,366,0,0,363,0,0,0,53,361,0,0,60,0,0,296,0,0,344,40,0,349,0,284,162,346,0,0,0,0,0,0,0,0,0,0,0,0,0,0,0,0,0,0,0,0,0,0],"split_type":[0,0,0,0,0,0,0,0,0,0,0,0,0,0,0,0,0,0,0,0,0,0,0,0,0,0,0,0,0,0,0,0,0,0,0,0,0,0,0,0,0,0,0,0,0,0,0,0,0,0,0,0,0,0,0,0,0,0,0,0,0,0,0,0,0,0,0,0,0,0,0,0,0,0,0,0,0,0,0,0,0,0,0,0,0,0,0,0,0,0,0,0,0,0,0,0,0,0,0,0,0,0,0,0,0,0,0,0,0],"sum_hessian":[8.84825E3,2.3525E2,8.613E3,7.7E1,1.5825E2,8.34725E3,2.6575E2,4E0,7.3E1,1.7E1,1.4125E2,8.33175E3,1.55E1,2.325E1,2.425E2,1.75E0,7.125E1,1.125E1,5.75E0,1.1675E2,2.45E1,5.5E0,8.32625E3,1E1,5.5E0,7E0,1.625E1,2.195E2,2.3E1,4.25E0,6.7E1,9.75E0,1.5E0,4.75E0,1E0,1E0,1.1575E2,2.75E0,2.175E1,2.5E0,3E0,8.31075E3,1.55E1,2E0,5E0,1.25E0,1.5E1,2.1675E2,2.75E0,1.25E1,1.05E1,3E0,1.25E0,1E0,6.6E1,8E0,1.75E0,1.1375E2,2E0,1.75E0,2E1,5.0925E2,7.8015E3,4E0,1.15E1,2.1575E2,1E0,1.25E0,1.5E0,8.25E0,4.25E0,9.5E0,1E0,6.475E1,1.25E0,1E0,1.1275E2,1E0,1E0,1.775E1,2.25E0,3.75E0,5.055E2,1.5E0,7.8E3,3.25E0,2.125E2,7.25E0,1E0,1.25E0,3E0,1E0,6.375E1,2.5E0,1.1025E2,1.675E1,1E0,1.25E0,1E0,1E0,2.75E0,2.15E1,4.84E2,7.799E3,1E0,1.5E0,1.75E0,2.105E2,2E0],"tree_param":{"num_deleted":"0","num_feature":"384","num_nodes":"109","size_leaf_vector":"0"}},{"base_weights":[-1.4815111E0,-4.3979043E-1,-1.5131515E0,1.1881196E0,-1.1731113E0,-1.5301582E0,-1.2648969E0,-7.237841E-1,1.3839886E0,-1.4271145E0,-3.1010294E-1,-1.5322932E0,-4.1487706E-1,4.1601402E-1,-1.3529603E0,-1.147329E0,6.828617E-1,1.4613217E0,-1.7096901E-2,5.247581E-1,-1.4640236E0,-1.3782772E0,3.0853957E-1,7.4919504E-3,-1.5335865E0,-1.4260958E0,1.3418487E0,1.2127756E0,-1.1355001E0,-1.3767161E0,8.7015605E-1,-1.346302E0,-1.5576896E-1,1.19928785E-1,1.4889164E0,-1.1187192E0,8.6585116E-1,-1.5047315E0,-3.4521466E-1,-1.4825555E0,-1.0795308E-1,6.252638E-1,-9.067384E-1,-1.2293113E0,1.237739E0,1.9231823E-1,-1.534068E0,1.5237938E0,3.742797E-2,-1.422076E0,4.7712755E-1,-1.3923516E0,9.7239864E-1,1.3641298E0,-5.6773955E-1,1.5114216E0,4.1214633E-1,-1.5223624E0,-1.2260372E-1,-9.71598E-1,7.274663E-1,-9.375976E-1,8.752377E-1,2.4596398E-1,-1.2667955E0,-9.348644E-1,-1.5349576E0,1.094016E0,-8.66536E-1,-1.4514546E0,-6.582252E-1,-3.7421495E-1,1.7094872E0,1.5254482E0,4.212343E-1,-3.660775E-1,-1.5304604E0,-7.387595E-1,1.1597818E0,1.3074355E0,-1.4181528E0,-1.5374252E0,-1.3324658E0,-2.885113E-1,-1.4700929E0,3.157266E-1,-1.3139092E0,1.5400183E0,4.249764E-1,-1.53809E0,-4.0969792E-1,-1.0590722E-1,-1.0287046E0,-1.141253E-1,1.3588037E0,-1.5399302E0,-1.3445786E0,-1.500109E0,-4.811344E-2,1.0846024E0,-1.1150867E0,6.695796E-3,-1.4820853E0,1.0253321E0,-9.539782E-1,-1.4597646E0,3.3757007E-1],"categories":[],"categories_nodes":[],"categories_segments":[],"categories_sizes":[],"default_left":[1,1,1,1,1,1,1,1,1,1,1,1,1,1,1,1,0,1,1,0,1,1,1,1,1,0,0,1,1,1,1,0,0,0,1,0,0,1,1,0,0,1,1,0,0,0,1,0,1,0,0,1,1,0,0,1,0,1,0,0,0,0,1,0,0,1,1,0,0,1,1,0,0,1,0,0,1,1,1,0,0,1,1,1,1,1,1,0,0,0,0,0,0,0,0,0,0,0,0,0,0,0,0,0,0,0,0],"id":1,"left_children":[1,3,5,7,9,11,13,15,17,19,21,23,25,27,29,31,-1,33,35,-1,37,39,41,43,45,-1,-1,47,49,51,53,-1,-1,-1,55,-1,-1,57,59,-1,-1,61,63,-1,-1,-1,65,-1,67,-1,-1,69,71,-1,-1,73,-1,75,-1,-1,-1,-1,77,-1,-1,79,81,-1,-1,83,85,-1,-1,87,-1,-1,89,91,93,-1,-1,95,97,99,101,103,105,-1,-1,-1,-1,-1,-1,-1,-1,-1,-1,-1,-1,-1,-1,-1,-1,-1,-1,-1,-1],"loss_changes":[2.6693945E2,2.887847E2,3.1330078E1,2.918631E1,3.60504E1,1.6914062E1,7.619391E1,5.341499E0,7.459152E0,1.0014374E1,2.6285563E1,1.465625E1,2.9362818E1,3.3765137E1,2.685028E1,1.0239983E0,0E0,2.2287292E0,5.420972E0,0E0,5.229431E0,1.7654037E0,1.0420017E1,1.2426903E1,6.4023438E0,0E0,0E0,6.447628E0,5.025405E0,1.902008E1,4.8573637E0,0E0,0E0,0E0,9.1915894E-1,0E0,0E0,2.7739563E0,4.5563183E0,0E0,0E0,8.985E0,2.6774468E0,0E0,0E0,0E0,2.4824219E0,0E0,5.4833975E0,0E0,0E0,1.9793701E1,4.3807116E0,0E0,0E0,3.048706E-1,0E0,5.6222534E-1,0E0,0E0,0E0,0E0,9.36846E0,0E0,0E0,1.6429821E1,1.6152344E0,0E0,0E0,9.15094E0,2.4337572E1,0E0,0E0,3.202362E-1,0E0,0E0,3.8513184E-1,5.1283884E-1,4.2484207E0,0E0,0E0,1.4257812E0,2.0554474E1,1.05303E1,7.7056885E0,1.5284662E1,5.932331E0,0E0,0E0,0E0,0E0,0E0,0E0,0E0,0E0,0E0,0E0,0E0,0E0,0E0,0E0,0E0,0E0,0E0,0E0,0E0,0E0],"parents":[2147483647,0,0,1,1,2,2,3,3,4,4,5,5,6,6,7,7,8,8,9,9,10,10,11,11,12,12,13,13,14,14,15,15,17,17,18,18,20,20,21,21,22,22,23,23,24,24,27,27,28,28,29,29,30,30,34,34,37,37,38,38,41,41,42,42,46,46,48,48,51,51,52,52,55,55,57,57,62,62,65,65,66,66,69,69,70,70,73,73,76,76,77,77,78,78,81,81,82,82,83,83,84,84,85,85,86,86],"right_children":[2,4,6,8,10,12,14,16,18,20,22,24,26,28,30,32,-1,34,36,-1,38,40,42,44,46,-1,-1,48,50,52,54,-1,-1,-1,56,-1,-1,58,60,-1,-1,62,64,-1,-1,-1,66,-1,68,-1,-1,70,72,-1,-1,74,-1,76,-1,-1,-1,-1,78,-1,-1,80,82,-1,-1,84,86,-1,-1,88,-1,-1,90,92,94,-1,-1,96,98,100,102,104,106,-1,-1,-1,-1,-1,-1,-1,-1,-1,-1,-1,-1,-1,-1,-1,-1,-1,-1,-1,-1],"split_conditions":[-2.2063713E0,-1.3512377E0,1.5575006E0,1.1366348E0,1.870622E0,3.7362149E0,-1.7742712E0,1.9224486E0,-8.755242E-1,-1.6724968E0,5.214067E-1,-3.5176444E0,8.6901474E-1,-1.3465267E0,3.3943853E0,5.727527E-1,2.0485851E-1,-5.502695E-1,-3.97284E-1,1.5742743E-1,1.7243785E0,1.9091466E-1,2.6711524E-2,4.405582E-1,-3.987113E0,-4.2782876E-1,4.0255463E-1,-9.9890405E-1,1.0677693E0,2.1268296E0,-3.7304562E-1,-4.0389064E-1,-4.673069E-2,3.5978638E-2,2.1942894E0,-3.3561578E-1,2.5975537E-1,2.401126E0,1.0153272E0,-4.4476667E-1,-3.2385927E-2,-1.1045468E0,-1.2053556E0,-3.6879343E-1,3.713217E-1,5.769547E-2,-3.2292905E0,4.5713815E-1,-1.013956E0,-4.266228E-1,1.4313827E-1,1.1491406E0,9.627496E-1,4.0923896E-1,-1.7032187E-1,1.5546124E0,1.23643905E-1,-1.2290092E0,-3.6781117E-2,-2.914794E-1,2.1823989E-1,-2.812793E-1,-3.9786255E-1,7.3789194E-2,-3.8003868E-1,-4.2756033E-1,2.2504194E0,3.282048E-1,-2.5996083E-1,-1.3983693E0,-8.302838E-1,-1.1226449E-1,5.128462E-1,2.0526078E0,1.263703E-1,-1.0982326E-1,2.6609976E0,-6.782846E-1,-1.4020557E0,3.9223066E-1,-4.2544585E-1,2.5308924E0,9.2787766E-1,-8.642309E-1,-2.6955423E0,-4.9739152E-1,5.316924E-1,4.6200553E-1,1.2749293E-1,-4.61427E-1,-1.2290938E-1,-3.1772166E-2,-3.086114E-1,-3.423759E-2,4.0764114E-1,-4.619791E-1,-4.033736E-1,-4.500327E-1,-1.4434032E-2,3.253807E-1,-3.34526E-1,2.008739E-3,-4.4462562E-1,3.0759963E-1,-2.8619346E-1,-4.379294E-1,1.01271026E-1],"split_indices":[258,354,375,294,375,352,347,379,281,311,366,345,265,354,257,338,0,92,56,0,98,270,163,77,366,0,0,324,382,326,268,0,0,0,344,0,0,344,320,0,0,6,81,0,0,0,354,0,348,0,0,356,13,0,0,64,0,16,0,0,0,0,190,0,0,319,305,0,0,297,347,0,0,68,0,0,53,14,122,0,0,344,382,34,277,354,282,0,0,0,0,0,0,0,0,0,0,0,0,0,0,0,0,0,0,0,0],"split_type":[0,0,0,0,0,0,0,0,0,0,0,0,0,0,0,0,0,0,0,0,0,0,0,0,0,0,0,0,0,0,0,0,0,0,0,0,0,0,0,0,0,0,0,0,0,0,0,0,0,0,0,0,0,0,0,0,0,0,0,0,0,0,0,0,0,0,0,0,0,0,0,0,0,0,0,0,0,0,0,0,0,0,0,0,0,0,0,0,0,0,0,0,0,0,0,0,0,0,0,0,0,0,0,0,0,0,0],"sum_hessian":[8.1179775E3,2.3974016E2,7.8782373E3,7.426282E1,1.6547734E2,7.368309E3,5.0992822E2,6.650558E0,6.761226E1,1.2734356E2,3.813378E1,7.3538574E3,1.4451863E1,2.519995E1,4.8472827E2,5.253166E0,1.3973918E0,6.403486E1,3.5774033E0,2.1180243E0,1.2522554E2,1.3535284E1,2.4598497E1,6.167144E0,7.34769E3,9.291584E0,5.160279E0,1.6793945E1,8.406003E0,4.7998E2,4.748264E0,4.077239E0,1.1759274E0,1.3985116E0,6.2636345E1,1.4728075E0,2.1045957E0,1.2049632E2,4.729214E0,1.2354093E1,1.1811912E0,1.989816E1,4.700337E0,3.0757565E0,3.0913873E0,1.9380418E0,7.345752E3,1.3045427E1,3.7485185E0,7.237931E0,1.1680725E0,4.7721103E2,2.768986E0,3.5723293E0,1.1759346E0,6.0958614E1,1.677733E0,1.1887842E2,1.6179023E0,3.0452178E0,1.6839964E0,2.3644714E0,1.753369E1,1.194164E0,3.5061727E0,1.2450196E1,7.333302E3,1.6314149E0,2.1171036E0,4.4075006E2,3.6460953E1,1.1536493E0,1.6153367E0,5.979008E1,1.1685318E0,1.1481261E0,1.1773029E2,2.3886192E0,1.514507E1,1.905236E0,1.054496E1,7.2385034E3,9.479847E1,7.212355E0,4.3353772E2,1.4878674E1,2.1582277E1,5.8614616E1,1.175465E0,1.16564415E2,1.1658814E0,1.1794797E0,1.2091395E0,2.1040373E0,1.3041033E1,7.138785E3,9.971833E1,8.370472E1,1.1093749E1,2.5928793E0,4.619476E0,3.4957745E0,4.3004193E2,9.667962E0,5.210712E0,1.9937521E1,1.644757E0],"tree_param":{"num_deleted":"0","num_feature":"384","num_nodes":"107","size_leaf_vector":"0"}},{"base_weights":[-1.2782885E0,-3.7290806E-1,-1.3066715E0,8.671842E-1,-1.0686519E0,-1.3240005E0,-1.0731347E0,-5.4537797E-1,1.1650172E0,-1.2522023E0,-3.8249534E-1,-1.3259336E0,-3.458638E-1,2.7258564E-2,-1.1751808E0,-1.060911E0,5.2072877E-1,-8.1451005E-1,1.2138524E0,-1.2807344E0,3.770182E-2,-9.908048E-1,3.1102863E-1,9.844982E-2,-1.3270401E0,-1.2240816E0,1.1475036E0,9.492716E-1,-8.9123416E-1,-1.2133582E0,5.346083E-1,2.2194813E-1,-1.2897778E0,1.0348004E0,-5.781481E-1,-1.3772386E-1,1.258242E0,-1.313074E0,-1.737228E-1,7.5798625E-1,-7.4573576E-1,-1.3443402E0,-2.3793538E-1,9.2872214E-1,-3.4264457E-1,-9.88749E-1,1.0337961E0,1.5339407E-1,-1.3275373E0,1.1777476E0,-7.0142055E-1,-1.2607261E0,3.3958265E-1,-1.2289463E0,7.560185E-1,-1.0158377E0,1.2786012E0,1.2939881E0,9.734127E-2,-4.9750584E-1,-1.3292513E0,7.678331E-1,-9.279624E-1,5.5014414E-1,-1.0383552E0,1.1469302E0,-2.096564E-1,-9.146774E-1,8.8574314E-1,-1.3306831E0,-1.0962092E0,1.3696396E0,-1.07478626E-1,-2.8840262E-1,-1.3078684E0,-9.1461766E-1,1.0218087E0,-5.640577E-1,-1.2707763E0,-3.8685706E-1,1.3775243E0,-2.6681194E-1,1.6237298E0,6.414653E-1,1.3361613E0,2.6510656E-1,-9.076811E-1,-2.217124E-1,-1.3387045E0,1.0630312E0,-4.3877715E-1,1.295795E0,1.6191845E-1,1.4142293E-1,-1.16828E0,-1.3333392E0,-1.1210808E0,-1.3811384E-1,-1.2478092E0,1.832191E-1,1.5098957E0,7.597617E-1,-8.2792205E-1,6.1921173E-1,-1.0247333E0,3.4911683E-1,-1.2823402E0,1.0451136E0,-4.7718287E-1,1.3526846E0,2.471098E-1,-1.347835E0,-2.638104E-1,-1.3372978E0,-1.2258296E0,2.7453753E-1,-1.2665498E0,-1.1060597E0,9.6392304E-1,4.517481E-1,-1.2831103E0,1.5582848E0,4.3825504E-1,1.1835309E0,-6.609524E-1,8.685827E-1,-1.2340935E0,1.2095546E0,-7.377626E-1,5.66908E-1,-1.2893859E0],"categories":[],"categories_nodes":[],"categories_segments":[],"categories_sizes":[],"default_left":[1,1,1,1,1,1,1,1,1,1,1,1,1,1,1,1,1,0,1,1,1,1,1,1,1,0,0,1,1,1,1,0,0,0,0,0,1,1,1,0,0,0,1,1,1,0,0,0,1,1,0,1,1,1,1,0,1,1,0,1,1,0,0,1,0,1,0,1,0,1,1,1,1,0,0,0,0,1,1,0,0,0,0,1,1,0,0,0,1,0,0,0,0,0,0,1,1,1,1,0,1,0,0,1,1,1,1,0,0,0,0,0,0,0,0,0,0,0,0,0,0,0,0,0,0,0,0,0,0,0,0],"id":2,"left_children":[1,3,5,7,9,11,13,15,17,19,21,23,25,27,29,31,33,-1,35,37,39,41,43,45,47,-1,-1,49,51,53,55,-1,-1,-1,-1,-1,57,59,61,-1,-1,-1,63,65,67,-1,-1,-1,69,71,-1,73,75,77,79,-1,81,83,-1,85,87,-1,-1,89,-1,91,-1,93,-1,95,97,99,101,-1,-1,-1,-1,103,105,-1,-1,-1,-1,107,109,-1,-1,-1,111,-1,-1,-1,-1,-1,-1,113,115,117,119,-1,121,-1,-1,123,125,127,129,-1,-1,-1,-1,-1,-1,-1,-1,-1,-1,-1,-1,-1,-1,-1,-1,-1,-1,-1,-1,-1,-1,-1,-1],"loss_changes":[1.7443945E2,1.8065652E2,2.5288086E1,3.2365257E1,1.6384094E1,1.1150391E1,5.1817566E1,8.14489E0,7.0408554E0,3.9198456E0,1.2836955E1,9.787109E0,1.9060682E1,3.481813E1,2.8198608E1,3.1168041E0,3.5207677E0,0E0,3.86306E0,3.4574432E0,2.3980494E0,3.954691E0,6.2285914E0,6.8055153E0,4.709961E0,0E0,0E0,8.558861E0,9.801872E0,1.3612305E1,1.2732923E1,0E0,0E0,0E0,0E0,0E0,2.3491058E0,6.563873E-1,3.606099E0,0E0,0E0,0E0,4.5747123E0,2.17692E0,6.320817E0,0E0,0E0,0E0,2.9960938E0,4.6811256E0,0E0,3.5918617E-1,5.6806803E0,1.0694092E1,3.2772462E0,0E0,4.241946E0,7.3295593E-1,0E0,1.3481685E0,7.2224426E-1,0E0,0E0,2.4200225E0,0E0,7.720804E-1,0E0,1.7300515E0,0E0,1.8642578E0,1.2579498E1,2.3971825E0,2.7005289E0,0E0,0E0,0E0,0E0,1.4852109E1,7.66333E0,0E0,0E0,0E0,0E0,2.9510596E0,6.2574005E-1,0E0,0E0,0E0,5.896301E-1,0E0,0E0,0E0,0E0,0E0,0E0,8.9453125E-1,1.6951248E1,1.5059667E1,5.1198883E0,0E0,5.506134E-2,0E0,0E0,6.5127068E0,8.662712E0,4.1808014E0,5.717102E0,0E0,0E0,0E0,0E0,0E0,0E0,0E0,0E0,0E0,0E0,0E0,0E0,0E0,0E0,0E0,0E0,0E0,0E0,0E0,0E0,0E0,0E0,0E0,0E0],"parents":[2147483647,0,0,1,1,2,2,3,3,4,4,5,5,6,6,7,7,8,8,9,9,10,10,11,11,12,12,13,13,14,14,15,15,16,16,18,18,19,19,20,20,21,21,22,22,23,23,24,24,27,27,28,28,29,29,30,30,36,36,37,37,38,38,42,42,43,43,44,44,48,48,49,49,51,51,52,52,53,53,54,54,56,56,57,57,59,59,60,60,63,63,65,65,67,67,69,69,70,70,71,71,72,72,77,77,78,78,83,83,84,84,88,88,95,95,96,96,97,97,98,98,100,100,103,103,104,104,105,105,106,106],"right_children":[2,4,6,8,10,12,14,16,18,20,22,24,26,28,30,32,34,-1,36,38,40,42,44,46,48,-1,-1,50,52,54,56,-1,-1,-1,-1,-1,58,60,62,-1,-1,-1,64,66,68,-1,-1,-1,70,72,-1,74,76,78,80,-1,82,84,-1,86,88,-1,-1,90,-1,92,-1,94,-1,96,98,100,102,-1,-1,-1,-1,104,106,-1,-1,-1,-1,108,110,-1,-1,-1,112,-1,-1,-1,-1,-1,-1,114,116,118,120,-1,122,-1,-1,124,126,128,130,-1,-1,-1,-1,-1,-1,-1,-1,-1,-1,-1,-1,-1,-1,-1,-1,-1,-1,-1,-1,-1,-1,-1,-1],"split_conditions":[-2.2063713E0,-1.0459253E0,1.5231993E0,1.1366348E0,1.870622E0,3.7362149E0,-1.5031528E0,1.7411993E0,-1.7588574E-1,1.9398136E0,3.322145E-1,-3.6319256E0,8.6901474E-1,-1.3465267E0,1.4673281E0,-7.4054015E-1,-5.7980806E-1,-2.4435303E-1,8.533552E-3,1.9028406E0,-1.9415195E-1,-2.0951213E-2,-3.432874E-1,4.405582E-1,-3.987113E0,-3.672245E-1,3.442511E-1,4.3906713E-1,1.2409188E0,2.1268296E0,2.000088E-1,6.6584446E-2,-3.8693336E-1,3.1044012E-1,-1.7344445E-1,-4.131716E-2,4.811816E-1,-8.8336486E-1,-6.6374606E-1,2.2739588E-1,-2.2372074E-1,-4.0330207E-1,-1.06176324E-1,5.143501E-1,1.2432287E0,-2.9662472E-1,3.1013882E-1,4.6018224E-2,2.5308924E0,-1.2125623E-1,-2.1042617E-1,-1.4140422E0,9.313642E-1,-2.03223E0,4.301953E-1,-3.047513E-1,1.1843979E0,-3.946664E-1,2.9202381E-2,1.3126439E-1,-1.1036425E0,2.3034994E-1,-2.7838874E-1,-8.007236E-1,-3.1150657E-1,-5.995201E-1,-6.289692E-2,-4.6816457E-2,2.6572296E-1,2.2504194E0,-1.3353136E0,-4.8190433E-1,-3.3167782E-1,-8.652079E-2,-3.9236054E-1,-2.743853E-1,3.0654263E-1,-1.6926208E-1,-1.6298425E0,-1.1605712E-1,4.132573E-1,-8.0043584E-2,4.8711896E-1,8.6234057E-1,2.0555625E0,7.953197E-2,-2.7230436E-1,-6.6513725E-2,2.8407001E0,3.1890938E-1,-1.3163315E-1,3.887385E-1,4.8575535E-2,4.242688E-2,-3.50484E-1,2.3411803E0,-6.009035E-1,2.0617864E-1,-2.989447E0,5.4965734E-2,1.770616E0,2.2792852E-1,-2.4837662E-1,-6.665598E-2,-7.0865285E-1,5.459734E-1,-4.1408067E0,3.1353408E-1,-1.4315486E-1,4.058054E-1,7.413294E-2,-4.043505E-1,-7.914312E-2,-4.0118936E-1,-3.677489E-1,8.2361266E-2,-3.7996498E-1,-3.3181792E-1,2.891769E-1,1.3552444E-1,-3.8493308E-1,4.6748546E-1,1.3147652E-1,3.550593E-1,-1.9828573E-1,2.6057482E-1,-3.7022808E-1,3.6286637E-1,-2.2132878E-1,1.700724E-1,-3.868158E-1],"split_indices":[258,354,375,294,375,352,347,344,290,98,264,345,265,354,281,140,86,0,342,344,3,293,229,77,366,0,0,298,356,326,48,0,0,0,0,0,191,14,60,0,0,0,355,284,248,0,0,0,344,276,0,319,366,336,50,0,260,323,0,200,99,0,0,18,0,55,0,89,0,305,258,221,23,0,0,0,0,303,296,0,0,0,0,176,105,0,0,0,109,0,0,0,0,0,0,337,352,310,354,0,173,0,0,369,288,68,275,0,0,0,0,0,0,0,0,0,0,0,0,0,0,0,0,0,0,0,0,0,0,0,0],"split_type":[0,0,0,0,0,0,0,0,0,0,0,0,0,0,0,0,0,0,0,0,0,0,0,0,0,0,0,0,0,0,0,0,0,0,0,0,0,0,0,0,0,0,0,0,0,0,0,0,0,0,0,0,0,0,0,0,0,0,0,0,0,0,0,0,0,0,0,0,0,0,0,0,0,0,0,0,0,0,0,0,0,0,0,0,0,0,0,0,0,0,0,0,0,0,0,0,0,0,0,0,0,0,0,0,0,0,0,0,0,0,0,0,0,0,0,0,0,0,0,0,0,0,0,0,0,0,0,0,0,0,0],"sum_hessian":[6.806173E3,2.0731317E2,6.59886E3,7.442025E1,1.3289291E2,6.138686E3,4.6017368E2,1.2814153E1,6.1606102E1,1.041952E2,2.869771E1,6.1262236E3,1.24624605E1,3.9115273E1,4.210584E2,8.640684E0,4.1734686E0,1.105753E0,6.0500347E1,1.0194729E2,2.2479155E0,1.5059737E1,1.3637973E1,4.687195E0,6.1215366E3,7.961054E0,4.5014067E0,1.9503506E1,1.9611767E1,4.1214606E2,8.912324E0,1.3127271E0,7.3279567E0,2.883046E0,1.2904226E0,1.8569582E0,5.864339E1,9.8872734E1,3.074552E0,1.1880872E0,1.0598283E0,9.713032E0,5.346706E0,6.795623E0,6.8423505E0,2.1412365E0,2.5459583E0,1.9519246E0,6.1195845E3,1.7383877E1,2.1196284E0,1.5064958E1,4.5468082E0,4.0928244E2,2.8636167E0,2.771423E0,6.140901E0,5.6780384E1,1.8630068E0,2.5406635E0,9.633207E1,1.3594537E0,1.7150984E0,2.8516757E0,2.4950302E0,5.6962376E0,1.099385E0,4.8426294E0,1.999721E0,6.0327905E3,8.679397E1,1.5068395E1,2.3154824E0,1.0257752E0,1.4039183E1,1.4818844E0,3.0649242E0,2.5082357E1,3.842001E2,1.1417049E0,1.7219117E0,1.1624804E0,4.9784207E0,4.431074E0,5.2349308E1,1.012277E0,1.5283866E0,1.0222182E0,9.530985E1,1.8284444E0,1.0232315E0,4.674299E0,1.0219392E0,1.0233489E0,3.8192804E0,5.952008E3,8.078302E1,1.2118359E1,7.4675606E1,1.8368524E0,1.3231543E1,1.0259321E0,1.2895503E0,6.932285E0,1.8150072E1,2.5163226E0,3.8168378E2,3.3044472E0,1.1266273E0,5.132847E1,1.0208408E0,9.4255295E1,1.0545578E0,5.729598E3,2.2240947E2,7.541666E0,7.3241356E1,6.4497423E0,5.668616E0,1.2794597E0,7.339615E1,1.2225403E1,1.0061395E0,4.8637443E0,2.0685403E0,1.4936578E0,1.6656414E1,1.3414682E0,1.1748544E0,1.1471065E0,3.8053668E2],"tree_param":{"num_deleted":"0","num_feature":"384","num_nodes":"131","size_leaf_vector":"0"}},{"base_weights":[-1.1594712E0,-1.1911229E0,-4.260951E-1,-9.824144E-1,-1.2094127E0,6.9269747E-1,-9.0473324E-1,-1.1049806E0,-2.510281E-1,-1.2113156E0,-2.566241E-1,9.872127E-1,-6.2944007E-1,-1.1413673E0,-3.828151E-1,-1.1556642E0,-3.418374E-1,-6.735128E-1,1.1540074E0,-1.2140026E0,-5.62414E-1,-1.0835758E0,1.0173982E0,1.0923332E0,-6.4165026E-1,-1.0321472E0,4.8623323E-1,-1.1611459E0,4.133821E-1,3.0279866E-1,-1.0757753E0,-1.1854607E0,-3.8765758E-1,-8.2698274E-1,1.0046772E0,1.06657706E-1,-9.80887E-1,-7.285051E-3,1.799442E0,-1.2176436E0,-1.0276117E0,1.3718724E0,-1.1157471E0,-2.5477004E-1,1.1411482E0,8.739441E-2,-9.2165023E-1,-1.1431949E0,-6.603637E-2,-5.083965E-1,1.1132832E0,-3.8088334E-1,-1.204044E0,8.5266685E-1,-2.5420454E-1,2.1689275E-1,-1.1720409E0,-3.889444E-1,-1.2011621E0,1.1085138E0,-9.988134E-1,9.082271E-1,-1.1172141E0,1.3639028E0,-4.6393842E-1,9.878163E-1,-8.396134E-1,-1.1190909E0,1.8234603E-1,-5.5001885E-1,1.2135558E0,9.665059E-1,2.1843693E0,-1.222835E0,-1.1122398E0,5.6906784E-1,-1.1716194E0,1.5122381E0,4.0031058E-1,-1.1645677E0,-1.5729147E-1,1.2227104E0,1.6264234E-1,8.359677E-1,-9.169205E-1,-1.2146671E0,-8.517625E-2,1.0206375E0,-5.379323E-1,5.697252E-1,-6.013528E-1,-2.4492317E-1,-1.2079278E0,8.1678915E-1,-1.0252492E0,1.5356344E-1,-1.2083048E0,-2.323557E-1,1.563805E0,1.21081375E-1,-1.1409312E0,1.4171942E0,-9.432174E-2,4.431472E-1,-1.2637805E0,1.6922376E0,6.338325E-2,-4.0561816E-1,1.4268689E0,-5.6676432E-2,-1.0694916E0,4.703145E-1,-1.1965954E0,1.3256185E0,-8.8274723E-1,-9.844492E-1,3.0583993E-1,2.4338233E0,7.452406E-1,-1.2232549E0,-2.6639763E-1,2.5169176E-1,-1.1696763E0,2.0377572E0,-6.990877E-1,1.588997E-1,-1.2039815E0,2.9406983E-1,1.2494646E0,7.4102443E-1,-1.0597126E0,-2.0051947E-1,-1.2241337E0,-1.7831126E-1,1.1929363E0,1.0462942E0,-4.5961133E-1,-9.7454906E-1,3.8668698E-1,-4.707585E-1,1.7346727E0,7.8557305E-2,-1.2139223E0,-6.747578E-2,1.7533983E0,-2.610656E-1,-1.220141E0,-3.8073263E-1,-1.2236437E0,-6.823306E-1,3.3009386E-1,1.703778E0,-1.038455E0,-1.1871134E0,1.0103259E0,-2.4436872E-1,3.0419102E0,-9.615855E-1,2.2222054E-1,-1.2149813E0,-1.7016298E-1,1.268418E0,2.8699958E-1,1.6238719E-1,8.763895E-1,-2.9826277E-1,-1.2327057E0,1.3395725E0,-1.6406558E-2,1.1904235E-1,-1.1646246E0,-3.1867108E-1,8.098691E-1],"categories":[],"categories_nodes":[],"categories_segments":[],"categories_sizes":[],"default_left":[1,1,1,1,1,1,1,1,1,1,1,1,1,1,1,1,1,1,1,1,1,0,0,1,1,1,1,1,0,1,1,1,1,1,1,1,1,1,1,1,1,1,1,0,1,0,0,0,0,0,0,1,1,1,1,0,1,1,1,1,1,1,1,1,0,1,1,1,1,1,0,0,1,1,1,1,1,0,0,0,0,1,1,0,0,1,0,1,0,1,1,0,0,1,0,0,1,0,0,0,0,0,0,0,0,0,0,0,1,0,0,0,1,0,0,0,0,0,0,1,1,1,1,1,1,0,1,0,1,1,0,0,1,0,1,0,0,1,1,0,0,0,0,0,0,0,0,0,0,0,0,0,0,0,0,0,0,0,0,0,0,0,0,0,0,0,0,0,0,0,0,0,0],"id":3,"left_children":[1,3,5,7,9,11,13,15,17,19,21,23,25,27,29,31,33,35,37,39,41,-1,-1,43,45,47,49,51,-1,53,55,57,59,61,63,65,67,69,71,73,75,77,79,-1,81,-1,-1,-1,-1,-1,-1,83,85,87,89,-1,91,93,95,97,99,101,103,105,-1,107,109,111,113,115,-1,-1,117,119,121,123,125,-1,-1,-1,-1,127,129,-1,-1,131,-1,133,-1,135,137,-1,-1,139,-1,-1,141,-1,-1,-1,-1,-1,-1,-1,-1,-1,-1,-1,143,-1,-1,-1,145,-1,-1,-1,-1,-1,-1,147,149,151,153,155,157,-1,159,-1,161,163,-1,-1,165,-1,167,-1,-1,169,171,-1,-1,-1,-1,-1,-1,-1,-1,-1,-1,-1,-1,-1,-1,-1,-1,-1,-1,-1,-1,-1,-1,-1,-1,-1,-1,-1,-1,-1,-1,-1,-1,-1,-1],"loss_changes":[1.26631836E2,1.885205E1,1.22808395E2,3.811972E1,8.433105E0,2.7462597E1,1.9352509E1,1.3783081E1,3.803892E1,7.7089844E0,1.2566827E1,1.0420273E1,6.4182477E0,3.8546753E0,2.4788948E1,7.3967896E0,1.6671467E1,1.182905E1,1.1166286E1,2.0009766E0,2.4767174E1,0E0,0E0,3.8214645E0,9.116006E-1,9.969244E-1,3.168172E0,3.177353E0,0E0,8.382962E0,3.4681854E0,3.6599731E0,1.4190344E1,1.0268343E1,4.259335E0,1.3103344E1,5.858341E0,4.8495684E0,9.565964E-1,1.2089844E0,2.3251488E1,1.14364624E-1,6.325321E-1,0E0,3.9509583E0,0E0,0E0,0E0,0E0,0E0,0E0,5.4131427E0,1.1148682E0,3.7366848E0,4.351474E0,0E0,5.091057E-1,6.8664613E0,3.312378E0,3.1859417E0,1.8386583E0,1.7586279E0,4.2626457E0,2.3595562E0,0E0,5.5231495E0,1.3141513E0,4.4525642E0,6.7653093E0,2.1814923E0,0E0,0E0,2.506218E-1,1.4672852E0,1.8424713E1,1.781309E1,4.084816E0,0E0,0E0,0E0,0E0,8.21228E-1,4.4291587E0,0E0,0E0,7.286682E-1,0E0,2.7993393E0,0E0,2.770904E0,4.192306E0,0E0,0E0,4.6825066E0,0E0,0E0,2.419983E0,0E0,0E0,0E0,0E0,0E0,0E0,0E0,0E0,0E0,0E0,0E0,3.2249823E0,0E0,0E0,0E0,3.5089493E-1,0E0,0E0,0E0,0E0,0E0,0E0,9.9609375E-1,1.0285515E0,2.0831133E1,9.648071E0,1.067198E1,1.5357025E0,0E0,7.984619E-1,0E0,4.7865295E-1,1.7781949E-1,0E0,0E0,4.2860413E-1,0E0,1.9864874E0,0E0,0E0,1.7588844E0,1.318574E0,0E0,0E0,0E0,0E0,0E0,0E0,0E0,0E0,0E0,0E0,0E0,0E0,0E0,0E0,0E0,0E0,0E0,0E0,0E0,0E0,0E0,0E0,0E0,0E0,0E0,0E0,0E0,0E0,0E0,0E0,0E0,0E0,0E0,0E0],"parents":[2147483647,0,0,1,1,2,2,3,3,4,4,5,5,6,6,7,7,8,8,9,9,10,10,11,11,12,12,13,13,14,14,15,15,16,16,17,17,18,18,19,19,20,20,23,23,24,24,25,25,26,26,27,27,29,29,30,30,31,31,32,32,33,33,34,34,35,35,36,36,37,37,38,38,39,39,40,40,41,41,42,42,44,44,51,51,52,52,53,53,54,54,56,56,57,57,58,58,59,59,60,60,61,61,62,62,63,63,65,65,66,66,67,67,68,68,69,69,72,72,73,73,74,74,75,75,76,76,81,81,82,82,85,85,87,87,89,89,90,90,93,93,96,96,108,108,112,112,119,119,120,120,121,121,122,122,123,123,124,124,126,126,128,128,129,129,132,132,134,134,137,137,138,138],"right_children":[2,4,6,8,10,12,14,16,18,20,22,24,26,28,30,32,34,36,38,40,42,-1,-1,44,46,48,50,52,-1,54,56,58,60,62,64,66,68,70,72,74,76,78,80,-1,82,-1,-1,-1,-1,-1,-1,84,86,88,90,-1,92,94,96,98,100,102,104,106,-1,108,110,112,114,116,-1,-1,118,120,122,124,126,-1,-1,-1,-1,128,130,-1,-1,132,-1,134,-1,136,138,-1,-1,140,-1,-1,142,-1,-1,-1,-1,-1,-1,-1,-1,-1,-1,-1,144,-1,-1,-1,146,-1,-1,-1,-1,-1,-1,148,150,152,154,156,158,-1,160,-1,162,164,-1,-1,166,-1,168,-1,-1,170,172,-1,-1,-1,-1,-1,-1,-1,-1,-1,-1,-1,-1,-1,-1,-1,-1,-1,-1,-1,-1,-1,-1,-1,-1,-1,-1,-1,-1,-1,-1,-1,-1,-1,-1],"split_conditions":[2.0083988E0,-1.2964518E0,-9.486501E-1,4.650378E-1,3.7362149E0,-5.1359665E-1,6.946485E-1,2.1946893E0,1.1285813E0,3.235253E0,7.167689E-1,-9.0686023E-1,1.308849E0,2.0980191E0,-7.5915194E-1,1.5968012E0,5.3331983E-1,-2.0034067E-1,-2.4925238E-2,2.721847E0,-8.723712E-1,-3.2507277E-1,3.0521947E-1,-2.1486476E-1,-1.9202183E-1,5.379367E-1,1.0921781E0,-1.0353115E0,1.2401464E-1,8.67426E-3,-1.2436806E0,-1.8884445E0,-7.807938E-1,-1.8500016E0,-6.802723E-1,-1.5244445E-1,2.4000063E0,-6.057328E-1,-2.295495E0,1.0569632E0,-7.25176E-1,1.059328E-1,1.7045004E0,-7.643101E-2,2.0380182E0,2.6218323E-2,-2.7649507E-1,-3.4295848E-1,-1.9810913E-2,-1.5251896E-1,3.3398497E-1,-1.9627005E-2,2.7342803E0,5.2231E-1,-7.883537E-1,6.506783E-2,-1.7363567E0,-9.7501594E-1,-1.8262854E0,5.1177156E-1,-1.3609581E0,5.184104E-1,-1.5956823E0,1.2228926E0,-1.3918152E-1,-1.6519052E-1,-8.6558187E-1,-7.922349E-1,-5.685977E-1,-2.5707978E-1,3.6406675E-1,2.8995177E-1,1.5247602E0,3.8272314E0,-1.7804734E0,-6.6956925E-1,-6.96954E-1,4.5367146E-1,1.20093174E-1,-3.4937033E-1,-4.7187444E-2,-1.7818236E0,-5.409929E-1,2.5079033E-1,-2.7507615E-1,-2.0949278E0,-2.5552876E-2,-1.4021496E-1,-1.613797E-1,5.086724E-1,1.368267E0,-7.3476955E-2,-3.6237836E-1,-1.351841E0,-3.0757478E-1,4.6069033E-2,-1.3411837E0,-6.9706716E-2,4.691415E-1,3.6324415E-2,-3.4227937E-1,4.251583E-1,-2.8296525E-2,1.3294417E-1,-3.7913415E-1,5.076713E-1,1.9014977E-2,-1.2168545E-1,-4.696344E-1,-1.700293E-2,-3.208475E-1,1.4109436E-1,-6.677021E-1,3.9768556E-1,-2.6482418E-1,-2.953348E-1,9.175198E-2,7.30147E-1,2.235722E-1,-3.364986E0,-1.12661935E-1,-1.5970743E-1,1.8859968E0,4.8457217E-1,2.8366548E-1,4.766991E-2,2.076057E0,8.8220954E-2,9.6453094E-1,-1.5829656E0,-3.179138E-1,-6.0155842E-2,-2.0309653E0,-5.349338E-2,6.2187696E-1,3.1388828E-1,-1.3788341E-1,-8.226897E-2,-5.243272E-1,-1.4122756E-1,5.2040184E-1,2.3567192E-2,-3.641767E-1,-2.0242736E-2,5.260195E-1,-7.831968E-2,-3.6604232E-1,-1.1421979E-1,-3.6709312E-1,-2.0469919E-1,9.902816E-2,5.1113343E-1,-3.1153652E-1,-3.5613403E-1,3.0309778E-1,-7.331062E-2,9.125731E-1,-2.8847566E-1,6.666616E-2,-3.644944E-1,-5.1048893E-2,3.805254E-1,8.609988E-2,4.871616E-2,2.6291686E-1,-8.9478835E-2,-3.698117E-1,4.0187177E-1,-4.9219676E-3,3.5712708E-2,-3.4938738E-1,-9.560133E-2,2.4296074E-1],"split_indices":[375,258,281,128,352,273,382,344,294,257,265,354,379,29,330,294,294,277,271,337,274,0,0,280,227,340,252,246,0,378,27,163,358,328,317,378,344,208,258,307,324,71,48,0,344,0,0,0,0,0,0,219,16,189,343,0,72,336,296,366,330,346,311,294,0,268,358,293,288,47,0,0,259,100,296,86,288,0,0,0,0,362,253,0,0,86,0,379,0,320,356,0,0,46,0,0,18,0,0,0,0,0,0,0,0,0,0,0,277,0,0,0,149,0,0,0,0,0,0,354,27,318,366,278,27,0,61,0,118,79,0,0,313,0,327,0,0,264,82,0,0,0,0,0,0,0,0,0,0,0,0,0,0,0,0,0,0,0,0,0,0,0,0,0,0,0,0,0,0,0,0,0,0],"split_type":[0,0,0,0,0,0,0,0,0,0,0,0,0,0,0,0,0,0,0,0,0,0,0,0,0,0,0,0,0,0,0,0,0,0,0,0,0,0,0,0,0,0,0,0,0,0,0,0,0,0,0,0,0,0,0,0,0,0,0,0,0,0,0,0,0,0,0,0,0,0,0,0,0,0,0,0,0,0,0,0,0,0,0,0,0,0,0,0,0,0,0,0,0,0,0,0,0,0,0,0,0,0,0,0,0,0,0,0,0,0,0,0,0,0,0,0,0,0,0,0,0,0,0,0,0,0,0,0,0,0,0,0,0,0,0,0,0,0,0,0,0,0,0,0,0,0,0,0,0,0,0,0,0,0,0,0,0,0,0,0,0,0,0,0,0,0,0,0,0,0,0,0,0],"sum_hessian":[5.476163E3,5.248998E3,2.271651E2,4.273326E2,4.8216655E3,6.793147E1,1.5923363E2,3.6556085E2,6.1771736E1,4.8117837E3,9.881633E0,5.5763165E1,1.2168308E1,1.087433E2,5.049032E1,3.4231213E2,2.324874E1,4.7891674E1,1.388006E1,4.7910737E3,2.071018E1,6.0828295E0,3.7988033E0,5.2692017E1,3.071147E0,8.996021E0,3.172287E0,1.076273E2,1.11601E0,2.5662708E1,2.482761E1,3.2900412E2,1.3307998E1,1.7374567E1,5.8741713E0,1.3720247E1,3.417143E1,5.3117156E0,8.568345E0,4.693851E3,9.7222786E1,4.27762E0,1.6432562E1,1.695092E0,5.0996925E1,1.0430924E0,2.0280547E0,7.904193E0,1.0918281E0,1.2997856E0,1.8725014E0,6.123697E0,1.0150359E2,1.264695E1,1.3015758E1,1.6339303E0,2.319368E1,6.858365E0,3.2214575E2,3.6235008E0,9.684497E0,2.184536E0,1.5190031E1,4.7770085E0,1.097163E0,7.0818195E0,6.6384273E0,3.0576569E1,3.5948596E0,4.0574303E0,1.254285E0,3.817853E0,4.750492E0,4.463418E3,2.3043307E2,7.7990794E0,8.9423706E1,3.251377E0,1.0262426E0,1.5431486E1,1.0010753E0,4.684283E1,4.154096E0,1.7015338E0,4.422163E0,1.0046412E2,1.0394735E0,1.1521331E1,1.1256182E0,3.668262E0,9.347496E0,1.1559219E0,2.2037758E1,2.27114E0,4.5872254E0,1.5820404E0,3.2056372E2,1.0426036E0,2.5808973E0,1.10726E0,8.577237E0,1.1746211E0,1.0099149E0,1.1305503E0,1.4059481E1,3.5736005E0,1.203408E0,1.7150059E0,5.366814E0,1.7896503E0,4.848777E0,1.1860336E0,2.9390535E1,1.6158264E0,1.9790332E0,2.5916648E0,1.4657656E0,3.4596324E0,1.2908596E0,4.4611797E3,2.2378745E0,9.174971E0,2.212581E2,3.3326125E0,4.466467E0,2.0305557E0,8.739315E1,1.6475588E0,4.519527E1,3.0871308E0,1.0669653E0,1.1342629E0,9.932986E1,1.4432836E0,1.0078048E1,2.4961183E0,1.1721436E0,6.7946987E0,2.552797E0,1.1479691E0,1.1231709E0,1.3368546E0,3.1922687E2,1.1046761E0,4.262138E0,1.0183024E0,2.8372232E1,2.5099602E0,4.45867E3,1.2337058E0,1.0041687E0,4.165739E0,5.009232E0,2.1995421E2,1.3038924E0,1.2495097E0,2.083103E0,3.4420462E0,1.0244206E0,8.629969E1,1.0934644E0,4.4010708E1,1.1845638E0,1.0022966E0,2.084834E0,1.2395567E0,9.80903E1,8.892161E0,1.1858867E0,1.0614432E0,5.7332554E0,1.04986E0,1.5029371E0],"tree_param":{"num_deleted":"0","num_feature":"384","num_nodes":"173","size_leaf_vector":"0"}},{"base_weights":[-1.0809481E0,-1.1163704E0,-4.451984E-1,-9.074664E-1,-1.1345227E0,5.8834577E-1,-8.3414257E-1,-9.8467445E-1,1.819676E-2,-1.1364286E0,-2.2650416E-1,-4.6218237E-1,9.2520577E-1,-1.0582029E0,-3.2597277E-1,4.5685622E-1,-1.0163195E0,-6.7093563E-1,1.0270993E0,-1.1389416E0,-6.623158E-1,-9.891669E-1,9.1910386E-1,2.0836985E-1,-1.116661E0,-8.428162E-1,1.0075126E0,-1.0755126E0,3.8396484E-1,2.2254764E-1,-8.903553E-1,-8.584352E-1,1.1965576E0,6.9485176E-1,-1.0323344E0,-1.058049E0,5.5811E-1,-7.1596676E-1,1.3804692E0,-1.1432263E0,-9.293684E-1,-1.0538584E0,1.2711412E0,-7.0206505E-1,7.7524626E-1,1.0943236E0,2.2454056E-1,1.5837833E-1,-1.0888103E0,-8.102188E-1,4.3257985E-1,-1.038641E0,1.1110572E0,-1.0484557E-1,1.5925052E0,-4.067168E-1,1.5994599E0,-1.0704671E0,-2.9481602E-1,-1.1244653E0,-1.4388248E-1,-7.16236E-1,1.3689038E0,5.7618707E-2,1.6009165E0,-1.0472257E0,-1.1507338E0,4.1046324E-1,-1.0847095E0,-1.1033759E0,-1.1953627E-1,-1.6690539E-1,-8.312984E-1,-2.5421408E-1,1.0490807E0,-1.4609353E-1,1.145071E0,-7.3485756E-1,7.4897206E-1,-1.4696419E-3,-1.1016926E0,-1.8869904E-1,-9.2458963E-1,6.9341254E-1,-3.140032E-1,5.1407456E-2,-1.1344589E0,-1.0937618E0,-1.0395274E-3,6.707929E-1,-9.3393016E-1,1.6592124E-1,1.8567244E0,-1.109834E0,-5.4623358E-2,-1.1512489E0,-2.6051176E-1,-7.7391225E-1,1.3953216E0,1.240602E-1,-1.1226877E0,-9.364625E-2,1.180966E0,1.7586356E-1,8.802331E-1,-1.4930223E-1,-1.1183046E0,9.6373063E-1,-2.9505727E-1,-7.190046E-1,5.1097155E-1,6.0309537E-2,-1.1096934E0,-6.232808E-1,8.234832E-1,-5.4841375E-1,1.2480766E0,-1.093761E0,2.5355035E-1,-4.4166383E-1,-1.1413378E0,1.4048389E0,-1.0094783E0,-1.1515357E0,-1.025541E-1,-6.652767E-1,3.2218662E-1,-9.056823E-1,-1.4429587E-1,2.0137846E0,-6.1227727E-1,-1.1364439E0,-9.3025245E-2,1.202019E0,1.9091137E-1,-3.9893907E-1,-1.141787E0,1.1474073E0,-1.6707046E-1,3.4303376E-1,-8.8296443E-1,-9.582434E-1,1.0786486E-1],"categories":[],"categories_nodes":[],"categories_segments":[],"categories_sizes":[],"default_left":[1,1,1,1,1,1,1,1,1,1,1,1,1,1,1,1,1,1,1,1,1,0,0,1,0,0,1,1,0,1,1,0,1,1,1,1,1,0,1,1,1,1,0,1,1,1,1,0,1,1,1,1,0,0,0,0,0,1,1,0,0,0,1,0,0,1,1,1,1,0,0,0,0,0,0,0,1,0,1,0,1,0,0,1,1,0,0,1,1,1,1,0,0,1,1,1,1,1,1,0,1,0,1,0,0,0,1,1,1,1,0,0,0,0,0,0,0,0,0,0,0,0,0,0,0,0,0,0,0,0,0,0,0,0,0,0,0,0,0,0,0,0,0],"id":4,"left_children":[1,3,5,7,9,11,13,15,17,19,21,23,25,27,29,31,33,35,37,39,41,-1,-1,43,-1,-1,45,47,-1,49,51,-1,53,55,57,59,61,-1,63,65,67,69,-1,71,73,75,77,-1,79,81,83,85,-1,-1,-1,-1,-1,87,89,-1,-1,-1,91,-1,-1,93,95,97,99,-1,-1,-1,-1,-1,-1,-1,101,-1,103,-1,105,-1,-1,107,109,-1,-1,111,113,115,117,-1,-1,119,121,123,125,127,129,-1,131,-1,133,-1,-1,-1,135,137,139,141,-1,-1,-1,-1,-1,-1,-1,-1,-1,-1,-1,-1,-1,-1,-1,-1,-1,-1,-1,-1,-1,-1,-1,-1,-1,-1,-1,-1,-1,-1,-1,-1,-1],"loss_changes":[9.654053E1,1.4446289E1,9.2578705E1,2.3691986E1,6.2338867E0,2.2800861E1,1.8653511E1,1.4412628E1,1.9102512E1,3.7050781E0,8.864652E0,7.262106E0,7.8639755E0,3.2926025E0,1.6451769E1,8.088667E0,8.92514E0,8.365E0,7.852105E0,2.2792969E0,1.8087322E1,0E0,0E0,5.0623984E0,0E0,0E0,2.9160233E0,2.0470428E0,0E0,6.299502E0,8.893229E0,0E0,2.7759748E0,4.0135064E0,8.040924E0,6.1366177E-1,5.7009444E0,0E0,2.709221E0,1.4199219E0,1.707557E1,7.445564E-1,0E0,1.2986982E-1,1.9215417E0,2.7868996E0,3.5193315E0,0E0,1.583435E0,1.7974043E-1,4.782804E0,2.648098E0,0E0,0E0,0E0,0E0,0E0,7.0276794E0,1.0493143E1,0E0,0E0,0E0,1.5320597E0,0E0,0E0,1.7049042E1,1.2446289E0,1.1609364E1,3.4388962E0,0E0,0E0,0E0,0E0,0E0,0E0,0E0,1.89328E0,0E0,1.6946769E-1,0E0,1.6023407E0,0E0,0E0,5.0097475E0,2.625318E0,0E0,0E0,5.1438904E0,4.112705E0,5.5757103E0,2.1825686E0,0E0,0E0,4.9463806E0,2.564831E1,8.9404297E-1,9.785283E-1,2.626996E-1,7.7955027E0,0E0,8.8275146E-1,0E0,5.84198E-1,0E0,0E0,0E0,1.3986206E0,3.1247482E0,2.0147595E0,1.0821962E0,0E0,0E0,0E0,0E0,0E0,0E0,0E0,0E0,0E0,0E0,0E0,0E0,0E0,0E0,0E0,0E0,0E0,0E0,0E0,0E0,0E0,0E0,0E0,0E0,0E0,0E0,0E0,0E0,0E0,0E0,0E0,0E0,0E0],"parents":[2147483647,0,0,1,1,2,2,3,3,4,4,5,5,6,6,7,7,8,8,9,9,10,10,11,11,12,12,13,13,14,14,15,15,16,16,17,17,18,18,19,19,20,20,23,23,26,26,27,27,29,29,30,30,32,32,33,33,34,34,35,35,36,36,38,38,39,39,40,40,41,41,43,43,44,44,45,45,46,46,48,48,49,49,50,50,51,51,57,57,58,58,62,62,65,65,66,66,67,67,68,68,76,76,78,78,80,80,83,83,84,84,87,87,88,88,89,89,90,90,93,93,94,94,95,95,96,96,97,97,98,98,100,100,102,102,106,106,107,107,108,108,109,109],"right_children":[2,4,6,8,10,12,14,16,18,20,22,24,26,28,30,32,34,36,38,40,42,-1,-1,44,-1,-1,46,48,-1,50,52,-1,54,56,58,60,62,-1,64,66,68,70,-1,72,74,76,78,-1,80,82,84,86,-1,-1,-1,-1,-1,88,90,-1,-1,-1,92,-1,-1,94,96,98,100,-1,-1,-1,-1,-1,-1,-1,102,-1,104,-1,106,-1,-1,108,110,-1,-1,112,114,116,118,-1,-1,120,122,124,126,128,130,-1,132,-1,134,-1,-1,-1,136,138,140,142,-1,-1,-1,-1,-1,-1,-1,-1,-1,-1,-1,-1,-1,-1,-1,-1,-1,-1,-1,-1,-1,-1,-1,-1,-1,-1,-1,-1,-1,-1,-1,-1,-1],"split_conditions":[1.8867741E0,-1.2964518E0,-9.288701E-1,1.6714352E0,3.7362149E0,1.1052563E0,6.946485E-1,-1.162376E0,5.395162E-1,2.5198288E0,7.167689E-1,-6.685866E-1,-4.739792E-1,2.12017E0,-6.9188154E-1,-4.909091E-1,-1.292255E0,5.7710814E-1,-8.8966124E-2,2.721847E0,2.5129795E0,-2.967501E-1,2.7573118E-1,7.762348E-2,-3.349983E-1,-2.5284487E-1,2.0380182E0,-2.26821E0,1.15189455E-1,-2.5242138E-1,2.7339287E0,-2.5753057E-1,-4.938622E-1,-4.1722423E-1,2.1930497E0,2.5734646E0,1.389693E-1,-2.1479003E-1,-4.9279964E-1,-1.3491433E0,-7.25176E-1,6.1555797E-1,3.8134238E-1,1.7924088E-1,1.1325011E0,-9.606241E-1,8.2390606E-1,4.7513504E-2,-2.498457E0,6.683229E-1,-2.8159535E-1,-1.2599614E0,3.3331716E-1,-3.1453673E-2,4.7775158E-1,-1.22015044E-1,4.7983798E-1,2.1647468E0,-5.827695E-1,-3.373396E-1,-4.3164745E-2,-2.1487081E-1,-3.7000215E-1,1.7285613E-2,4.8027498E-1,1.1540303E0,3.8272314E0,5.08958E-1,-6.96954E-1,-3.310128E-1,-3.5860885E-2,-5.007162E-2,-2.4938953E-1,-7.6264225E-2,3.1472424E-1,-4.3828063E-2,-1.421109E0,-2.2045727E-1,-7.3055816E-1,-4.408926E-4,-1.1843045E0,-5.6609713E-2,-2.773769E-1,1.7921333E-1,-2.3348382E-1,1.5422237E-2,-3.403377E-1,-2.5395534E0,5.812899E-1,-6.952239E-2,3.7224535E-2,4.9776375E-2,5.570173E-1,-1.4701627E0,-1.2485337E-1,3.6520677E0,9.0281236E-1,3.4508747E-1,2.7732037E-2,3.721806E-2,8.3711684E-1,-2.8093876E-2,2.1072812E0,5.275907E-2,2.6406994E-1,-4.479067E-2,-1.142914E0,4.7327477E-1,1.1640395E0,2.1104057E0,1.5329146E-1,1.8092861E-2,-3.3290803E-1,-1.8698426E-1,2.4704498E-1,-1.6452414E-1,3.7442297E-1,-3.281283E-1,7.606511E-2,-1.3249916E-1,-3.4240133E-1,4.214517E-1,-3.028435E-1,-3.4546074E-1,-3.076623E-2,-1.9958302E-1,9.665599E-2,-2.717047E-1,-4.3288764E-2,6.041354E-1,-1.8368319E-1,-3.4093317E-1,-2.7907575E-2,3.6060572E-1,5.7273414E-2,-1.1968172E-1,-3.4253612E-1,3.442222E-1,-5.012114E-2,1.0291013E-1,-2.6488933E-1,-2.8747305E-1,3.235946E-2],"split_indices":[375,258,281,337,352,379,382,289,294,330,265,348,299,29,330,323,81,278,307,337,257,0,0,341,0,0,344,347,0,379,257,0,308,271,344,374,283,0,321,296,324,362,0,138,345,353,196,0,363,98,336,180,0,0,0,0,0,128,281,0,0,0,1,0,0,307,100,373,288,0,0,0,0,0,0,0,315,0,91,0,299,0,0,14,318,0,0,330,76,270,308,0,0,350,319,45,70,95,293,0,375,0,68,0,0,0,123,300,216,305,0,0,0,0,0,0,0,0,0,0,0,0,0,0,0,0,0,0,0,0,0,0,0,0,0,0,0,0,0,0,0,0,0],"split_type":[0,0,0,0,0,0,0,0,0,0,0,0,0,0,0,0,0,0,0,0,0,0,0,0,0,0,0,0,0,0,0,0,0,0,0,0,0,0,0,0,0,0,0,0,0,0,0,0,0,0,0,0,0,0,0,0,0,0,0,0,0,0,0,0,0,0,0,0,0,0,0,0,0,0,0,0,0,0,0,0,0,0,0,0,0,0,0,0,0,0,0,0,0,0,0,0,0,0,0,0,0,0,0,0,0,0,0,0,0,0,0,0,0,0,0,0,0,0,0,0,0,0,0,0,0,0,0,0,0,0,0,0,0,0,0,0,0,0,0,0,0,0,0],"sum_hessian":[4.308021E3,4.0799412E3,2.280796E2,3.302514E2,3.7496897E3,6.2222538E1,1.6585707E2,3.047675E2,2.5483906E1,3.7415845E3,8.105402E0,1.5017399E1,4.720514E1,1.1435411E2,5.1502964E1,6.258026E0,2.9850946E2,1.5340523E1,1.0143382E1,3.7204614E3,2.1122906E1,4.947964E0,3.1574383E0,7.7542906E0,7.2631083E0,1.6887786E0,4.5516357E1,1.1324907E2,1.1050403E0,2.6425673E1,2.5077291E1,2.1948187E0,4.063207E0,2.374832E0,2.9613464E2,1.1771862E1,3.5686612E0,1.5367843E0,8.606598E0,3.641558E3,7.890326E1,1.7944016E1,3.17889E0,2.8839798E0,4.8703113E0,4.0615513E1,4.9008465E0,1.091155E0,1.1215791E2,3.9829907E0,2.244268E1,2.379533E1,1.2819618E0,1.1193438E0,2.9438634E0,1.3190184E0,1.0558137E0,2.8114676E2,1.4987881E1,1.0760072E1,1.01179E0,1.4330004E0,2.135661E0,1.4095576E0,7.1970406E0,2.743182E2,3.36724E3,8.027029E0,7.087623E1,1.6869047E1,1.0749686E0,1.0067011E0,1.8772787E0,1.0383524E0,3.8319588E0,1.5224917E0,3.909302E1,1.5902985E0,3.3105478E0,1.326273E0,1.1083164E2,1.0308706E0,2.9521203E0,1.6684765E1,5.757916E0,1.9601121E0,2.1835218E1,2.75131E2,6.0157466E0,5.9494925E0,9.038388E0,1.002814E0,1.1328467E0,2.5793115E2,1.638705E1,3.365E3,2.240051E0,3.741613E0,4.285416E0,2.089973E0,6.8786255E1,1.0556082E0,3.8037415E1,1.0529568E0,2.257591E0,2.0712566E0,1.0876038E2,1.3121453E1,3.563312E0,3.94813E0,1.8097862E0,3.7084494E0,2.7142258E2,3.5675216E0,2.448225E0,1.9278785E0,4.021614E0,8.035729E0,1.0026588E0,1.2290013E1,2.4564114E2,6.2946463E0,1.0092404E1,3.3639814E3,1.0184042E0,1.238219E0,1.001832E0,2.7314837E0,1.0101291E0,3.2738037E0,1.0116127E0,6.7777054E1,1.0092031E0,3.703577E1,1.0016408E0,4.0067267E0,1.04753654E2,1.1275312E1,1.8461405E0,1.9084612E0,1.6548508E0,2.9389265E0,1.0092033E0],"tree_param":{"num_deleted":"0","num_feature":"384","num_nodes":"143","size_leaf_vector":"0"}},{"base_weights":[-1.0238203E0,-3.764975E-1,-1.0596516E0,-7.772885E-1,5.028342E-1,-1.0846131E0,-8.6111933E-1,-9.3444395E-1,-1.9027919E-1,8.33584E-1,-5.559E-1,-8.756487E-1,-1.0956607E0,-9.67147E-1,-3.4384063E-1,-1.4410947E-1,-1.0158057E0,5.3793305E-1,-5.042362E-1,9.994562E-1,6.549068E-2,6.0178185E-1,-8.539294E-1,3.2629928E-1,-1.046055E0,-5.7857955E-1,-1.0980072E0,-4.7481555E-1,-1.026195E0,-9.819793E-1,3.1037116E-1,3.349172E-1,-7.6839143E-1,-1.0356627E0,1.4833255E-1,-3.4697953E-1,1.0465028E0,-5.0504208E-2,-8.658395E-1,-4.0609297E-1,1.0524101E0,9.723707E-1,-4.8633796E-1,9.0274113E-1,-6.54376E-2,-1.0384248E0,3.3620638E-1,-7.318231E-1,1.2265085E0,-1.0851974E0,3.5913086E-1,-1.0180899E0,6.487321E-1,-7.1012044E-1,-1.0998863E0,-6.9810563E-1,9.2395216E-1,-1.0496445E0,-5.0766486E-1,4.0524215E-1,-1.0412661E0,-1.847642E-1,1.2563E0,7.822547E-1,-3.5378906E-1,-8.5940325E-1,-2.2358762E-1,-1.0724626E0,-3.192091E-1,-7.367929E-1,3.0553436E-1,1.2758613E0,1.642798E-1,-4.4781244E-1,7.4059093E-1,-9.875924E-1,9.7221576E-2,6.466482E-2,1.1240687E0,-8.9984566E-1,5.580297E-1,7.687649E-1,-1.0213557E0,1.5127975E0,-6.005592E-1,-1.1006386E0,1.8729542E-1,-7.397084E-1,1.5934708E0,1.0658392E0,-2.7160233E-1,1.5294887E0,-1.0457524E0,-1.1007705E0,-4.3785945E-1,4.90278E-1,-9.053874E-1,1.2970963E0,-2.4569082E-1,-1.0689538E0,-4.8874152E-1,-8.281871E-1,1.2514067E0,-1.0820456E0,6.402754E-2,8.3672965E-1,-8.753151E-1,1.593426E0,-6.40448E-1,1.0758797E0,-6.387388E-2,-7.0743525E-1,2.0700361E-1,-1.0834128E0,-1.1936857E-1,-7.752282E-1,6.4215815E-1,5.7802045E-1,-7.4870795E-1,-4.5307167E-2,1.0691568E0,-1.0367332E0,-3.0429134E-1,7.82863E-1,-7.3516154E-1,1.1664373E0,-7.010194E-2,1.7280734E0,-1.3647863E-1,-1.1077646E0,-1.4286618E-1,-6.2375005E-2,-1.1011449E0,6.1937773E-1,-8.57877E-1,-6.2588465E-1,9.972859E-1,5.097893E-1,-1.0052809E0,1.8763423E-1,-1.0751935E0,-9.815158E-1,7.652492E-1,5.000159E-1,-1.0281245E0,-6.2930214E-1,1.1408935E0,4.8663947E-1,-1.0380154E0,2.0425386E0,2.0358548E-1,-1.3924251E-1,-1.0943472E0,-9.3075204E-1,4.4574905E-2,1.1867876E0,3.0204913E-1,3.8438004E-1,1.8632889E0,-1.1128697E0,-2.4502528E-1,-1.1015191E0,-6.67883E-2,1.326765E0,4.07905E-2,1.7512776E-2,-1.0867673E0,-2.8217196E-1,-1.0826181E0,-6.6870654E-1,2.1068523E0,1.457353E0,-2.5657386E-1,2.5893064E0,7.094612E-1,6.47868E-1,-3.3135682E-1],"categories":[],"categories_nodes":[],"categories_segments":[],"categories_sizes":[],"default_left":[1,1,1,1,1,1,1,1,1,1,1,1,1,1,1,1,1,1,1,1,1,1,1,1,1,1,1,1,1,1,1,1,1,1,0,1,1,1,1,0,1,0,1,0,0,0,0,1,1,1,1,0,1,1,1,1,1,1,1,0,1,1,1,1,1,0,0,1,1,0,0,0,0,1,1,1,0,1,1,0,0,0,0,1,0,1,0,0,0,0,0,0,0,1,1,1,1,0,0,1,1,1,0,0,0,1,1,1,0,0,0,0,0,1,0,0,0,0,1,0,0,1,1,0,0,1,0,1,0,1,0,0,1,0,0,0,1,0,1,0,1,0,1,0,0,0,1,0,0,1,1,0,0,0,0,0,0,0,0,0,0,0,0,0,0,0,0,0,0,0,0,0,0,0,0,0,0],"id":5,"left_children":[1,3,5,7,9,11,13,15,17,19,21,23,25,27,29,31,33,35,37,39,41,43,45,47,49,51,53,55,57,59,61,63,65,67,-1,69,71,73,75,-1,77,-1,79,-1,-1,-1,-1,81,83,85,87,-1,89,91,93,95,97,99,101,-1,103,105,107,109,111,-1,-1,113,115,-1,-1,-1,-1,117,119,-1,-1,123,125,-1,-1,-1,-1,127,-1,129,-1,-1,-1,-1,-1,-1,-1,131,133,135,137,-1,-1,139,141,143,-1,-1,-1,145,147,149,-1,-1,-1,-1,-1,151,-1,-1,-1,-1,153,-1,-1,-1,-1,-1,-1,155,-1,157,-1,159,-1,-1,161,-1,-1,-1,163,-1,165,-1,167,-1,169,-1,-1,-1,171,-1,-1,173,175,-1,-1,-1,-1,-1,-1,-1,-1,-1,-1,-1,-1,-1,-1,-1,-1,-1,-1,-1,-1,-1,-1,-1,-1,-1,-1],"loss_changes":[7.72522E1,6.2821632E1,1.4783936E1,1.1083878E1,2.0097439E1,5.5358887E0,1.9362152E1,6.0292435E0,6.4524307E0,5.428589E0,5.325741E0,3.0298317E1,2.602295E0,8.160187E0,2.6453506E1,3.286518E0,2.1626587E0,4.2463017E0,3.1404834E0,3.0617218E0,4.8411055E0,7.5022423E-1,2.8752413E0,1.8922825E1,7.448578E0,8.302951E0,1.1542969E0,1.1175634E1,2.6861572E0,3.0494251E0,1.5073526E1,2.2570953E0,4.096365E-2,1.9139557E0,0E0,1.2171391E0,9.4952536E-1,3.3707685E0,1.3551397E0,0E0,2.3612595E0,0E0,3.1335254E0,0E0,0E0,0E0,0E0,4.8366475E0,6.4522285E0,2.6643677E0,6.915195E0,0E0,1.9580692E0,1.334285E1,1.0639648E0,7.746232E0,2.532208E0,2.2106323E0,8.586554E0,0E0,1.4628525E0,1.6019691E1,8.064508E0,1.114234E0,7.849772E-1,0E0,0E0,7.157593E-1,2.9549062E0,0E0,0E0,0E0,0E0,2.6119022E0,9.80469E-1,7.6417923E-3,0E0,2.5211434E0,1.7008286E0,0E0,0E0,0E0,0E0,3.5899448E0,0E0,6.863556E-1,0E0,0E0,0E0,0E0,0E0,0E0,0E0,9.560547E-1,2.832714E0,3.4828265E0,4.1304893E0,0E0,0E0,2.1079407E0,7.0790358E0,3.6818762E0,0E0,0E0,0E0,4.8438473E0,3.4787407E0,5.6014614E0,0E0,0E0,0E0,0E0,0E0,6.728134E-1,0E0,0E0,0E0,0E0,8.9270353E-1,0E0,0E0,0E0,0E0,0E0,0E0,1.8614578E-1,0E0,8.153019E-1,0E0,2.6768494E-1,0E0,0E0,9.4677734E-1,0E0,0E0,0E0,1.1620886E0,0E0,2.0394611E0,0E0,1.1197205E0,0E0,8.047528E0,0E0,0E0,0E0,3.9199486E0,0E0,0E0,3.392765E0,1.0381929E0,0E0,0E0,0E0,0E0,0E0,0E0,0E0,0E0,0E0,0E0,0E0,0E0,0E0,0E0,0E0,0E0,0E0,0E0,0E0,0E0,0E0,0E0,0E0,0E0,0E0,0E0],"parents":[2147483647,0,0,1,1,2,2,3,3,4,4,5,5,6,6,7,7,8,8,9,9,10,10,11,11,12,12,13,13,14,14,15,15,16,16,17,17,18,18,19,19,20,20,21,21,22,22,23,23,24,24,25,25,26,26,27,27,28,28,29,29,30,30,31,31,32,32,33,33,35,35,36,36,37,37,38,38,40,40,42,42,47,47,48,48,49,49,50,50,52,52,53,53,54,54,55,55,56,56,57,57,58,58,60,60,61,61,62,62,63,63,64,64,67,67,68,68,73,73,74,74,75,75,77,77,78,78,83,83,85,85,93,93,94,94,95,95,96,96,99,99,100,100,101,101,105,105,106,106,107,107,113,113,118,118,125,125,127,127,129,129,132,132,136,136,138,138,140,140,142,142,146,146,149,149,150,150],"right_children":[2,4,6,8,10,12,14,16,18,20,22,24,26,28,30,32,34,36,38,40,42,44,46,48,50,52,54,56,58,60,62,64,66,68,-1,70,72,74,76,-1,78,-1,80,-1,-1,-1,-1,82,84,86,88,-1,90,92,94,96,98,100,102,-1,104,106,108,110,112,-1,-1,114,116,-1,-1,-1,-1,118,120,-1,-1,124,126,-1,-1,-1,-1,128,-1,130,-1,-1,-1,-1,-1,-1,-1,132,134,136,138,-1,-1,140,142,144,-1,-1,-1,146,148,150,-1,-1,-1,-1,-1,152,-1,-1,-1,-1,154,-1,-1,-1,-1,-1,-1,156,-1,158,-1,160,-1,-1,162,-1,-1,-1,164,-1,166,-1,168,-1,170,-1,-1,-1,172,-1,-1,174,176,-1,-1,-1,-1,-1,-1,-1,-1,-1,-1,-1,-1,-1,-1,-1,-1,-1,-1,-1,-1,-1,-1,-1,-1,-1,-1],"split_conditions":[-1.8778992E0,1.4471284E-1,1.2904953E0,5.089573E-1,-9.194249E-1,-1.6183424E0,9.0283215E-1,-1.3443848E0,-5.4474324E-2,-2.2714695E-1,-2.1900122E0,-5.526815E-1,-3.111545E0,-1.3397287E0,4.8823893E-1,-6.719099E-1,1.7481228E0,8.368321E-1,-7.3332155E-1,-6.243458E-1,-1.2408869E0,-1.3828187E0,1.2809355E0,1.5000176E-1,1.1678886E0,7.1115077E-1,-2.5547056E0,5.3600764E-1,2.950373E0,-1.1076086E0,2.4073057E-1,-3.541828E-2,3.0351412E-1,2.2060256E0,4.4499766E-2,-5.9484345E-1,9.3040586E-1,-2.3092396E0,8.957055E-1,-1.2182789E-1,-1.0753062E0,2.917112E-1,5.8394736E-1,2.7082235E-1,-1.9631281E-2,-3.1152746E-1,1.00861914E-1,-1.0042543E0,-4.2390305E-1,1.7711433E0,2.8783834E-1,-3.0542699E-1,2.0845449E-1,-1.1611333E0,3.3628347E0,-8.4350514E-1,-7.6484835E-1,2.7980895E0,2.3467112E-1,1.2157265E-1,4.9776292E-1,-8.4922194E-1,7.8129375E-1,9.180237E-1,-7.264601E-1,-2.57821E-1,-6.707629E-2,2.588468E0,6.0577196E-1,-2.2103788E-1,9.166031E-2,3.827584E-1,4.9283944E-2,-2.3980737E-1,9.4175845E-1,-2.9627773E-1,2.9166473E-2,6.308477E-1,2.8780634E0,-2.699537E-1,1.6740891E-1,2.3062949E-1,-3.0640674E-1,1.0643209E0,-1.8016776E-1,6.9556594E-1,5.6188628E-2,-2.2191253E-1,4.7804126E-1,3.1975177E-1,-8.1480704E-2,4.5884663E-1,-3.1372574E-1,-1.0709581E1,-1.9140477E-1,-3.242057E-2,-2.0709043E0,3.891289E-1,-7.370725E-2,-8.351791E-1,3.374998E-1,-9.606651E-1,3.7542203E-1,-3.246137E-1,1.9208264E-2,-6.8923604E-1,-1.3258446E0,-1.5874055E-1,-1.921344E-1,3.2276392E-1,-1.9162165E-2,-2.1223058E-1,6.2101085E-2,-1.7193297E0,-3.581057E-2,-2.3256847E-1,1.9264746E-1,1.7340614E-1,2.9004204E-1,-1.3592151E-2,3.2074705E-1,-3.1101996E-1,-9.1287404E-2,2.3485892E-1,-2.2054847E-1,2.2698992E-1,-2.1030582E-2,6.570512E-2,-4.0943593E-2,1.8233802E0,-4.2859856E-2,-1.8712502E-2,4.3002625E0,1.8581332E-1,-2.573631E-1,-1.877654E-1,3.4065002E-1,1.5293679E-1,-1.6359286E0,5.6290273E-2,-3.1164014E0,-2.9445475E-1,-4.8475248E-1,1.5000477E-1,-3.0843735E-1,-1.8879065E-1,-4.687031E-1,1.4599185E-1,-3.1140462E-1,-7.5294385E-3,-2.502481E-1,-4.1772757E-2,-3.2830417E-1,-2.7922562E-1,1.33724725E-2,3.560363E-1,9.061474E-2,1.15314014E-1,5.5898666E-1,-3.3386093E-1,-7.3507585E-2,-3.3045575E-1,-2.003649E-2,3.980295E-1,1.223715E-2,5.253833E-3,-3.260302E-1,-8.465159E-2,-3.2478544E-1,-2.0061196E-1,6.320557E-1,4.372059E-1,-7.697216E-2,7.7679193E-1,2.1283837E-1,1.943604E-1,-9.9407054E-2],"split_indices":[258,308,344,128,354,296,382,349,282,378,352,258,383,258,375,281,343,366,315,305,2,319,29,20,198,290,330,266,337,301,271,378,289,305,0,207,310,258,278,0,94,0,244,0,0,0,0,241,352,48,76,0,314,299,237,304,236,344,294,0,271,311,370,278,158,0,0,181,285,0,0,0,0,112,305,225,0,29,294,0,0,0,0,196,0,293,0,0,0,0,0,0,0,289,381,338,313,0,0,293,109,241,0,0,0,320,354,142,0,0,0,0,0,313,0,0,0,0,341,0,0,2147483647,2147483647,0,0,276,0,305,0,13,0,0,334,0,0,0,71,0,41,0,358,0,91,0,0,0,123,0,0,277,293,0,0,0,0,0,0,0,0,0,0,0,0,0,0,0,0,0,0,0,0,0,0,0,0,0,0],"split_type":[0,0,0,0,0,0,0,0,0,0,0,0,0,0,0,0,0,0,0,0,0,0,0,0,0,0,0,0,0,0,0,0,0,0,0,0,0,0,0,0,0,0,0,0,0,0,0,0,0,0,0,0,0,0,0,0,0,0,0,0,0,0,0,0,0,0,0,0,0,0,0,0,0,0,0,0,0,0,0,0,0,0,0,0,0,0,0,0,0,0,0,0,0,0,0,0,0,0,0,0,0,0,0,0,0,0,0,0,0,0,0,0,0,0,0,0,0,0,0,0,0,0,0,0,0,0,0,0,0,0,0,0,0,0,0,0,0,0,0,0,0,0,0,0,0,0,0,0,0,0,0,0,0,0,0,0,0,0,0,0,0,0,0,0,0,0,0,0,0,0,0,0,0,0,0,0,0],"sum_hessian":[3.3468357E3,1.7614465E2,3.1706912E3,1.210756E2,5.5069057E1,2.8125994E3,3.580918E2,9.5039536E1,2.603607E1,4.2122574E1,1.2946483E1,1.4526045E2,2.6673389E3,2.964568E2,6.163501E1,9.12939E0,8.591014E1,7.6285405E0,1.8407528E1,3.4393887E1,7.728686E0,2.441886E0,1.0504597E1,1.7923506E1,1.2733695E2,1.3168063E1,2.654171E3,3.2716217E1,2.6374057E2,3.0947163E1,3.0687845E1,5.4279265E0,3.7014635E0,8.457784E1,1.3323007E0,2.9000976E0,4.7284427E0,8.669231E0,9.738297E0,1.0066168E0,3.338727E1,2.63546E0,5.093226E0,1.4395607E0,1.0023253E0,9.205093E0,1.2995039E0,8.325092E0,9.598413E0,1.2410756E2,3.2293866E0,9.821408E0,3.3466551E0,1.4622757E1,2.639548E3,2.8644508E1,4.0717077E0,2.5134953E2,1.2391035E1,1.0292386E0,2.9917925E1,2.0672E1,1.0015843E1,3.2082376E0,2.2196887E0,2.6768322E0,1.0246313E0,7.99732E1,4.6046457E0,1.7346517E0,1.1654458E0,3.3986735E0,1.3297695E0,6.0597854E0,2.6094458E0,8.622717E0,1.1155806E0,2.3870091E0,3.1000261E1,3.7477295E0,1.3454964E0,1.0787841E0,7.2463083E0,8.446857E0,1.1515565E0,1.2275306E2,1.354507E0,1.9204664E0,1.3089201E0,2.1941426E0,1.1525124E0,1.442198E0,1.3180558E1,2.6353655E3,4.182573E0,4.051464E0,2.4593044E1,3.0042975E0,1.0674101E0,2.4210907E2,9.2404585E0,1.0928865E1,1.4621693E0,2.8873672E1,1.0442528E0,8.252641E0,1.241936E1,8.640081E0,1.3757621E0,2.1801472E0,1.0280905E0,1.2008922E0,1.0187963E0,7.8929634E1,1.0435615E0,3.2545075E0,1.3501382E0,1.1654512E0,4.8943343E0,1.0234816E0,1.5859642E0,7.561665E0,1.061052E0,1.2688571E0,1.1181521E0,2.9960505E1,1.0397578E0,7.4293466E0,1.0175107E0,1.2169104E2,1.0620168E0,1.0102531E0,2.6343552E3,1.0542488E0,3.1283243E0,1.1922638E0,2.8592002E0,1.3509526E0,2.3242092E1,1.0526526E0,2.4105641E2,6.7896504E0,2.450808E0,1.2335316E0,9.695334E0,1.234336E0,7.018305E0,1.1128381E0,1.1306522E1,6.175054E0,2.4650269E0,1.060859E0,7.7868774E1,3.8398635E0,1.0544708E0,2.8906965E1,1.0535382E0,1.030597E0,6.3987494E0,1.2068698E2,1.0040594E0,2.6333376E3,1.0176808E0,1.8387165E0,1.0204837E0,1.7730005E0,2.1469091E1,2.597733E0,2.3845868E2,1.4270668E0,1.0237412E0,5.687504E0,1.330801E0,3.7107296E0,2.4643245E0,1.231302E0,1.2337248E0],"tree_param":{"num_deleted":"2","num_feature":"384","num_nodes":"177","size_leaf_vector":"0"}},{"base_weights":[-9.783057E-1,-1.0232834E0,-4.1292235E-1,-1.0490391E0,-8.179687E-1,4.809177E-1,-6.990124E-1,1.9595657E-1,-1.0511062E0,5.695518E-1,-8.650749E-1,-6.881835E-1,6.9216293E-1,-9.2430025E-1,-2.60682E-1,-6.9465876E-1,1.0450523E0,-1.0583851E0,-7.2468984E-1,-7.268439E-1,1.2434819E0,-8.936686E-1,8.2222426E-1,3.3569142E-1,-8.9325947E-1,-7.670896E-1,7.816644E-1,-3.279809E-1,-1.0047483E0,1.8643977E-1,-7.3697966E-1,-1.0614767E0,-6.4474374E-1,-9.9059165E-1,1.5776949E-1,1.6145396E0,-3.8844007E-1,-4.7362876E-1,-9.947432E-1,1.2698898E0,-1.9638115E-1,1.274349E-1,9.581553E-1,-8.398098E-1,3.4157598E-1,-1.0369203E0,5.385754E-1,-7.305744E-1,3.909419E-1,-9.309506E-1,6.784672E-1,-1.0619516E0,-5.5496585E-2,-8.261899E-1,1.0386816E0,-1.0397204E0,4.005204E-1,9.849693E-1,-7.788228E-1,3.283844E-1,1.8579205E0,-9.341487E-1,7.1792126E-2,-1.0142486E0,-1.6646513E-1,-4.514329E-1,8.036366E-1,-3.746848E-1,1.0362384E0,-1.0348112E-1,-9.360101E-1,9.6575016E-1,-7.5677156E-1,-1.5881273E-1,-1.0525374E0,-6.830008E-2,-8.69496E-1,6.2377197E-1,-2.7603623E-1,2.0784679E-1,-1.0269883E0,-2.9144382E-1,1.2258104E0,-1.0624204E0,-6.643659E-2,-9.972328E-1,8.7677306E-1,-6.941352E-2,-1.0650296E0,-4.7743338E-1,1.50947E0,6.694952E-2,-9.5472515E-1,5.501109E-1,-1.0109792E0,4.9856895E-1,-9.3113685E-1,-3.055885E-2,-1.0300972E0,-7.487554E-1,1.3196261E0,2.3499495E-1,-9.060714E-1,1.2328881E0,-1.4385202E-2,1.929373E-1,1.0932645E0,1.3351455E0,-1.3730298E-1,-2.6498538E-1,-1.070408E0,-5.7366794E-1,7.80585E-1,2.940866E-1,-7.792919E-1,-1.0762475E0,-9.9454606E-1,1.7698809E0,2.4176115E-1,-5.2686937E-2,-1.0461388E0,-5.7225585E-1,9.1358685E-1,1.120638E0,-7.495016E-1,8.819458E-2,-1.0404594E0,-2.2261246E-1,-8.282343E-1,-2.8776643E-1,6.509587E-1,-3.642003E-1,6.458622E-1,1.7671822E-1,1.1238269E0,2.1551956E-1,-6.0551345E-1,-1.6662817E-1,-1.0801983E0,1.2054447E0,3.5346472E-1,7.1807855E-1,-4.3452138E-1],"categories":[],"categories_nodes":[],"categories_segments":[],"categories_sizes":[],"default_left":[1,1,1,1,1,1,1,1,1,1,1,1,1,1,1,0,0,1,1,0,1,1,1,0,0,0,1,1,1,1,1,1,1,1,1,1,0,1,1,0,0,1,1,1,1,1,0,1,1,1,1,1,0,1,0,1,0,1,1,0,0,1,1,1,1,1,1,0,1,0,0,1,0,0,1,0,0,1,1,0,0,0,0,1,0,0,0,0,0,0,1,0,0,0,1,1,0,1,1,1,0,1,0,0,0,1,1,0,0,1,1,0,1,1,0,0,0,0,0,0,0,0,0,0,0,0,0,0,0,0,0,0,0,0,0,0,0,0,0,0,0,0,0],"id":6,"left_children":[1,3,5,7,9,11,13,15,17,19,21,23,25,27,29,-1,-1,31,33,-1,35,37,39,-1,-1,-1,41,43,45,47,49,51,53,55,57,59,-1,61,63,-1,-1,65,67,69,71,73,-1,75,77,79,81,83,-1,85,-1,87,-1,89,91,-1,-1,93,95,97,99,101,103,-1,105,-1,-1,107,-1,-1,109,-1,-1,111,113,-1,-1,-1,-1,115,-1,-1,-1,-1,-1,-1,117,-1,-1,-1,119,121,-1,123,125,127,-1,129,-1,-1,-1,131,133,-1,-1,135,137,-1,139,141,-1,-1,-1,-1,-1,-1,-1,-1,-1,-1,-1,-1,-1,-1,-1,-1,-1,-1,-1,-1,-1,-1,-1,-1,-1,-1,-1,-1,-1],"loss_changes":[6.522461E1,1.1783447E1,4.941098E1,5.66333E0,1.820578E1,1.211427E1,1.4155487E1,4.021436E0,4.2634277E0,9.205062E0,1.3399551E1,1.9193978E0,5.877407E0,4.2710953E0,1.0973989E1,0E0,0E0,1.9614258E0,1.1737463E1,0E0,4.6361017E0,1.0508163E1,2.481557E0,0E0,0E0,0E0,4.331442E0,4.702354E0,4.7300415E0,5.35728E0,7.4516993E0,9.213867E-1,6.3242555E0,3.0179138E0,1.0289447E1,1.1390591E0,0E0,1.31453905E1,3.184143E0,0E0,0E0,4.0218387E0,3.5335865E0,4.408841E-1,5.0450835E0,9.6617126E-1,0E0,4.2639303E-1,3.7073267E0,2.6488705E0,2.2536805E0,8.864746E-1,0E0,5.741927E0,0E0,8.3579636E-1,0E0,6.06545E0,1.0045707E0,0E0,0E0,3.7836838E0,1.1064506E1,3.126587E0,6.155286E0,1.9844949E0,1.6579492E0,0E0,1.1748085E0,0E0,0E0,1.997345E0,0E0,0E0,8.5663605E-1,0E0,0E0,3.6739016E0,2.1181402E0,0E0,0E0,0E0,0E0,8.535156E-1,0E0,0E0,0E0,0E0,0E0,0E0,1.3445492E0,0E0,0E0,0E0,8.6343E-1,8.532905E0,0E0,4.3511868E0,2.401535E0,2.1712065E-2,0E0,8.5181826E-1,0E0,0E0,0E0,1.0022013E0,5.51445E-1,0E0,0E0,6.4210296E-1,5.180893E-1,0E0,2.407504E0,1.4898759E0,0E0,0E0,0E0,0E0,0E0,0E0,0E0,0E0,0E0,0E0,0E0,0E0,0E0,0E0,0E0,0E0,0E0,0E0,0E0,0E0,0E0,0E0,0E0,0E0,0E0,0E0,0E0,0E0,0E0],"parents":[2147483647,0,0,1,1,2,2,3,3,4,4,5,5,6,6,7,7,8,8,9,9,10,10,11,11,12,12,13,13,14,14,17,17,18,18,20,20,21,21,22,22,26,26,27,27,28,28,29,29,30,30,31,31,32,32,33,33,34,34,35,35,37,37,38,38,41,41,42,42,43,43,44,44,45,45,47,47,48,48,49,49,50,50,51,51,53,53,55,55,57,57,58,58,61,61,62,62,63,63,64,64,65,65,66,66,68,68,71,71,74,74,77,77,78,78,83,83,90,90,94,94,95,95,97,97,98,98,99,99,101,101,105,105,106,106,109,109,110,110,112,112,113,113],"right_children":[2,4,6,8,10,12,14,16,18,20,22,24,26,28,30,-1,-1,32,34,-1,36,38,40,-1,-1,-1,42,44,46,48,50,52,54,56,58,60,-1,62,64,-1,-1,66,68,70,72,74,-1,76,78,80,82,84,-1,86,-1,88,-1,90,92,-1,-1,94,96,98,100,102,104,-1,106,-1,-1,108,-1,-1,110,-1,-1,112,114,-1,-1,-1,-1,116,-1,-1,-1,-1,-1,-1,118,-1,-1,-1,120,122,-1,124,126,128,-1,130,-1,-1,-1,132,134,-1,-1,136,138,-1,140,142,-1,-1,-1,-1,-1,-1,-1,-1,-1,-1,-1,-1,-1,-1,-1,-1,-1,-1,-1,-1,-1,-1,-1,-1,-1,-1,-1,-1,-1],"split_conditions":[1.7248275E0,1.2905318E0,-9.35295E-1,-3.3089986E0,-1.061352E0,7.306262E-1,6.946485E-1,1.798779E0,2.2000144E0,1.5559399E-1,2.5198288E0,-2.0933132E0,-3.587944E-1,-1.0699077E0,-7.802986E-1,-2.0839764E-1,3.135157E-1,2.6935108E0,7.9391485E-1,-2.1805318E-1,2.7801687E-1,-5.4194915E-1,-8.4115666E-1,1.00707434E-1,-2.6797786E-1,-2.3012689E-1,-6.7791164E-2,1.0683918E0,3.1779528E0,-2.283661E-1,1.4673281E0,3.3745637E0,1.3183651E0,1.4999509E0,-5.999729E-1,7.6856947E-1,-1.1653203E-1,-5.2013475E-2,2.311942E0,3.8096696E-1,-5.891435E-2,6.9031656E-1,-2.1751015E0,-1.2394959E-1,-7.8012824E-2,-2.7613816E0,1.6157264E-1,-9.576211E-2,3.7155393E-1,-2.1246364E0,-2.4484998E-1,3.9512002E0,-1.6648976E-2,9.692856E-1,3.116045E-1,-1.161516E0,1.2015613E-1,5.5525415E-2,-2.869395E-1,9.8515324E-2,5.573762E-1,-1.8884653E0,5.1757944E-1,-2.1587007E0,1.5234065E0,-1.1498823E0,5.932263E-1,-1.1240545E-1,-1.0994792E0,-3.1044338E-2,-2.8080305E-1,-1.4956951E-1,-2.2703148E-1,-4.764382E-2,-2.1570685E0,-2.0490026E-2,-2.6084882E-1,-1.2685044E0,-6.9296575E-1,6.235404E-2,-3.080965E-1,-8.743315E-2,3.6774313E-1,5.795454E-1,-1.9930977E-2,-2.9916984E-1,2.6303193E-1,-2.0824056E-2,-3.195089E-1,-1.4323002E-1,-9.749416E-1,2.0084856E-2,-2.8641754E-1,1.6503327E-1,-2.7071424E0,5.345597E-3,-2.7934107E-1,-9.923503E-1,-2.1266305E0,-5.816979E-1,3.9588785E-1,8.232E-2,-2.7182144E-1,3.6986643E-1,-4.3155607E-3,1.9051211E0,-2.4067585E0,4.0054366E-1,-4.1190896E-2,-2.2809497E-1,-2.7578692E0,-1.721004E-1,-8.4945336E-2,2.9737318E-1,-2.3378758E-1,-3.2287425E-1,-2.9836383E-1,5.309643E-1,7.252835E-2,-1.5806083E-2,-3.1384164E-1,-1.7167675E-1,2.7407607E-1,3.3619142E-1,-2.2485049E-1,2.6458375E-2,-3.1213784E-1,-6.678374E-2,-2.484703E-1,-8.632993E-2,1.9528763E-1,-1.0926009E-1,1.9375868E-1,5.3015467E-2,3.3714807E-1,6.465587E-2,-1.8165404E-1,-4.9988452E-2,-3.240595E-1,3.6163342E-1,1.0603942E-1,2.1542357E-1,-1.3035642E-1],"split_indices":[375,344,281,345,289,256,382,312,305,306,330,354,343,324,330,0,0,109,382,0,316,288,293,0,0,0,341,252,5,379,281,379,320,375,208,382,0,271,172,0,0,308,335,378,12,330,0,59,339,349,4,284,0,299,0,251,0,349,223,0,0,273,369,317,362,35,36,0,94,0,0,276,0,0,354,0,0,331,207,0,0,0,0,375,0,0,0,0,0,0,209,0,0,0,336,13,0,125,328,234,0,90,0,0,0,379,349,0,0,377,349,0,378,265,0,0,0,0,0,0,0,0,0,0,0,0,0,0,0,0,0,0,0,0,0,0,0,0,0,0,0,0,0],"split_type":[0,0,0,0,0,0,0,0,0,0,0,0,0,0,0,0,0,0,0,0,0,0,0,0,0,0,0,0,0,0,0,0,0,0,0,0,0,0,0,0,0,0,0,0,0,0,0,0,0,0,0,0,0,0,0,0,0,0,0,0,0,0,0,0,0,0,0,0,0,0,0,0,0,0,0,0,0,0,0,0,0,0,0,0,0,0,0,0,0,0,0,0,0,0,0,0,0,0,0,0,0,0,0,0,0,0,0,0,0,0,0,0,0,0,0,0,0,0,0,0,0,0,0,0,0,0,0,0,0,0,0,0,0,0,0,0,0,0,0,0,0,0,0],"sum_hessian":[2.5805198E3,2.3896104E3,1.9090933E2,2.1196057E3,2.700046E2,4.6123436E1,1.4478589E2,3.3578475E0,2.116248E3,8.501471E0,2.6150314E2,6.71311E0,3.9410328E1,9.490108E1,4.988482E1,1.7276264E0,1.630221E0,2.0678923E3,4.8355633E1,2.8809867E0,5.6204834E0,2.5760797E2,3.8951774E0,1.0139399E0,5.69917E0,1.8399916E0,3.7570335E1,1.1884488E1,8.301659E1,2.6044374E1,2.3840445E1,2.050997E3,1.6895191E1,3.7064774E1,1.1290858E1,4.587951E0,1.0325325E0,5.1068123E1,2.0653984E2,2.5345685E0,1.3606088E0,8.347873E0,2.9222462E1,6.5914865E0,5.2930017E0,8.164279E1,1.3737955E0,4.279971E0,2.1764402E1,2.1268175E1,2.5722697E0,2.0499736E3,1.0233731E0,1.5711018E1,1.1841741E0,3.6044422E1,1.020354E0,5.9681373E0,5.322721E0,1.1038543E0,3.4840968E0,2.7302692E1,2.3765432E1,2.0156851E2,4.9713283E0,4.6767244E0,3.671148E0,1.4070077E0,2.7815454E1,1.0015084E0,5.5899777E0,3.4520044E0,1.8409972E0,1.6218163E0,8.002097E1,1.0007564E0,3.2792144E0,1.6180767E1,5.583636E0,1.5635585E0,1.9704617E1,1.096595E0,1.4756745E0,2.048942E3,1.0319604E0,1.4653643E1,1.0573753E0,1.011411E0,3.503301E1,1.5991513E0,4.368986E0,1.0230575E0,4.2996635E0,1.0405531E0,2.6262138E1,1.7024063E1,6.7413697E0,3.2424815E0,1.9832603E2,3.9282808E0,1.0430475E0,2.0558512E0,2.6208735E0,2.0750966E0,1.5960515E0,2.039445E0,2.577601E1,2.4283717E0,1.0236329E0,2.1266713E0,7.78943E1,1.5658084E0,1.4614959E1,2.8127687E0,2.770867E0,1.6898364E3,3.5910535E2,3.2958348E0,1.0731514E0,1.0178767E0,2.5244263E1,4.649249E0,1.2374813E1,1.0317214E0,2.21076E0,1.7518661E0,1.9657416E2,1.0143405E0,2.9139404E0,1.0475452E0,1.008306E0,1.0023539E0,1.0370911E0,1.0506284E0,2.4725382E1,1.0343065E0,1.0923648E0,1.0278715E0,7.686643E1,6.4133215E0,8.201637E0,1.7872075E0,1.0255613E0],"tree_param":{"num_deleted":"0","num_feature":"384","num_nodes":"143","size_leaf_vector":"0"}},{"base_weights":[-9.3835163E-1,-4.7564453E-1,-1.0015779E0,-7.281967E-1,3.276042E-1,-1.0326084E0,-8.437594E-1,-1.5001416E-1,-8.6249727E-1,5.993877E-1,-8.002206E-1,-6.37513E-1,-1.040969E0,-9.1478634E-1,-9.889621E-2,3.8543764E-1,-6.144776E-1,-9.242898E-1,-4.9190134E-2,9.5203E-1,1.1505915E-1,-9.710098E-1,3.5751244E-1,6.8483794E-1,-8.387778E-1,-1.0423136E0,2.1607271E-1,-9.6297646E-1,3.212149E-1,-9.827132E-1,5.90559E-1,-5.0215316E-1,6.741988E-1,3.4742936E-1,-9.47303E-1,-9.8177737E-1,-2.4345957E-1,4.748818E-1,-7.221598E-1,1.0139964E0,-3.1165057E-1,6.1740196E-1,-2.3212247E-1,1.3840318E0,-6.284181E-1,-1.1357017E-1,-1.0200249E0,-3.2012123E-1,-1.044235E0,-9.9097425E-1,2.076073E-1,7.709748E-1,-6.917671E-1,-7.150049E-1,9.7752255E-1,2.2266807E-1,-7.578782E-1,9.274019E-1,-3.4774172E-1,8.695251E-1,-4.340437E-1,-1.2507798E-1,-1.0044272E0,-9.96336E-1,2.1280107E-1,3.3433267E-1,-6.725047E-1,8.116256E-1,-4.1642353E-1,-9.063441E-1,4.4659063E-2,1.0800382E0,-2.8849348E-1,1.0862451E0,-1.3163932E-1,-6.044227E-1,3.8312817E-1,9.55131E-2,1.9120722E0,-7.9130524E-1,5.7330096E-1,-8.0883795E-1,8.700653E-1,3.8446404E-2,-1.0450555E0,-1.0045098E0,7.171241E-1,1.1235517E0,-7.94393E-1,-4.8004374E-1,1.0732256E0,1.6572111E0,-4.3001017E-3,1.1053835E0,-2.9880017E-1,-6.7604464E-1,2.1284445E-1,1.2929398E-1,1.1088959E0,1.6529806E-1,-1.0070368E0,9.730172E-1,-5.3446174E-1,-8.4211344E-1,1.5200296E-1,-2.1494196E-1,1.0898178E0,1.2087543E-1,1.1543223E0,-6.077155E-1,3.7189806E-1,2.8760147E-1,-8.049514E-1,7.242478E-1,-4.1339678E-1,-5.474347E-1,1.1346185E0,-1.0457476E0,-3.3167623E-2,4.1208068E-1,-1.0120285E0,8.715747E-2,1.442601E0,1.2861935E0,-6.565447E-2,2.1063945E0,-3.22227E-1,-5.6371295E-1,1.268791E0,1.287152E0,2.6673855E-2,-1.0171157E0,-2.1082914E-1,1.1328009E0,3.0514568E-1,2.7675793E-1,1.1877618E0,-9.3320745E-1,-1.1226555E-2,8.983135E-1,7.687071E-2,-1.0464388E0,-5.0761107E-2,-1.02711E0,-3.0703026E-1,1.436287E0,3.1839204E-1,2.371784E0,4.230796E-1,-8.581084E-1,2.2524074E-1],"categories":[],"categories_nodes":[],"categories_segments":[],"categories_sizes":[],"default_left":[1,1,1,1,1,1,1,1,1,1,1,1,1,1,1,1,1,1,1,1,1,0,0,1,1,1,0,1,1,0,1,1,1,1,1,1,1,1,1,1,0,1,1,1,0,1,0,1,1,1,1,1,0,0,1,0,0,1,1,1,0,0,0,1,0,1,1,1,0,0,0,1,0,0,1,1,1,0,0,0,1,0,0,0,1,1,0,1,0,0,1,1,1,1,0,0,0,0,0,0,1,1,0,0,0,0,0,0,1,0,0,0,1,1,0,0,0,1,0,0,1,0,0,1,0,1,0,1,0,0,0,0,0,0,0,0,0,0,0,0,0,0,0,0,0,0,0,0,0,0,0],"id":7,"left_children":[1,3,5,7,9,11,13,15,17,19,21,23,25,27,29,31,33,35,37,39,41,-1,-1,43,45,47,-1,49,51,-1,53,55,57,59,61,63,65,67,69,71,-1,73,75,77,-1,79,-1,81,83,85,87,89,-1,-1,91,-1,-1,93,95,97,-1,-1,-1,99,-1,101,103,105,-1,-1,-1,107,-1,-1,109,111,113,-1,-1,-1,115,-1,-1,-1,117,119,-1,121,-1,-1,123,125,127,129,-1,-1,-1,-1,-1,-1,131,133,-1,-1,-1,-1,-1,-1,135,-1,-1,-1,137,139,-1,-1,-1,141,-1,-1,143,-1,-1,145,-1,147,-1,149,-1,-1,-1,-1,-1,-1,-1,-1,-1,-1,-1,-1,-1,-1,-1,-1,-1,-1,-1,-1,-1,-1,-1],"loss_changes":[5.7638306E1,4.9070007E1,7.6829834E0,1.4115028E1,1.8340548E1,4.1434326E0,1.5383545E1,9.137477E0,7.4253464E0,8.007633E0,2.6691265E0,9.28708E0,2.6313477E0,1.6206802E1,1.6778969E1,4.7568345E0,6.588112E0,5.166153E0,4.4174995E0,2.4587898E0,3.8339899E0,0E0,0E0,5.346023E0,3.6778069E0,1.6392822E0,0E0,8.633041E0,5.4380984E0,0E0,8.559099E0,1.0593331E0,3.7986283E0,2.7264109E0,5.6918335E-1,2.4210587E0,3.2201314E0,2.4684768E0,8.1087375E-1,2.5756168E0,0E0,3.2760785E0,3.2643232E0,2.194305E0,0E0,3.663981E0,0E0,3.7376356E0,1.2998047E0,6.530472E0,7.1639338E0,3.5130558E0,0E0,0E0,8.297868E0,0E0,0E0,2.7394667E0,7.68685E-1,5.271821E-1,0E0,0E0,0E0,1.7285309E0,0E0,3.7476773E0,1.1441011E0,1.8023756E0,0E0,0E0,0E0,1.6603222E0,0E0,0E0,1.2631392E0,1.7763953E0,1.821924E0,0E0,0E0,0E0,3.1405816E0,0E0,0E0,0E0,9.577637E-1,3.0770264E0,0E0,1.1916556E0,0E0,0E0,1.7081814E0,7.208523E0,5.0450773E0,1.8975258E0,0E0,0E0,0E0,0E0,0E0,0E0,7.859421E-1,4.9909353E-2,0E0,0E0,0E0,0E0,0E0,0E0,3.5585022E-1,0E0,0E0,0E0,7.34159E-1,4.139943E-1,0E0,0E0,0E0,9.205322E-1,0E0,0E0,2.3291016E0,0E0,0E0,3.6901283E-1,0E0,1.7298393E0,0E0,1.3351154E0,0E0,0E0,0E0,0E0,0E0,0E0,0E0,0E0,0E0,0E0,0E0,0E0,0E0,0E0,0E0,0E0,0E0,0E0,0E0,0E0,0E0,0E0,0E0],"parents":[2147483647,0,0,1,1,2,2,3,3,4,4,5,5,6,6,7,7,8,8,9,9,10,10,11,11,12,12,13,13,14,14,15,15,16,16,17,17,18,18,19,19,20,20,23,23,24,24,25,25,27,27,28,28,30,30,31,31,32,32,33,33,34,34,35,35,36,36,37,37,38,38,39,39,41,41,42,42,43,43,45,45,47,47,48,48,49,49,50,50,51,51,54,54,57,57,58,58,59,59,63,63,65,65,66,66,67,67,71,71,74,74,75,75,76,76,80,80,84,84,85,85,87,87,90,90,91,91,92,92,93,93,100,100,101,101,108,108,112,112,113,113,117,117,120,120,123,123,125,125,127,127],"right_children":[2,4,6,8,10,12,14,16,18,20,22,24,26,28,30,32,34,36,38,40,42,-1,-1,44,46,48,-1,50,52,-1,54,56,58,60,62,64,66,68,70,72,-1,74,76,78,-1,80,-1,82,84,86,88,90,-1,-1,92,-1,-1,94,96,98,-1,-1,-1,100,-1,102,104,106,-1,-1,-1,108,-1,-1,110,112,114,-1,-1,-1,116,-1,-1,-1,118,120,-1,122,-1,-1,124,126,128,130,-1,-1,-1,-1,-1,-1,132,134,-1,-1,-1,-1,-1,-1,136,-1,-1,-1,138,140,-1,-1,-1,142,-1,-1,144,-1,-1,146,-1,148,-1,150,-1,-1,-1,-1,-1,-1,-1,-1,-1,-1,-1,-1,-1,-1,-1,-1,-1,-1,-1,-1,-1,-1,-1],"split_conditions":[-1.2779838E0,1.1099238E0,7.704793E-1,-5.8715653E-1,4.7475034E-1,-2.3545308E0,1.3384461E0,-9.01661E-1,2.3265002E0,-2.6748508E-1,1.526762E0,-1.2158613E0,3.0361295E0,1.7825656E0,3.0624488E-1,-4.1164435E-3,-2.8383663E-2,1.8406534E0,1.8791492E-1,1.6285494E-1,2.8182592E-3,-2.9130295E-1,1.0725374E-1,-8.679619E-1,-5.6491834E-1,-1.0642581E0,6.482182E-2,1.3053195E0,5.3509638E-2,-2.94814E-1,2.8210205E-1,-1.232256E0,-6.725904E-1,-4.6819296E-2,-1.5934246E0,2.1556726E0,4.6516668E-2,7.607174E-2,1.12316355E-1,2.9130726E0,-9.3495175E-2,-7.51657E-1,7.720345E-1,-1.2005028E0,-1.8852544E-1,1.5147084E-1,-3.0600747E-1,2.6765427E-1,-3.8553956E0,2.958262E0,-3.845921E-1,5.881206E-2,-2.0753014E-1,-2.1450149E-1,-9.1992354E-1,6.680042E-2,-2.2736347E-1,1.1881819E0,5.829673E-1,-1.1451532E-1,-1.3021311E-1,-3.7523396E-2,-3.0132818E-1,-1.2906305E0,6.384032E-2,-7.36007E-1,1.1139169E0,6.6475374E-1,-1.24927066E-1,-2.7190325E-1,1.339772E-2,-1.0994792E0,-8.6548045E-2,3.2587352E-1,5.0382656E-1,-4.5414132E-1,-7.6073104E-1,2.865393E-2,5.736217E-1,-2.3739158E-1,-4.6098304E-1,-2.4265139E-1,2.610196E-1,1.1533922E-2,3.694324E0,-2.1932669E0,2.1513724E-1,5.341425E-1,-2.383179E-1,-1.4401312E-1,3.1685653E-1,9.0884936E-1,3.31928E-1,8.5849816E-1,-8.964005E-2,-2.028134E-1,6.385334E-2,3.8788196E-2,3.3266878E-1,4.958942E-2,2.7671342E0,-2.3665199E-1,-1.6033852E-1,-2.5263405E-1,4.560089E-2,-6.448259E-2,3.2694533E-1,3.626263E-2,-5.675176E-1,-1.8231465E-1,1.1156942E-1,8.628044E-2,2.0683048E0,-6.59898E-1,-1.24019034E-1,-1.642304E-1,3.4038556E-1,3.1667204E0,-9.950288E-3,1.23624206E-1,2.3459074E0,2.6147243E-2,4.327803E-1,8.97711E-1,-1.9696342E-2,-8.3827037E-1,-9.66681E-2,1.3653991E0,3.8063732E-1,3.8614562E-1,8.002157E-3,-3.051347E-1,-6.3248746E-2,3.398403E-1,9.1543704E-2,8.302738E-2,3.5632855E-1,-2.7996224E-1,-3.3679667E-3,2.6949406E-1,2.3061214E-2,-3.1393164E-1,-1.5228333E-2,-3.08133E-1,-9.2109084E-2,4.3088612E-1,9.551761E-2,7.115352E-1,1.2692389E-1,-2.5743252E-1,6.757222E-2],"split_indices":[258,294,382,289,369,358,305,336,344,378,230,64,344,310,257,283,342,230,274,354,302,0,0,320,324,182,0,274,314,0,264,174,329,232,296,371,57,291,270,294,0,24,68,61,0,375,0,382,366,337,354,176,0,0,238,0,0,261,220,240,0,0,0,81,0,1,4,252,0,0,0,94,0,0,307,267,161,0,0,0,186,0,0,0,357,273,0,276,0,0,380,372,15,53,0,0,0,0,0,0,211,318,0,0,0,0,0,0,286,0,0,0,379,281,0,0,0,379,0,0,375,0,0,258,0,322,0,37,0,0,0,0,0,0,0,0,0,0,0,0,0,0,0,0,0,0,0,0,0,0,0],"split_type":[0,0,0,0,0,0,0,0,0,0,0,0,0,0,0,0,0,0,0,0,0,0,0,0,0,0,0,0,0,0,0,0,0,0,0,0,0,0,0,0,0,0,0,0,0,0,0,0,0,0,0,0,0,0,0,0,0,0,0,0,0,0,0,0,0,0,0,0,0,0,0,0,0,0,0,0,0,0,0,0,0,0,0,0,0,0,0,0,0,0,0,0,0,0,0,0,0,0,0,0,0,0,0,0,0,0,0,0,0,0,0,0,0,0,0,0,0,0,0,0,0,0,0,0,0,0,0,0,0,0,0,0,0,0,0,0,0,0,0,0,0,0,0,0,0,0,0,0,0,0,0],"sum_hessian":[1.9854711E3,2.3971239E2,1.7457587E3,1.8244324E2,5.726916E1,1.4542738E3,2.914849E2,3.4788963E1,1.4765427E2,4.6525887E1,1.0743276E1,3.1736776E1,1.422537E3,2.6590155E2,2.558334E1,1.6238602E1,1.855036E1,1.3710129E2,1.0552986E1,2.6364256E1,2.016163E1,9.502715E0,1.2405604E0,3.8749425E0,2.7861834E1,1.4211876E3,1.3493754E0,2.5613602E2,9.765533E0,1.1024989E1,1.4558351E1,3.8047166E0,1.2433886E1,4.757298E0,1.3793061E1,1.2601858E2,1.1082709E1,6.098307E0,4.454679E0,2.5320227E1,1.0440288E0,7.9215236E0,1.2240108E1,2.4934862E0,1.3814564E0,5.896262E0,2.1965572E1,4.2158866E0,1.4169718E3,2.5030276E2,5.8332443E0,6.928302E0,2.837232E0,3.1346664E0,1.1423684E1,1.0259774E0,2.7787392E0,1.003905E1,2.394836E0,2.7843933E0,1.9729046E0,1.1032249E0,1.26898365E1,1.246652E2,1.3533769E0,4.816761E0,6.2659483E0,4.4909716E0,1.6073357E0,3.445211E0,1.0094681E0,2.4260887E1,1.0593396E0,4.5951357E0,3.3263876E0,7.6366315E0,4.603476E0,1.0680715E0,1.4254146E0,2.8913383E0,3.0049238E0,3.2158136E0,1.0000731E0,1.0382371E0,1.4159336E3,2.4874356E2,1.5592117E0,2.9841113E0,2.8491328E0,1.2337149E0,5.6945868E0,6.3440104E0,5.079674E0,8.8526325E0,1.1864173E0,1.3804349E0,1.0144011E0,1.0567223E0,1.7276711E0,1.006046E0,1.2365915E2,2.7068717E0,2.1098893E0,5.179189E0,1.0867594E0,1.0060114E0,3.48496E0,1.9327154E0,2.2328173E1,1.6034714E0,1.7229162E0,1.3219416E0,6.31469E0,3.2866688E0,1.3168075E0,1.0110258E0,1.993898E0,1.4149321E3,1.0013585E0,1.0291792E0,2.4771437E2,1.0020963E0,1.9820151E0,4.6884995E0,1.0060874E0,5.1183844E0,1.225626E0,3.9160984E0,1.1635755E0,7.410662E0,1.4419706E0,1.2183938E2,1.8197745E0,1.6225517E0,1.0843201E0,1.1600834E0,2.1168089E1,5.284972E0,1.0297176E0,2.284733E0,1.0019357E0,1.4138983E3,1.0338478E0,2.4207886E2,5.635515E0,3.639922E0,1.0485773E0,4.0680275E0,1.0503566E0,2.7880814E0,1.128017E0],"tree_param":{"num_deleted":"0","num_feature":"384","num_nodes":"151","size_leaf_vector":"0"}},{"base_weights":[-9.0258646E-1,-4.3168136E-1,-9.7135067E-1,-6.6854703E-1,2.9068E-1,-1.0146822E0,-8.1615204E-1,-2.8970495E-1,-8.758768E-1,5.552013E-1,-6.5211844E-1,-1.017192E0,-2.6546738E-1,-4.364051E-1,-9.397881E-1,9.856135E-2,-6.5994716E-1,4.8871663E-1,-9.011268E-1,8.8429886E-1,1.1632285E-1,-9.426945E-1,3.75457E-1,-1.0272257E0,-8.1854874E-1,-7.8068525E-1,8.348749E-1,2.8444603E-2,-9.111611E-1,-9.7382575E-1,-8.0619976E-2,4.008961E-1,-6.4488083E-1,-9.832677E-1,-1.1984741E-1,3.1009692E-1,-9.181633E-1,1.3258009E-1,1.0148284E0,-5.0235075E-1,4.01897E-1,-2.610775E-1,8.088597E-1,-1.028232E0,-2.2718916E-2,2.683454E-1,-9.410355E-1,3.5654023E-1,-9.34279E-1,-9.986777E-1,-1.7520514E-1,-9.936003E-1,2.7558127E-1,5.5304724E-1,-8.1641954E-1,7.546681E-1,-7.527165E-2,-8.212936E-1,2.3545282E-1,-4.317928E-1,6.5704465E-1,1.8579423E-1,-9.3714994E-1,-6.056937E-1,6.385328E-1,7.901008E-2,1.0811685E0,-8.036687E-1,5.0467765E-1,-5.2109605E-1,6.222887E-1,-1.0292273E0,-2.8677966E-2,-7.6696765E-1,1.2794698E0,-1.7242312E-1,-1.0085298E0,-9.6894436E-2,1.2468698E0,-7.5026274E-1,6.1859316E-1,-1.0028821E0,4.7310683E-1,-5.3510416E-1,1.0546703E0,-4.781372E-1,1.0162337E0,1.4846872E-2,1.272605E0,3.0993065E-1,-4.9561477E-1,-8.992926E-1,-1.7665823E-1,2.2871283E-1,-6.4286417E-1,-1.9272633E-1,1.084727E0,5.115466E-2,-9.5369595E-1,8.6352766E-2,1.1374865E0,-1.5155558E-1,-6.3010484E-1,-1.9048105E-1,8.4341955E-1,-3.5766516E-2,-1.0302283E0,1.3097847E-1,1.7372775E0,1.1536146E0,-7.945252E-1,-1.0238957E0,-2.0490366E-1,-4.4752273E-1,7.143852E-1,-6.695114E-1,1.7286245E0,1.0223938E-1,-1.0126255E0,1.3140403E-1,1.2489823E0,7.3336315E-1,-4.4435558E-1,2.3235399E-1,1.4738218E0,-2.1812223E-1,7.5359786E-1,3.6257464E-1,-8.195763E-1,-8.7954557E-1,3.9429985E-2,-9.715837E-1,-1.394211E-1,2.9124546E-1,-5.8725256E-1,4.8132744E-2,1.0316821E0,-4.0674217E-2,-1.0312366E0,7.3833925E-1,-6.515457E-1,-4.0574723E-1,1.1479658E0,3.0695293E0,7.599729E-1,-1.0175527E0,-1.13380905E-2],"categories":[],"categories_nodes":[],"categories_segments":[],"categories_sizes":[],"default_left":[1,1,1,1,1,1,1,1,1,1,1,1,1,1,1,1,1,0,1,1,1,0,1,1,1,0,0,1,1,1,1,1,1,0,1,0,1,1,1,1,1,0,0,1,0,1,1,1,0,0,1,1,1,1,0,1,1,1,0,1,1,0,1,0,0,0,1,0,0,1,1,1,0,0,1,1,1,1,1,0,0,1,0,0,0,0,1,1,1,1,1,0,0,0,1,0,0,0,1,0,0,0,0,1,1,0,1,0,0,0,0,0,0,1,1,0,1,0,1,0,0,0,0,0,0,0,0,0,0,0,0,0,0,0,0,0,0,0,0,0,0,0,0,0,0,0,0],"id":8,"left_children":[1,3,5,7,9,11,13,15,17,19,21,23,25,27,29,31,33,-1,35,37,39,-1,41,43,45,-1,-1,47,49,51,53,55,57,-1,59,-1,61,63,65,67,69,-1,-1,71,-1,73,75,77,-1,-1,79,81,83,85,-1,87,89,91,-1,93,95,-1,97,-1,-1,-1,99,-1,-1,101,103,105,-1,-1,107,109,111,113,115,-1,-1,117,-1,-1,-1,-1,119,121,123,125,127,-1,-1,-1,129,-1,-1,-1,131,-1,-1,-1,-1,133,135,-1,137,-1,-1,-1,-1,-1,-1,139,141,-1,143,-1,145,-1,-1,-1,-1,-1,-1,-1,-1,-1,-1,-1,-1,-1,-1,-1,-1,-1,-1,-1,-1,-1,-1,-1,-1,-1,-1,-1,-1],"loss_changes":[4.8973145E1,3.375729E1,8.117432E0,1.1372688E1,1.2615784E1,1.6776123E0,1.34608E1,7.8061E0,3.719658E0,5.5169935E0,3.705656E0,1.2159424E0,3.3793707E0,1.6451794E1,6.413925E0,6.362157E0,4.7183495E0,0E0,2.2201767E0,2.032404E0,3.3512034E0,0E0,1.0911269E0,9.655762E-1,7.513481E0,0E0,0E0,1.2518208E1,2.1986465E0,5.547592E0,4.9044094E0,3.412636E0,1.472122E0,0E0,3.0730066E0,0E0,2.118126E0,2.0368974E0,1.0734463E0,2.2486348E0,2.918144E0,0E0,0E0,9.42749E-1,0E0,7.5784245E0,2.3804398E0,1.2028266E1,0E0,0E0,2.8055625E0,3.3381042E0,3.1593692E0,3.2215197E0,0E0,4.3954496E0,1.6757864E0,1.9723034E-1,0E0,1.3760374E0,1.5515599E0,0E0,1.5424728E0,0E0,0E0,0E0,8.7394524E-1,0E0,0E0,2.5438726E-2,2.0925922E0,9.3408203E-1,0E0,0E0,1.6458478E0,5.1905103E0,3.4659195E-1,6.1426744E0,1.041258E1,0E0,0E0,2.3577118E0,0E0,0E0,0E0,0E0,7.157049E-1,2.224961E0,1.0734682E0,1.4577875E0,1.6539482E0,0E0,0E0,0E0,1.1558907E0,0E0,0E0,0E0,1.173851E0,0E0,0E0,0E0,0E0,7.6638395E-1,1.2431068E0,0E0,9.313965E-1,0E0,0E0,0E0,0E0,0E0,0E0,4.0879297E0,3.6529841E0,0E0,8.435137E0,0E0,1.0127106E0,0E0,0E0,0E0,0E0,0E0,0E0,0E0,0E0,0E0,0E0,0E0,0E0,0E0,0E0,0E0,0E0,0E0,0E0,0E0,0E0,0E0,0E0,0E0,0E0,0E0,0E0,0E0,0E0],"parents":[2147483647,0,0,1,1,2,2,3,3,4,4,5,5,6,6,7,7,8,8,9,9,10,10,11,11,12,12,13,13,14,14,15,15,16,16,18,18,19,19,20,20,22,22,23,23,24,24,27,27,28,28,29,29,30,30,31,31,32,32,34,34,36,36,37,37,38,38,39,39,40,40,43,43,45,45,46,46,47,47,50,50,51,51,52,52,53,53,55,55,56,56,57,57,59,59,60,60,62,62,66,66,69,69,70,70,71,71,74,74,75,75,76,76,77,77,78,78,81,81,86,86,87,87,88,88,89,89,90,90,94,94,98,98,103,103,104,104,106,106,113,113,114,114,116,116,118,118],"right_children":[2,4,6,8,10,12,14,16,18,20,22,24,26,28,30,32,34,-1,36,38,40,-1,42,44,46,-1,-1,48,50,52,54,56,58,-1,60,-1,62,64,66,68,70,-1,-1,72,-1,74,76,78,-1,-1,80,82,84,86,-1,88,90,92,-1,94,96,-1,98,-1,-1,-1,100,-1,-1,102,104,106,-1,-1,108,110,112,114,116,-1,-1,118,-1,-1,-1,-1,120,122,124,126,128,-1,-1,-1,130,-1,-1,-1,132,-1,-1,-1,-1,134,136,-1,138,-1,-1,-1,-1,-1,-1,140,142,-1,144,-1,146,-1,-1,-1,-1,-1,-1,-1,-1,-1,-1,-1,-1,-1,-1,-1,-1,-1,-1,-1,-1,-1,-1,-1,-1,-1,-1,-1,-1],"split_conditions":[-1.2779838E0,1.1099238E0,5.496309E-1,-8.7797034E-1,-2.9079676E-1,2.94665E0,-6.1045575E-1,-2.6820964E-1,-1.292255E0,-2.7097717E-1,1.0461627E0,1.7486641E0,-9.8046765E-2,1.7988618E-1,1.7070079E0,2.2049643E-2,4.990205E-1,1.46615E-1,-1.8589745E0,-3.131499E-1,2.6458275E-1,-2.8280836E-1,5.2346504E-1,3.732297E0,-7.514535E-1,-2.3420559E-1,2.504625E-1,1.781677E-1,1.7872347E0,2.53346E0,-6.0334146E-1,3.0234808E-1,1.1138389E0,-2.9498032E-1,6.5604544E-1,9.302908E-2,-2.3331017E0,-2.1386284E-1,-5.3550625E-1,2.0506532E0,-8.931811E-1,-7.832325E-2,2.4265791E-1,3.862648E0,-6.815675E-3,4.0425313E-1,-1.4870365E0,4.8711157E-1,-2.8028372E-1,-2.996033E-1,-8.7574035E-2,2.237255E0,-1.2733008E-1,4.4844776E-1,-2.4492587E-1,6.1163537E-2,-1.6217858E-2,8.762418E-1,7.063585E-2,-1.8638366E0,4.0748626E-1,5.5738274E-2,-1.2938267E0,-1.8170811E-1,1.9155985E-1,2.3703024E-2,-1.449291E0,-2.4110061E-1,1.5140331E-1,-1.4845281E0,-5.854753E-1,-1.0697361E1,-8.60339E-3,-2.300903E-1,-1.7825946E-1,-8.340444E-1,4.98285E-1,1.298579E0,7.036772E-2,-2.2507884E-1,1.8557796E-1,-1.6377382E0,1.4193206E-1,-1.6053125E-1,3.1640112E-1,-1.4344117E-1,-8.0910945E-1,2.860304E-1,-2.9939752E-2,1.367545E0,-3.2930052E-1,-2.697878E-1,-5.299747E-2,6.861385E-2,4.7280586E-1,-5.7817902E-2,3.254181E-1,1.5346398E-2,2.43225E0,2.590583E-2,3.4124595E-1,-4.5466676E-2,-1.8903147E-1,-5.5009544E-1,-4.052101E-1,-1.07299555E-2,-2.383099E0,3.9293543E-2,5.2118325E-1,3.4608442E-1,-2.3835757E-1,-3.0716872E-1,-6.14711E-2,-2.3490067E0,-8.9670384E-1,-2.0085342E-1,-3.238887E-1,3.0671814E-2,3.6246924E0,3.942121E-2,3.746947E-1,2.2000895E-1,-1.3330668E-1,6.97062E-2,4.4214654E-1,-6.543667E-2,2.2607936E-1,1.087724E-1,-2.458729E-1,-2.6386368E-1,1.1828996E-2,-2.9147512E-1,-4.1826334E-2,8.7373644E-2,-1.7617577E-1,1.4439824E-2,3.0950466E-1,-1.2202266E-2,-3.09371E-1,2.2150178E-1,-1.9546372E-1,-1.2172417E-1,3.4438974E-1,9.208588E-1,2.2799186E-1,-3.0526584E-1,-3.4014273E-3],"split_indices":[258,294,375,41,281,344,80,362,81,378,366,19,133,277,310,358,310,0,174,293,382,0,373,4,55,0,0,336,344,337,274,327,382,0,173,0,214,153,286,299,194,0,0,334,0,323,318,248,0,0,308,306,149,348,0,90,275,304,0,354,49,0,289,0,0,0,60,0,0,41,277,289,0,0,149,108,271,356,285,0,0,266,0,0,0,0,44,345,351,124,218,0,0,0,242,0,0,0,53,0,0,0,0,136,323,0,325,0,0,0,0,0,0,358,300,0,131,0,178,0,0,0,0,0,0,0,0,0,0,0,0,0,0,0,0,0,0,0,0,0,0,0,0,0,0,0,0],"split_type":[0,0,0,0,0,0,0,0,0,0,0,0,0,0,0,0,0,0,0,0,0,0,0,0,0,0,0,0,0,0,0,0,0,0,0,0,0,0,0,0,0,0,0,0,0,0,0,0,0,0,0,0,0,0,0,0,0,0,0,0,0,0,0,0,0,0,0,0,0,0,0,0,0,0,0,0,0,0,0,0,0,0,0,0,0,0,0,0,0,0,0,0,0,0,0,0,0,0,0,0,0,0,0,0,0,0,0,0,0,0,0,0,0,0,0,0,0,0,0,0,0,0,0,0,0,0,0,0,0,0,0,0,0,0,0,0,0,0,0,0,0,0,0,0,0,0,0],"sum_hessian":[1.5243362E3,1.9515689E2,1.3291793E3,1.4702214E2,4.813475E1,1.0347413E3,2.9443796E2,5.2849846E1,9.417229E1,3.7909565E1,1.0225185E1,1.03093E3,3.8112879E0,7.342957E1,2.2100838E2,2.6155178E1,2.669467E1,1.3774104E0,9.2794876E1,2.1084343E1,1.6825222E1,8.035519E0,2.189667E0,9.773897E2,5.354032E1,2.7936926E0,1.0175954E0,3.7576874E1,3.58527E1,2.1245798E2,8.550395E0,1.8921251E1,7.233927E0,1.6185183E1,1.0509485E1,1.0485106E0,9.174637E1,3.4176772E0,1.7666666E1,5.07391E0,1.1751311E1,1.0480361E0,1.1416309E0,9.7638794E2,1.0017469E0,5.301988E0,4.8238335E1,2.8495335E1,9.081538E0,3.1723328E1,4.129373E0,2.0934932E2,3.1086547E0,4.727482E0,3.8229132E0,1.0520269E1,8.400983E0,6.0821676E0,1.1517588E0,7.815524E0,2.6939616E0,1.402694E0,9.034367E1,1.3096025E0,2.1080747E0,1.3145211E0,1.6352144E1,4.060799E0,1.0131111E0,2.0021143E0,9.749197E0,9.7538715E2,1.0008377E0,2.738968E0,2.56302E0,4.1809607E0,4.4057373E1,1.9470434E1,9.0248995E0,2.4264243E0,1.702949E0,2.0834708E2,1.0022533E0,1.676907E0,1.4317478E0,1.4552978E0,3.2721837E0,4.7557783E0,5.764491E0,4.5207977E0,3.8801851E0,5.0732756E0,1.0088919E0,1.8724588E0,5.943065E0,1.0858449E0,1.6081167E0,1.4531666E0,8.88905E1,1.0118501E0,1.5340295E1,1.0005497E0,1.0015645E0,2.1148047E0,7.6343923E0,1.0188326E0,9.743683E2,1.0970287E0,1.4659913E0,1.0622808E0,3.1186798E0,4.2961815E1,1.0955567E0,1.3907921E1,5.5625134E0,1.7346936E0,7.290206E0,1.7378888E0,2.0660918E2,1.007311E0,2.2648728E0,1.6215284E0,3.1342502E0,1.2835482E0,4.4809427E0,2.2962115E0,2.2245862E0,1.0306785E0,2.8495066E0,4.197791E0,1.7452742E0,8.679072E1,2.099785E0,1.0752674E0,1.0395373E0,1.7016587E0,5.9327335E0,1.033922E0,9.7333435E2,1.6571292E0,1.2250792E1,1.570194E0,3.9923193E0,2.1479414E0,5.1422644E0,2.055813E2,1.0278813E0],"tree_param":{"num_deleted":"0","num_feature":"384","num_nodes":"147","size_leaf_vector":"0"}},{"base_weights":[-8.652826E-1,-3.8409597E-1,-9.4123006E-1,-6.9326155E-2,-8.5221666E-1,-9.891652E-1,-7.347635E-1,2.8353694E-1,-5.93773E-1,4.0983427E-1,-8.909597E-1,-4.745287E-1,-1.0017036E0,-9.609962E-1,-3.8431212E-1,-3.025663E-1,4.7608906E-1,-7.065096E-1,3.8996655E-1,2.7178714E-1,-9.303381E-1,6.7014056E-1,-7.366787E-1,-1.0054468E0,-7.328317E-2,-9.8791134E-1,4.3364355E-1,-7.877427E-1,1.8375543E-1,-6.254248E-1,4.9695832E-1,1.1574577E-1,7.193147E-1,-9.410072E-1,-2.7413636E-1,-5.674893E-1,8.7356955E-1,1.9501106E-1,-9.5773494E-1,1.1774678E0,-5.37285E-1,-4.0618733E-2,-9.605191E-1,-1.2285555E-1,-1.0086215E0,1.017535E0,-7.269646E-1,-1.9793525E-1,-1.0111728E0,2.4587221E-1,-8.6939096E-1,5.947374E-1,-5.728535E-1,-8.005677E-1,3.0933085E-1,-4.0028137E-1,8.504954E-1,2.8136668E-1,-5.351194E-1,-2.8486323E-1,8.388867E-1,-1.58585E-1,-9.697464E-1,1.6042924E-1,-6.95067E-1,6.465091E-2,-9.825181E-1,2.4782208E-1,1.5164218E0,-5.883224E-1,6.034129E-1,-6.924125E-1,7.8821975E-1,1.3049659E-1,-1.0102284E0,4.1593695E-1,-6.836953E-1,-1.0196843E0,-3.187604E-2,1.0616597E0,-4.9671066E-1,2.650057E-1,-9.420407E-1,8.72584E-1,-8.004917E-1,-8.821524E-1,8.3843726E-1,5.5123962E-2,-9.125301E-1,1.2010277E-2,8.3293205E-1,1.3989937E-1,-7.862014E-1,-7.152042E-1,2.133519E-1,2.716239E-1,9.7462785E-1,-9.9815995E-1,-2.2576545E-1,5.919417E-1,-7.144159E-1,-8.61477E-1,2.1212246E-2,-1.0462611E-1,-1.0144705E0,-1.015123E0,-5.060841E-1,-1.0256217E0,-3.1795144E-1,-2.8125435E-1,6.391651E-1,3.5756522E-1,-9.8504984E-1,1.0297174E0,-5.469714E-1,-1.9152054E-1,-9.3543535E-1,-5.265174E-1,3.9999947E-1,9.7980213E-1,1.7308973E-1,-4.654882E-1,7.335377E-1,-1.5159602E-1,1.0603491E0,9.4174534E-1,-2.7751985E-1,4.5386037E-1,-5.705979E-1,-1.4718807E-2,-1.016414E0,9.3274194E-1,-9.0544266E-1,-2.6786868E-2,-1.0093703E0,-5.419484E-1,1.167101E0],"categories":[],"categories_nodes":[],"categories_segments":[],"categories_sizes":[],"default_left":[1,1,1,1,1,1,1,1,1,0,1,1,1,1,1,1,1,1,1,0,1,1,1,1,1,1,0,1,1,1,1,1,1,1,1,0,0,0,1,1,0,1,0,1,1,0,0,1,1,1,1,1,1,1,0,0,0,1,1,1,1,0,1,1,1,0,1,0,0,0,0,0,0,0,1,0,0,1,0,0,0,1,1,1,0,1,0,0,0,1,1,0,0,0,0,1,1,0,0,1,0,0,0,1,0,1,1,0,0,0,0,0,1,1,0,0,0,0,0,0,0,0,0,0,0,0,0,0,0,0,0,0,0,0,0,0,0],"id":9,"left_children":[1,3,5,7,9,11,13,15,17,-1,19,21,23,25,27,29,31,33,35,-1,37,39,41,43,45,47,-1,49,51,53,55,57,59,61,63,-1,-1,-1,65,67,-1,69,-1,71,73,-1,-1,75,77,79,81,83,85,87,-1,-1,-1,89,91,93,95,-1,97,99,101,-1,103,-1,-1,-1,-1,-1,-1,-1,105,-1,-1,107,-1,-1,-1,109,111,113,-1,115,-1,-1,-1,117,119,-1,-1,-1,-1,121,123,-1,-1,125,-1,-1,-1,127,-1,129,131,-1,-1,-1,-1,-1,133,135,-1,-1,-1,-1,-1,-1,-1,-1,-1,-1,-1,-1,-1,-1,-1,-1,-1,-1,-1,-1,-1,-1,-1],"loss_changes":[4.2618042E1,2.3813074E1,9.319275E0,1.8296703E1,3.5457687E0,4.8218384E0,1.5102821E1,6.8292108E0,4.6810284E0,0E0,3.1569862E0,6.9227962E0,2.708191E0,4.8549805E0,1.8071667E1,4.2498994E0,3.8587055E0,3.3916092E0,2.6852374E0,0E0,2.0851974E0,3.3989801E0,2.75132E0,2.1098022E0,3.8008115E0,1.9314346E0,0E0,4.0898438E0,1.0693684E1,2.099773E0,1.9096023E0,2.232813E0,3.4400997E0,3.6175156E-1,2.684927E0,0E0,0E0,0E0,1.5909119E0,7.24946E-1,0E0,2.2604842E0,0E0,2.619295E0,1.5855713E0,0E0,0E0,1.6445442E0,9.0470123E-1,3.0365174E0,3.775875E0,9.252474E0,6.077595E0,9.898248E-1,0E0,0E0,0E0,2.3750334E0,8.3248043E-1,9.208522E-1,1.5892143E0,0E0,2.3799896E-1,3.3427386E0,8.9243865E-1,0E0,1.5465012E0,0E0,0E0,0E0,0E0,0E0,0E0,0E0,1.4436035E0,0E0,0E0,1.381836E-1,0E0,0E0,0E0,8.65637E-1,2.6121254E0,4.7745285E0,0E0,2.078867E-1,0E0,0E0,0E0,2.6762938E0,3.3945775E-1,0E0,0E0,0E0,0E0,2.3963757E0,1.9990482E0,0E0,0E0,2.003038E0,0E0,0E0,0E0,1.0875832E0,0E0,9.98291E-1,6.372877E0,0E0,0E0,0E0,0E0,0E0,8.912544E-1,4.377674E0,0E0,0E0,0E0,0E0,0E0,0E0,0E0,0E0,0E0,0E0,0E0,0E0,0E0,0E0,0E0,0E0,0E0,0E0,0E0,0E0,0E0,0E0,0E0],"parents":[2147483647,0,0,1,1,2,2,3,3,4,4,5,5,6,6,7,7,8,8,10,10,11,11,12,12,13,13,14,14,15,15,16,16,17,17,18,18,20,20,21,21,22,22,23,23,24,24,25,25,27,27,28,28,29,29,30,30,31,31,32,32,33,33,34,34,38,38,39,39,41,41,43,43,44,44,47,47,48,48,49,49,50,50,51,51,52,52,53,53,57,57,58,58,59,59,60,60,62,62,63,63,64,64,66,66,74,74,77,77,81,81,82,82,83,83,85,85,89,89,90,90,95,95,96,96,99,99,103,103,105,105,106,106,112,112,113,113],"right_children":[2,4,6,8,10,12,14,16,18,-1,20,22,24,26,28,30,32,34,36,-1,38,40,42,44,46,48,-1,50,52,54,56,58,60,62,64,-1,-1,-1,66,68,-1,70,-1,72,74,-1,-1,76,78,80,82,84,86,88,-1,-1,-1,90,92,94,96,-1,98,100,102,-1,104,-1,-1,-1,-1,-1,-1,-1,106,-1,-1,108,-1,-1,-1,110,112,114,-1,116,-1,-1,-1,118,120,-1,-1,-1,-1,122,124,-1,-1,126,-1,-1,-1,128,-1,130,132,-1,-1,-1,-1,-1,134,136,-1,-1,-1,-1,-1,-1,-1,-1,-1,-1,-1,-1,-1,-1,-1,-1,-1,-1,-1,-1,-1,-1,-1],"split_conditions":[-1.2779838E0,4.7296397E-2,6.983117E-1,-6.709102E-2,-2.1723647E0,-2.3545308E0,-2.2906643E-1,8.8459894E-2,1.0429394E0,1.22950286E-1,-8.8707423E-1,-1.2158613E0,2.7980895E0,1.7956567E0,4.2898822E-1,1.491025E0,-8.8613105E-1,1.0363048E0,9.255085E-1,8.1536144E-2,-2.4186645E0,1.4920674E-1,-5.6491834E-1,-1.0642581E0,7.4847355E-2,-2.6963892E0,1.3009307E-1,-1.7482247E0,1.083515E0,1.4929191E0,-2.5136486E-1,-6.009035E-1,-1.7724969E0,-1.433801E0,-2.3185718E-1,-1.7024681E-1,2.6207086E-1,5.8503322E-2,-1.25896E0,-1.4002736E0,-1.611855E-1,1.04501545E-1,-2.8815573E-1,-3.1048742E-1,-3.3089986E0,3.052605E-1,-2.1808939E-1,-1.1932254E-1,2.447532E0,-7.97602E-1,-1.9348407E0,3.6465842E-1,3.4037943E0,-1.6990426E0,9.279926E-2,-1.2008441E-1,2.5514862E-1,-7.871164E-1,-8.5674834E-1,3.0575177E-1,-7.485771E-1,-4.75755E-2,2.1398108E0,5.652255E-1,1.0548251E0,1.9395273E-2,-8.82898E-1,7.4346624E-2,4.5492655E-1,-1.7649673E-1,1.8102388E-1,-2.0772375E-1,2.3646593E-1,3.914898E-2,2.1882386E0,1.2478109E-1,-2.051086E-1,1.8811862E0,-9.562812E-3,3.1849793E-1,-1.490132E-1,2.0503959E-2,-3.5535731E0,5.597682E-1,-2.4014752E-1,-1.1395638E0,2.5153118E-1,1.653719E-2,-2.7375904E-1,1.0523598E-1,-4.5416555E-1,4.1969813E-2,-2.3586044E-1,-2.1456127E-1,6.4005576E-2,-1.1534395E0,-3.131499E-1,-2.9944798E-1,-6.772964E-2,-1.0580702E0,-2.1432479E-1,-2.5844312E-1,6.363674E-3,-5.305296E-2,-3.0434114E-1,-3.6538067E0,-8.283215E-1,-3.076865E-1,-9.538544E-2,-8.4376305E-2,1.9174954E-1,1.0726957E-1,-1.4046557E0,-3.5052213E-1,-1.6409142E-1,-5.7456166E-2,-2.8063062E-1,-1.5795523E-1,1.1999985E-1,2.9394066E-1,5.1926922E-2,-1.3964647E-1,2.2006132E-1,-4.547881E-2,3.1810474E-1,2.825236E-1,-8.325596E-2,1.3615812E-1,-1.7117937E-1,-4.4156425E-3,-3.0492422E-1,2.798226E-1,-2.7163282E-1,-8.03606E-3,-3.0281112E-1,-1.6258451E-1,3.5013032E-1],"split_indices":[258,336,382,277,354,358,120,382,333,0,121,64,344,305,333,252,322,252,371,0,329,279,324,182,376,383,0,296,258,340,267,352,362,376,276,0,0,0,238,335,0,270,0,240,345,0,0,348,72,33,349,279,352,174,0,0,0,335,222,264,383,0,147,350,310,0,14,0,0,0,0,0,0,0,346,0,0,310,0,0,0,31,275,332,0,257,0,0,0,66,27,0,0,0,0,297,293,0,0,329,0,0,0,379,0,366,328,0,0,0,0,0,327,375,0,0,0,0,0,0,0,0,0,0,0,0,0,0,0,0,0,0,0,0,0,0,0],"split_type":[0,0,0,0,0,0,0,0,0,0,0,0,0,0,0,0,0,0,0,0,0,0,0,0,0,0,0,0,0,0,0,0,0,0,0,0,0,0,0,0,0,0,0,0,0,0,0,0,0,0,0,0,0,0,0,0,0,0,0,0,0,0,0,0,0,0,0,0,0,0,0,0,0,0,0,0,0,0,0,0,0,0,0,0,0,0,0,0,0,0,0,0,0,0,0,0,0,0,0,0,0,0,0,0,0,0,0,0,0,0,0,0,0,0,0,0,0,0,0,0,0,0,0,0,0,0,0,0,0,0,0,0,0,0,0,0,0],"sum_hessian":[1.1750735E3,1.6100958E2,1.0140639E3,9.696039E1,6.4049194E1,8.199144E2,1.941495E2,5.823652E1,3.8723866E1,1.622369E0,6.2426826E1,2.042503E1,7.994894E2,1.1692609E2,7.722342E1,1.4259905E1,4.3976616E1,3.4995224E1,3.728642E0,1.851604E0,6.0575226E1,3.5160387E0,1.690899E1,7.961964E2,3.2929814E0,1.1499837E2,1.9277169E0,4.492901E1,3.2294415E1,1.0313096E1,3.9468088E0,1.8316402E1,2.5660213E1,2.192683E1,1.3068393E1,1.1930783E0,2.5355637E0,1.2942615E0,5.9280964E1,2.4932532E0,1.0227857E0,4.4019704E0,1.2507021E1,2.9959233E0,7.932005E2,1.0253412E0,2.26764E0,3.56135E0,1.1143702E2,3.1419973E0,4.178701E1,2.1065695E1,1.1228719E1,8.8065815E0,1.5065138E0,1.0782092E0,2.8685997E0,1.5053542E1,3.262861E0,2.583272E0,2.307694E1,1.0077943E0,2.0919037E1,6.7345567E0,6.333836E0,1.3649182E0,5.7916046E1,1.1287043E0,1.3645488E0,2.4256372E0,1.9763334E0,1.9911592E0,1.0047641E0,1.0044175E0,7.9219604E2,1.6367152E0,1.924635E0,1.1043593E2,1.0010904E0,1.2924507E0,1.8495468E0,2.3557155E0,3.9431293E1,1.7879715E1,3.1859798E0,9.51774E0,1.7109784E0,1.0777043E0,7.7288775E0,1.0800771E1,4.252771E0,1.0046728E0,2.2581882E0,1.1523657E0,1.4309063E0,5.03533E0,1.804161E1,1.9820421E1,1.0986142E0,4.7265754E0,2.0079813E0,4.9752474E0,1.3585888E0,2.1840413E0,5.5732002E1,7.83575E2,8.62106E0,1.090517E2,1.3842295E0,1.0585588E0,1.2971566E0,1.0288514E0,3.8402443E1,1.6345066E1,1.5346485E0,1.0107836E0,8.506957E0,4.3734274E0,6.427344E0,3.0818892E0,1.1708815E0,1.9368335E0,3.0984962E0,1.2217342E0,1.6819878E1,3.31125E0,1.4153253E0,1.0052269E0,1.1788144E0,1.0258844E0,7.8254913E2,1.5828177E0,7.038243E0,1.0025343E0,3.739991E1,1.0771953E0,1.526787E1],"tree_param":{"num_deleted":"0","num_feature":"384","num_nodes":"137","size_leaf_vector":"0"}}]},"name":"gbtree"},"learner_model_param":{"base_score":"5E-1","num_class":"0","num_feature":"384","num_target":"1"},"objective":{"name":"binary:logistic","reg_loss_param":{"scale_pos_weight":"1"}}},"version":[1,6,0]}