{"learner":{"attributes":{"best_iteration":"9","best_ntree_limit":"10"},"feature_names":[],"feature_types":[],"gradient_booster":{"model":{"gbtree_model_param":{"num_parallel_tree":"1","num_trees":"10","size_leaf_vector":"0"},"tree_info":[0,0,0,0,0,0,0,0,0,0],"trees":[{"base_weights":[-1.8781818E0,1.5238096E0,-1.95642E0,1.8440112E0,-1.2857143E0,-1.965097E0,-6.017699E-1,1.9139168E0,-4E-1,-1.7808219E0,1.4666667E0,-1.9729921E0,-1.3773987E0,1.5294118E0,-1.8344828E0,1.9364161E0,-6.666667E-1,1E0,-1.2941177E0,-1.884058E0,-0E0,3.1578946E-1,-1.974042E0,1.6296296E0,-1.7517899E0,1.7468355E0,-8E-1,-1.9148936E0,5E-1,1.9476744E0,-0E0,1.3846154E0,-1.2E0,-1.9760033E0,-8.6567163E-1,1.84E0,-5E-1,-1.8787879E0,3.7037036E-1,-0E0,1.84E0,-1.9416058E0,-5E-1,6.666667E-1,1.9588236E0,-8.4615386E-1,-1.9775082E0,-1.84E0,1.6190476E0,5E-1,-1.9081633E0,-1.3333334E0,1.3684211E0,5E-1,1.887324E0,-0E0,1E0,1.2E0,1.9816514E0,6.666667E-1,-1.6571429E0,-1.3043479E0,-1.9791111E0,-1.9381443E0,5E-1,-5E-1,1.5384616E0,5E-1,1.9876924E0,-6.666667E-1,1.25E0,1.2727273E0,-1.5764706E0,-1.9799258E0,-8.3870965E-1,-1.9583334E0,-0E0],"categories":[],"categories_nodes":[],"categories_segments":[],"categories_sizes":[],"default_left":[1,1,1,1,1,1,1,1,1,1,0,1,1,1,1,1,0,0,0,0,0,1,1,1,1,1,0,1,0,1,0,0,0,1,1,0,0,1,1,0,1,0,0,1,1,1,1,0,0,0,1,0,0,0,0,0,0,1,1,1,0,1,1,1,0,0,0,0,0,0,0,0,0,0,0,0,0],"id":0,"left_children":[1,3,5,7,9,11,13,15,17,19,-1,21,23,25,27,29,-1,-1,-1,-1,-1,31,33,35,37,39,-1,41,-1,43,-1,-1,-1,45,47,-1,-1,49,51,-1,53,-1,-1,55,57,59,61,-1,-1,-1,63,-1,-1,-1,-1,-1,-1,65,67,69,-1,71,73,75,-1,-1,-1,-1,-1,-1,-1,-1,-1,-1,-1,-1,-1],"loss_changes":[2.3583477E3,1.8184387E2,1.0050391E2,2.8923584E1,3.1229095E1,3.7160156E1,1.5123882E2,1.1408142E1,9.117647E0,3.3551712E0,0E0,2.1E1,1.3485541E2,1.2159939E1,7.7622223E0,3.7715454E0,0E0,0E0,0E0,0E0,0E0,9.357084E0,1.6710938E1,6.9681473E0,2.8927032E1,3.2141762E0,0E0,3.6146545E-1,0E0,1.1505737E0,0E0,0E0,0E0,1.27109375E1,4.3529667E1,0E0,0E0,7.8719788E0,1.3302145E1,0E0,2.453537E-1,0E0,0E0,6.666666E-1,5.668335E-1,1.7054214E1,6.53125E0,0E0,0E0,0E0,8.044586E0,0E0,0E0,0E0,0E0,0E0,0E0,5.0846148E0,4.6954346E-1,4.916667E0,0E0,1.8135872E1,6.1679688E0,3.7955322E0,0E0,0E0,0E0,0E0,0E0,0E0,0E0,0E0,0E0,0E0,0E0,0E0,0E0],"parents":[2147483647,0,0,1,1,2,2,3,3,4,4,5,5,6,6,7,7,8,8,9,9,11,11,12,12,13,13,14,14,15,15,21,21,22,22,23,23,24,24,25,25,27,27,29,29,33,33,34,34,37,37,38,38,40,40,43,43,44,44,45,45,46,46,50,50,57,57,58,58,59,59,61,61,62,62,63,63],"right_children":[2,4,6,8,10,12,14,16,18,20,-1,22,24,26,28,30,-1,-1,-1,-1,-1,32,34,36,38,40,-1,42,-1,44,-1,-1,-1,46,48,-1,-1,50,52,-1,54,-1,-1,56,58,60,62,-1,-1,-1,64,-1,-1,-1,-1,-1,-1,66,68,70,-1,72,74,76,-1,-1,-1,-1,-1,-1,-1,-1,-1,-1,-1,-1,-1],"split_conditions":[-2.5218017E0,4.0671763E-1,2.743824E0,-2.6501614E-1,2.9800143E0,2.2590818E0,-4.8864865E-1,2.6500145E-1,-6.530858E-1,1.6866262E0,4.4000003E-1,-3.943197E0,-8.009796E-1,8.491302E-1,2.4275317E0,8.314606E-1,-2.0000002E-1,3E-1,-3.8823533E-1,-5.6521744E-1,-0E0,-1.8069112E0,3.1458693E0,1.9212323E-1,1.5281186E0,1.5437105E-1,-2.4000001E-1,3.548986E0,1.5E-1,-2.4413702E0,-0E0,4.1538465E-1,-3.6E-1,-2.3943424E0,1.8216581E0,5.5200005E-1,-1.5E-1,-2.6008072E0,4.304491E-1,-0E0,-1.1215255E0,-5.8248174E-1,-1.5E-1,1.7170777E0,-1.3859742E0,-1.2430966E0,-2.6360102E0,-5.5200005E-1,4.8571432E-1,1.5E-1,2.5707645E0,-4.0000004E-1,4.1052634E-1,1.5E-1,5.661972E-1,-0E0,3E-1,4.9115738E-1,-1.5792155E0,4.7058362E-1,-4.9714288E-1,-1.7080188E0,3.3322434E0,2.6041954E0,1.5E-1,-1.5E-1,4.615385E-1,1.5E-1,5.9630775E-1,-2.0000002E-1,3.75E-1,3.818182E-1,-4.729412E-1,-5.9397775E-1,-2.516129E-1,-5.8750004E-1,-0E0],"split_indices":[376,344,382,256,342,342,344,1,291,15,0,383,271,310,99,90,0,0,0,0,0,1,302,279,382,136,0,0,0,358,0,0,0,376,256,0,0,346,366,0,6,0,0,0,363,1,350,0,0,0,377,0,0,0,0,0,0,379,22,37,0,299,344,340,0,0,0,0,0,0,0,0,0,0,0,0,0],"split_type":[0,0,0,0,0,0,0,0,0,0,0,0,0,0,0,0,0,0,0,0,0,0,0,0,0,0,0,0,0,0,0,0,0,0,0,0,0,0,0,0,0,0,0,0,0,0,0,0,0,0,0,0,0,0,0,0,0,0,0,0,0,0,0,0,0,0,0,0,0,0,0,0,0,0,0,0,0],"sum_hessian":[8.84825E3,1.985E2,8.64975E3,1.785E2,2E1,8.59425E3,5.55E1,1.7325E2,5.25E0,1.725E1,2.75E0,8.478E3,1.1625E2,2.025E1,3.525E1,1.72E2,1.25E0,2E0,3.25E0,1.625E1,1E0,3.75E0,8.47425E3,1.25E1,1.0375E2,1.875E1,1.5E0,3.425E1,1E0,1.71E2,1E0,2.25E0,1.5E0,8.4585E3,1.575E1,1.15E1,1E0,9.8E1,5.75E0,1E0,1.775E1,3.325E1,1E0,2E0,1.69E2,1.2E1,8.4465E3,1.15E1,4.25E0,1E0,9.7E1,2E0,3.75E0,1E0,1.675E1,1E0,1E0,6.5E0,1.625E2,4.25E0,7.75E0,2.2E1,8.4245E3,9.6E1,1E0,1E0,5.5E0,1E0,1.615E2,1.25E0,3E0,1.75E0,2.025E1,8.41775E3,6.75E0,9.5E1,1E0],"tree_param":{"num_deleted":"0","num_feature":"384","num_nodes":"77","size_leaf_vector":"0"}},{"base_weights":[-1.4507774E0,1.1749946E0,-1.5115229E0,-1.4111152E0,1.383472E0,-1.5201725E0,-6.141161E-1,-1.2814643E0,1.4510853E0,-1.5278888E0,-1.1372665E0,9.900118E-1,-1.4318894E0,1.4849689E0,-1.4554457E-1,2.4149612E-1,-1.5287497E0,1.1116202E0,-1.3532817E0,1.3232445E0,-1.0454407E0,3.4483564E-1,-1.5152969E0,1.499141E0,-2.0029485E-1,8.578316E-1,-1.103722E0,1.1340214E0,-1.005434E0,-1.5303253E0,-6.591859E-1,-1.0556117E0,1.4746754E0,-1.4360888E0,5.901835E-2,1.4687552E0,-5.538069E-1,-4.4456124E-1,-1.5319127E0,8.260561E-1,1.5304012E0,-2.1390069E-1,-1.5309654E0,-1.4407282E0,1.2927783E0,-1.4611335E0,2.5167E-1,1.2188387E0,-9.257345E-1,1.5469832E0,6.7613505E-2,-4.5896485E-2,1.26906E0,5.7163376E-1,1.5391091E0,-1.1382493E0,1.5011679E0,-1.1838454E0,-1.5339528E0,-1.4806777E0,9.938002E-2,2.0072201E-1,1.5168287E0,2.03032E-1,-1.2888757E0,1.610174E0,2.6362187E-1,-9.28041E-1,9.574284E-1,4.0805584E-1,1.5451328E0,2.2877377E-1,-1.4891468E0,-1.5344077E0,1.9647151E-2,9.469234E-2,-1.498218E0],"categories":[],"categories_nodes":[],"categories_segments":[],"categories_sizes":[],"default_left":[1,1,1,0,1,1,1,0,1,1,1,1,1,1,1,1,1,1,1,1,0,0,1,1,0,0,0,0,0,1,1,0,0,1,1,1,0,0,0,1,1,1,1,0,0,1,0,1,1,1,0,1,0,0,1,0,0,1,1,1,0,0,0,0,0,0,0,0,0,0,0,0,0,0,0,0,0],"id":1,"left_children":[1,3,5,-1,7,9,11,-1,13,15,17,19,21,23,25,27,29,31,33,35,-1,-1,37,39,-1,-1,-1,-1,-1,41,43,-1,-1,45,47,49,-1,-1,-1,51,53,55,57,-1,-1,59,-1,61,63,65,-1,67,-1,-1,69,-1,-1,71,73,75,-1,-1,-1,-1,-1,-1,-1,-1,-1,-1,-1,-1,-1,-1,-1,-1,-1],"loss_changes":[1.2964824E3,1.0120906E2,6.0652344E1,0E0,3.264795E1,2.1478516E1,1.02977E2,0E0,9.256836E0,1.2097656E1,7.8808014E1,1.9515388E1,8.182098E0,4.210724E0,5.1611385E0,6.2686143E0,9.535156E0,1.2961304E1,1.7116455E1,7.2082214E0,0E0,0E0,2.0059967E-1,2.154541E0,0E0,0E0,0E0,0E0,0E0,6.1464844E0,2.5776169E1,0E0,0E0,6.1842957E0,1.1437844E1,2.3070488E0,0E0,0E0,0E0,3.6830978E0,4.0673828E-1,9.47064E0,6.1445312E0,0E0,0E0,4.2871704E0,0E0,1.0839949E0,2.4956594E0,1.2617798E0,0E0,4.540844E0,0E0,0E0,4.058838E-1,0E0,0E0,3.0482117E1,5.408203E0,3.848114E0,0E0,0E0,0E0,0E0,0E0,0E0,0E0,0E0,0E0,0E0,0E0,0E0,0E0,0E0,0E0,0E0,0E0],"parents":[2147483647,0,0,1,1,2,2,4,4,5,5,6,6,8,8,9,9,10,10,11,11,12,12,13,13,14,14,15,15,16,16,17,17,18,18,19,19,22,22,23,23,29,29,30,30,33,33,34,34,35,35,39,39,40,40,41,41,42,42,45,45,47,47,48,48,49,49,51,51,54,54,57,57,58,58,59,59],"right_children":[2,4,6,-1,8,10,12,-1,14,16,18,20,22,24,26,28,30,32,34,36,-1,-1,38,40,-1,-1,-1,-1,-1,42,44,-1,-1,46,48,50,-1,-1,-1,52,54,56,58,-1,-1,60,-1,62,64,66,-1,68,-1,-1,70,-1,-1,72,74,76,-1,-1,-1,-1,-1,-1,-1,-1,-1,-1,-1,-1,-1,-1,-1,-1,-1],"split_conditions":[-2.5218017E0,-6.239586E-1,2.5259223E0,-4.2333457E-1,2.2045234E-1,1.9828641E0,-4.8864865E-1,-3.8443932E-1,-2.4812421E-1,-3.943197E0,-8.021573E-1,8.491302E-1,-2.2452376E0,8.314606E-1,-1.7501736E-1,-1.8069112E0,3.1458693E0,-4.0848434E-1,1.783225E0,7.0563054E-1,-3.1363222E-1,1.0345069E-1,-1.1999931E0,-1.3773944E0,-6.008846E-2,2.573495E-1,-3.3111662E-1,3.4020644E-1,-3.0163023E-1,-6.2571707E0,1.8216581E0,-3.1668353E-1,4.4240263E-1,1.0232452E0,-7.8907204E-1,4.0853578E-1,-1.6614208E-1,-1.3336837E-1,-4.5957384E-1,-2.9722747E-1,-2.4413702E0,8.5992014E-1,-1.9395504E0,-4.3221846E-1,3.878335E-1,2.100772E0,7.5501E-2,3.6028144E-1,1.356229E-2,1.5594537E0,2.0284053E-2,-1.3791027E0,3.8071802E-1,1.7149013E-1,-1.2345154E0,-3.414748E-1,4.5035037E-1,-9.199439E-1,3.5978293E0,-1.8855281E0,2.9814007E-2,6.0216606E-2,4.5504862E-1,6.0909603E-2,-3.8666272E-1,4.830522E-1,7.9086564E-2,-2.784123E-1,2.8722852E-1,1.2241676E-1,4.6353984E-1,6.863213E-2,-4.4674405E-1,-4.6032235E-1,5.8941455E-3,2.8407704E-2,-4.4946542E-1],"split_indices":[376,349,382,0,340,342,344,0,256,383,271,310,348,90,194,1,302,318,377,177,0,0,48,363,0,0,0,0,0,340,256,0,0,264,161,341,0,0,0,84,358,258,376,0,0,332,0,105,316,364,0,324,0,0,68,0,0,346,344,315,0,0,0,0,0,0,0,0,0,0,0,0,0,0,0,0,0],"split_type":[0,0,0,0,0,0,0,0,0,0,0,0,0,0,0,0,0,0,0,0,0,0,0,0,0,0,0,0,0,0,0,0,0,0,0,0,0,0,0,0,0,0,0,0,0,0,0,0,0,0,0,0,0,0,0,0,0,0,0,0,0,0,0,0,0,0,0,0,0,0,0,0,0,0,0,0,0],"sum_hessian":[8.116095E3,1.8310016E2,7.932995E3,1.3229011E1,1.6987115E2,7.8565757E3,7.641912E1,3.7590175E0,1.6611214E2,7.6984473E3,1.5812859E2,2.573238E1,5.0686737E1,1.6272865E2,3.3834789E0,3.608099E0,7.6948394E3,1.3494486E1,1.4463411E2,2.241296E1,3.3194196E0,2.1322274E0,4.8554512E1,1.6148114E2,1.2475166E0,1.7039142E0,1.6795648E0,2.1556683E0,1.4524307E0,7.6801636E3,1.4675489E1,1.6625332E0,1.1831953E1,1.3660757E2,8.0265255E0,2.1002357E1,1.4106032E0,1.1660898E0,4.738842E1,8.38404E0,1.5309709E2,3.896129E0,7.6762676E3,1.0666616E1,4.008873E0,1.3474242E2,1.8651654E0,3.576496E0,4.450029E0,1.9793182E1,1.2091733E0,3.1265442E0,5.257496E0,1.9778333E0,1.5111926E2,2.7502086E0,1.1459203E0,6.888919E1,7.6073784E3,1.3312627E2,1.6161398E0,1.1887119E0,2.387784E0,1.1904881E0,3.259541E0,1.8621632E1,1.171552E0,1.7036731E0,1.4228711E0,1.164718E0,1.4995454E2,1.2287234E1,5.660196E1,7.6051636E3,2.2147613E0,1.4174901E0,1.3170879E2],"tree_param":{"num_deleted":"0","num_feature":"384","num_nodes":"77","size_leaf_vector":"0"}},{"base_weights":[-1.2527046E0,1.0026073E0,-1.3055608E0,-5.752976E-1,1.2705989E0,-6.467818E-1,-1.3161352E0,-1.0748024E0,5.5924517E-1,4.1347593E-1,1.3165317E0,2.2046314E-1,-1.2123903E0,-5.685615E-1,-1.3191881E0,-1.2803676E0,4.9370354E-1,1.0192114E0,-9.2886895E-1,8.9686996E-1,-4.0278414E-1,1.3277924E0,-1.9821277E-2,-1.0294254E0,8.961E-1,4.370491E-1,-1.2996395E0,-9.889011E-1,1.0153152E0,-9.7925097E-1,-1.324035E0,1.1532937E0,1.5395506E-1,1.1163557E0,8.682859E-3,5.806625E-1,-1.0493321E0,2.4176621E-1,1.33468E0,-1.232723E0,7.584685E-1,-5.127991E-1,1.1773478E0,1.1622509E0,-7.2499144E-1,-1.3316289E0,2.0686688E-1,1.0231209E0,-1.1467868E0,-1.6331266E-1,1.3404154E0,5.511306E-1,-1.239534E0,-1.325478E0,-5.382091E-1,1.3416804E0,2.4176621E-1,-1.3426219E0,-1.6749851E-1,6.5485215E-1,-1.0396265E0,-7.451784E-1,1.2970258E0,-1.3430979E0,-3.2626528E-1,1.8959431E-1,-1.2675629E0,1.0789406E0,-1.045584E0,-1.2947053E0,7.810268E-1,-1.3258902E0,4.869866E-1,-1.2351364E0,1.1047131E0,2.6090515E-1,1.3487169E0,1.4267864E0,-4.042179E-1,-1.3139117E0,-1.9353347E-1,1.4075906E0,-4.8710525E-1,-1.3192468E0,2.0530054E-1,-2.1103819E-1,-1.3266742E0,-9.894026E-2,1.5094215E0,2.5768507E-1,1.5355295E0,-1.3316829E0,-2.5602713E-1,-1.0527214E0,1.2908748E0,-1.3275092E0,-4.000864E-1],"categories":[],"categories_nodes":[],"categories_segments":[],"categories_sizes":[],"default_left":[1,1,1,1,1,1,1,1,1,1,1,1,1,1,1,0,0,1,0,1,1,1,0,1,1,1,1,1,1,1,1,0,0,0,0,0,0,0,1,1,0,1,1,0,0,1,0,0,1,0,0,1,1,1,1,1,0,0,0,0,0,0,1,0,0,0,1,1,0,1,0,1,0,0,0,0,0,1,0,0,0,1,0,1,0,1,1,0,0,0,0,0,0,0,0,0,0],"id":2,"left_children":[1,3,5,7,9,11,13,15,17,19,21,23,25,27,29,-1,-1,31,-1,33,35,37,-1,39,41,43,45,47,49,51,53,-1,-1,-1,-1,-1,-1,-1,55,57,-1,59,61,-1,-1,63,-1,-1,65,-1,-1,67,69,71,73,75,-1,-1,-1,-1,-1,-1,77,-1,-1,-1,79,81,-1,83,-1,85,-1,-1,-1,-1,-1,87,-1,-1,-1,89,-1,91,-1,93,95,-1,-1,-1,-1,-1,-1,-1,-1,-1,-1],"loss_changes":[8.1184863E2,6.6812E1,4.5432617E1,1.3848444E1,4.7270355E0,5.2718777E1,1.4171875E1,5.9755955E0,6.288031E0,3.6236694E0,1.9318085E0,3.7282024E1,9.904175E0,1.9878277E1,9.430664E0,0E0,0E0,5.693259E-1,0E0,1.0630531E0,3.003495E0,6.166992E-1,0E0,6.595398E0,1.1890112E1,4.2198305E0,3.256958E0,8.451279E0,2.6861954E0,3.8671326E1,6.5625E0,0E0,0E0,0E0,0E0,0E0,0E0,0E0,6.286926E-1,1.4566612E0,0E0,4.0249352E0,6.4992714E0,0E0,0E0,2.618637E-1,0E0,0E0,3.7451878E0,0E0,0E0,1.3394102E1,1.0131531E1,5.430664E0,1.6757885E1,5.877533E-1,0E0,0E0,0E0,0E0,0E0,0E0,5.6546097E0,0E0,0E0,0E0,7.4357224E-1,6.5688477E0,0E0,3.2164001E0,0E0,5.3154297E0,0E0,0E0,0E0,0E0,0E0,2.8717537E0,0E0,0E0,0E0,1.0321102E0,0E0,7.017822E-1,0E0,8.549882E0,4.419922E0,0E0,0E0,0E0,0E0,0E0,0E0,0E0,0E0,0E0,0E0],"parents":[2147483647,0,0,1,1,2,2,3,3,4,4,5,5,6,6,7,7,8,8,9,9,10,10,11,11,12,12,13,13,14,14,17,17,19,19,20,20,21,21,23,23,24,24,25,25,26,26,27,27,28,28,29,29,30,30,38,38,39,39,41,41,42,42,45,45,48,48,51,51,52,52,53,53,54,54,55,55,62,62,66,66,67,67,69,69,71,71,77,77,81,81,83,83,85,85,86,86],"right_children":[2,4,6,8,10,12,14,16,18,20,22,24,26,28,30,-1,-1,32,-1,34,36,38,-1,40,42,44,46,48,50,52,54,-1,-1,-1,-1,-1,-1,-1,56,58,-1,60,62,-1,-1,64,-1,-1,66,-1,-1,68,70,72,74,76,-1,-1,-1,-1,-1,-1,78,-1,-1,-1,80,82,-1,84,-1,86,-1,-1,-1,-1,-1,88,-1,-1,-1,90,-1,92,-1,94,96,-1,-1,-1,-1,-1,-1,-1,-1,-1,-1],"split_conditions":[-2.5218017E0,2.2329712E0,-1.8650386E0,3.504007E-1,-1.3735067E0,-5.0555694E-1,-2.5440474E0,6.737453E-1,3.680942E-2,-8.460249E-2,8.302232E-1,6.03304E-1,-1.8238955E0,2.5948653E0,-1.8401045E0,-3.841103E-1,1.4811108E-1,-4.09549E-1,-2.7866068E-1,1.2449155E0,1.3102276E0,-5.963148E-1,-5.9463833E-3,1.5890653E0,-5.804436E-1,-6.1242723E-1,-1.8784995E0,-1.7080188E0,1.4205014E-2,-2.4234873E-1,3.1458693E0,3.4598812E-1,4.6186518E-2,3.349067E-1,2.6048578E-3,1.7419875E-1,-3.1479967E-1,7.252987E-2,7.372255E-1,1.108679E0,2.2754057E-1,-5.783842E-1,-9.4733655E-1,3.4867528E-1,-2.1749744E-1,1.9005208E0,6.2060066E-2,3.0693626E-1,-1.1164384E0,-4.89938E-2,4.021246E-1,-8.069695E-2,2.3842082E0,4.338773E0,1.8216581E0,-1.2289126E0,7.252987E-2,-4.0278658E-1,-5.0249558E-2,1.9645566E-1,-3.1188795E-1,-2.2355352E-1,-1.8324131E-1,-4.029294E-1,-9.787959E-2,5.6878295E-2,2.4216475E0,5.46756E-1,-3.136752E-1,2.0130572E0,2.3430805E-1,-6.1129575E0,1.4609599E-1,-3.7054092E-1,3.3141392E-1,7.8271545E-2,4.0461507E-1,-1.1732206E0,-1.21265374E-1,-3.9417353E-1,-5.8060043E-2,-5.778544E-1,-1.4613158E-1,2.6947203E0,6.1590165E-2,8.453791E-1,3.3322434E0,-2.968208E-2,4.5282647E-1,7.7305526E-2,4.6065888E-1,-3.995049E-1,-7.680814E-2,-3.1581643E-1,3.8726246E-1,-3.9825276E-1,-1.20025925E-1],"split_indices":[376,382,376,349,363,346,350,277,30,344,281,372,350,382,304,0,0,24,0,4,37,82,0,220,314,64,376,299,18,269,302,0,0,0,0,0,0,0,140,20,0,188,3,0,0,67,0,0,209,0,0,335,340,56,256,92,0,0,0,0,0,0,125,0,0,0,15,300,0,15,0,340,0,0,0,0,0,55,0,0,0,58,0,5,0,258,344,0,0,0,0,0,0,0,0,0,0],"split_type":[0,0,0,0,0,0,0,0,0,0,0,0,0,0,0,0,0,0,0,0,0,0,0,0,0,0,0,0,0,0,0,0,0,0,0,0,0,0,0,0,0,0,0,0,0,0,0,0,0,0,0,0,0,0,0,0,0,0,0,0,0,0,0,0,0,0,0,0,0,0,0,0,0,0,0,0,0,0,0,0,0,0,0,0,0,0,0,0,0,0,0,0,0,0,0,0,0],"sum_hessian":[6.7984155E3,1.5526965E2,6.6431455E3,2.2375937E1,1.328937E2,1.0593012E2,6.5372153E3,1.55724945E1,6.803442E0,7.2681932E0,1.2562552E2,4.205603E1,6.3874096E1,2.7349642E1,6.5098657E3,1.3930494E1,1.6420004E0,5.4377637E0,1.3656784E0,4.5028334E0,2.7653599E0,1.24582146E2,1.0433768E0,1.457307E1,2.748296E1,3.0075388E0,6.0866554E1,2.1910528E1,5.439114E0,9.436807E1,6.415498E3,4.419945E0,1.0178187E0,3.4046066E0,1.0982268E0,1.1373188E0,1.6280411E0,1.0126326E0,1.2356951E2,1.3363995E1,1.2090752E0,4.4362836E0,2.3046677E1,1.8517345E0,1.1558043E0,5.971464E1,1.1519125E0,1.1955001E0,2.0715027E1,1.2835063E0,4.1556077E0,1.3554499E1,8.0813576E1,6.4030537E3,1.2444062E1,1.2255688E2,1.0126326E0,1.1878119E1,1.4858744E0,1.3037232E0,3.1325605E0,1.0443033E0,2.2002373E1,5.870897E1,1.0056734E0,1.6697308E0,1.9045298E1,1.0430775E1,3.123723E0,7.90153E1,1.7982754E0,6.4018657E3,1.1878252E0,8.91186E0,3.5322018E0,1.0390686E0,1.2151781E2,2.059299E1,1.4093821E0,1.8043304E1,1.0019921E0,8.705106E0,1.7256696E0,7.7861916E1,1.1533852E0,4.688436E0,6.3971777E3,1.0478967E0,1.9545094E1,1.1733395E0,7.531766E0,7.6712135E1,1.1497774E0,3.1962907E0,1.4921452E0,6.3909854E3,6.191908E0],"tree_param":{"num_deleted":"0","num_feature":"384","num_nodes":"97","size_leaf_vector":"0"}},{"base_weights":[-1.136593E0,9.047601E-1,-1.1850052E0,-4.7732228E-1,1.1494814E0,-7.2292936E-1,-1.200508E0,-1.0979717E0,3.285326E-1,-3.153667E-1,1.1666933E0,7.5366214E-2,-1.0767787E0,-1.2015431E0,1.1088105E-1,-1.6106133E-1,-1.1731079E0,1.0376598E0,-8.7569493E-1,1.1845715E0,-4.188219E-2,-1.1010953E0,6.5178996E-1,-1.1601452E0,2.381736E-1,-1.206075E0,-9.002514E-1,1.1606907E0,-8.501189E-1,5.802E-1,1.2135912E0,1.1490755E-1,-1.179276E0,-6.335067E-1,1.0329183E0,-1.1869135E0,8.4685576E-1,9.7047687E-1,-8.4056056E-1,8.2777336E-2,-1.2068241E0,-1.0334074E0,2.9860097E-1,9.851254E-1,-4.2632374E-1,3.9764184E-1,1.2264228E0,-1.013108E0,8.843969E-1,-1.7030832E-1,1.2104218E0,-1.2000794E0,9.6954666E-2,8.117994E-3,1.1954267E0,7.952542E-1,-7.5406873E-1,-1.2086027E0,-5.7548565E-1,1.1493733E0,-1.0852401E0,-6.0463846E-1,1.7119725E0,-2.743578E-1,-1.0903227E0,8.582989E-1,-9.743758E-1,-5.1976925E-1,1.3474361E0,-1.2160195E0,-7.3041335E-2,-1.2106051E0,-6.7535734E-1,1.1550041E0,-1.1505458E0,4.9439764E-1,-1.1166834E0,-9.7251177E-1,3.6013305E-1,5.2781556E-2,2.5600955E0,-1.2581109E-1,1.5028651E0,-1.7945205E-1,-1.2260075E0,-2.2968973E-1,-1.2115697E0,6.6736203E-1,-1.1636188E0,-1.143726E0,3.2411656E-1],"categories":[],"categories_nodes":[],"categories_segments":[],"categories_sizes":[],"default_left":[1,1,1,1,1,1,1,1,1,0,1,1,1,1,1,0,0,0,0,1,0,1,1,1,1,1,1,0,0,1,1,0,0,1,1,1,0,1,0,1,1,1,1,0,0,0,0,1,0,1,1,1,0,0,0,0,0,1,1,0,1,1,1,0,0,0,0,0,1,1,0,1,1,0,0,0,1,0,0,0,0,0,0,0,0,0,0,0,0,0,0],"id":3,"left_children":[1,3,5,7,9,11,13,15,17,-1,19,21,23,25,27,-1,-1,-1,-1,29,-1,31,33,35,37,39,41,-1,-1,43,45,-1,-1,47,49,51,-1,53,-1,55,57,59,61,-1,-1,-1,-1,63,-1,65,67,69,-1,-1,-1,-1,-1,71,73,-1,75,77,79,-1,-1,-1,-1,-1,81,83,-1,85,87,-1,-1,-1,89,-1,-1,-1,-1,-1,-1,-1,-1,-1,-1,-1,-1,-1,-1],"loss_changes":[5.414009E2,4.3580345E1,3.7394043E1,1.0286556E1,3.1005707E0,4.9767647E1,7.145996E0,6.164837E-1,8.939387E0,0E0,2.3688354E0,3.7985706E1,1.3643738E1,5.9628906E0,6.021108E0,0E0,0E0,0E0,0E0,1.1515808E0,0E0,1.8889198E0,1.9030308E1,7.174835E0,7.21413E0,5.0078125E0,1.3150093E1,0E0,0E0,3.176633E0,5.597534E-1,0E0,0E0,6.1966176E0,6.466751E0,2.039032E0,0E0,1.1351914E0,0E0,2.9181676E0,5.008789E0,9.464165E0,1.2291592E1,0E0,0E0,0E0,0E0,1.4722157E-1,0E0,4.678109E0,6.78524E0,1.9352112E0,0E0,0E0,0E0,0E0,0E0,4.590332E0,1.7430275E1,0E0,4.1012115E0,2.5217912E0,5.069955E0,0E0,0E0,0E0,0E0,0E0,5.699127E0,9.2951965E-1,0E0,4.495117E0,1.4681609E1,0E0,0E0,0E0,3.112442E0,0E0,0E0,0E0,0E0,0E0,0E0,0E0,0E0,0E0,0E0,0E0,0E0,0E0,0E0],"parents":[2147483647,0,0,1,1,2,2,3,3,4,4,5,5,6,6,7,7,8,8,10,10,11,11,12,12,13,13,14,14,19,19,21,21,22,22,23,23,24,24,25,25,26,26,29,29,30,30,33,33,34,34,35,35,37,37,39,39,40,40,41,41,42,42,47,47,49,49,50,50,51,51,57,57,58,58,60,60,61,61,62,62,68,68,69,69,71,71,72,72,76,76],"right_children":[2,4,6,8,10,12,14,16,18,-1,20,22,24,26,28,-1,-1,-1,-1,30,-1,32,34,36,38,40,42,-1,-1,44,46,-1,-1,48,50,52,-1,54,-1,56,58,60,62,-1,-1,-1,-1,64,-1,66,68,70,-1,-1,-1,-1,-1,72,74,-1,76,78,80,-1,-1,-1,-1,-1,82,84,-1,86,88,-1,-1,-1,90,-1,-1,-1,-1,-1,-1,-1,-1,-1,-1,-1,-1,-1,-1],"split_conditions":[-2.5357263E0,2.2329712E0,-1.5958124E0,9.366504E-1,-1.5792155E0,-8.247459E-1,3.2711425E0,-1.6440191E0,5.779299E-1,-9.461001E-2,2.8616006E0,3.5532027E-1,2.3486474E0,1.8545773E0,-1.027029E0,-4.83184E-2,-3.5193238E-1,3.1129795E-1,-2.627085E-1,-1.3735067E0,-1.2564658E-2,-2.228283E0,-3.1811324E-1,2.6566443E0,-2.3916411E-1,-3.943197E0,6.0539985E-1,3.482072E-1,-2.5503567E-1,4.5724547E-1,-2.4413702E0,3.4472264E-2,-3.537828E-1,-1.2042508E-1,-7.2436464E-1,9.80385E-1,2.5405675E-1,-9.1645014E-1,-2.5216818E-1,-1.8069112E0,2.8135242E0,-1.9663155E0,-1.0627783E-1,2.9553765E-1,-1.2789713E-1,1.1929256E-1,3.6792684E-1,-5.89566E-1,2.6531908E-1,-2.9734245E-1,-1.2603923E0,2.3260007E0,2.9086402E-2,2.4353983E-3,3.5862803E-1,2.3857626E-1,-2.2622062E-1,2.9728842E0,-3.9592648E-1,3.44812E-1,-2.637376E0,-1.1918242E0,-1.2989265E0,-8.230734E-2,-3.2709682E-1,2.5748968E-1,-2.9231274E-1,-1.5593079E-1,-1.4450021E0,-8.1839025E-1,-2.1912402E-2,-5.897856E0,-1.3153464E-1,3.4650126E-1,-3.4516376E-1,1.483193E-1,6.745572E-1,-2.9175353E-1,1.0803992E-1,1.5834467E-2,7.680287E-1,-3.7743326E-2,4.5085955E-1,-5.3835616E-2,-3.6780226E-1,-6.8906926E-2,-3.634709E-1,2.0020862E-1,-3.4908566E-1,-3.431178E-1,9.723497E-2],"split_indices":[376,382,376,340,22,125,342,79,226,0,332,372,382,160,188,0,0,0,0,363,0,376,319,340,333,383,265,0,0,375,358,0,0,244,259,270,0,250,0,1,302,380,361,0,0,0,0,337,0,182,258,92,0,0,0,0,0,354,276,0,289,10,110,0,0,0,0,0,357,161,0,340,277,0,0,0,275,0,0,0,0,0,0,0,0,0,0,0,0,0,0],"split_type":[0,0,0,0,0,0,0,0,0,0,0,0,0,0,0,0,0,0,0,0,0,0,0,0,0,0,0,0,0,0,0,0,0,0,0,0,0,0,0,0,0,0,0,0,0,0,0,0,0,0,0,0,0,0,0,0,0,0,0,0,0,0,0,0,0,0,0,0,0,0,0,0,0,0,0,0,0,0,0,0,0,0,0,0,0,0,0,0,0,0,0],"sum_hessian":[5.4664595E3,1.26227974E2,5.340232E3,1.8845585E1,1.0738239E2,1.748962E2,5.1653354E3,1.0441391E1,8.404193E0,1.0459154E0,1.0633647E2,5.395621E1,1.2093998E2,5.161345E3,3.9901357E0,1.008573E0,9.432818E0,5.376488E0,3.027705E0,1.0480597E2,1.5305039E0,1.7443792E1,3.6512417E1,1.13840355E2,7.0996265E0,5.0819023E3,7.9443245E1,1.8076448E0,2.1824908E0,5.7636743E0,9.90423E1,1.0253881E0,1.6418406E1,8.199313E0,2.8313105E1,1.1274523E2,1.0951223E0,4.2886286E0,2.8109977E0,2.888563E0,5.0790137E3,7.162579E1,7.8174477E0,4.125316E0,1.6383584E0,2.028686E0,9.701361E1,6.8250484E0,1.3742651E0,3.6450787E0,2.4668026E1,1.11665375E2,1.0798602E0,1.0088314E0,3.2797973E0,1.5870639E0,1.3014991E0,5.0638335E3,1.5180092E1,1.1702285E0,7.045557E1,5.118551E0,2.698897E0,1.0767204E0,5.748328E0,1.5696499E0,2.0754287E0,1.6051352E0,2.3062891E1,1.10030235E2,1.6351372E0,5.043624E3,2.0209723E1,3.5347414E0,1.164535E1,1.0877154E0,6.936785E1,3.6997793E0,1.4187716E0,1.2722385E0,1.4266584E0,2.21914E0,2.0843752E1,1.2311076E0,1.08799126E2,5.189635E0,5.038434E3,5.2914414E0,1.4918282E1,6.829225E1,1.075602E0],"tree_param":{"num_deleted":"0","num_feature":"384","num_nodes":"91","size_leaf_vector":"0"}},{"base_weights":[-1.059127E0,7.0124376E-1,-1.1083056E0,-7.0325893E-1,1.0121194E0,-8.086998E-1,-1.1259238E0,5.2987707E-1,-9.736623E-1,1.0711237E0,-5.991623E-2,-3.3817673E-1,-1.1297112E0,-5.2645475E-1,-1.1291323E0,-4.9612725E-1,9.736873E-1,2.345969E-1,-1.1134353E0,-2.6635775E-1,1.0895689E0,-9.428683E-1,6.858028E-1,-8.730156E-1,5.183133E-1,1.2703803E-1,-1.1402756E0,-1.0728024E0,1.3923607E0,-1.1305834E0,-4.587765E-3,-1.1469358E0,-3.2633448E-1,1.1185882E0,2.849023E-1,8.6402255E-1,9.142694E-2,-1.0471181E0,6.546558E-1,1.0303128E0,-6.499514E-1,-2.8708843E-3,-1.1523012E0,-2.510725E-1,-1.1061453E0,-1.1359917E0,-8.204178E-1,1.5522305E0,-1.04193E0,5.9982352E-2,1.1341373E0,-6.252954E-1,8.175951E-1,-1.0996267E0,1.0396756E-1,-4.9917883E-1,2.1008239E0,-8.471508E-1,1.2473055E0,7.436789E-1,-9.880454E-1,-1.1621442E0,-1.4741781E-1,-1.1382648E0,-5.752733E-1,-9.8732305E-1,7.9948805E-2,4.808722E-1,1.1622736E0,-1.1504081E0,1.8895097E-1,8.357042E-1,-6.349912E-1,3.3944508E-1,-8.4672296E-1,-5.641125E-1,1.4275302E0,-1.630783E-1,-1.0602734E0,-1.1397029E0,-4.26113E-1,8.5874104E-1,-1.003171E0,-1.0430329E0,5.206467E-1,-7.8387123E-1,1.3611289E0,-3.9831448E-1,9.139428E-1,1.1689662E0,3.286804E-1,9.512955E-1,2.511833E0,1.5359769E-2,-1.1402155E0,-1.0105709E0,8.609561E-1,6.2508725E-2,1.0821741E0,1.00771464E-1,-1.0964931E0,2.3090234E-1,-1.0752983E0,3.7238845E-1,-1.0228277E0,2.0221155E0,-6.170581E-1],"categories":[],"categories_nodes":[],"categories_segments":[],"categories_sizes":[],"default_left":[1,1,1,1,1,1,1,1,1,1,1,1,1,1,1,0,0,0,1,0,1,0,1,1,1,0,1,1,0,1,1,0,0,1,1,0,0,1,1,1,1,0,1,0,0,1,1,0,0,0,1,0,0,1,1,1,0,0,1,0,1,0,0,1,1,1,1,1,1,0,0,0,0,0,0,0,1,0,0,1,1,1,1,1,0,1,1,0,0,0,0,0,0,0,0,0,0,0,0,0,0,0,0,0,0,0,0],"id":4,"left_children":[1,3,5,7,9,11,13,15,17,19,21,23,25,27,29,-1,-1,-1,31,-1,33,-1,35,37,39,-1,41,43,-1,45,47,-1,-1,49,51,-1,-1,53,55,57,59,-1,61,-1,-1,63,65,-1,-1,-1,67,-1,-1,69,71,73,-1,-1,75,-1,77,-1,-1,79,81,83,85,87,89,-1,-1,-1,-1,-1,-1,-1,91,-1,-1,93,95,97,99,101,-1,103,105,-1,-1,-1,-1,-1,-1,-1,-1,-1,-1,-1,-1,-1,-1,-1,-1,-1,-1,-1,-1],"loss_changes":[3.731294E2,5.201668E1,2.1177734E1,7.8133326E0,6.1757355E0,3.525699E1,7.0024414E0,2.5701623E0,3.3520012E0,2.550743E0,4.5889482E0,4.4941246E1,2.001419E0,2.5501368E1,6.404297E0,0E0,0E0,0E0,6.284714E-2,0E0,1.7964554E0,0E0,3.2617295E-1,1.6685883E1,2.3376017E1,0E0,1.8947449E0,2.2614098E-1,0E0,5.647949E0,1.1413116E1,0E0,0E0,1.3654327E0,2.6905313E0,0E0,0E0,3.401657E0,1.2345188E1,1.196693E1,6.4739246E0,0E0,1.1868591E0,0E0,0E0,4.2563477E0,1.072242E1,0E0,0E0,0E0,1.0175858E0,0E0,0E0,3.6267128E0,2.307693E0,1.6204151E0,0E0,0E0,8.774376E0,0E0,4.3676186E-1,0E0,0E0,3.4433594E0,1.1647377E1,5.568882E0,1.43488455E1,2.3619452E0,7.058716E-2,0E0,0E0,0E0,0E0,0E0,0E0,0E0,9.221249E0,0E0,0E0,2.2836914E0,7.886901E0,7.468803E-1,1.5527382E0,2.633419E0,0E0,2.536756E0,8.045095E0,0E0,0E0,0E0,0E0,0E0,0E0,0E0,0E0,0E0,0E0,0E0,0E0,0E0,0E0,0E0,0E0,0E0,0E0,0E0,0E0],"parents":[2147483647,0,0,1,1,2,2,3,3,4,4,5,5,6,6,7,7,8,8,9,9,10,10,11,11,12,12,13,13,14,14,18,18,20,20,22,22,23,23,24,24,26,26,27,27,29,29,30,30,33,33,34,34,37,37,38,38,39,39,40,40,42,42,45,45,46,46,50,50,53,53,54,54,55,55,58,58,60,60,63,63,64,64,65,65,66,66,67,67,68,68,76,76,79,79,80,80,81,81,82,82,83,83,85,85,86,86],"right_children":[2,4,6,8,10,12,14,16,18,20,22,24,26,28,30,-1,-1,-1,32,-1,34,-1,36,38,40,-1,42,44,-1,46,48,-1,-1,50,52,-1,-1,54,56,58,60,-1,62,-1,-1,64,66,-1,-1,-1,68,-1,-1,70,72,74,-1,-1,76,-1,78,-1,-1,80,82,84,86,88,90,-1,-1,-1,-1,-1,-1,-1,92,-1,-1,94,96,98,100,102,-1,104,106,-1,-1,-1,-1,-1,-1,-1,-1,-1,-1,-1,-1,-1,-1,-1,-1,-1,-1,-1,-1],"split_conditions":[-2.335929E0,1.9968326E0,-1.3001819E0,-1.2633832E0,-5.0622654E-1,-4.9451756E-1,-2.5832424E0,4.0827852E-1,-1.9741633E0,-1.5792155E0,4.7729445E-1,1.2605214E-1,-2.2511435E0,1.2566972E0,3.3322434E0,-1.4883818E-1,2.921062E-1,7.037907E-2,1.4643807E0,-7.990733E-2,1.0462272E0,-2.828605E-1,-5.3406346E-1,9.323473E-1,-1.965E-1,3.811141E-2,-1.61904E0,-1.4621103E0,4.1770822E-1,1.5700157E0,-9.818156E-1,-3.4408075E-1,-9.7900346E-2,-2.160863E0,6.115071E-2,2.5920677E-1,2.7428083E-2,1.9260988E0,1.0012735E0,-5.6823754E-1,-1.9535018E0,-8.612653E-4,2.137862E0,-7.532175E-2,-3.3184358E-1,2.9728842E0,4.713387E-1,4.6566916E-1,-3.12579E-1,1.7994706E-2,-1.1625288E-1,-1.8758863E-1,2.4527855E-1,8.6944187E-1,-1.2858593E-1,-1.4471385E0,6.302472E-1,-2.5414526E-1,-1.647409E0,2.2310369E-1,-1.991595E0,-3.4864327E-1,-4.4225346E-2,3.1458693E0,-4.7435802E-1,8.9416766E-1,-3.3329743E-1,7.4725676E-1,1.7181003E-1,-3.4512246E-1,5.6685295E-2,2.5071126E-1,-1.9049738E-1,1.0183353E-1,-2.540169E-1,-1.6923375E-1,-7.149576E-1,-4.892349E-2,-3.1808203E-1,-1.0705696E1,1.8216581E0,4.9299657E-1,-1.6354427E0,-1.4716506E0,1.5619402E-1,-8.186518E-1,-3.928362E-1,-1.1949435E-1,2.7418286E-1,3.5068986E-1,9.860412E-2,2.8538865E-1,7.5354993E-1,4.607931E-3,-3.4206468E-1,-3.0317128E-1,2.5828683E-1,1.8752618E-2,3.2465222E-1,3.023144E-2,-3.2894796E-1,6.927071E-2,-3.2258952E-1,1.1171654E-1,-3.0684835E-1,6.066347E-1,-1.8511744E-1],"split_indices":[376,382,376,226,346,324,343,100,346,22,83,362,289,365,344,0,0,0,105,0,82,0,24,379,333,0,317,375,0,32,38,0,0,363,278,0,0,328,354,359,348,0,202,0,0,354,265,0,0,0,341,0,0,314,21,358,0,0,360,0,137,0,0,302,278,23,323,362,268,0,0,0,0,0,0,0,304,0,0,289,256,124,380,354,0,320,229,0,0,0,0,0,0,0,0,0,0,0,0,0,0,0,0,0,0,0,0],"split_type":[0,0,0,0,0,0,0,0,0,0,0,0,0,0,0,0,0,0,0,0,0,0,0,0,0,0,0,0,0,0,0,0,0,0,0,0,0,0,0,0,0,0,0,0,0,0,0,0,0,0,0,0,0,0,0,0,0,0,0,0,0,0,0,0,0,0,0,0,0,0,0,0,0,0,0,0,0,0,0,0,0,0,0,0,0,0,0,0,0,0,0,0,0,0,0,0,0,0,0,0,0,0,0,0,0,0,0],"sum_hessian":[4.3000493E3,1.1650317E2,4.1835464E3,2.0884962E1,9.56182E1,2.3495258E2,3.9485938E3,3.5834718E0,1.7301489E1,9.0630775E1,4.9874263E0,9.611917E1,1.388334E2,2.1900616E1,3.926693E3,1.0464344E0,2.5370374E0,1.7235912E0,1.5577898E1,1.0500414E0,8.9580734E1,2.162542E0,2.8248844E0,5.9158257E1,3.696092E1,1.0654182E0,1.3776797E2,1.7390026E1,4.510589E0,3.9216274E3,5.065687E0,1.4503439E1,1.0744593E0,8.608601E1,3.494724E0,1.8242358E0,1.0006486E0,5.3388363E1,5.7698903E0,2.5780521E1,1.1180398E1,1.4543166E0,1.3631366E2,1.0107299E0,1.6379295E1,3.851801E3,6.9826294E1,1.8271663E0,3.2385209E0,1.3164681E0,8.476954E1,1.2260194E0,2.2687047E0,5.1101974E1,2.2863917E0,3.5735426E0,2.1963477E0,2.3700788E0,2.3410442E1,1.9486012E0,9.231796E0,1.3483641E2,1.4772545E0,3.8352234E3,1.657776E1,5.882504E1,1.1001254E1,4.2472987E0,8.052225E1,4.9267616E1,1.8343577E0,1.0830276E0,1.203364E0,1.0538664E0,2.519676E0,1.9256725E0,2.148477E1,1.005468E0,8.226328E0,3.8268953E3,8.327962E0,3.5784402E0,1.299932E1,5.7026592E1,1.7984496E0,6.8027487E0,4.1985054E0,1.4281776E0,2.8191211E0,7.9481804E1,1.040443E0,1.6232609E1,5.2521615E0,1.6847097E0,3.8252107E3,5.874968E0,2.4529943E0,1.0645487E0,2.5138917E0,1.0070258E0,1.1992294E1,1.2565845E0,5.5770004E1,1.069461E0,5.733288E0,3.1303363E0,1.0681692E0],"tree_param":{"num_deleted":"0","num_feature":"384","num_nodes":"107","size_leaf_vector":"0"}},{"base_weights":[-1.0033615E0,6.441997E-1,-1.0510808E0,-6.2145925E-1,9.3860066E-1,-1.0671818E0,-6.7779636E-1,4.570003E-1,-8.7268186E-1,9.9941957E-1,-4.7516212E-2,-1.5869005E-1,-1.0724518E0,-9.2822057E-1,5.8679867E-1,8.700783E-1,-3.910312E-1,1.2750472E-1,-1.0459728E0,3.2730755E-1,1.0562713E0,-8.433648E-1,6.0259765E-1,-8.878826E-1,7.4543196E-1,-1.0926514E0,-9.369687E-1,6.7299205E-1,-9.960514E-1,-2.1168345E-1,1.4555343E0,7.6604885E-1,-6.149133E-1,-1.088639E0,-2.7459952E-1,9.1693676E-1,-4.621074E-1,7.210193E-2,1.0746598E0,7.834738E-1,7.161727E-2,-1.018851E0,1.6997246E-1,1.4031087E0,-7.553247E-2,-4.7885197E-1,-1.096684E0,-5.712357E-1,-1.020808E0,-2.1128778E-1,1.0398504E0,1.1392205E-1,-1.0508605E0,-7.9986995E-1,8.834797E-1,1.6298398E0,-2.2769732E-2,3.8718846E-1,-9.436166E-1,2.238178E-1,1.0985157E0,5.654373E-1,-8.118875E-1,-9.9441004E-1,1.9657085E0,3.9537308E-1,-1.0979925E0,4.212462E-1,-9.430213E-1,-1.032552E0,1.3580097E0,-8.248247E-1,1.1715019E0,-1.0694845E0,2.988091E-1,3.4587845E-1,-9.894662E-1,-3.6002153E-1,1.303971E0,3.7414515E-1,1.7317852E0,-2.900222E-1,6.1985487E-1,1.1107049E0,1.9887626E-1,-1.4865261E-1,9.712727E-1,-9.122551E-2,-1.0478923E0,2.6354918E0,5.0095004E-1,1.147424E0,-5.634259E-1,-1.0985839E0,1.425014E-1,-9.929514E-1,1.25392E0,-1.0012901E0,3.991437E-1,9.011113E-2,-1.0492519E0,3.0424783E-1,1.4248643E0,-1.0871444E0,1.4018615E-1,1.5037761E0,3.6453143E-1,1.1467823E0,2.3687472E0,-1.1000483E0,-4.3374375E-1,1.7513776E0,-7.9883695E-1,-1.0505689E0,5.345504E-1,-6.128835E-1,1.2506558E0,-5.949435E-1,1.1219767E0,2.3705634E-1,-1.0581244E0,-1.0965203E0,-1.8266948E-1],"categories":[],"categories_nodes":[],"categories_segments":[],"categories_sizes":[],"default_left":[1,1,1,1,1,1,1,1,1,1,1,1,1,1,1,0,0,1,1,1,1,0,1,1,1,1,1,1,1,1,1,0,0,0,0,0,1,0,1,0,0,0,0,0,1,1,1,1,1,0,0,1,1,1,1,1,0,0,0,1,1,1,0,1,1,1,1,1,1,1,0,0,1,1,0,0,0,0,1,0,1,0,0,0,0,0,0,0,0,0,0,0,0,1,0,0,1,1,1,1,1,0,0,1,0,0,0,0,0,0,0,0,0,0,0,0,0,0,0,0,0,0,0],"id":5,"left_children":[1,3,5,7,9,11,13,15,17,19,21,23,25,27,29,-1,-1,31,33,35,37,-1,39,41,43,45,47,49,51,53,55,-1,-1,-1,-1,-1,57,-1,59,-1,-1,-1,-1,-1,61,63,65,67,69,-1,-1,71,73,75,77,79,-1,-1,-1,81,83,85,-1,87,89,91,93,95,97,99,-1,-1,101,103,-1,-1,-1,-1,105,-1,107,-1,-1,-1,-1,-1,-1,-1,-1,-1,-1,-1,-1,109,-1,-1,111,113,115,117,119,-1,-1,121,-1,-1,-1,-1,-1,-1,-1,-1,-1,-1,-1,-1,-1,-1,-1,-1,-1,-1,-1],"loss_changes":[2.6317114E2,3.5832397E1,1.8780762E1,5.3985596E0,4.6743164E0,1.4716064E1,4.390737E1,1.7914846E0,2.7871056E0,2.4325867E0,3.320871E0,1.3257794E1,7.435791E0,1.3125999E1,1.6433102E1,0E0,0E0,1.9654796E0,1.3412857E-1,3.7376537E0,1.1276398E0,0E0,2.8726947E-1,1.7016563E0,5.004923E0,6.118408E0,1.1929901E1,1.9252596E0,6.837517E0,9.071578E0,2.938589E0,0E0,0E0,0E0,0E0,0E0,1.8821359E0,0E0,1.0795059E0,0E0,0E0,0E0,0E0,0E0,2.811702E0,2.627055E1,5.638672E0,2.9316164E1,1.0641174E1,0E0,0E0,7.0205703E0,2.9670563E0,2.2914767E0,3.0904412E0,6.4323044E-1,0E0,0E0,0E0,7.9774976E-1,4.7280884E-1,1.0875056E0,0E0,7.0612526E-1,2.3060284E0,2.8609488E0,2.1108398E0,2.7209444E1,4.8827477E0,6.2750854E0,0E0,0E0,2.8736973E-1,2.3764648E0,0E0,0E0,0E0,0E0,1.9556046E-1,0E0,6.570549E-1,0E0,0E0,0E0,0E0,0E0,0E0,0E0,0E0,0E0,0E0,0E0,0E0,2.114746E0,0E0,0E0,1.6021923E1,4.741165E0,3.4380276E0,4.7340503E0,3.9588928E0,0E0,0E0,6.708374E-1,0E0,0E0,0E0,0E0,0E0,0E0,0E0,0E0,0E0,0E0,0E0,0E0,0E0,0E0,0E0,0E0,0E0,0E0,0E0],"parents":[2147483647,0,0,1,1,2,2,3,3,4,4,5,5,6,6,7,7,8,8,9,9,10,10,11,11,12,12,13,13,14,14,17,17,18,18,19,19,20,20,22,22,23,23,24,24,25,25,26,26,27,27,28,28,29,29,30,30,36,36,38,38,44,44,45,45,46,46,47,47,48,48,51,51,52,52,53,53,54,54,55,55,59,59,60,60,61,61,63,63,64,64,65,65,66,66,67,67,68,68,69,69,72,72,73,73,78,78,80,80,93,93,96,96,97,97,98,98,99,99,100,100,103,103],"right_children":[2,4,6,8,10,12,14,16,18,20,22,24,26,28,30,-1,-1,32,34,36,38,-1,40,42,44,46,48,50,52,54,56,-1,-1,-1,-1,-1,58,-1,60,-1,-1,-1,-1,-1,62,64,66,68,70,-1,-1,72,74,76,78,80,-1,-1,-1,82,84,86,-1,88,90,92,94,96,98,100,-1,-1,102,104,-1,-1,-1,-1,106,-1,108,-1,-1,-1,-1,-1,-1,-1,-1,-1,-1,-1,-1,110,-1,-1,112,114,116,118,120,-1,-1,122,-1,-1,-1,-1,-1,-1,-1,-1,-1,-1,-1,-1,-1,-1,-1,-1,-1,-1,-1],"split_conditions":[-2.335929E0,1.9968326E0,1.5958278E0,-1.2633832E0,-5.0622654E-1,-2.523685E0,6.506895E-1,-6.492483E-1,-5.416772E-1,-1.3773944E0,4.7729445E-1,2.1802921E0,1.1030574E0,-2.1502395E0,1.0910928E0,2.6102352E-1,-1.1730937E-1,-4.8033917E-1,1.3873742E0,-2.6982647E-1,-1.0109999E0,-2.5300944E-1,5.928529E-1,1.2925267E0,1.24796316E-1,-2.3536716E0,-7.502866E-1,-4.5546675E-1,-1.3116516E0,4.8619634E-1,7.197231E-1,2.2981466E-1,-1.8447399E-1,-3.2659173E-1,-8.237986E-2,2.7508104E-1,-1.9164059E-1,2.163058E-2,-2.2325618E0,2.3504214E-1,2.1485182E-2,-3.0565533E-1,5.099174E-2,4.2093262E-1,-3.9469987E-1,1.3119195E0,-3.8473506E0,-8.279543E-1,5.291365E0,-6.3386336E-2,3.1195512E-1,4.366443E-1,2.632339E0,-7.805846E-1,-3.781234E-1,-3.748811E-1,-6.83092E-3,1.1615654E-1,-2.83085E-1,-1.3366603E0,6.374564E-1,2.7705914E-1,-2.4356626E-1,-9.0860534E-1,-2.2618087E-1,1.06965706E-1,1.0144684E1,-2.040555E-2,6.270656E-1,-2.2235138E0,4.0740293E-1,-2.4744742E-1,5.497638E-1,2.624278E0,8.964273E-2,1.0376354E-1,-2.9683986E-1,-1.0800646E-1,1.263508E-1,1.1224355E-1,-6.3038266E-1,-8.700666E-2,1.8595646E-1,3.3321148E-1,5.9662882E-2,-4.4595785E-2,2.9138184E-1,-2.7367655E-2,-3.143677E-1,7.9064757E-1,1.5028502E-1,3.442272E-1,-1.6902778E-1,1.696867E0,4.2750422E-2,-2.9788542E-1,3.6009036E-2,2.8098617E0,3.6631815E-2,6.642045E-1,-2.2905555E0,9.127435E-2,4.274593E-1,3.210566E0,4.2055845E-2,4.5113283E-1,1.09359436E-1,3.440347E-1,7.106242E-1,-3.300145E-1,-1.3012312E-1,5.254133E-1,-2.396511E-1,-3.151707E-1,1.6036513E-1,-1.8386506E-1,3.7519675E-1,-1.7848307E-1,3.3659303E-1,7.111691E-2,-3.1743735E-1,-3.289561E-1,-5.4800846E-2],"split_indices":[376,382,342,226,346,350,312,161,261,363,83,382,74,1,288,0,0,308,105,175,220,0,349,111,300,375,376,318,319,343,355,0,0,0,0,0,92,0,350,0,0,0,0,0,180,314,363,364,288,0,0,288,377,338,18,62,0,0,0,256,12,291,0,285,322,269,270,283,265,377,0,0,252,340,0,0,0,0,3,0,320,0,0,0,0,0,0,0,0,0,0,0,0,283,0,0,346,31,317,206,318,0,0,354,0,0,0,0,0,0,0,0,0,0,0,0,0,0,0,0,0,0,0],"split_type":[0,0,0,0,0,0,0,0,0,0,0,0,0,0,0,0,0,0,0,0,0,0,0,0,0,0,0,0,0,0,0,0,0,0,0,0,0,0,0,0,0,0,0,0,0,0,0,0,0,0,0,0,0,0,0,0,0,0,0,0,0,0,0,0,0,0,0,0,0,0,0,0,0,0,0,0,0,0,0,0,0,0,0,0,0,0,0,0,0,0,0,0,0,0,0,0,0,0,0,0,0,0,0,0,0,0,0,0,0,0,0,0,0,0,0,0,0,0,0,0,0,0,0],"sum_hessian":[3.3377449E3,9.360021E1,3.2441445E3,1.7453773E1,7.614644E1,3.1082178E3,1.3592682E2,3.14286E0,1.4310914E1,7.171021E1,4.4362273E0,1.8105625E1,3.090112E3,1.1368089E2,2.2245916E1,2.09593E0,1.0469298E0,2.152354E0,1.215856E1,6.1196566E0,6.559055E1,1.8609073E0,2.5753198E0,1.0032319E1,8.073305E0,2.6830276E3,4.070846E2,4.2574725E0,1.0942342E2,1.198576E1,1.0260156E1,1.1400137E0,1.0123404E0,1.1131553E1,1.0270075E0,3.4106424E0,2.709014E0,1.2933005E0,6.429726E1,1.5662581E0,1.0090618E0,8.959904E0,1.0724158E0,4.0887218E0,3.9845839E0,1.8293486E1,2.6647341E3,7.737307E1,3.2971152E2,1.3727176E0,2.8847547E0,5.0981965E0,1.04325226E2,7.9731836E0,4.012576E0,9.086293E0,1.1738628E0,1.051045E0,1.657969E0,2.0367522E0,6.22605E1,2.25436E0,1.7302239E0,1.5597241E1,2.6962447E0,2.071094E0,2.662663E3,2.1049194E1,5.6323875E1,3.2865494E2,1.0565876E0,2.8174272E0,2.2807693E0,1.03110016E2,1.2152117E0,1.0150216E0,6.958162E0,1.0503192E0,2.962257E0,1.0329669E0,8.053327E0,1.0030414E0,1.0337107E0,6.1196747E1,1.0637573E0,1.0465714E0,1.2077886E0,1.0232229E0,1.45740185E1,1.3017378E0,1.3945068E0,1.0504358E0,1.0206583E0,2.6615083E3,1.1545732E0,7.729341E0,1.3319854E1,5.4223774E1,2.1000996E0,4.7527623E0,3.2390216E2,1.0132562E0,1.2675132E0,1.0172621E2,1.3838071E0,1.9473649E0,1.014892E0,5.6576147E0,2.3957114E0,2.655006E3,6.5023403E0,1.0839794E1,2.4800599E0,5.2844185E1,1.3795897E0,1.0876555E0,1.012444E0,3.1108806E0,1.6418815E0,2.0426877E0,3.218595E2,1.00472374E2,1.2538316E0],"tree_param":{"num_deleted":"0","num_feature":"384","num_nodes":"123","size_leaf_vector":"0"}},{"base_weights":[-9.586592E-1,5.954783E-1,-1.0055264E0,-6.709474E-1,8.516412E-1,-1.041881E0,-8.004818E-1,-9.482814E-1,5.9973526E-1,9.351181E-1,-2.854276E-1,-1.842896E-1,-1.0469708E0,-4.4903302E-1,-9.577972E-1,-5.6913007E-2,-1.0317081E0,3.2395124E-1,1.0091834E0,6.488363E-1,-7.6746076E-1,-9.557252E-1,6.952961E-1,-7.068106E-1,-1.0562779E0,-1.8469749E-2,-8.455307E-1,5.5413777E-1,-9.7886866E-1,7.8219277E-1,-5.516161E-1,1.0447208E0,8.068322E-2,1.0891186E0,-3.5488322E-1,-9.0874946E-1,4.218661E-1,-1.0575066E0,6.453211E-1,-7.900057E-1,3.9829355E-1,-9.871007E-1,-5.019975E-2,9.5868325E-1,-3.596509E-1,9.1351277E-1,-9.897863E-1,9.456806E-1,2.3813287E-2,-2.3799935E-2,-7.803905E-1,1.069122E0,1.2895913E-1,5.711351E-1,-4.5443848E-1,1.2773186E0,2.0081036E-1,6.927807E-1,-9.569176E-1,-4.163753E-1,1.7892852E0,-1.0594386E0,6.464085E-3,3.8084826E-1,-9.6245044E-1,-9.2175454E-1,7.184821E-1,-1.0219463E0,3.7200055E-1,-4.618801E-1,1.7155809E0,-1.0125902E0,-9.19913E-2,2.78676E-1,1.0823239E0,-9.8609045E-2,-1.0480778E0,-8.908602E-1,6.927533E-1,-1.9161503E-1,2.7134273E0,-1.0612952E0,-2.826072E-1,-8.342786E-1,1.0232227E0,-2.1455973E-1,7.299563E-1,5.3835046E-2,-1.0257248E0,1.0243533E0,-5.342159E-1,5.6632165E-2,-1.0654831E0,5.321383E-1,-9.2649466E-1,-1.0214198E0,4.3447416E-2,1.3087637E0,-8.9485234E-1,-8.564657E-1,1.5324734E0,-1.6519868E-1,-1.0648017E0,-1.0622444E0,-6.826842E-3,-8.902176E-1,1.4448836E0,2.281049E-1,1.6023328E0,-8.401253E-1,5.418758E-1,1.1845304E0,-3.971399E-1,-1.0274042E0,2.1426077E-1,-5.487883E-1,6.132922E-1,2.2162917E0,-2.1916327E-1],"categories":[],"categories_nodes":[],"categories_segments":[],"categories_sizes":[],"default_left":[1,1,1,1,1,1,1,1,0,1,1,1,1,1,1,0,0,1,1,0,0,0,1,1,1,1,1,1,1,1,1,1,1,1,0,1,1,1,0,1,1,1,1,0,0,0,1,0,0,0,0,1,0,0,0,0,0,0,1,1,1,1,1,1,1,0,1,1,0,1,0,1,1,0,0,1,1,0,0,0,0,1,1,0,0,0,0,0,0,1,1,0,0,1,0,1,1,1,0,0,0,0,0,0,0,0,0,0,0,0,0,0,0,0,0,0,0,0,0],"id":6,"left_children":[1,3,5,7,9,11,13,15,-1,17,19,21,23,25,27,-1,-1,29,31,-1,-1,-1,33,35,37,39,41,43,45,47,49,51,53,55,-1,57,59,61,-1,63,65,67,69,-1,-1,-1,71,-1,-1,-1,-1,73,-1,-1,-1,-1,-1,-1,75,77,79,81,83,85,87,-1,89,91,-1,93,-1,95,97,-1,-1,99,101,-1,-1,-1,-1,103,105,-1,-1,-1,-1,-1,-1,107,109,-1,-1,111,-1,113,115,117,-1,-1,-1,-1,-1,-1,-1,-1,-1,-1,-1,-1,-1,-1,-1,-1,-1,-1,-1,-1,-1],"loss_changes":[1.8802856E2,2.5212421E1,1.7789062E1,5.2691903E0,6.3054466E0,9.055176E0,2.0610199E1,7.842808E-1,0E0,2.3664436E0,2.8024526E0,9.970078E0,5.9206543E0,2.039442E1,8.889435E0,0E0,0E0,3.6027462E0,1.6512146E0,0E0,0E0,0E0,3.2761042E0,1.3855993E1,4.9641113E0,1.9072943E1,6.9557877E0,1.9121072E0,6.2502747E0,6.720631E-1,3.80139E-1,9.922333E-1,1.0528234E0,6.3406515E-1,0E0,4.5552826E0,1.1810385E1,4.2143555E0,0E0,4.5653048E0,1.6952602E1,2.8789139E0,8.3924265E0,0E0,0E0,0E0,5.183914E0,0E0,0E0,0E0,0E0,2.1101761E-1,0E0,0E0,0E0,0E0,0E0,0E0,3.7621384E0,4.1937165E0,7.581766E0,2.6467285E0,4.874682E0,8.604554E-1,1.2390289E0,0E0,1.264765E1,2.4885368E0,0E0,4.77244E0,0E0,2.3873596E0,9.588557E0,0E0,0E0,8.540333E0,4.8197556E-1,0E0,0E0,0E0,0E0,2.0324707E0,7.830067E0,0E0,0E0,0E0,0E0,0E0,0E0,1.14737E1,2.7117858E0,0E0,0E0,2.6448681E0,0E0,2.0631714E0,1.3634251E0,4.830134E0,0E0,0E0,0E0,0E0,0E0,0E0,0E0,0E0,0E0,0E0,0E0,0E0,0E0,0E0,0E0,0E0,0E0,0E0,0E0,0E0,0E0],"parents":[2147483647,0,0,1,1,2,2,3,3,4,4,5,5,6,6,7,7,9,9,10,10,11,11,12,12,13,13,14,14,17,17,18,18,22,22,23,23,24,24,25,25,26,26,27,27,28,28,29,29,30,30,31,31,32,32,33,33,35,35,36,36,37,37,39,39,40,40,41,41,42,42,46,46,51,51,58,58,59,59,60,60,61,61,62,62,63,63,64,64,66,66,67,67,69,69,71,71,72,72,75,75,76,76,81,81,82,82,89,89,90,90,93,93,95,95,96,96,97,97],"right_children":[2,4,6,8,10,12,14,16,-1,18,20,22,24,26,28,-1,-1,30,32,-1,-1,-1,34,36,38,40,42,44,46,48,50,52,54,56,-1,58,60,62,-1,64,66,68,70,-1,-1,-1,72,-1,-1,-1,-1,74,-1,-1,-1,-1,-1,-1,76,78,80,82,84,86,88,-1,90,92,-1,94,-1,96,98,-1,-1,100,102,-1,-1,-1,-1,104,106,-1,-1,-1,-1,-1,-1,108,110,-1,-1,112,-1,114,116,118,-1,-1,-1,-1,-1,-1,-1,-1,-1,-1,-1,-1,-1,-1,-1,-1,-1,-1,-1,-1,-1],"split_conditions":[-2.335929E0,2.458475E-1,3.4852898E-1,1.405903E0,3.8618273E-1,-2.3993533E0,-3.811076E-1,-1.754642E0,1.7992058E-1,5.2582514E-1,-6.5050775E-1,2.1939335E0,-2.2848587E0,4.115094E-2,-2.564406E0,-1.7073903E-2,-3.0951244E-1,1.0485195E0,4.7007558E-1,1.946509E-1,-2.3023824E-1,-2.8671756E-1,1.0450871E0,8.195753E-1,1.0144684E1,-1.9638269E-1,5.308885E-1,-9.476807E-1,-1.0614214E1,1.5377313E-1,-2.978441E-1,1.4450709E0,-2.5526133E-1,1.7946002E0,-1.06464975E-1,-1.4055388E0,8.639395E-1,3.3322434E0,1.9359633E-1,-1.0315249E0,-2.040555E-2,2.8051505E0,1.6468834E0,2.87605E-1,-1.0789528E-1,2.7405384E-1,1.8326242E0,2.837042E-1,7.1439864E-3,-7.139981E-3,-2.3411717E-1,-3.171401E-1,3.8687743E-2,1.7134054E-1,-1.3633154E-1,3.831956E-1,6.024311E-2,2.0783421E-1,-8.0288804E-1,1.2168317E0,-2.4616933E-1,1.696867E0,5.145302E-1,3.526923E-1,-8.446538E-1,-2.7652636E-1,1.0571362E0,-1.7787002E0,1.1160017E-1,-1.0848476E0,5.146743E-1,1.8635526E0,-9.234835E-1,8.36028E-2,3.246972E-1,1.3775901E0,-7.9354465E-1,-2.6725808E-1,2.07826E-1,-5.748451E-2,8.140282E-1,2.9283414E0,-3.5091838E-1,-2.502836E-1,3.069668E-1,-6.436792E-2,2.1898691E-1,1.6150514E-2,-3.0771744E-1,-1.1915739E-1,1.3844359E0,1.698965E-2,-3.1964493E-1,-1.7846245E-1,-2.779484E-1,2.219077E0,9.0967274E-1,-7.415912E-1,-2.684557E-1,-2.569397E-1,4.5974204E-1,-4.9559608E-2,-3.194405E-1,-3.1867334E-1,-2.0480528E-3,-2.670653E-1,4.334651E-1,6.8431474E-2,4.8069987E-1,-2.520376E-1,1.6256274E-1,3.5535914E-1,-1.1914197E-1,-3.0822128E-1,6.427824E-2,-1.646365E-1,1.8398768E-1,6.6488755E-1,-6.574898E-2],"split_indices":[376,379,28,339,344,350,346,137,0,277,298,382,363,327,343,0,0,356,140,0,0,0,374,314,270,340,288,295,289,35,47,222,285,288,0,188,144,344,0,334,283,172,327,0,0,0,332,0,0,0,0,341,0,0,0,0,0,0,179,332,160,283,53,312,286,0,335,376,0,376,0,314,324,0,0,356,201,0,0,0,0,226,242,0,0,0,0,0,0,189,377,0,0,97,0,40,320,72,0,0,0,0,0,0,0,0,0,0,0,0,0,0,0,0,0,0,0,0,0],"split_type":[0,0,0,0,0,0,0,0,0,0,0,0,0,0,0,0,0,0,0,0,0,0,0,0,0,0,0,0,0,0,0,0,0,0,0,0,0,0,0,0,0,0,0,0,0,0,0,0,0,0,0,0,0,0,0,0,0,0,0,0,0,0,0,0,0,0,0,0,0,0,0,0,0,0,0,0,0,0,0,0,0,0,0,0,0,0,0,0,0,0,0,0,0,0,0,0,0,0,0,0,0,0,0,0,0,0,0,0,0,0,0,0,0,0,0,0,0,0,0],"sum_hessian":[2.5722383E3,7.495612E1,2.4972822E3,1.2338324E1,6.2617798E1,2.1177266E3,3.7955566E2,1.0336125E1,2.002198E0,5.850063E1,4.1171656E0,1.27140255E1,2.1050125E3,1.1855457E2,2.610011E2,1.0285739E0,9.307551E0,6.904057E0,5.1596573E1,1.2834928E0,2.8336728E0,6.7273126E0,5.9867134E0,5.811025E1,2.0469022E3,5.7337467E1,6.1217102E1,3.2397807E0,2.5776132E2,4.6021147E0,2.3019423E0,4.9574005E1,2.0225692E0,4.3269916E0,1.6597219E0,4.9456516E1,8.653732E0,2.0458035E3,1.0986956E0,1.9795443E1,3.7542027E1,5.1762234E1,9.45487E0,2.211564E0,1.0282166E0,1.0043337E0,2.56757E2,3.5827804E0,1.0193342E0,1.029883E0,1.2720592E0,4.8124233E1,1.4497708E0,1.0202166E0,1.0023525E0,3.2091644E0,1.1178272E0,1.0532913E0,4.8403225E1,5.7961426E0,2.8575897E0,2.0420996E3,3.70388E0,2.3860784E0,1.7409365E1,6.9617767E0,3.058025E1,5.0710163E1,1.0520717E0,8.266108E0,1.1887623E0,2.5027225E2,6.484723E0,1.153758E0,4.6970474E1,4.847152E0,4.3556072E1,4.197322E0,1.5988204E0,1.1612039E0,1.6963859E0,2.0368652E3,5.234326E0,2.1256685E0,1.5782115E0,1.0243844E0,1.3616941E0,1.0291282E0,1.6380236E1,2.4725346E1,5.854904E0,1.9558249E0,4.8754337E1,2.5866895E0,5.679418E0,2.4822955E2,2.042699E0,2.1330526E0,4.3516703E0,3.6337142E0,1.2134382E0,1.0119429E0,4.254413E1,2.0350261E3,1.8392051E0,4.2308755E0,1.0034502E0,1.098568E1,1.3739666E1,4.729649E0,1.1252551E0,1.3583752E0,1.2283142E0,2.472009E2,1.0286511E0,1.0197899E0,1.0229092E0,1.0555662E0,1.0774863E0],"tree_param":{"num_deleted":"0","num_feature":"384","num_nodes":"119","size_leaf_vector":"0"}},{"base_weights":[-9.186797E-1,5.500735E-1,-9.650543E-1,-5.0966245E-1,8.2262045E-1,-1.00684E0,-7.3975486E-1,3.9903724E-1,-7.5019485E-1,9.097898E-1,1.1096645E-1,-3.8979536E-1,-1.0149785E0,-8.5090464E-1,-1.6134726E-1,7.009226E-1,-1.5787901E-1,1.2757652E-1,-9.465486E-1,9.574865E-1,-1.0086226E-1,-4.4222072E-1,6.1765766E-1,-9.815147E-1,3.5995334E-1,-7.303395E-1,-1.0306314E0,-9.4839764E-1,-4.1510278E-1,2.2083756E-1,-7.0238227E-1,-9.9539775E-1,-2.872968E-1,1.259181E-1,1.0130901E0,2.5626752E-1,-8.141813E-1,1.0508132E-1,7.704155E-1,7.86656E-1,-5.752797E-1,-8.701082E-1,6.267721E-1,-1.0356841E0,-3.0316013E-1,2.8889924E-1,-9.750353E-1,2.4116163E-1,-8.798298E-1,1.3865576E0,-1.8493658E-1,-8.41515E-1,1.0054704E0,-6.237709E-1,6.74434E-1,2.3386046E-1,1.0274932E0,-4.430392E-1,1.1288357E0,-1.19954E-3,-7.7167076E-1,-9.9085975E-1,-4.1066237E-2,1.5721956E0,-4.3293545E-1,-1.0381547E0,-2.189637E-1,-9.505531E-1,1.3579226E0,1.2400945E0,-7.2918683E-1,1.748544E-1,-9.9273837E-1,-2.8935558E-1,9.143491E-1,-9.7448623E-1,7.577171E-1,-3.599756E-1,2.2065039E0,-4.740706E-1,7.571589E-1,-9.8920286E-1,7.730301E-2,1.0411007E0,2.892302E-1,1.5156446E0,7.1699984E-2,-5.339589E-2,-1.0107813E0,1.7407801E0,-8.2955056E-1,1.2367901E-1,1.9462135E0,-7.9833907E-1,3.5979494E-1,-1.0418843E0,-5.5354047E-1,-8.637503E-1,1.3840859E0,-5.507446E-1,2.2604504E0,1.3681526E0,-7.021989E-1,1.1663054E-1,-1.0020983E0,5.245441E-1,-6.7115855E-1,-6.428726E-1,1.2834127E0,-2.1873178E-2,-1.0101181E0,-6.301143E-1,1.3813029E-1,2.8505225E0,-1.3684958E-1,-8.7119913E-1,2.7194223E-1,1.2189664E0,-4.1531253E-1,-5.2371013E-1,8.077066E-1,2.1445181E0,4.584975E-1,-1.0249726E0,-4.714464E-2,1.8150836E-1,2.6010857E0,-9.306734E-1,-4.6737716E-2,8.064903E-1,2.4031892E0,-6.269393E-1,-1.0448813E0,8.562508E-1,-9.3194747E-1,-1.4143712E-2,-1.0116299E0,1.4032552E0,-7.4467313E-1,3.0443257E-1,-9.8395425E-1,1.6205387E0,1.2085321E-1,5.0089103E-1,3.5601494E0,-9.964078E-1,3.589157E-2,8.3225715E-1,-3.594821E-1,1.4596756E0,2.3819348E-1],"categories":[],"categories_nodes":[],"categories_segments":[],"categories_sizes":[],"default_left":[1,1,1,1,1,1,1,1,1,1,1,1,1,1,1,0,0,0,1,1,0,1,1,0,1,1,1,1,1,1,1,1,1,1,1,0,0,0,0,1,1,1,1,1,1,1,1,1,1,1,1,1,0,0,0,0,1,0,1,0,0,1,1,1,1,1,1,0,1,0,0,1,1,1,1,1,0,1,1,1,1,0,1,0,0,1,0,0,1,1,1,0,1,0,0,1,1,0,0,0,0,0,0,0,1,1,1,0,1,0,0,0,0,1,0,1,1,1,0,0,0,0,0,0,0,0,0,0,0,0,0,0,0,0,0,0,0,0,0,0,0,0,0,0,0,0,0,0,0,0,0],"id":7,"left_children":[1,3,5,7,9,11,13,15,17,19,21,23,25,27,29,-1,-1,-1,-1,33,-1,35,37,-1,39,41,43,45,47,49,51,-1,-1,53,55,-1,-1,-1,-1,57,59,61,63,65,67,69,71,73,75,77,79,81,-1,-1,-1,-1,83,-1,85,-1,-1,87,89,91,93,95,97,-1,99,-1,-1,101,103,105,107,109,-1,111,113,115,117,-1,119,-1,-1,121,-1,-1,123,125,127,-1,129,-1,-1,131,133,-1,-1,-1,-1,-1,-1,-1,135,137,139,-1,141,-1,-1,-1,-1,143,-1,145,147,149,-1,-1,-1,-1,-1,-1,-1,-1,-1,-1,-1,-1,-1,-1,-1,-1,-1,-1,-1,-1,-1,-1,-1,-1,-1,-1,-1,-1,-1,-1,-1,-1,-1],"loss_changes":[1.3538977E2,1.810654E1,1.7327759E1,3.1724865E0,2.9445076E0,7.7226562E0,1.9413803E1,6.829601E-1,1.9720106E0,2.1981583E0,2.0939555E0,1.0409757E1,6.3532715E0,1.0434509E1,1.0546243E1,0E0,0E0,0E0,5.207062E-4,1.8018456E0,0E0,1.1669073E0,2.1719122E-1,0E0,4.7347283E0,1.6965736E1,5.234009E0,7.1201477E0,1.4963962E1,1.4546674E1,5.846201E0,0E0,0E0,1.9657207E0,1.9708633E-1,0E0,0E0,0E0,0E0,3.7783756E0,4.432335E-1,7.8582E0,9.361311E0,2.7963867E0,1.4006913E1,5.885933E0,4.312912E0,7.7062917E0,5.1609573E0,1.2133892E1,6.703595E0,2.7906742E0,0E0,0E0,0E0,0E0,8.030701E-2,0E0,2.498867E0,0E0,0E0,1.2314606E0,1.7003431E1,2.35711E0,1.6977355E0,2.123169E0,7.176817E0,0E0,7.6667924E0,0E0,0E0,5.07726E0,2.1978607E0,4.209398E0,6.2412195E0,9.083004E-1,0E0,5.431241E-1,8.734022E0,5.6992626E0,3.6764052E0,0E0,2.046065E0,0E0,0E0,2.087453E0,0E0,0E0,8.725815E-1,4.518117E0,6.1785364E-1,0E0,1.1382103E-2,0E0,0E0,1.1870117E0,8.022078E0,0E0,0E0,0E0,0E0,0E0,0E0,0E0,1.8580933E0,6.0915327E0,3.011845E0,0E0,2.9208612E0,0E0,0E0,0E0,0E0,5.5243683E0,0E0,1.4293556E0,2.8349516E0,7.03949E-1,0E0,0E0,0E0,0E0,0E0,0E0,0E0,0E0,0E0,0E0,0E0,0E0,0E0,0E0,0E0,0E0,0E0,0E0,0E0,0E0,0E0,0E0,0E0,0E0,0E0,0E0,0E0,0E0,0E0,0E0,0E0,0E0,0E0],"parents":[2147483647,0,0,1,1,2,2,3,3,4,4,5,5,6,6,7,7,8,8,9,9,10,10,11,11,12,12,13,13,14,14,18,18,19,19,21,21,22,22,24,24,25,25,26,26,27,27,28,28,29,29,30,30,33,33,34,34,39,39,40,40,41,41,42,42,43,43,44,44,45,45,46,46,47,47,48,48,49,49,50,50,51,51,56,56,58,58,61,61,62,62,63,63,64,64,65,65,66,66,68,68,71,71,72,72,73,73,74,74,75,75,77,77,78,78,79,79,80,80,82,82,85,85,88,88,89,89,90,90,92,92,95,95,96,96,104,104,105,105,106,106,108,108,113,113,115,115,116,116,117,117],"right_children":[2,4,6,8,10,12,14,16,18,20,22,24,26,28,30,-1,-1,-1,-1,34,-1,36,38,-1,40,42,44,46,48,50,52,-1,-1,54,56,-1,-1,-1,-1,58,60,62,64,66,68,70,72,74,76,78,80,82,-1,-1,-1,-1,84,-1,86,-1,-1,88,90,92,94,96,98,-1,100,-1,-1,102,104,106,108,110,-1,112,114,116,118,-1,120,-1,-1,122,-1,-1,124,126,128,-1,130,-1,-1,132,134,-1,-1,-1,-1,-1,-1,-1,136,138,140,-1,142,-1,-1,-1,-1,144,-1,146,148,150,-1,-1,-1,-1,-1,-1,-1,-1,-1,-1,-1,-1,-1,-1,-1,-1,-1,-1,-1,-1,-1,-1,-1,-1,-1,-1,-1,-1,-1,-1,-1,-1,-1],"split_conditions":[-2.335929E0,1.9968326E0,3.4852898E-1,-1.2633832E0,-7.3336583E-1,-2.2360528E0,7.910625E-1,-8.729932E-2,-1.7549586E0,-6.1310995E-1,-1.2115251E0,1.9532437E0,-1.6270869E0,9.5519716E-1,5.8078412E-2,2.102768E-1,-4.7363706E-2,3.8272955E-2,-2.8396457E-1,-5.325326E-1,-3.0258678E-2,-5.092305E-1,-3.8033705E-2,-2.9445443E-1,1.0824254E0,1.240566E0,4.1538177E0,-1.9487402E0,-3.6637038E-1,2.8108412E-1,2.5696692E0,-2.9861933E-1,-8.618905E-2,1.1246588E0,-8.0532134E-1,7.688026E-2,-2.4425441E-1,3.1524397E-2,2.3112465E-1,2.1235414E-1,-1.8172379E0,1.5884298E0,-7.09582E-1,1.696867E0,3.1901938E-1,-4.0051323E-1,-4.642996E0,-6.229978E-2,2.6369834E0,-2.4972194E-1,-5.312056E-2,1.5010259E0,3.0164114E-1,-1.8713127E-1,2.0233022E-1,7.015814E-2,1.2922163E0,-1.3291177E-1,6.245922E-1,-3.59862E-4,-2.3150124E-1,-1.4420373E0,-1.4054108E0,-3.292933E-1,-1.18088946E-1,2.1674852E0,-2.8677738E-1,-2.8516594E-1,-5.256318E-1,3.7202838E-1,-2.1875606E-1,4.660631E-1,-3.2083783E0,-3.7039703E-1,-1.3204575E0,-2.6722188E0,2.2731513E-1,6.8894196E-1,6.614713E-2,6.8394434E-1,-8.6143255E-1,-2.9676086E-1,4.5457405E-1,3.1233025E-1,8.676906E-2,-1.908741E-1,2.1509996E-2,-1.6018767E-2,3.3834243E0,6.911713E-1,2.713013E-1,3.7103705E-2,-1.6597772E0,-2.3950173E-1,1.0793849E-1,-8.200682E-1,-8.098804E-1,-2.5912508E-1,4.1522577E-1,-1.6522339E-1,6.7813516E-1,4.104458E-1,-2.1065968E-1,3.4989163E-2,-3.2058403E0,-1.1663492E0,-4.8587954E-1,-1.9286178E-1,9.9915874E-1,-6.5619536E-3,-3.0303544E-1,-1.890343E-1,4.143909E-2,-1.1386154E0,-4.1054875E-2,5.486872E-1,-8.016143E-1,6.9558007E-1,-1.24593765E-1,-1.5711305E-1,2.4231198E-1,6.433555E-1,1.3754925E-1,-3.0749178E-1,-1.4143392E-2,5.4452512E-2,7.803257E-1,-2.7920204E-1,-1.4021316E-2,2.419471E-1,7.209568E-1,-1.880818E-1,-3.134644E-1,2.5687525E-1,-2.7958426E-1,-4.2431136E-3,-3.03489E-1,4.2097658E-1,-2.2340195E-1,9.1329776E-2,-2.9518628E-1,4.8616162E-1,3.6255963E-2,1.5026732E-1,1.0680449E0,-2.9892236E-1,1.0767471E-2,2.4967715E-1,-1.07844636E-1,4.379027E-1,7.145805E-2],"split_indices":[376,382,28,226,256,367,53,260,346,161,229,382,363,332,309,0,0,0,329,82,0,297,43,0,374,314,270,304,324,38,149,2147483647,2147483647,128,36,0,0,0,0,124,11,345,140,283,313,327,267,360,288,26,311,342,0,0,0,0,345,0,329,0,0,130,286,150,153,342,112,0,300,0,0,322,324,274,330,343,0,194,324,372,197,0,207,0,0,290,0,0,6,10,103,0,286,0,0,33,271,0,0,0,0,0,0,0,296,192,20,0,196,0,0,0,0,378,0,275,324,132,0,0,0,0,0,0,0,0,0,0,0,0,0,0,0,0,0,0,0,0,0,0,0,0,0,0,0,0,0,0,0,0,0],"split_type":[0,0,0,0,0,0,0,0,0,0,0,0,0,0,0,0,0,0,0,0,0,0,0,0,0,0,0,0,0,0,0,0,0,0,0,0,0,0,0,0,0,0,0,0,0,0,0,0,0,0,0,0,0,0,0,0,0,0,0,0,0,0,0,0,0,0,0,0,0,0,0,0,0,0,0,0,0,0,0,0,0,0,0,0,0,0,0,0,0,0,0,0,0,0,0,0,0,0,0,0,0,0,0,0,0,0,0,0,0,0,0,0,0,0,0,0,0,0,0,0,0,0,0,0,0,0,0,0,0,0,0,0,0,0,0,0,0,0,0,0,0,0,0,0,0,0,0,0,0,0,0],"sum_hessian":[1.9789346E3,6.023816E1,1.9186964E3,1.2145025E1,4.8093132E1,1.6155881E3,3.0310825E2,2.4040117E0,9.741014E0,4.259707E1,5.4960628E0,2.1668015E1,1.59392E3,2.5385501E2,4.925323E1,1.3912722E0,1.0127395E0,1.8447212E0,7.8962927E0,4.0727577E1,1.8694916E0,2.6883059E0,2.807757E0,1.1937518E1,9.730495E0,8.556806E1,1.508352E3,2.0648595E2,4.736906E1,2.9210724E1,2.0042507E1,6.876843E0,1.0194497E0,2.7572153E0,3.7970364E1,1.0422142E0,1.6460918E0,1.0321819E0,1.775575E0,6.790965E0,2.9395306E0,7.790363E1,7.6644278E0,1.4975272E3,1.0824858E1,4.144237E0,2.0234172E2,1.9837126E1,2.7531935E1,6.918367E0,2.2292358E1,1.9001768E1,1.0407398E0,1.1070067E0,1.6502087E0,1.0019171E0,3.6968445E1,1.4141525E0,5.376813E0,1.0057325E0,1.9337981E0,6.782902E1,1.0074614E1,3.7950454E0,3.8693821E0,1.4927405E3,4.7867346E0,8.096907E0,2.7279506E0,2.0297666E0,2.1144705E0,2.9333072E0,1.9940842E2,1.1413046E1,8.424081E0,2.6410234E1,1.1217003E0,2.3895226E0,4.5288444E0,1.7437492E1,4.854866E0,1.630444E1,2.6973276E0,3.5896606E1,1.0718402E0,3.6189148E0,1.7578981E0,1.4879867E0,6.6341034E1,2.720031E0,7.354583E0,1.051893E0,2.7431524E0,2.643708E0,1.2256742E0,1.4801989E3,1.2541587E1,3.7425644E0,1.0441699E0,1.000939E0,1.7270117E0,1.0054175E0,1.9278897E0,1.5724943E0,1.9783592E2,3.5249512E0,7.8880944E0,1.4718549E0,6.9522257E0,1.0104289E0,2.5399805E1,1.377461E0,1.0120615E0,3.3827438E0,1.1461005E0,1.1270178E1,6.167314E0,3.454549E0,1.400317E0,1.6349736E0,1.062354E0,1.6241521E0,1.9947627E0,6.53155E1,1.0255376E0,1.3977118E0,1.3223193E0,6.345938E0,1.0086447E0,1.5763898E0,1.1667626E0,1.21217575E1,1.4680771E3,2.3867488E0,1.0154838E1,1.9141823E0,1.9592174E2,2.020501E0,1.5044503E0,1.92157E0,5.9665246E0,5.083997E0,1.8682289E0,1.1803527E0,2.2023911E0,9.816684E0,1.4534945E0,3.0991337E0,3.06818E0,2.3817177E0,1.0728313E0],"tree_param":{"num_deleted":"2","num_feature":"384","num_nodes":"151","size_leaf_vector":"0"}},{"base_weights":[-8.8190997E-1,5.0412095E-1,-9.28467E-1,-6.821863E-1,7.220582E-1,-6.8952245E-1,-9.8208743E-1,-9.1374713E-1,3.7325168E-1,8.130005E-1,-3.001502E-1,-8.8183314E-1,-1.4028677E-1,-9.9894494E-1,-5.94197E-1,-2.1416114E-1,8.5912853E-1,4.4874415E-1,-7.5774604E-1,-9.1352993E-1,5.000552E-1,-6.5857077E-1,2.6317528E-1,-2.0295744E-1,-1.0053042E0,1.1209482E0,-8.383157E-1,9.175655E-1,-2.0733444E-2,-9.3622327E-1,6.636318E-1,-7.1366215E-1,1.4617335E0,6.1565787E-1,-8.211428E-1,5.269322E-1,-7.1464866E-1,-8.2257473E-1,9.536026E-1,3.8456714E-1,-1.0084708E0,1.4354006E0,-2.6491606E-1,8.951626E-1,-9.55926E-1,2.0926987E-1,9.729985E-1,5.88345E-1,-6.2411743E-1,-9.732135E-1,1.410945E-1,1.5114505E0,-6.2651885E-1,1.7380859E0,4.667926E-1,-6.9212094E-2,8.8423514E-1,5.0506007E-2,-9.429044E-1,-1.728804E-2,1.1410452E0,-9.1808265E-1,2.8716257E-1,-8.895368E-1,-2.0210326E-1,-6.1275214E-1,1.3462546E0,-1.0118006E0,1.7972114E-2,2.3759894E-1,1.6560932E0,2.0457697E0,-4.8852587E-1,4.5382077E-1,-9.995745E-1,-4.2135367E-1,6.444878E-1,3.3435047E-2,1.0106237E0,-1.0109771E0,-2.7352324E-1,-6.49928E-1,1.4666766E0,-7.217846E-1,9.995244E-1,-1.003754E0,2.400913E-1,-8.084453E-1,3.2281116E-1,-2.8557554E-1,1.5287783E0,-1.889475E-1,-1.0157107E0,1.4516028E0,-7.715183E-1,2.050125E0,7.8930265E-1,-1.021178E0,-4.9951725E-2,1.0334164E0,2.1457203E-1,3.9347953E-1,-1.0219302E0,-6.746013E-1,1.4337631E0,2.3761915E-2,-8.1291187E-1,7.65475E-2,2.1107714E0,-9.7914326E-1,7.6200836E-3,1.4319644E0,3.879936E-2,6.5414655E-1,-7.945902E-1,-1.8432085E-1,1.8571961E0,-7.892459E-1,8.0668133E-1,-1.813263E-1,-1.0183423E0],"categories":[],"categories_nodes":[],"categories_segments":[],"categories_sizes":[],"default_left":[1,1,1,1,1,1,1,0,0,1,1,1,1,1,1,0,1,0,0,1,1,1,1,1,1,1,1,1,1,1,1,0,1,1,1,1,1,1,0,1,1,1,0,1,1,1,1,0,0,1,1,0,0,0,0,0,0,1,1,1,1,0,0,0,0,0,0,1,1,0,1,0,0,0,1,0,0,0,1,1,1,1,1,0,0,0,0,1,1,1,1,1,1,0,0,1,1,0,0,0,0,0,0,0,0,0,0,0,0,0,0,0,0,0,0,0,0,0,0,0,0],"id":8,"left_children":[1,3,5,7,9,11,13,-1,-1,15,17,19,21,23,25,-1,27,-1,-1,29,31,33,35,37,39,41,43,45,47,49,51,-1,53,55,57,59,61,63,-1,65,67,69,-1,71,73,75,77,-1,-1,79,81,-1,-1,-1,-1,-1,-1,83,85,87,89,-1,-1,-1,-1,-1,-1,91,93,-1,-1,-1,-1,-1,97,-1,-1,-1,99,101,103,105,107,-1,-1,-1,-1,109,111,113,115,117,119,-1,-1,-1,-1,-1,-1,-1,-1,-1,-1,-1,-1,-1,-1,-1,-1,-1,-1,-1,-1,-1,-1,-1,-1,-1,-1,-1,-1],"loss_changes":[9.869324E1,1.3449746E1,1.819629E1,2.3676648E0,4.2250633E0,2.8747025E1,7.2578125E0,0E0,0E0,2.0600548E0,1.7892845E0,9.316086E0,1.5244814E1,5.6132812E0,2.2912024E1,0E0,1.9776382E0,0E0,0E0,7.710739E0,7.0910816E0,7.1000624E0,1.1013022E1,8.209882E0,5.404541E0,3.41615E0,1.0338165E1,1.1997471E0,1.5984706E0,7.9353485E0,4.6602974E0,0E0,7.3747635E-2,8.2886994E-1,3.0894508E0,1.1067373E1,2.1356769E0,1.2285566E-1,0E0,4.00439E0,3.906372E0,1.1486778E0,0E0,6.5263767E0,3.1635323E0,1.333245E0,1.1283646E0,0E0,0E0,4.7256927E0,8.680353E0,0E0,0E0,0E0,0E0,0E0,0E0,3.9917574E0,2.0548935E0,5.241555E0,9.035555E0,0E0,0E0,0E0,0E0,0E0,0E0,3.4562988E0,6.3955207E0,0E0,7.142067E-3,0E0,0E0,0E0,8.3174133E-1,0E0,0E0,0E0,3.5115433E-1,3.1595001E0,8.544273E0,6.021514E-1,2.5792637E0,0E0,0E0,0E0,0E0,8.224039E-1,4.247506E0,2.5119023E0,7.3078995E0,4.576039E0,2.2928467E0,0E0,0E0,0E0,0E0,0E0,0E0,0E0,0E0,0E0,0E0,0E0,0E0,0E0,0E0,0E0,0E0,0E0,0E0,0E0,0E0,0E0,0E0,0E0,0E0,0E0,0E0,0E0,0E0],"parents":[2147483647,0,0,1,1,2,2,3,3,4,4,5,5,6,6,9,9,10,10,11,11,12,12,13,13,14,14,16,16,19,19,20,20,21,21,22,22,23,23,24,24,25,25,26,26,27,27,28,28,29,29,30,30,32,32,33,33,34,34,35,35,36,36,37,37,39,39,40,40,41,41,43,43,44,44,45,45,46,46,49,49,50,50,57,57,58,58,59,59,60,60,67,67,68,68,70,70,74,74,78,78,79,79,80,80,81,81,82,82,87,87,88,88,89,89,90,90,91,91,92,92],"right_children":[2,4,6,8,10,12,14,-1,-1,16,18,20,22,24,26,-1,28,-1,-1,30,32,34,36,38,40,42,44,46,48,50,52,-1,54,56,58,60,62,64,-1,66,68,70,-1,72,74,76,78,-1,-1,80,82,-1,-1,-1,-1,-1,-1,84,86,88,90,-1,-1,-1,-1,-1,-1,92,94,-1,-1,-1,-1,-1,98,-1,-1,-1,100,102,104,106,108,-1,-1,-1,-1,110,112,114,116,118,120,-1,-1,-1,-1,-1,-1,-1,-1,-1,-1,-1,-1,-1,-1,-1,-1,-1,-1,-1,-1,-1,-1,-1,-1,-1,-1,-1,-1],"split_conditions":[-2.335929E0,1.2277724E-1,-6.8257517E-1,1.405903E0,4.0671763E-1,3.9688534E-1,1.5000825E0,-2.7412415E-1,1.11975506E-1,-2.846468E-1,-2.0559227E-1,2.165831E0,8.8863105E-2,-2.5832424E0,-1.4610491E0,-6.4248346E-2,2.0250926E0,1.3462324E-1,-2.2732382E-1,3.1819713E0,5.8903843E-1,-1.8853183E0,3.3106393E-1,1.2566972E0,-1.0688717E1,9.5476896E-1,-1.6454318E0,-1.494804E0,2.4663505E-1,2.599849E0,5.0965405E-1,-2.1409865E-1,4.0803995E-2,-3.3517325E-1,-1.3030188E0,-1.3228765E-1,8.0092347E-1,1.3892357E0,2.860808E-1,-1.0282941E-1,9.809219E0,5.724664E-1,-7.947482E-2,1.2831753E-1,-1.3041251E0,-1.0821893E0,-1.3405476E0,1.7650351E-1,-1.8723524E-1,1.4933772E0,3.0580243E-1,4.5343518E-1,-1.8795566E-1,5.214258E-1,1.4003779E-1,-2.0763628E-2,2.6527056E-1,-4.8303577E-1,1.0748751E0,-3.392317E-1,-3.6015052E-1,-2.754248E-1,8.6148776E-2,-2.6686105E-1,-6.063098E-2,-1.8382564E-1,4.038764E-1,-2.1470907E0,3.3853334E-1,7.127968E-2,4.96828E-1,6.137309E-1,-1.4655776E-1,1.3614623E-1,1.8261402E0,-1.264061E-1,1.9334635E-1,1.0030515E-2,2.590893E-1,-8.2006854E-1,8.738843E-1,-1.6647594E0,9.1197366E-1,-2.1653539E-1,2.9985735E-1,-3.011262E-1,7.202739E-2,1.2486069E0,-5.776305E-1,-4.9775404E-1,-4.135785E-1,-1.369348E0,-2.5752003E0,4.3548086E-1,-2.3145549E-1,6.150375E-1,2.367908E-1,-3.0635342E-1,-1.4985518E-2,3.1002492E-1,6.437161E-2,1.1804386E-1,-3.0657908E-1,-2.023804E-1,4.3012896E-1,7.128575E-3,-2.4387357E-1,2.2964252E-2,6.3323146E-1,-2.9374298E-1,2.286025E-3,4.2958933E-1,1.1639808E-2,1.9624397E-1,-2.3837706E-1,-5.5296257E-2,5.571588E-1,-2.3677377E-1,2.4200441E-1,-5.4397892E-2,-3.0550268E-1],"split_indices":[376,379,376,339,344,262,314,0,0,223,378,377,313,343,375,0,351,0,0,270,124,304,373,365,289,299,304,363,305,156,40,0,100,170,1,352,354,172,0,368,270,258,0,3,218,315,72,0,0,332,181,0,0,0,0,0,0,232,323,259,266,0,0,0,0,0,0,7,280,0,322,0,0,0,199,0,0,0,295,33,295,169,344,0,0,0,0,157,87,150,100,34,367,0,0,2147483647,2147483647,0,0,0,0,0,0,0,0,0,0,0,0,0,0,0,0,0,0,0,0,0,0,0,0],"split_type":[0,0,0,0,0,0,0,0,0,0,0,0,0,0,0,0,0,0,0,0,0,0,0,0,0,0,0,0,0,0,0,0,0,0,0,0,0,0,0,0,0,0,0,0,0,0,0,0,0,0,0,0,0,0,0,0,0,0,0,0,0,0,0,0,0,0,0,0,0,0,0,0,0,0,0,0,0,0,0,0,0,0,0,0,0,0,0,0,0,0,0,0,0,0,0,0,0,0,0,0,0,0,0,0,0,0,0,0,0,0,0,0,0,0,0,0,0,0,0,0,0],"sum_hessian":[1.5211772E3,4.9116592E1,1.4720605E3,7.2922373E0,4.1824356E1,2.723351E2,1.1997255E3,6.090289E0,1.2019483E0,3.8595325E1,3.22903E0,2.0125993E2,7.1075195E1,1.1482479E3,5.147758E1,1.5021973E0,3.709313E1,1.2320385E0,1.9969913E0,1.9707841E2,4.1815186E0,3.083391E1,4.0241283E1,9.3617325E0,1.1388861E3,5.9664307E0,4.551115E1,3.4742794E1,2.3503313E0,1.9468355E2,2.3948603E0,1.9625359E0,2.218983E0,3.1734705E0,2.7660439E1,3.2055733E1,8.185553E0,6.2839394E0,3.077793E0,2.3150222E0,1.1365712E3,4.83388E0,1.1325507E0,2.4715333E0,4.303962E1,2.8682976E0,3.1874498E1,1.1820501E0,1.1682813E0,1.8831432E2,6.36923E0,1.3416611E0,1.053199E0,1.1520646E0,1.0669183E0,1.1030368E0,2.0704339E0,3.4620492E0,2.419839E1,1.7510218E1,1.4545515E1,6.873379E0,1.3121735E0,5.280423E0,1.0035162E0,1.314576E0,1.0004463E0,1.13291E3,3.661077E0,1.0751494E0,3.7587306E0,1.0881726E0,1.3833609E0,1.0103537E0,4.2029263E1,1.1842275E0,1.68407E0,1.3E0,3.05745E1,1.7824898E2,1.0065351E1,4.308122E0,2.0611076E0,2.0407622E0,1.4212871E0,2.3158693E1,1.0396955E0,4.8502398E0,1.2659978E1,3.164728E0,1.1380787E1,5.5911617E0,1.1273188E3,1.0023173E0,2.6587598E0,1.6455121E0,2.1132185E0,4.102071E1,1.0085523E0,2.9433575E1,1.1409243E0,1.1091057E0,1.7713986E2,8.640405E0,1.4249463E0,1.0056208E0,3.3025014E0,1.006866E0,1.0542415E0,3.845942E0,1.0042975E0,1.7568848E0,1.0903093E1,1.0117509E0,2.152977E0,1.901404E0,9.4793825E0,3.6173985E0,1.9737632E0,3.7640414E0,1.1235548E3],"tree_param":{"num_deleted":"2","num_feature":"384","num_nodes":"121","size_leaf_vector":"0"}},{"base_weights":[-8.4588474E-1,-9.036597E-1,2.2601672E-1,-6.0150874E-1,-9.605479E-1,-9.5197725E-1,5.880776E-1,2.7338856E-1,-7.3934454E-1,-9.82857E-1,-6.3062865E-1,6.927257E-1,-4.208514E-1,8.211241E-1,-6.570783E-1,-3.8755316E-1,-9.2524827E-1,-1.2968713E-1,-9.877048E-1,-9.0426105E-1,-5.5504918E-2,2.7581352E-1,8.8118047E-1,4.8494127E-1,-7.691754E-1,1.0759487E0,-3.0412188E-1,-9.180816E-1,5.351955E-1,-6.9380116E-1,3.9080423E-1,-9.6616846E-1,6.670423E-2,7.824788E-1,-7.891773E-1,-1.0055565E0,-7.628136E-1,3.3131174E-3,-9.885582E-1,-5.2704024E-1,1.0716972E0,-4.0623903E-1,5.414814E-1,9.4944614E-1,-1.2647572E-1,-3.4699497E-1,1.2462003E0,-7.165784E-1,4.163574E-1,-8.221282E-1,1.3644783E-1,9.689808E-1,-7.046628E-1,2.1125878E-1,-9.8798853E-1,-7.2556263E-1,1.0667835E0,-1.0101918E0,-2.3835056E-1,5.807787E-1,-8.3970594E-1,9.777862E-1,-6.934938E-1,-1.4750269E-1,-1.0074555E0,1.3177314E-1,-8.8136744E-1,-2.057932E-1,2.0921721E0,-8.229015E-1,4.7467747E-1,8.4287864E-1,-5.725553E-1,1.0435473E0,3.90819E-2,-2.6504738E-2,1.4267731E0,-9.1857153E-1,2.0444477E-1,-6.4911205E-1,6.904772E-1,1.582164E0,-7.475433E-1,1.1843957E-2,-8.46537E-1,-1.0000933E0,-4.758278E-2,-1.0114194E0,-2.6627395E-2,-8.019325E-1,6.812027E-1,1.9151727E0,-6.8176997E-1,-9.38739E-1,-8.482749E-2,1.0824556E0,-2.9446283E-1,-9.3751574E-1,-1.8327402E-1,-6.90213E-1,5.4744816E-1,3.2928267E-1,2.6831584E0,-9.8724407E-1,-2.3473828E-1,9.900078E-1,-8.466801E-2,6.181215E-1,-6.267813E-1,1.548056E0,2.2928594E-1,2.9593095E-1,-9.87382E-1,-6.6876984E-1,1.3222836E0,-1.0393963E-1,1.007486E0,-1.0038578E-1,2.0199502E0,-1.010464E0,-2.2337638E-2,-2.305694E-2,-1.0126375E0,1.1209206E-1,-9.7128564E-1,1.0439185E0,-8.518698E-1,4.7813627E-1,-7.8526336E-1,1.1031294E0,2.8358322E-1],"categories":[],"categories_nodes":[],"categories_segments":[],"categories_sizes":[],"default_left":[1,1,1,1,1,0,1,1,1,1,1,1,1,1,1,1,1,1,1,1,1,1,1,0,0,1,1,0,0,1,1,1,1,0,0,1,1,1,1,1,1,1,1,1,0,0,1,0,0,1,1,1,1,0,1,0,0,1,1,1,1,0,0,0,0,1,1,1,1,1,0,1,0,0,1,0,1,1,1,0,1,1,0,0,0,1,0,1,0,0,0,0,0,1,1,0,1,0,0,0,0,0,0,0,0,1,0,0,0,0,0,0,0,0,0,0,0,0,0,0,0,0,0,0,0,0,0,0,0,0,0],"id":9,"left_children":[1,3,5,7,9,-1,11,13,15,17,19,21,23,25,27,29,31,33,35,37,39,41,43,-1,-1,45,47,-1,-1,49,51,53,55,-1,-1,57,59,61,63,65,67,69,71,73,-1,-1,75,-1,-1,77,79,81,83,-1,85,-1,-1,87,89,91,93,-1,-1,-1,-1,95,97,99,101,103,-1,105,-1,-1,107,-1,109,111,113,-1,115,117,-1,-1,-1,119,-1,121,-1,-1,-1,-1,-1,123,125,-1,127,-1,-1,-1,-1,-1,-1,-1,-1,129,-1,-1,-1,-1,-1,-1,-1,-1,-1,-1,-1,-1,-1,-1,-1,-1,-1,-1,-1,-1,-1,-1,-1,-1,-1],"loss_changes":[7.272095E1,1.8523804E1,2.6442957E1,2.17583E1,6.2510986E0,0E0,5.2578697E0,1.3310745E1,9.758293E0,3.481079E0,9.69385E0,3.1350422E0,1.963931E0,4.9775677E0,3.5536885E0,1.3430364E1,4.143379E0,4.2758718E0,2.7158203E0,3.2081108E0,1.1740991E1,2.9090185E0,2.1255894E0,0E0,0E0,3.6892881E0,1.4199234E0,0E0,0E0,4.3715324E0,1.0960736E1,2.6898117E0,4.669565E0,0E0,0E0,2.6062622E0,7.506851E0,3.772252E0,4.606552E-1,3.733356E0,8.9452E0,2.1272557E0,4.2125854E0,2.308403E0,0E0,0E0,2.8472996E0,0E0,0E0,3.6300488E0,3.1507444E0,1.2805396E1,6.387391E-1,0E0,1.0337524E0,0E0,0E0,9.3359375E-1,3.7162385E0,8.49766E0,4.755165E0,0E0,0E0,0E0,0E0,2.867231E0,2.2823334E-1,1.7683947E0,2.9926682E0,1.14100695E-1,0E0,1.3322258E0,0E0,0E0,1.7785038E0,0E0,1.2025757E0,2.9634686E0,4.597236E0,0E0,1.1437886E0,6.432123E0,0E0,0E0,0E0,9.2787933E-1,0E0,9.329834E-1,0E0,0E0,0E0,0E0,0E0,2.0608215E0,8.334957E0,0E0,2.320145E0,0E0,0E0,0E0,0E0,0E0,0E0,0E0,0E0,3.2440948E-1,0E0,0E0,0E0,0E0,0E0,0E0,0E0,0E0,0E0,0E0,0E0,0E0,0E0,0E0,0E0,0E0,0E0,0E0,0E0,0E0,0E0,0E0,0E0,0E0,0E0],"parents":[2147483647,0,0,1,1,2,2,3,3,4,4,6,6,7,7,8,8,9,9,10,10,11,11,12,12,13,13,14,14,15,15,16,16,17,17,18,18,19,19,20,20,21,21,22,22,25,25,26,26,29,29,30,30,31,31,32,32,35,35,36,36,37,37,38,38,39,39,40,40,41,41,42,42,43,43,46,46,49,49,50,50,51,51,52,52,54,54,57,57,58,58,59,59,60,60,65,65,66,66,67,67,68,68,69,69,71,71,74,74,76,76,77,77,78,78,80,80,81,81,85,85,87,87,93,93,94,94,96,96,105,105],"right_children":[2,4,6,8,10,-1,12,14,16,18,20,22,24,26,28,30,32,34,36,38,40,42,44,-1,-1,46,48,-1,-1,50,52,54,56,-1,-1,58,60,62,64,66,68,70,72,74,-1,-1,76,-1,-1,78,80,82,84,-1,86,-1,-1,88,90,92,94,-1,-1,-1,-1,96,98,100,102,104,-1,106,-1,-1,108,-1,110,112,114,-1,116,118,-1,-1,-1,120,-1,122,-1,-1,-1,-1,-1,124,126,-1,128,-1,-1,-1,-1,-1,-1,-1,-1,130,-1,-1,-1,-1,-1,-1,-1,-1,-1,-1,-1,-1,-1,-1,-1,-1,-1,-1,-1,-1,-1,-1,-1,-1,-1],"split_conditions":[2.1838093E0,-9.370588E-1,7.3561954E-1,-1.469645E0,3.9754945E-1,-2.8559318E-1,-2.9768264E-1,-3.6550885E-1,-5.6205225E-1,-2.6607862E0,2.1086359E-1,-1.0818596E-1,-2.9388833E-1,2.2005124E0,1.2085481E0,6.327009E-1,2.0684037E0,-9.087168E-1,1.4369612E0,-1.240979E0,9.4495296E-1,-3.7749827E-1,1.0462272E0,1.4548239E-1,-2.3075263E-1,-2.7670038E-1,9.296825E-1,-2.7542448E-1,1.6055867E-1,1.4178238E0,4.836772E-1,-1.0977845E0,7.6922625E-2,2.3474365E-1,-2.367532E-1,1.5925262E0,-1.5165313E0,-4.4021463E-1,-1.7406222E0,-8.728852E-1,-1.059258E0,1.7879474E0,-4.0542507E-1,1.7226549E0,-3.794272E-2,-1.0409849E-1,-4.8569494E-1,-2.1497354E-1,1.24907225E-1,1.4277027E0,-3.0819416E-2,-3.782935E-1,-7.297011E-1,6.337764E-2,3.0099313E0,-2.176688E-1,3.2003507E-1,1.7030804E0,-4.1788247E-1,7.385874E-2,1.3352365E0,2.9333586E-1,-2.0804815E-1,-4.425081E-2,-3.0223665E-1,-3.8727987E-1,6.929815E-1,2.9476473E-1,2.1150285E-1,-1.1124234E0,1.4240324E-1,-1.167099E-1,-1.717666E-1,3.130642E-1,-9.0466857E-1,-7.951422E-3,5.7609296E-1,-1.6661048E0,7.925004E-1,-1.9473362E-1,-1.1880499E-3,2.7394968E-1,-2.24263E-1,3.5531872E-3,-2.5396112E-1,2.2296329E0,-1.4274835E-2,-6.938144E-1,-7.988219E-3,-2.4057977E-1,2.0436083E-1,5.745518E-1,-2.04531E-1,-1.2910897E0,-6.8086934E-1,3.247367E-1,-8.023168E-1,-2.8125474E-1,-5.4982208E-2,-2.0706391E-1,1.6423446E-1,9.8784804E-2,8.0494756E-1,-2.9617324E-1,-7.042149E-2,1.4146227E0,-2.5400404E-2,1.8543646E-1,-1.880344E-1,4.6441683E-1,6.878579E-2,8.8779286E-2,-2.962146E-1,-2.0063096E-1,3.966851E-1,-3.118189E-2,3.022458E-1,-3.0115735E-2,6.0598505E-1,-3.031392E-1,-6.7012915E-3,-6.9170822E-3,-3.0379125E-1,3.362762E-2,-2.913857E-1,3.1317556E-1,-2.5556096E-1,1.4344089E-1,-2.3557901E-1,3.3093882E-1,8.507497E-2],"split_indices":[382,363,332,375,32,0,346,309,376,343,265,361,347,383,332,359,15,328,172,304,40,327,82,0,0,283,206,0,0,332,309,145,362,0,0,283,297,243,380,260,55,128,180,370,0,0,349,0,0,327,23,331,249,0,354,0,0,44,93,286,362,0,0,0,0,320,350,323,131,238,0,34,0,0,333,0,277,297,366,0,269,354,0,0,0,90,0,268,0,0,0,0,0,104,376,0,219,0,0,0,0,0,0,0,0,240,0,0,0,0,0,0,0,0,0,0,0,0,0,0,0,0,0,0,0,0,0,0,0,0,0],"split_type":[0,0,0,0,0,0,0,0,0,0,0,0,0,0,0,0,0,0,0,0,0,0,0,0,0,0,0,0,0,0,0,0,0,0,0,0,0,0,0,0,0,0,0,0,0,0,0,0,0,0,0,0,0,0,0,0,0,0,0,0,0,0,0,0,0,0,0,0,0,0,0,0,0,0,0,0,0,0,0,0,0,0,0,0,0,0,0,0,0,0,0,0,0,0,0,0,0,0,0,0,0,0,0,0,0,0,0,0,0,0,0,0,0,0,0,0,0,0,0,0,0,0,0,0,0,0,0,0,0,0,0],"sum_hessian":[1.1699646E3,1.1102782E3,5.968648E1,1.7775269E2,9.3252545E2,1.364901E1,4.603747E1,2.4058783E1,1.536939E2,8.7160846E2,6.0917046E1,4.1995064E1,4.042406E0,1.5217973E1,8.840811E0,5.4204937E1,9.948896E1,5.0814047E0,8.6652704E2,4.0890076E1,2.002697E1,1.3840265E1,2.81548E1,1.0138209E0,3.0285852E0,1.2443754E1,2.7742186E0,7.4417048E0,1.3991055E0,3.897765E1,1.5227287E1,9.557239E1,3.9165728E0,2.0539784E0,3.0274262E0,7.9958545E2,6.694156E1,3.5568106E0,3.7333263E1,1.4495566E1,5.5314035E0,3.731419E0,1.0108846E1,2.6422522E1,1.7322786E0,1.2188246E0,1.122493E1,1.7676798E0,1.0065386E0,3.376808E1,5.209566E0,1.0042447E1,5.1848397E0,1.5809553E0,9.399143E1,2.3384993E0,1.5780736E0,7.9446875E2,5.1167374E0,3.268887E0,6.3672672E1,1.3148192E0,2.2419915E0,1.0138904E0,3.6319374E1,5.2892237E0,9.206343E0,2.8108954E0,2.7205079E0,2.5779424E0,1.1534767E0,8.147879E0,1.9609678E0,2.3814594E1,2.6079273E0,1.5007349E0,9.724195E0,3.0964289E1,2.803793E0,2.0836015E0,3.1259646E0,7.4569287E0,2.5855184E0,1.0084398E0,4.1764E0,9.273429E1,1.2571403E0,7.9345E2,1.0187259E0,3.2517154E0,1.8650222E0,1.3379214E0,1.9309658E0,5.607287E1,7.599803E0,1.1607352E0,4.1284885E0,8.203557E0,1.0027854E0,1.761638E0,1.0492575E0,1.0739954E0,1.6465126E0,1.4845997E0,1.0933427E0,6.9742665E0,1.1736118E0,1.4332561E0,1.1746712E0,8.564063E0,1.1601322E0,1.483307E0,2.9480982E1,1.7996793E0,1.0041137E0,1.0833179E0,2.042647E0,1.6987592E0,5.7581697E0,9.172793E1,1.0063643E0,1.0011165E0,7.924489E2,1.6111057E0,5.446176E1,2.9288578E0,4.670945E0,1.613843E0,2.5146456E0,5.527558E0,1.4467087E0],"tree_param":{"num_deleted":"0","num_feature":"384","num_nodes":"131","size_leaf_vector":"0"}}]},"name":"gbtree"},"learner_model_param":{"base_score":"5E-1","num_class":"0","num_feature":"384","num_target":"1"},"objective":{"name":"binary:logistic","reg_loss_param":{"scale_pos_weight":"1"}}},"version":[1,6,0]}