{"learner":{"attributes":{"best_iteration":"9","best_ntree_limit":"10"},"feature_names":[],"feature_types":[],"gradient_booster":{"model":{"gbtree_model_param":{"num_parallel_tree":"1","num_trees":"10","size_leaf_vector":"0"},"tree_info":[0,0,0,0,0,0,0,0,0,0],"trees":[{"base_weights":[-1.7835975E0,1.5474614E0,-1.9630831E0,1.6703424E0,-7.9569894E-1,7.1875E-1,-1.9731063E0,1.7225845E0,-7E-1,1.1764706E-1,-1.7391304E0,1.6086956E0,-1.4E0,1.6923077E0,-1.9757199E0,1.7657005E0,-5.1428574E-1,-1.4482758E0,9.3333334E-1,-1.2941177E0,7.368421E-1,-1.8095238E0,-5E-1,1.7727273E0,-1E0,4E-1,-1.7647059E0,-1.9780962E0,1.1428572E0,9.6703297E-1,1.8592693E0,7.5E-1,-1.3043479E0,-0E0,-1.68E0,1.2727273E0,-0E0,1.6190476E0,-2.857143E-1,-2.2222222E-1,1.9036144E0,-1.9791679E0,1.3846154E0,-1E0,1.6666666E0,1.4728682E0,-2.4561404E-1,-1.0526316E-1,1.8796992E0,1.3333334E0,-5E-1,-1.5789474E0,-0E0,1.1111112E0,-1E0,-1.9801209E0,1.3333334E0,1.6097561E0,-8E-1,1.4E0,-1.0243902E0,-1.2E0,7.692308E-1,-8E-1,1.8929306E0,-1.3333334E0,-0E0,7.4074075E-2,-1.9815453E0,-0E0,1.7837838E0,-1.3513514E0,1E0,-0E0,1.1111112E0,1.9034482E0,-1.8181819E-1,1.2941177E0,-1.4285715E0,-1.9822558E0,-4E-1],"categories":[],"categories_nodes":[],"categories_segments":[],"categories_sizes":[],"default_left":[1,1,1,1,1,1,1,1,1,1,1,1,1,0,1,1,1,1,1,0,1,0,0,1,0,0,0,1,1,1,1,1,1,0,0,0,0,0,1,0,0,1,0,0,0,1,1,1,1,0,0,0,0,0,1,1,0,1,0,0,1,0,1,0,1,0,0,1,1,0,0,0,0,0,0,0,0,0,0,0,0],"id":0,"left_children":[1,3,5,7,9,11,13,15,17,19,21,23,25,-1,27,29,31,33,35,-1,37,-1,-1,39,-1,-1,-1,41,43,45,47,49,51,-1,-1,-1,-1,-1,53,-1,-1,55,-1,-1,-1,57,59,61,63,-1,-1,-1,-1,-1,65,67,-1,69,-1,-1,71,-1,73,-1,75,-1,-1,77,79,-1,-1,-1,-1,-1,-1,-1,-1,-1,-1,-1,-1],"loss_changes":[5.2938047E3,1.3176147E2,2.2713867E2,5.4546265E1,2.023865E1,6.2590492E1,8.349414E1,4.158374E1,1.3573565E1,1.2099071E1,9.8342896E-2,1.161462E1,7.270588E0,0E0,6.42207E1,2.914038E1,9.718323E0,2.4331026E0,1.1878788E0,0E0,9.032581E0,0E0,0E0,6.1675262E0,0E0,0E0,0E0,3.2847656E1,9.5238085E0,2.8271442E1,1.5027832E1,3.5833335E0,2.059496E0,0E0,0E0,0E0,0E0,0E0,6.3492064E0,0E0,0E0,2.9009766E1,0E0,0E0,0E0,1.1321686E1,1.969645E1,5.4704456E0,1.4482422E1,0E0,0E0,0E0,0E0,0E0,1.3333335E0,2.4578125E1,0E0,8.614365E0,0E0,0E0,8.135794E0,0E0,8.547008E-1,0E0,8.294556E0,0E0,0E0,1.4223467E1,8.583984E0,0E0,0E0,0E0,0E0,0E0,0E0,0E0,0E0,0E0,0E0,0E0,0E0],"parents":[2147483647,0,0,1,1,2,2,3,3,4,4,5,5,6,6,7,7,8,8,9,9,10,10,11,11,12,12,14,14,15,15,16,16,17,17,18,18,20,20,23,23,27,27,28,28,29,29,30,30,31,31,32,32,38,38,41,41,45,45,46,46,47,47,48,48,54,54,55,55,57,57,60,60,62,62,64,64,67,67,68,68],"right_children":[2,4,6,8,10,12,14,16,18,20,22,24,26,-1,28,30,32,34,36,-1,38,-1,-1,40,-1,-1,-1,42,44,46,48,50,52,-1,-1,-1,-1,-1,54,-1,-1,56,-1,-1,-1,58,60,62,64,-1,-1,-1,-1,-1,66,68,-1,70,-1,-1,72,-1,74,-1,76,-1,-1,78,80,-1,-1,-1,-1,-1,-1,-1,-1,-1,-1,-1,-1],"split_conditions":[-7.066589E-1,1.252883E-1,-1.9409399E0,4.1684714E-1,5.76944E-1,-6.907479E-1,-3.118637E0,1.738933E0,-3.6005437E-2,-3.4653118E-1,-2.3454201E-1,9.501965E-1,-1.575149E0,5.0769234E-1,3.8008409E0,-5.305433E-1,1.9268198E-1,-8.481149E-1,1.1536288E0,-3.8823533E-1,2.7739072E-1,-5.4285717E-1,-1.5E-1,-1.1984198E0,-3E-1,1.20000005E-1,-5.294118E-1,3.8212492E0,-1.9766304E-1,-3.0674386E-1,-5.453887E-1,2.1693671E-1,1.239712E0,-0E0,-5.04E-1,3.818182E-1,-0E0,4.8571432E-1,-1.2194246E0,-6.666667E-2,5.710843E-1,1.7782557E1,4.1538465E-1,-3E-1,5E-1,4.424196E-1,-3.64807E-1,-6.6049315E-2,-1.0074332E0,4.0000004E-1,-1.5E-1,-4.7368425E-1,-0E0,3.3333337E-1,9.1842425E-1,-5.224911E0,4.0000004E-1,-7.950177E-1,-2.4000001E-1,4.2000002E-1,9.892123E-1,-3.6E-1,1.6117287E-1,-2.4000001E-1,1.5570434E0,-4.0000004E-1,-0E0,-2.4752142E-2,1.2485864E0,-0E0,5.3513515E-1,-4.0540543E-1,3E-1,-0E0,3.3333337E-1,5.710345E-1,-5.454546E-2,3.8823533E-1,-4.2857146E-1,-5.946768E-1,-1.20000005E-1],"split_indices":[262,293,279,298,281,265,310,292,62,327,0,136,342,0,378,354,312,21,2,0,280,0,0,316,0,0,0,354,32,285,314,12,1,0,0,0,0,0,311,0,0,273,0,0,0,261,325,331,363,0,0,0,0,0,7,291,0,320,0,0,88,0,4,0,118,0,0,364,269,0,0,0,0,0,0,0,0,0,0,0,0],"split_type":[0,0,0,0,0,0,0,0,0,0,0,0,0,0,0,0,0,0,0,0,0,0,0,0,0,0,0,0,0,0,0,0,0,0,0,0,0,0,0,0,0,0,0,0,0,0,0,0,0,0,0,0,0,0,0,0,0,0,0,0,0,0,0,0,0,0,0,0,0,0,0,0,0,0,0,0,0,0,0,0,0],"sum_hessian":[8.84825E3,4.52E2,8.39625E3,4.2975E2,2.225E1,3.1E1,8.36525E3,4.2075E2,9E0,1.175E1,1.05E1,2.2E1,9E0,5.5E0,8.35975E3,4.13E2,7.75E0,6.25E0,2.75E0,3.25E0,8.5E0,9.5E0,1E0,2.1E1,1E0,1.5E0,7.5E0,8.35375E3,6E0,4.45E1,3.685E2,3E0,4.75E0,1E0,5.25E0,1.75E0,1E0,4.25E0,4.25E0,1.25E0,1.975E1,8.3515E3,2.25E0,1E0,5E0,3.125E1,1.325E1,3.75E0,3.6475E2,2E0,1E0,3.75E0,1E0,1.25E0,3E0,8.3495E3,2E0,2.975E1,1.5E0,4E0,9.25E0,1.5E0,2.25E0,1.5E0,3.6325E2,2E0,1E0,5.75E0,8.34375E3,3E0,2.675E1,8.25E0,1E0,1E0,1.25E0,3.615E2,1.75E0,3.25E0,2.5E0,8.33975E3,4E0],"tree_param":{"num_deleted":"0","num_feature":"384","num_nodes":"81","size_leaf_vector":"0"}},{"base_weights":[-1.3776027E0,1.1790663E0,-1.5171677E0,1.275652E0,-6.205861E-1,5.234401E-1,-1.5251205E0,1.316727E0,-5.270143E-1,-1.4671588E0,6.663415E-2,1.1554624E0,-1.3236834E0,1.3418487E0,-1.5272261E0,1.351201E0,-4.012347E-1,-1.1411781E0,7.7007085E-1,-1.0140208E0,6.5687037E-1,1.4006698E0,-5.798576E-1,-1.5291222E0,8.7581074E-1,1.379339E0,-5.179061E-1,4.8958483E-1,-1.1739328E0,-1.3585302E0,-5.8885958E-2,1.0565835E0,-0E0,-1.5710701E-1,-1.2321584E0,1.1452876E0,-6.4206266E-1,-1.8531317E-1,1.5116816E0,1.6558571E-1,-9.9965864E-1,-1.5300202E0,1.1340214E0,-5.986385E-1,1.3125672E0,1.4032012E0,-5.0786555E-1,8.63758E-1,-1.5153214E0,-4.3570626E-1,1.1718069E0,-1.1585604E-1,1.4263941E0,-1.530824E0,1.098701E0,8.272758E-2,1.4330004E0,-1.5511898E0,7.9165846E-1,4.7425255E-2,-1.5319691E0,1.1130717E0,-8.148426E-1,-8.334286E-2,1.4505577E0,1.0298512E0,-1.1640917E0,-1.535253E0,-1.0472987E0],"categories":[],"categories_nodes":[],"categories_segments":[],"categories_sizes":[],"default_left":[1,1,1,1,1,1,1,1,1,0,1,1,0,0,1,1,1,1,1,1,1,1,1,1,1,1,1,1,0,0,0,0,0,0,0,1,0,0,0,0,0,1,0,0,0,1,1,0,0,0,0,0,0,1,0,1,1,0,0,1,1,0,0,0,0,0,0,0,0],"id":1,"left_children":[1,3,5,7,9,11,13,15,17,-1,19,21,-1,-1,23,25,27,29,31,33,35,37,39,41,43,45,47,49,-1,-1,-1,-1,-1,-1,-1,51,-1,-1,-1,-1,-1,53,-1,-1,-1,55,57,-1,-1,-1,-1,-1,-1,59,-1,61,63,-1,-1,65,67,-1,-1,-1,-1,-1,-1,-1,-1],"loss_changes":[2.8984443E3,7.393042E1,1.25728516E2,3.028711E1,1.2957998E1,3.7287537E1,4.834375E1,2.3701904E1,8.540677E0,0E0,9.058353E0,1.075013E1,0E0,0E0,3.6257812E1,2.0888245E1,6.4006324E0,1.5502577E0,8.136442E-1,7.486887E-1,6.5189877E0,3.9345627E0,1.291732E0,2.0048828E1,5.0861607E0,1.7742615E1,1.0150662E1,3.437737E0,0E0,0E0,0E0,0E0,0E0,0E0,0E0,2.6413536E0,0E0,0E0,0E0,0E0,0E0,1.7855469E1,0E0,0E0,0E0,1.4586731E1,8.6256485E0,0E0,0E0,0E0,0E0,0E0,0E0,1.390625E1,0E0,9.515746E0,9.848999E0,0E0,0E0,8.958133E0,1.0564453E1,0E0,0E0,0E0,0E0,0E0,0E0,0E0,0E0],"parents":[2147483647,0,0,1,1,2,2,3,3,4,4,5,5,6,6,7,7,8,8,10,10,11,11,14,14,15,15,16,16,17,17,18,18,19,19,20,20,21,21,22,22,23,23,24,24,25,25,26,26,27,27,35,35,41,41,45,45,46,46,53,53,55,55,56,56,59,59,60,60],"right_children":[2,4,6,8,10,12,14,16,18,-1,20,22,-1,-1,24,26,28,30,32,34,36,38,40,42,44,46,48,50,-1,-1,-1,-1,-1,-1,-1,52,-1,-1,-1,-1,-1,54,-1,-1,-1,56,58,-1,-1,-1,-1,-1,-1,60,-1,62,64,-1,-1,66,68,-1,-1,-1,-1,-1,-1,-1,-1],"split_conditions":[-7.066589E-1,1.252883E-1,-1.9244251E0,4.1684714E-1,2.163485E-1,-4.0549216E-1,-3.118637E0,1.738933E0,-3.6005437E-2,-4.4014767E-1,-9.568614E-1,9.989673E-3,-3.9710504E-1,4.0255463E-1,3.8008409E0,2.7156107E0,-1.7819472E-2,-7.423762E-2,1.1536288E0,-7.7558446E-1,1.0902905E0,-1.1984198E0,5.370284E-2,3.8212492E0,2.4261029E-1,2.964856E0,-6.641269E-1,-1.689164E-1,-3.5217986E-1,-4.0755907E-1,-1.7665789E-2,3.1697506E-1,-0E0,-4.7132105E-2,-3.6964753E-1,-7.479217E-1,-1.926188E-1,-5.5593953E-2,4.5350447E-1,4.9675714E-2,-2.998976E-1,1.7782557E1,3.4020644E-1,-1.7959155E-1,3.937702E-1,-1.06239775E-2,4.6644592E-1,2.591274E-1,-4.5459643E-1,-1.3071188E-1,3.515421E-1,-3.4756813E-2,4.2791826E-1,-5.224911E0,3.2961032E-1,-1.669516E-1,-5.581888E-1,-4.6535695E-1,2.3749755E-1,-2.4752142E-2,2.3477516E0,3.3392152E-1,-2.4445279E-1,-2.5002858E-2,4.3516734E-1,3.0895537E-1,-3.4922752E-1,-4.6057594E-1,-3.141896E-1],"split_indices":[262,293,279,298,278,265,310,292,62,0,360,292,0,0,378,330,342,32,2,184,86,316,30,354,0,319,161,160,0,0,0,0,0,0,0,347,0,0,0,0,0,273,0,0,0,280,314,0,0,0,0,0,0,291,0,326,314,0,0,364,335,0,0,0,0,0,0,0,0],"split_type":[0,0,0,0,0,0,0,0,0,0,0,0,0,0,0,0,0,0,0,0,0,0,0,0,0,0,0,0,0,0,0,0,0,0,0,0,0,0,0,0,0,0,0,0,0,0,0,0,0,0,0,0,0,0,0,0,0,0,0,0,0,0,0,0,0,0,0,0,0],"sum_hessian":[8.116943E3,4.1977127E2,7.6971714E3,3.9866638E2,2.1104908E1,2.962991E1,7.6675415E3,3.900484E2,8.617965E0,8.94761E0,1.2157298E1,2.2355185E1,7.274725E0,5.160279E0,7.6623813E3,3.8258466E2,7.4637523E0,5.9302273E0,2.6877372E0,4.0408936E0,8.1164055E0,1.9756378E1,2.598806E0,7.656703E3,5.6779075E0,3.771687E2,5.415962E0,3.6370764E0,3.826676E0,4.725909E0,1.2043182E0,1.6877372E0,1E0,1.1689818E0,2.8719115E0,5.984452E0,2.1319532E0,1.2486122E0,1.8507767E1,1.1544334E0,1.4443725E0,7.654548E3,2.1556683E0,1.212837E0,4.4650707E0,3.727125E2,4.4561887E0,2.3267908E0,3.0891712E0,1.6969128E0,1.9401635E0,1.197937E0,4.7865148E0,7.6526255E3,1.922086E0,8.308726E0,3.6440378E2,2.3643267E0,2.0918622E0,5.5191755E0,7.6471064E3,3.756476E0,4.552251E0,4.128146E0,3.6027563E2,3.1305468E0,2.388629E0,7.5934883E3,5.3618248E1],"tree_param":{"num_deleted":"0","num_feature":"384","num_nodes":"69","size_leaf_vector":"0"}},{"base_weights":[-1.1890094E0,9.943607E-1,-1.3106662E0,1.0862044E0,-2.6226893E-1,2.925342E-1,-1.3190048E0,3.2435536E-1,1.1774262E0,5.382126E-1,-8.7167406E-1,1.2549611E0,-9.0409094E-1,1.1550084E0,-1.3209988E0,-1.074116E0,6.1996436E-1,1.203743E0,-4.5444852E-1,-6.9108284E-1,8.9297444E-1,-1.2206846E0,3.8095587E-1,-2.8750527E-1,1.3674294E0,-1.1589998E0,4.9533182E-1,-1.3236463E0,3.6470595E-1,-1.2970413E0,-2.7586129E-2,8.370594E-1,-5.8213276E-1,-1.8433824E-1,1.2292935E0,8.6556673E-1,-1.1667893E0,-9.7266227E-1,-8.113359E-2,1.1471307E0,-3.8404647E-1,2.4336901E-1,-1.3872017E0,-7.469673E-1,1.0421216E0,3.1535852E-1,1.4265251E0,2.1768041E-2,-1.3182459E0,-1.9602536E-1,9.2082757E-1,-1.3245835E0,9.971451E-1,1.5728465E0,-1.1455641E0,-4.4099075E-1,1.0056089E0,-1.1600118E0,6.837823E-1,-8.468732E-1,1.0489914E0,-3.9002907E-2,1.249963E0,7.1810834E-2,1.2934273E0,-1.3253543E0,9.442837E-1,-1.2626883E0,7.5055283E-1,1.2953757E0,8.5867256E-2,2.136376E-1,-1.2620631E0,1.1693821E0,-9.3201035E-1,1.2619079E0,-5.4819864E-1,-5.072916E-1,-1.3274626E0,3.6220753E-1,1.3289281E0,9.5568675E-1,-7.664999E-1,8.9643575E-2,-1.3674157E0,1.2715367E0,-4.9289474E-1,1.790046E0,-1.2532767E0,-8.607873E-2,-1.3287724E0],"categories":[],"categories_nodes":[],"categories_segments":[],"categories_sizes":[],"default_left":[1,1,1,1,1,1,1,1,1,1,1,1,1,0,1,1,1,1,1,1,1,1,1,0,1,1,1,1,1,0,0,1,1,1,1,0,0,0,0,1,0,0,0,0,0,0,0,0,0,0,0,1,0,0,0,1,1,0,0,1,0,1,1,0,0,1,0,0,0,1,1,0,0,0,1,1,0,1,1,0,0,0,0,0,0,0,0,0,0,0,0],"id":2,"left_children":[1,3,5,7,9,11,13,15,17,19,21,23,25,-1,27,29,31,33,35,37,39,41,43,-1,45,47,49,51,53,-1,-1,55,57,59,61,-1,-1,-1,-1,63,-1,-1,-1,-1,-1,-1,-1,-1,-1,-1,-1,65,-1,-1,-1,67,69,-1,-1,71,-1,73,75,-1,-1,77,-1,-1,-1,79,81,-1,-1,-1,83,85,-1,87,89,-1,-1,-1,-1,-1,-1,-1,-1,-1,-1,-1,-1],"loss_changes":[1.8085674E3,4.1795746E1,8.654883E1,2.2925293E1,1.2812144E1,4.0484623E1,3.3158203E1,1.6061916E1,1.3393219E1,5.6563067E0,6.91238E0,3.7509632E0,6.2146606E0,0E0,2.9077148E1,1.5657096E0,8.675911E0,1.0676788E1,6.156482E0,4.623592E-1,3.4925423E0,3.207447E0,3.7433305E0,0E0,6.825638E-1,2.6000595E0,1.1033161E0,1.5237305E1,2.1564957E1,0E0,0E0,6.2570896E0,4.736004E0,5.9506583E0,7.636963E0,0E0,0E0,0E0,0E0,1.1803293E0,0E0,0E0,0E0,0E0,0E0,0E0,0E0,0E0,0E0,0E0,0E0,1.243457E1,0E0,0E0,0E0,4.7070694E0,6.3245773E0,0E0,0E0,2.2878222E0,0E0,7.1451645E0,6.8098755E0,0E0,0E0,1.0353516E1,0E0,0E0,0E0,9.1379166E-2,5.8158517E0,0E0,0E0,0E0,1.8055115E0,5.413086E0,0E0,3.3183075E1,1.0253906E1,0E0,0E0,0E0,0E0,0E0,0E0,0E0,0E0,0E0,0E0,0E0,0E0],"parents":[2147483647,0,0,1,1,2,2,3,3,4,4,5,5,6,6,7,7,8,8,9,9,10,10,11,11,12,12,14,14,15,15,16,16,17,17,18,18,19,19,20,20,21,21,22,22,24,24,25,25,26,26,27,27,28,28,31,31,32,32,33,33,34,34,39,39,51,51,55,55,56,56,59,59,61,61,62,62,65,65,69,69,70,70,74,74,75,75,77,77,78,78],"right_children":[2,4,6,8,10,12,14,16,18,20,22,24,26,-1,28,30,32,34,36,38,40,42,44,-1,46,48,50,52,54,-1,-1,56,58,60,62,-1,-1,-1,-1,64,-1,-1,-1,-1,-1,-1,-1,-1,-1,-1,-1,66,-1,-1,-1,68,70,-1,-1,72,-1,74,76,-1,-1,78,-1,-1,-1,80,82,-1,-1,-1,84,86,-1,88,90,-1,-1,-1,-1,-1,-1,-1,-1,-1,-1,-1,-1],"split_conditions":[-7.582309E-1,6.887768E-2,-1.8355007E0,1.4629702E-1,-5.113045E-1,-7.6180637E-1,-3.118637E0,-9.036313E-2,2.964856E0,-3.5159916E-1,7.2953594E-1,-1.1055291E0,1.2315847E0,3.4650254E-1,3.421878E0,1.767585E-1,1.8911155E-1,-5.6376225E-1,-2.4965581E-1,1.6259243E-1,2.9192743E-1,-1.4883375E0,-9.265721E-1,-8.625159E-2,-8.5764456E-1,-1.0237483E0,-2.4898456E-1,3.8212492E0,-7.6414305E-1,-3.891124E-1,-8.275839E-3,-3.6313677E-1,3.9641035E-1,1.5324548E-1,-6.807967E-3,2.5967002E-1,-3.500368E-1,-2.9179868E-1,-2.4340078E-2,-3.4322667E0,-1.15213946E-1,7.3010705E-2,-4.1616052E-1,-2.240902E-1,3.126365E-1,9.460756E-2,4.2795756E-1,6.5304125E-3,-3.9547378E-1,-5.8807608E-2,2.7624828E-1,1.7782557E1,2.9914355E-1,4.7185397E-1,-3.4366924E-1,-3.9054126E-1,1.1841226E0,-3.4800354E-1,2.0513469E-1,-7.0691466E-1,3.1469744E-1,-6.205118E-1,3.7097104E0,2.1543251E-2,3.8802823E-1,-3.1832726E0,2.8328514E-1,-3.788065E-1,2.2516586E-1,-1.190842E0,-6.6673994E-1,6.409129E-2,-3.7861896E-1,3.5081464E-1,-5.9023714E-1,3.6141827E0,-1.644596E-1,-4.1668087E-1,-4.4352264E0,1.0866226E-1,3.9867845E-1,2.8670603E-1,-2.2994997E-1,2.6893074E-2,-4.102247E-1,3.8146102E-1,-1.4786842E-1,5.370138E-1,-3.7598303E-1,-2.5823621E-2,-3.9863175E-1],"split_indices":[262,293,279,277,311,343,310,284,319,327,360,269,40,0,378,311,298,314,298,17,275,138,29,0,44,61,55,354,373,0,0,365,14,64,280,0,0,0,0,262,0,0,0,0,0,0,0,0,0,0,0,273,0,0,0,55,251,0,0,174,0,233,302,0,0,379,0,0,0,27,51,0,0,0,41,291,0,362,291,0,0,0,0,0,0,0,0,0,0,0,0],"split_type":[0,0,0,0,0,0,0,0,0,0,0,0,0,0,0,0,0,0,0,0,0,0,0,0,0,0,0,0,0,0,0,0,0,0,0,0,0,0,0,0,0,0,0,0,0,0,0,0,0,0,0,0,0,0,0,0,0,0,0,0,0,0,0,0,0,0,0,0,0,0,0,0,0,0,0,0,0,0,0,0,0,0,0,0,0,0,0,0,0,0,0],"sum_hessian":[6.802904E3,3.58671E2,6.444233E3,3.343685E2,2.4302488E1,3.316796E1,6.411065E3,3.6242325E1,2.981262E2,1.055493E1,1.3747559E1,1.835587E1,1.4812091E1,4.6974545E0,6.4063677E3,5.8645687E0,3.0377756E1,2.936529E2,4.4733E0,2.151542E0,8.403387E0,1.0771799E1,2.97576E0,1.1416848E0,1.7214186E1,1.2675089E1,2.1370022E0,6.396536E3,9.831394E0,4.637371E0,1.2271974E0,2.598806E1,4.3896956E0,5.195259E0,2.884576E2,1.4924985E0,2.9808016E0,1.0651573E0,1.0863847E0,7.0933604E0,1.3100271E0,1.0529056E0,9.718893E0,1.051747E0,1.9240129E0,1.2525029E0,1.5961682E1,1.6088907E0,1.1066198E1,1.0196112E0,1.117391E0,6.394383E3,2.1531641E0,5.439018E0,4.3923764E0,2.839648E0,2.314841E1,3.071322E0,1.3183738E0,3.583549E0,1.6117102E0,4.6114416E0,2.838462E2,1.0280163E0,6.065344E0,6.392627E3,1.755784E0,1.6453168E0,1.1943312E0,1.7292086E1,5.8563256E0,1.1448159E0,2.438733E0,1.8281577E0,2.7832837E0,2.8226935E2,1.5768293E0,1.7053461E1,6.3755737E3,1.0095488E0,1.6282537E1,2.8384962E0,3.0178297E0,1.0690151E0,1.7142687E0,2.8100284E2,1.2665104E0,3.837111E0,1.3216351E1,6.7906013E0,6.368783E3],"tree_param":{"num_deleted":"0","num_feature":"384","num_nodes":"91","size_leaf_vector":"0"}},{"base_weights":[-1.0785937E0,8.819809E-1,-1.1904062E0,1.5260597E-1,1.0228666E0,7.958891E-2,-1.2006255E0,8.342979E-1,-3.4290272E-1,-2.0256461E-1,1.066888E0,1.3712682E0,-6.9840956E-1,1.0318471E0,-1.2026181E0,-1.2882748E-1,1.0318357E0,2.4500185E-1,-7.5694627E-1,6.718578E-1,-9.8927665E-1,-9.99442E-1,1.0807745E0,1.531794E0,-1.305347E-1,-1.0531448E0,2.9778808E-1,-1.2049965E0,2.7436897E-1,8.0269724E-1,-8.403351E-1,1.1558399E0,-1.6681363E-1,7.302769E-1,-1.0097836E0,8.32238E-1,-1.0130548E0,-3.7358364E-1,1.0261056E0,-1.2983733E0,1.6561598E-1,-5.359333E-1,1.0989211E0,1.1647348E0,2.6760125E0,-1.1720767E0,5.749987E-1,-6.290292E-1,9.8930603E-1,-1.2102306E0,-5.508133E-1,1.2817721E0,-1.0085009E0,1.2059615E0,2.7186242E-1,-6.695401E-1,9.756384E-1,-1.2163345E0,1.0579481E-1,-1.2728472E0,5.418857E-1,-7.283328E-2,1.1231365E0,-1.2271824E0,-9.6777216E-2,2.0295084E-1,-1.0016973E0,1.1691415E0,1.4873685E-1,-5.1816113E-2,-1.2118555E0,-1.0155665E0,2.1228397E0,1.1638436E0,-2.0642346E-1,-1.4188251E-1,-1.3582939E0,8.530102E-1,-7.459487E-1,5.5884653E-1,-1.4893218E0,-5.7394326E-1,1.1332631E0,1.1984837E0,-7.850545E-1,-1.212649E0,8.31406E-1,-1.1652038E0,9.9018985E-1,-7.8623396E-1,3.064594E0,-1.4922761E0,-4.9591637E-1,9.29573E-1,-3.9056075E-1,-3.7445325E-1,1.1432914E0,-1.1826546E0,5.022322E-1,-1.2132925E0,-4.7511343E-2,-1.2150326E0,1.54262E-1],"categories":[],"categories_nodes":[],"categories_segments":[],"categories_sizes":[],"default_left":[1,1,1,1,1,1,1,1,1,1,1,1,1,0,1,1,1,1,1,1,1,0,1,1,0,1,1,1,1,0,0,1,0,1,0,0,1,0,0,0,0,1,1,0,0,1,0,1,1,1,1,0,0,0,0,0,1,1,1,0,0,1,1,0,0,0,0,0,0,1,1,1,1,0,0,0,1,0,0,1,0,0,1,0,1,1,0,1,0,0,0,0,0,0,0,0,0,0,0,0,0,0,0],"id":3,"left_children":[1,3,5,7,9,11,13,15,17,19,21,23,25,-1,27,29,31,33,35,37,39,-1,41,43,-1,45,47,49,51,-1,-1,53,-1,55,-1,-1,57,-1,-1,-1,-1,59,61,-1,-1,63,-1,65,67,69,71,-1,-1,-1,-1,-1,73,75,77,-1,-1,79,81,-1,-1,-1,-1,-1,-1,83,85,87,89,-1,-1,-1,91,-1,-1,93,-1,-1,95,-1,97,99,-1,101,-1,-1,-1,-1,-1,-1,-1,-1,-1,-1,-1,-1,-1,-1,-1],"loss_changes":[1.2008091E3,3.0245895E1,6.729932E1,1.68617E1,1.3582977E1,4.343799E1,2.4091309E1,4.1180906E0,7.275016E0,7.153806E0,7.948242E0,4.112091E0,9.870753E0,0E0,1.8360352E1,3.6265764E0,2.7928677E0,8.526107E0,7.898099E0,2.2584016E0,2.1319823E0,0E0,7.578247E0,3.073532E0,0E0,4.5783443E0,5.673349E0,1.6880371E1,1.3009178E1,0E0,0E0,3.8010216E-1,0E0,4.0205765E0,0E0,0E0,3.6265144E0,0E0,0E0,0E0,0E0,3.3239524E0,6.7759094E0,0E0,0E0,1.0141907E0,0E0,1.4369621E0,5.6713486E-1,9.505371E0,5.498168E1,0E0,0E0,0E0,0E0,0E0,2.1866226E0,1.8045883E0,2.7267127E0,0E0,0E0,5.9466815E0,4.623871E0,0E0,0E0,0E0,0E0,0E0,0E0,8.426018E0,9.236816E0,1.2226864E1,2.0543442E1,0E0,0E0,0E0,5.829048E-1,0E0,0E0,2.0103397E0,0E0,0E0,3.9082031E0,0E0,3.537343E0,3.7470703E0,0E0,2.4748917E0,0E0,0E0,0E0,0E0,0E0,0E0,0E0,0E0,0E0,0E0,0E0,0E0,0E0,0E0,0E0],"parents":[2147483647,0,0,1,1,2,2,3,3,4,4,5,5,6,6,7,7,8,8,9,9,10,10,11,11,12,12,14,14,15,15,16,16,17,17,18,18,19,19,20,20,22,22,23,23,25,25,26,26,27,27,28,28,31,31,33,33,36,36,41,41,42,42,45,45,47,47,48,48,49,49,50,50,56,56,57,57,58,58,61,61,62,62,69,69,70,70,71,71,72,72,76,76,79,79,82,82,84,84,85,85,87,87],"right_children":[2,4,6,8,10,12,14,16,18,20,22,24,26,-1,28,30,32,34,36,38,40,-1,42,44,-1,46,48,50,52,-1,-1,54,-1,56,-1,-1,58,-1,-1,-1,-1,60,62,-1,-1,64,-1,66,68,70,72,-1,-1,-1,-1,-1,74,76,78,-1,-1,80,82,-1,-1,-1,-1,-1,-1,84,86,88,90,-1,-1,-1,92,-1,-1,94,-1,-1,96,-1,98,100,-1,102,-1,-1,-1,-1,-1,-1,-1,-1,-1,-1,-1,-1,-1,-1,-1],"split_conditions":[-8.327332E-1,-4.828444E-1,-1.6416152E0,-4.803807E-2,-1.3757973E0,-1.05598E0,-3.118637E0,-3.8074636E-1,-7.795416E-1,-7.039951E-1,-2.9668548E0,9.397376E-1,1.3041251E0,3.0955416E-1,3.421878E0,-3.0443037E-1,-8.284399E-2,1.6745777E-1,-4.99416E-1,1.2564158E0,9.03741E-1,-2.998326E-1,-2.0021003E-1,-1.918603E0,-3.9160408E-2,1.427139E0,4.4544026E-1,2.3477516E0,-7.6414305E-1,2.4080919E-1,-2.5210053E-1,1.1021185E0,-5.004409E-2,-8.3847694E-2,-3.029351E-1,2.4967141E-1,4.7568822E-1,-1.120751E-1,3.078317E-1,-3.8951203E-1,4.9684796E-2,3.4174383E-1,-1.0211856E0,3.4942046E-1,8.028038E-1,1.2681096E0,1.7249961E-1,1.2103915E0,-3.5555255E-1,-4.4352264E0,1.6901264E0,3.8453165E-1,-3.025503E-1,3.6178845E-1,8.155873E-2,-2.0086204E-1,3.2169822E-1,-1.419951E0,1.07692376E-1,-3.8185418E-1,1.6256571E-1,3.651727E-1,-9.012491E-1,-3.6815473E-1,-2.9033165E-2,6.0885254E-2,-3.005092E-1,3.5074246E-1,4.4621058E-2,-3.3518153E-1,1.7782557E1,2.313699E0,-5.339172E-1,3.491531E-1,-6.192704E-2,-4.2564753E-2,-1.2706468E-1,2.5590307E-1,-2.2378461E-1,1.531106E-1,-4.4679657E-1,-1.7218298E-1,-5.3187094E0,3.595451E-1,-1.0133086E-1,1.3239379E0,2.494218E-1,1.8470404E0,2.9705697E-1,-2.358702E-1,9.193782E-1,-4.4768283E-1,-1.4877492E-1,2.7887192E-1,-1.17168225E-1,-1.1233598E-1,3.4298742E-1,-3.547964E-1,1.5066966E-1,-3.6398774E-1,-1.4253403E-2,-3.645098E-1,4.6278603E-2],"split_indices":[262,354,279,337,308,343,310,346,378,51,319,330,278,0,378,212,306,261,191,309,94,0,282,279,0,61,277,335,373,0,0,258,0,283,0,0,320,0,0,0,0,335,173,0,0,371,0,330,328,291,374,0,0,0,0,0,283,354,308,0,0,267,363,0,0,0,0,0,0,370,273,354,260,0,0,0,71,0,0,73,0,0,288,0,274,270,0,127,0,0,0,0,0,0,0,0,0,0,0,0,0,0,0],"split_type":[0,0,0,0,0,0,0,0,0,0,0,0,0,0,0,0,0,0,0,0,0,0,0,0,0,0,0,0,0,0,0,0,0,0,0,0,0,0,0,0,0,0,0,0,0,0,0,0,0,0,0,0,0,0,0,0,0,0,0,0,0,0,0,0,0,0,0,0,0,0,0,0,0,0,0,0,0,0,0,0,0,0,0,0,0,0,0,0,0,0,0,0,0,0,0,0,0,0,0,0,0,0,0],"sum_hessian":[5.4719346E3,2.948583E2,5.177076E3,4.8071613E1,2.4678668E2,4.1272114E1,5.135804E3,1.9946568E1,2.8125044E1,8.433024E0,2.3835365E2,1.5227672E1,2.6044441E1,4.118938E0,5.131685E3,3.4539838E0,1.6492584E1,1.1791065E1,1.633398E1,4.0630164E0,4.3700085E0,1.1173627E0,2.372363E2,1.3739142E1,1.4885297E0,1.9163399E1,6.881044E0,5.123619E3,8.065929E0,1.440231E0,2.013753E0,1.4978703E1,1.5138822E0,8.804157E0,2.986908E0,1.9547809E0,1.4379199E1,1.0144961E0,3.0485203E0,3.349348E0,1.0206604E0,2.3165653E0,2.3491972E2,1.1929996E1,1.8091468E0,1.81199E1,1.043499E0,2.978897E0,3.9021468E0,5.0821064E3,4.15127E1,4.518516E0,3.547413E0,1.383028E1,1.1484216E0,1.0552185E0,7.7489386E0,1.209464E1,2.2845588E0,1.2684014E0,1.0481639E0,4.715877E0,2.3020386E2,1.7102217E1,1.0176833E0,1.0624323E0,1.9164647E0,2.892433E0,1.0097138E0,7.1647086E0,5.074942E3,3.589358E1,5.6191177E0,6.6979227E0,1.0510159E0,1.6448303E0,1.044981E1,1.2161609E0,1.0683979E0,3.6801798E0,1.0356972E0,1.0352517E0,2.291686E2,2.4139662E0,4.7507424E0,5.0733784E3,1.5634991E0,3.3791664E1,2.1019201E0,1.4145916E0,4.204526E0,8.412406E0,2.0374043E0,2.661718E0,1.0184618E0,1.2740839E0,2.2789452E2,3.691761E0,1.0589814E0,5.070536E3,2.8419344E0,3.263825E1,1.153414E0],"tree_param":{"num_deleted":"0","num_feature":"384","num_nodes":"103","size_leaf_vector":"0"}},{"base_weights":[-1.005437E0,6.969791E-1,-1.1174297E0,7.95105E-1,-5.081417E-1,6.01042E-2,-1.125284E0,1.0140446E0,4.7777432E-1,8.812609E-1,-7.423741E-1,-1.059788E0,1.0699409E0,9.1710436E-1,-1.1271138E0,-8.5136995E-2,1.0647953E0,-3.659417E-1,6.415753E-1,-9.524138E-1,6.427339E-2,1.2788454E0,-4.7779772E-1,-1.1335344E0,-6.089187E-1,8.135063E-1,-1.0360543E0,1.1308839E0,2.583995E-1,4.272316E-1,-8.063065E-1,-7.912156E-1,7.4343103E-1,-5.5523675E-2,-1.0758921E0,-7.5462073E-1,6.2856734E-1,-3.8375273E-2,1.3897548E0,-1.1356558E0,1.5446772E-1,1.1207508E0,-1.1025044E0,6.012043E-1,-1.8118205E0,1.1399494E0,-6.0633966E-3,6.5212435E-1,-1.1710913E0,-5.7233316E-1,8.927277E-1,-1.034062E0,6.67284E-1,-1.0599087E0,2.7122965E-1,-8.92286E-1,7.984492E-1,-2.0517845E-2,-1.1659282E0,1.059967E-1,8.354336E-1,1.4624007E0,2.9643553E-1,-1.1364974E0,7.4287325E-1,1.0700276E0,-9.101966E-1,-7.932141E-1,2.032152E0,-1.1511884E0,3.638964E-1,5.810524E-2,1.1485918E0,9.0347475E-1,-5.961435E-1,9.786439E-2,1.0819818E0,-1.2130865E0,8.0815636E-2,-7.101921E-1,8.4847474E-1,-2.6004916E-1,-1.2373158E0,1.0351211E-1,-1.137477E0,-9.4576085E-1,-1.2838024E-1,2.3967808E-2,2.3788908E0,1.1563666E0,1.0086684E-1,-1.0416683E-1,1.0547669E0,-1.3572313E0,-1.1774068E-1,-4.8667755E-2,-1.0061198E0,-4.125977E-1,9.108397E-1,-7.801304E-1,1.3408663E0,5.6134168E-2,-1.1384943E0],"categories":[],"categories_nodes":[],"categories_segments":[],"categories_sizes":[],"default_left":[1,1,1,1,1,1,1,1,1,0,1,0,1,0,1,1,1,1,1,1,1,1,0,1,1,0,1,1,1,1,1,1,1,0,1,0,1,0,1,1,1,1,1,0,0,1,0,1,0,0,1,1,0,0,0,0,1,0,1,0,0,0,0,1,0,0,0,1,1,0,0,0,1,1,0,0,0,1,0,1,1,0,0,1,1,0,0,0,0,0,0,0,0,0,0,0,0,0,0,0,0,0,0],"id":4,"left_children":[1,3,5,7,9,11,13,15,17,-1,19,-1,21,-1,23,25,27,29,31,33,35,37,-1,39,41,-1,43,45,47,49,51,53,55,-1,57,-1,59,-1,61,63,65,67,69,-1,-1,71,-1,73,-1,-1,75,77,-1,-1,-1,-1,79,-1,81,-1,-1,-1,-1,83,-1,-1,-1,85,87,-1,-1,-1,89,91,-1,-1,-1,93,-1,95,97,-1,-1,99,101,-1,-1,-1,-1,-1,-1,-1,-1,-1,-1,-1,-1,-1,-1,-1,-1,-1,-1],"loss_changes":[8.216279E2,3.1901947E1,3.743164E1,1.6654877E1,7.3795676E0,3.247987E1,1.6032715E1,8.184219E0,1.4415232E1,0E0,3.1493282E0,0E0,5.4844246E0,0E0,1.2651855E1,7.1058764E0,7.1026917E0,6.3935924E0,1.3180988E1,1.5487919E0,2.6472378E0,2.0331821E0,0E0,1.0994629E1,4.4980064E1,0E0,6.170877E0,1.3256989E0,7.408839E0,3.6918006E0,4.543677E0,2.0606785E0,8.008915E0,0E0,1.1840286E0,0E0,2.7137017E-1,0E0,5.614109E-1,7.095703E0,8.178857E0,2.232027E1,3.3007355E0,0E0,0E0,1.1201477E0,0E0,3.6445594E0,0E0,0E0,6.5451384E-1,2.1612768E0,0E0,0E0,0E0,0E0,6.5622253E0,0E0,4.3454742E-1,0E0,0E0,0E0,0E0,4.918457E0,0E0,0E0,0E0,3.3990455E-1,5.738201E0,0E0,0E0,0E0,9.087982E-1,1.4266725E0,0E0,0E0,0E0,1.2563877E0,0E0,5.537499E-1,6.4227753E0,0E0,0E0,5.4590955E0,4.859375E0,0E0,0E0,0E0,0E0,0E0,0E0,0E0,0E0,0E0,0E0,0E0,0E0,0E0,0E0,0E0,0E0,0E0,0E0],"parents":[2147483647,0,0,1,1,2,2,3,3,4,4,5,5,6,6,7,7,8,8,10,10,12,12,14,14,15,15,16,16,17,17,18,18,19,19,20,20,21,21,23,23,24,24,26,26,27,27,28,28,29,29,30,30,31,31,32,32,34,34,36,36,38,38,39,39,40,40,41,41,42,42,45,45,47,47,50,50,51,51,56,56,58,58,63,63,67,67,68,68,72,72,73,73,77,77,79,79,80,80,83,83,84,84],"right_children":[2,4,6,8,10,12,14,16,18,-1,20,-1,22,-1,24,26,28,30,32,34,36,38,-1,40,42,-1,44,46,48,50,52,54,56,-1,58,-1,60,-1,62,64,66,68,70,-1,-1,72,-1,74,-1,-1,76,78,-1,-1,-1,-1,80,-1,82,-1,-1,-1,-1,84,-1,-1,-1,86,88,-1,-1,-1,90,92,-1,-1,-1,94,-1,96,98,-1,-1,100,102,-1,-1,-1,-1,-1,-1,-1,-1,-1,-1,-1,-1,-1,-1,-1,-1,-1,-1],"split_conditions":[-6.027112E-1,9.9365935E-2,-1.6416152E0,-2.392538E0,-1.2194246E0,6.083996E-1,-3.118637E0,-1.0978038E0,1.3549283E-1,2.6437828E-1,5.883845E-1,-3.1793642E-1,4.5293874E-1,2.7513131E-1,2.0898554E0,2.8657416E-1,8.149186E-1,-3.0576497E-1,-3.9347512E-1,-5.4071295E-1,1.567785E-1,-1.384475E0,-1.4333932E-1,3.421878E0,-1.5064777E0,2.440519E-1,-4.1677468E-2,2.7075213E-1,-4.3712604E-1,-6.580827E-1,5.575149E-1,2.1205923E-1,-2.645915E0,-1.6657103E-2,-9.808332E-1,-2.2638623E-1,2.0205727E-1,-1.1512582E-2,1.2635186E0,1.7782557E1,-8.9214706E-1,-9.0041304E-1,3.1134381E0,1.8036129E-1,-5.435462E-1,-9.335401E-1,-1.8190191E-3,1.5956302E0,-3.5132742E-1,-1.7169996E-1,-2.1905056E-1,1.0890261E0,2.0018521E-1,-3.1797263E-1,8.13689E-2,-2.676858E-1,-7.5433797E-1,-6.1553535E-3,-7.237342E-1,3.179901E-2,2.5063008E-1,4.3872023E-1,8.893067E-2,-3.2229848E0,2.2286199E-1,3.210083E-1,-2.7305898E-1,8.323653E-1,1.3182291E-1,-3.4535652E-1,1.09168924E-1,1.7431574E-2,4.206768E0,-6.299134E-1,-1.7884305E-1,2.9359318E-2,3.2459456E-1,3.218239E-1,2.4244692E-2,6.720762E-2,-8.414697E-1,-7.8014754E-2,-3.7119475E-1,-1.7601937E-1,-5.224911E0,-2.8372827E-1,-3.8514074E-2,7.1903425E-3,7.136673E-1,3.4691E-1,3.0260053E-2,-3.125005E-2,3.164301E-1,-4.071694E-1,-3.5322208E-2,-1.4600327E-2,-3.0183595E-1,-1.2377931E-1,2.7325192E-1,-2.3403913E-1,4.0225992E-1,1.6840251E-2,-3.415483E-1],"split_indices":[262,293,279,262,311,278,310,260,287,0,226,0,275,0,335,178,323,256,263,324,136,53,0,378,379,0,312,298,23,120,280,268,307,0,222,0,352,0,90,273,373,288,345,0,0,257,0,22,0,0,369,100,0,0,0,0,133,0,140,0,0,0,0,375,0,0,0,56,361,0,0,0,278,383,0,0,0,153,0,15,303,0,0,90,291,0,0,0,0,0,0,0,0,0,0,0,0,0,0,0,0,0,0],"split_type":[0,0,0,0,0,0,0,0,0,0,0,0,0,0,0,0,0,0,0,0,0,0,0,0,0,0,0,0,0,0,0,0,0,0,0,0,0,0,0,0,0,0,0,0,0,0,0,0,0,0,0,0,0,0,0,0,0,0,0,0,0,0,0,0,0,0,0,0,0,0,0,0,0,0,0,0,0,0,0,0,0,0,0,0,0,0,0,0,0,0,0,0,0,0,0,0,0,0,0,0,0,0,0],"sum_hessian":[4.3043384E3,2.6535913E2,4.0389792E3,2.4569394E2,1.9665182E1,2.6717508E1,4.0122617E3,1.4408687E2,1.0160707E2,2.438476E0,1.7226706E1,1.2644976E1,1.4072534E1,3.1438768E0,4.009118E3,6.3291745E0,1.3775769E2,1.631853E1,8.528854E1,1.3524429E1,3.702277E0,1.2552064E1,1.5204694E0,3.9588794E3,5.0238583E1,3.3283215E0,3.000853E0,1.2695095E2,1.0806742E1,5.8362517E0,1.0482277E1,5.2114716E0,8.007707E1,1.812067E0,1.1712362E1,1.3728037E0,2.3294733E0,1.0255895E0,1.1526474E1,3.952488E3,6.3914514E0,1.0871393E1,3.9367188E1,1.0370893E0,1.9637636E0,1.2594409E2,1.0068582E0,8.899388E0,1.9073534E0,1.781438E0,4.0548134E0,9.3373785E0,1.1448984E0,4.1614304E0,1.0500413E0,2.110579E0,7.796649E1,1.0171806E0,1.0695182E1,1.0895424E0,1.2399309E0,1.0491767E1,1.0347073E0,3.9511125E3,1.3753746E0,3.433645E0,2.9578063E0,3.5487044E0,7.3226886E0,3.8310257E1,1.0569298E0,1.0593452E0,1.2488475E2,7.6376863E0,1.2617024E0,1.0715274E0,2.9832861E0,7.969557E0,1.3678217E0,2.078795E0,7.58877E1,1.1204104E0,9.574772E0,3.036154E0,3.9480764E3,2.542722E0,1.0059822E0,1.2356099E0,6.0870786E0,1.2386192E2,1.022823E0,1.0377188E0,6.5999675E0,6.831464E0,1.138093E0,1.0024196E0,1.0763754E0,3.3114507E0,7.257625E1,1.9868121E0,1.049342E0,3.315862E0,3.9447605E3],"tree_param":{"num_deleted":"0","num_feature":"384","num_nodes":"103","size_leaf_vector":"0"}},{"base_weights":[-9.5181924E-1,6.121064E-1,-1.062164E0,7.445426E-1,-1.320918E-1,5.2199524E-2,-1.070152E0,9.111615E-1,2.947356E-1,1.0250305E0,-4.3197927E-1,-9.767946E-1,9.21986E-1,8.36687E-1,-1.0720208E0,-4.3092915E-1,9.5013624E-1,-5.435496E-2,1.0158385E0,-5.163318E-2,-1.0608839E0,-2.4914885E-1,-1.025376E0,1.1291121E0,-3.9733398E-1,-1.0788616E0,-5.520463E-1,-9.42849E-1,6.13727E-1,9.982679E-1,1.5869802E-1,8.1455404E-1,-3.659814E-1,1.0635178E0,1.3707535E-1,3.6157766E-1,-7.394926E-1,-1.097493E-2,-1.214535E0,1.04589954E-1,1.2333136E0,-1.081029E0,1.3711904E-1,8.268679E-1,-1.0364894E0,1.0273911E0,-7.444936E-2,7.055644E-1,-8.8199246E-1,-3.746837E-1,1.0646116E0,-5.953557E-1,4.536337E-1,-6.8471533E-1,6.385344E-1,-1.1954E0,2.5636334E-2,3.5445923E-1,1.2905949E0,-5.0505453E-1,-1.0845327E0,9.63242E-1,-8.290643E-1,-5.246591E-1,1.6238122E0,-1.0918205E0,3.274198E-1,1.0471561E0,-1.6700496E-1,-1.2073995E0,7.903077E-1,9.533573E-1,-3.182113E-2,-1.687196E0,4.354488E-1,6.497447E-1,-7.7280754E-1,8.8099587E-1,-3.8195547E-1,-1.8896848E-1,-8.3612764E-1,-3.85894E-1,8.360386E-1,6.200569E-1,-7.4480397E-1,1.735254E0,-8.189561E-1,-1.0854505E0,6.7009616E-1,-9.0452725E-1,4.0559632E-1,3.028178E-1,1.8106244E0,1.0639889E0,1.9233444E-1,9.172906E-3,9.7612333E-1,-8.8495797E-1,6.036133E-1,1.0541183E0,-6.572665E-2,-9.4245917E-1,3.1242642E-1,-1.0863518E0,2.5122836E-1],"categories":[],"categories_nodes":[],"categories_segments":[],"categories_sizes":[],"default_left":[1,1,1,1,1,1,1,1,1,0,1,1,1,0,1,1,1,1,1,1,1,0,0,1,0,1,1,0,0,1,1,1,1,0,0,1,1,0,0,0,1,1,1,1,1,1,1,1,1,0,0,1,1,1,1,0,1,0,0,1,1,0,0,1,1,0,0,1,0,0,0,0,0,0,0,1,1,0,0,0,0,0,1,0,0,0,1,1,0,0,0,0,0,0,0,0,0,0,0,0,0,0,0,0,0],"id":5,"left_children":[1,3,5,7,9,11,13,15,17,-1,19,21,23,-1,25,27,29,31,33,35,37,-1,-1,39,-1,41,43,-1,-1,45,47,49,51,-1,-1,53,55,-1,-1,-1,57,59,61,63,65,67,69,71,73,-1,-1,75,77,79,81,-1,83,-1,-1,85,87,-1,-1,89,91,-1,-1,93,-1,-1,-1,-1,-1,-1,-1,95,97,-1,-1,-1,-1,-1,99,-1,-1,-1,101,103,-1,-1,-1,-1,-1,-1,-1,-1,-1,-1,-1,-1,-1,-1,-1,-1,-1],"loss_changes":[5.7787134E2,2.1887688E1,2.7871094E1,1.3808693E1,1.23272705E1,2.165849E1,1.1952393E1,7.5537415E0,1.3207752E1,0E0,6.619642E0,1.3725853E-1,4.0238485E0,0E0,1.04313965E1,3.0078573E0,4.9095E0,1.0087874E1,5.704365E-1,5.5082016E0,1.6747732E0,0E0,0E0,1.1060019E0,0E0,8.2092285E0,2.911515E1,0E0,0E0,3.9886093E0,5.639689E0,3.3291821E0,5.4025946E0,0E0,0E0,3.9697664E0,2.558965E0,0E0,0E0,0E0,6.647968E-2,5.6140137E0,5.8507566E0,1.32968235E1,2.7534065E0,3.0545197E0,5.110489E0,1.1878161E0,4.4276876E0,0E0,0E0,5.3107E0,2.670935E0,6.97397E-2,2.3775768E0,0E0,2.149543E0,0E0,0E0,1.57200165E1,5.613037E0,0E0,0E0,2.14846E0,1.3056316E0,0E0,0E0,1.5239868E0,0E0,0E0,0E0,0E0,0E0,0E0,0E0,6.7221165E-1,3.545167E0,0E0,0E0,0E0,0E0,0E0,1.8058996E0,0E0,0E0,0E0,2.8813343E0,3.9265137E0,0E0,0E0,0E0,0E0,0E0,0E0,0E0,0E0,0E0,0E0,0E0,0E0,0E0,0E0,0E0,0E0,0E0],"parents":[2147483647,0,0,1,1,2,2,3,3,4,4,5,5,6,6,7,7,8,8,10,10,11,11,12,12,14,14,15,15,16,16,17,17,18,18,19,19,20,20,23,23,25,25,26,26,29,29,30,30,31,31,32,32,35,35,36,36,40,40,41,41,42,42,43,43,44,44,45,45,46,46,47,47,48,48,51,51,52,52,53,53,54,54,56,56,59,59,60,60,63,63,64,64,67,67,75,75,76,76,82,82,86,86,87,87],"right_children":[2,4,6,8,10,12,14,16,18,-1,20,22,24,-1,26,28,30,32,34,36,38,-1,-1,40,-1,42,44,-1,-1,46,48,50,52,-1,-1,54,56,-1,-1,-1,58,60,62,64,66,68,70,72,74,-1,-1,76,78,80,82,-1,84,-1,-1,86,88,-1,-1,90,92,-1,-1,94,-1,-1,-1,-1,-1,-1,-1,96,98,-1,-1,-1,-1,-1,100,-1,-1,-1,102,104,-1,-1,-1,-1,-1,-1,-1,-1,-1,-1,-1,-1,-1,-1,-1,-1,-1],"split_conditions":[-6.027112E-1,-5.832194E-3,-1.6416152E0,-1.3287422E-1,-1.2194246E0,6.083996E-1,-3.118637E0,-2.4133687E0,6.378242E-1,3.0750915E-1,1.6755635E-1,-1.2914064E0,3.3137077E-1,2.5100613E-1,2.0898554E0,-2.6225075E-1,1.4508293E0,-4.3660727E-1,-7.6852605E-2,2.5942135E-1,-2.1265745E0,-7.474466E-2,-3.076128E-1,3.4389928E-2,-1.192002E-1,3.421878E0,-1.5064777E0,-2.828547E-1,1.8411809E-1,2.5940483E0,4.4459322E-1,-1.1152709E0,7.5951385E-1,3.1905535E-1,4.1122608E-2,-5.785653E-2,-2.9838327E-1,-3.292479E-3,-3.643605E-1,3.1376988E-2,-4.3820524E-1,-1.0182674E0,-8.9214706E-1,3.242337E-1,1.9201181E0,1.3066113E0,5.1322234E-1,1.629402E-1,2.556921E-1,-1.12405114E-1,3.1938347E-1,-1.0695672E0,1.2254034E-1,7.2686136E-1,-7.6245654E-1,-3.5862002E-1,9.3983716E-1,1.0633777E-1,3.871785E-1,-9.788438E-1,1.7782557E1,2.8897262E-1,-2.487193E-1,8.34918E-1,1.5154955E-1,-3.2754615E-1,9.8225944E-2,-2.5368586E-2,-5.010149E-2,-3.6221987E-1,2.3709232E-1,2.860072E-1,-9.5463395E-3,-5.061588E-1,1.3063465E-1,-2.698055E-1,1.7424121E0,2.6429877E-1,-1.14586644E-1,-5.6690548E-2,-2.508383E-1,-1.157682E-1,6.077552E-1,1.8601708E-1,-2.234412E-1,5.2057624E-1,1.7533422E0,1.2485864E0,2.0102885E-1,-2.713582E-1,1.21678896E-1,9.084534E-2,5.431873E-1,3.191967E-1,5.7700336E-2,2.751872E-3,2.9283702E-1,-2.654874E-1,1.81084E-1,3.1623548E-1,-1.9717997E-2,-2.8273776E-1,9.372793E-2,-3.2590553E-1,7.536851E-2],"split_indices":[262,293,279,326,311,278,310,332,269,0,261,333,292,0,335,44,316,324,337,330,334,0,0,280,0,378,379,0,0,319,348,316,194,0,0,264,327,0,0,0,349,265,373,257,354,206,314,54,363,0,0,273,312,137,376,0,117,0,0,313,273,0,0,318,309,0,0,293,0,0,0,0,0,0,0,84,181,0,0,0,0,0,66,0,0,0,309,269,0,0,0,0,0,0,0,0,0,0,0,0,0,0,0,0,0],"split_type":[0,0,0,0,0,0,0,0,0,0,0,0,0,0,0,0,0,0,0,0,0,0,0,0,0,0,0,0,0,0,0,0,0,0,0,0,0,0,0,0,0,0,0,0,0,0,0,0,0,0,0,0,0,0,0,0,0,0,0,0,0,0,0,0,0,0,0,0,0,0,0,0,0,0,0,0,0,0,0,0,0,0,0,0,0,0,0,0,0,0,0,0,0,0,0,0,0,0,0,0,0,0,0,0,0],"sum_hessian":[3.3438345E3,2.2007959E2,3.123755E3,1.8683101E2,3.324858E1,2.2193048E1,3.1015618E3,1.3558246E2,5.124855E1,6.34566E0,2.690292E1,1.0109754E1,1.2083294E1,2.5991924E0,3.0989626E3,3.542437E0,1.3204002E2,3.5154602E1,1.6093948E1,1.743859E1,9.464331E0,1.016295E0,9.093459E0,1.0568299E1,1.5149947E0,3.0576604E3,4.1302223E1,2.4428203E0,1.0996166E0,1.2422396E2,7.816065E0,8.853758E0,2.6300842E1,1.5066249E1,1.0276994E0,1.1190548E1,6.248041E0,1.3450357E0,8.119295E0,1.1606243E0,9.407675E0,3.0523308E3,5.3295593E0,1.0554148E1,3.0748074E1,1.2098169E2,3.2422771E0,5.334757E0,2.4813075E0,1.4516288E0,7.4021297E0,2.076363E1,5.537214E0,2.0340376E0,9.15651E0,3.5627813E0,2.6852598E0,1.0154779E0,8.392197E0,1.9333025E1,3.0329978E3,2.874661E0,2.4548984E0,4.0416427E0,6.5125055E0,2.974103E1,1.0070442E0,1.1913353E2,1.8481596E0,1.2319822E0,2.010295E0,3.7737336E0,1.5610234E0,1.3658535E0,1.115454E0,2.25809E0,1.8505539E1,3.6275578E0,1.9096559E0,1.0018542E0,1.0321834E0,1.3258166E0,7.8306937E0,1.6259648E0,1.0592949E0,1.8194721E0,1.7513554E1,3.0317935E3,1.204417E0,2.889413E0,1.1522294E0,1.1316077E0,5.3808975E0,1.16592926E2,2.5405974E0,1.1092026E0,1.1488874E0,1.7441471E1,1.0640681E0,6.1696877E0,1.6610057E0,1.5940457E1,1.5730953E0,3.0299377E3,1.8556709E0],"tree_param":{"num_deleted":"0","num_feature":"384","num_nodes":"105","size_leaf_vector":"0"}},{"base_weights":[-9.0823E-1,5.0272715E-1,-1.023635E0,-4.814776E-1,6.1449426E-1,-3.3839133E-1,-1.0340123E0,-9.072408E-1,1.9984877E-1,6.887694E-1,-4.4207233E-1,-8.643807E-1,1.0218414E0,-1.0367649E0,1.2897737E-1,1.0564709E-1,-1.0215305E0,-4.9481505E-1,7.649988E-1,-9.862286E-2,7.6634085E-1,8.6152114E-2,-8.198969E-1,4.037025E-1,-9.9293697E-1,-4.0305996E-1,1.4721324E0,-1.0435894E0,-5.297111E-1,1.3015771E0,-8.5824764E-1,1.4159848E-1,-8.3534235E-1,9.4328487E-1,5.7742555E-2,7.035184E-1,-4.577646E-1,8.111343E-1,-3.0860642E-1,-6.080378E-1,5.493761E-1,-3.160033E-2,-9.429904E-1,1.2412132E0,-5.9739363E-1,1.5518968E-1,-1.0475692E0,1.11803114E-1,-6.728742E-1,1.7714452E0,-1.3736607E-1,-7.1089345E-1,-1.0521474E0,-9.335031E-1,9.418572E-1,-3.5976555E-2,8.9207584E-1,-8.038623E-1,4.153164E-1,-2.921541E-1,8.513976E-1,-7.478859E-1,5.190989E-1,8.531401E-1,-1.830101E-1,9.163591E-1,2.3619342E0,-9.8214495E-1,1.725002E-1,-1.0540549E0,1.82519E-1,9.3802534E-2,-9.933825E-1,1.3926318E0,-6.4982194E-1,6.8520136E-2,-1.0821106E0,-4.8783424E-1,8.9424294E-1,-8.3195704E-1,6.6787285E-1,1.1462722E-1,9.0716064E-1,6.482349E-2,-9.799024E-1,7.67589E-1,2.7534745E0,7.786338E-1,-1.0378709E0,-2.8699818E-1,2.9047093E0,-1.0553404E0,2.9745585E-1,1.2674814E0,-5.6609285E-1,-1.0521003E0,1.5878825E-1,4.6108267E-1,-3.5806563E-1,-2.2880487E-1,-1.2311552E0,-5.4578535E-2,-1.0695816E0,-5.665275E-1,6.5820533E-1,9.347804E-1,-5.706059E-2,-1.0591149E0,-7.429594E-2,1.3786919E0,-5.322311E-1,4.985853E-1,-1.0562881E0],"categories":[],"categories_nodes":[],"categories_segments":[],"categories_sizes":[],"default_left":[1,1,1,1,1,1,1,1,1,1,1,1,1,1,1,0,0,1,1,1,1,1,1,1,1,1,1,1,1,0,0,0,0,0,0,1,1,1,1,0,1,0,0,0,0,0,0,0,0,1,0,1,1,1,1,0,0,1,1,1,1,1,0,0,0,0,1,1,1,1,1,0,1,0,0,1,1,0,0,1,0,1,1,0,0,0,0,0,1,1,0,1,0,0,0,0,0,0,0,0,0,0,0,0,0,0,0,0,0,0,0,0,0],"id":6,"left_children":[1,3,5,7,9,11,13,15,17,19,21,23,25,27,29,-1,-1,31,33,35,37,39,41,43,45,47,49,51,53,-1,-1,-1,-1,-1,-1,55,57,59,61,-1,63,-1,-1,-1,-1,-1,-1,-1,-1,65,-1,67,69,71,73,-1,-1,75,77,79,81,83,-1,-1,-1,-1,85,87,89,91,93,-1,95,-1,-1,97,99,-1,-1,101,-1,103,105,-1,-1,-1,-1,-1,107,109,-1,111,-1,-1,-1,-1,-1,-1,-1,-1,-1,-1,-1,-1,-1,-1,-1,-1,-1,-1,-1,-1,-1],"loss_changes":[4.2070215E2,2.183168E1,1.661499E1,6.1355715E0,1.413607E1,2.7410524E1,7.6550293E0,1.5911493E0,3.7993011E0,1.0157639E1,2.5025659E0,4.847933E0,7.521221E0,7.559326E0,8.568875E0,0E0,0E0,1.0969788E0,6.0088396E-1,4.84187E0,7.491028E0,2.2590234E0,6.687689E-1,3.4428473E0,1.7342892E0,5.4447216E-1,4.2994194E0,5.834717E0,2.0584988E1,0E0,0E0,0E0,0E0,0E0,0E0,7.636266E-1,3.7916102E0,6.6737823E0,2.8388348E0,0E0,1.0717807E0,0E0,0E0,0E0,0E0,0E0,0E0,0E0,0E0,1.4565525E0,0E0,1.4801964E1,5.4960938E0,1.724844E0,6.385328E0,0E0,0E0,2.145986E0,2.126519E0,3.5805316E0,5.6396103E0,9.7104E-1,0E0,0E0,0E0,0E0,1.3880157E-1,5.4069557E0,1.9911583E1,4.220703E0,4.2313275E0,0E0,1.8685455E0,0E0,0E0,6.6823065E-1,5.488944E-1,0E0,0E0,7.140517E-1,0E0,4.438718E0,3.5106049E0,0E0,0E0,0E0,0E0,0E0,8.600769E-1,6.419237E0,0E0,3.834961E0,0E0,0E0,0E0,0E0,0E0,0E0,0E0,0E0,0E0,0E0,0E0,0E0,0E0,0E0,0E0,0E0,0E0,0E0,0E0,0E0,0E0],"parents":[2147483647,0,0,1,1,2,2,3,3,4,4,5,5,6,6,7,7,8,8,9,9,10,10,11,11,12,12,13,13,14,14,17,17,18,18,19,19,20,20,21,21,22,22,23,23,24,24,25,25,26,26,27,27,28,28,35,35,36,36,37,37,38,38,40,40,49,49,51,51,52,52,53,53,54,54,57,57,58,58,59,59,60,60,61,61,66,66,67,67,68,68,69,69,70,70,72,72,75,75,76,76,79,79,81,81,82,82,88,88,89,89,91,91],"right_children":[2,4,6,8,10,12,14,16,18,20,22,24,26,28,30,-1,-1,32,34,36,38,40,42,44,46,48,50,52,54,-1,-1,-1,-1,-1,-1,56,58,60,62,-1,64,-1,-1,-1,-1,-1,-1,-1,-1,66,-1,68,70,72,74,-1,-1,76,78,80,82,84,-1,-1,-1,-1,86,88,90,92,94,-1,96,-1,-1,98,100,-1,-1,102,-1,104,106,-1,-1,-1,-1,-1,108,110,-1,112,-1,-1,-1,-1,-1,-1,-1,-1,-1,-1,-1,-1,-1,-1,-1,-1,-1,-1,-1,-1,-1],"split_conditions":[-5.04387E-1,-3.4263578E-1,-7.962149E-1,-2.393905E-1,1.11117154E-1,8.436563E-1,1.1085849E0,-1.5454676E0,-1.5201202E-1,-7.489474E-1,-1.359019E0,-9.4337004E-1,1.849314E-1,2.0898554E0,-5.7332724E-1,3.169413E-2,-3.0645916E-1,-6.371136E-1,3.1564653E-1,-1.424302E0,1.738933E0,-1.2951627E0,-3.533315E-1,2.1726358E-1,-1.2506056E0,-5.295696E-1,4.3433797E-1,-1.7301297E0,1.7056189E0,3.9047316E-1,-2.574743E-1,4.2479545E-2,-2.5060272E-1,2.8298548E-1,1.7322768E-2,-9.7542614E-1,2.851813E-1,-7.364402E-1,-3.7794143E-1,-1.8241136E-1,-2.5274533E-1,-9.480099E-3,-2.8289714E-1,3.7236398E-1,-1.792181E-1,4.6556905E-2,-3.1427076E-1,3.3540934E-2,-2.0186228E-1,-1.6196524E-1,-4.1209824E-2,7.1405256E-1,3.1414716E0,-3.1918051E0,-8.8483655E-1,-1.0792967E-2,2.6762277E-1,-6.985087E-2,-7.9301953E-1,9.1499305E-1,-6.859876E-1,-8.2229304E-1,1.5572967E-1,2.5594205E-1,-5.4903034E-2,2.7490774E-1,-1.6457547E0,-8.092948E-1,2.365385E-2,3.8008409E0,-4.519559E-1,2.8140761E-2,1.2998326E0,4.1778955E-1,-1.9494659E-1,-5.739673E-2,-1.3190656E0,-1.4635028E-1,2.682729E-1,-5.761399E-1,2.0036186E-1,-1.1259608E-2,2.593225E0,1.944705E-2,-2.9397073E-1,2.302767E-1,8.2604235E-1,2.3359014E-1,1.7522583E0,-8.6999846E-1,8.714128E-1,-2.8759265E0,8.923676E-2,3.8024446E-1,-1.6982786E-1,-3.156301E-1,4.7636475E-2,1.3832481E-1,-1.0741969E-1,-6.864146E-2,-3.6934656E-1,-1.6373562E-2,-3.208745E-1,-1.6995825E-1,1.974616E-1,2.8043413E-1,-1.7118176E-2,-3.1773448E-1,-2.2288783E-2,4.136076E-1,-1.5966934E-1,1.495756E-1,-3.1688645E-1],"split_indices":[262,263,265,190,293,297,269,279,258,5,262,269,284,335,257,0,0,378,259,217,292,217,301,353,310,143,293,308,374,0,0,0,0,0,0,316,76,303,345,0,321,0,0,0,0,0,0,0,0,317,0,281,273,379,358,0,0,258,304,330,354,192,0,0,0,0,279,279,165,378,242,0,16,0,0,351,162,0,0,210,0,327,319,0,0,0,0,0,13,102,0,310,0,0,0,0,0,0,0,0,0,0,0,0,0,0,0,0,0,0,0,0,0],"split_type":[0,0,0,0,0,0,0,0,0,0,0,0,0,0,0,0,0,0,0,0,0,0,0,0,0,0,0,0,0,0,0,0,0,0,0,0,0,0,0,0,0,0,0,0,0,0,0,0,0,0,0,0,0,0,0,0,0,0,0,0,0,0,0,0,0,0,0,0,0,0,0,0,0,0,0,0,0,0,0,0,0,0,0,0,0,0,0,0,0,0,0,0,0,0,0,0,0,0,0,0,0,0,0,0,0,0,0,0,0,0,0,0,0],"sum_hessian":[2.5795027E3,1.9477705E2,2.3847256E3,1.952601E1,1.7525104E2,3.60768E1,2.348649E3,1.1812658E1,7.7133512E0,1.6406557E2,1.1185473E1,2.6279352E1,9.797448E0,2.3432117E3,5.4371734E0,1.205407E0,1.0607251E1,3.516024E0,4.197327E0,1.4689344E1,1.4937622E2,4.986285E0,6.1991878E0,2.2219255E0,2.4057426E1,2.3778546E0,7.4195933E0,2.3110486E3,3.2163097E1,2.339709E0,3.0974646E0,1.4291869E0,2.086837E0,3.0857444E0,1.1115828E0,4.2463207E0,1.0443024E1,1.4363626E2,5.739958E0,1.8705088E0,3.1157765E0,1.0070047E0,5.192183E0,1.0792106E0,1.1427149E0,1.009139E0,2.3048288E1,1.0190051E0,1.3588496E0,6.1713166E0,1.248277E0,6.0065147E1,2.2509834E3,2.5524836E1,6.6382627E0,1.0271579E0,3.219163E0,7.535257E0,2.907767E0,4.8370166E0,1.3879924E2,3.8128421E0,1.9271158E0,2.0857956E0,1.0299808E0,3.5632484E0,2.6080682E0,4.5869003E1,1.4196146E1,2.2476572E3,3.326209E0,1.3746414E0,2.4150194E1,5.2706366E0,1.367626E0,2.004467E0,5.53079E0,1.0011736E0,1.9065934E0,3.1815186E0,1.6554983E0,9.98098E0,1.2881827E2,1.006805E0,2.8060372E0,1.0978945E0,1.5101737E0,1.0091821E0,4.485982E1,1.2918492E1,1.2776531E0,2.2457402E3,1.9169117E0,1.0750422E0,2.2511668E0,2.3061758E1,1.088436E0,1.001748E0,1.0027189E0,1.1993641E0,4.3314257E0,1.0327163E0,2.1488023E0,4.41116E0,5.5698195E0,1.2526075E2,3.5575204E0,4.379511E1,1.0647109E0,1.0647109E0,1.1853782E1,1.048683E0,2.2446917E3],"tree_param":{"num_deleted":"0","num_feature":"384","num_nodes":"113","size_leaf_vector":"0"}},{"base_weights":[-8.70161E-1,4.361573E-1,-9.872393E-1,-3.092265E-1,5.6892854E-1,-2.820154E-1,-9.989465E-1,-6.2754303E-1,3.3895013E-1,7.531284E-1,9.84419E-2,7.171179E-1,-8.7199897E-1,-7.720968E-1,-1.0163013E0,5.557939E-1,-7.661201E-1,7.9212046E-1,-2.6422873E-1,-7.5755346E-1,7.969926E-1,-1.7752637E-1,7.010876E-1,1.1082904E0,-7.043237E-1,3.5963833E-1,-9.603146E-1,1.03736565E-1,-8.93981E-1,-1.0244132E0,-4.4697896E-1,1.9138679E-3,-1.0572729E0,1.0021496E0,-6.064429E-2,6.4162236E-1,-1.0167683E0,2.3275653E-1,8.8922644E-1,7.1616924E-1,-3.6629292E-1,-3.849272E-1,8.800424E-1,1.3773478E0,-3.1165463E-1,-6.2351253E-2,-1.0068792E0,7.3950046E-1,-9.141042E-1,7.38958E-1,-9.340827E-1,-1.0278237E0,2.0361874E-1,-8.385481E-1,9.5378745E-1,4.9475715E-1,-5.8001804E-1,-5.206361E-2,-1.1820637E0,-4.626962E-1,7.434429E-1,-2.5781235E-1,9.2195415E-1,9.157878E-2,8.403397E-1,-5.35083E-1,6.559449E-1,-5.938627E-2,9.7764874E-1,-3.373684E-1,1.6650404E0,2.194331E0,-3.6839542E-1,-5.990585E-1,1.8682963E0,-9.5071536E-1,4.593218E-1,-1.0301818E0,2.0997685E-1,-6.5987134E-1,1.2300862E0,-9.294348E-1,3.381715E-1,1.2141128E0,-1.2242509E-2,6.3574766E-3,6.956568E-1,-1.9230272E-1,-1.2728901E0,1.8300499E-1,-8.0975926E-1,9.7119635E-1,-5.4886067E-1,-9.303778E-1,5.596388E-1,-7.170144E-2,9.583362E-1,7.087901E-1,-7.140483E-1,4.524304E-2,8.5863316E-1,1.037075E0,2.2140478E-1,8.668518E-1,2.0596364E0,3.478409E0,2.7014565E-1,1.1997156E0,-8.916574E-1,-9.676786E-1,4.5101362E-1,-1.0317823E0,2.4524488E-1,-6.5568346E-1,1.0604936E0,-1.0028983E0,1.8563272E-1,-3.8141075E-1,6.4297825E-1,-1.0041761E0,-6.79331E-2,1.0832585E0,9.9076785E-2,-1.1058394E0,6.996914E-1,9.868613E-1,-1.8628713E-1,4.0531725E-1,-8.9377296E-1,-5.41857E-1,9.5750177E-1,-1.0083961E0,-3.8148576E-1,-1.0329778E0,4.2511708E-1],"categories":[],"categories_nodes":[],"categories_segments":[],"categories_sizes":[],"default_left":[1,1,1,1,1,1,1,1,1,1,1,1,1,1,1,0,1,1,1,0,1,1,1,1,0,0,1,1,1,1,1,1,1,0,0,0,0,1,1,1,1,0,1,1,0,0,0,1,0,1,1,1,1,1,1,1,0,0,1,1,1,1,1,0,0,1,1,0,1,0,1,1,1,0,0,1,0,1,1,0,0,1,0,0,0,0,0,0,0,1,1,1,0,0,0,1,1,0,1,0,0,0,0,0,0,0,1,0,0,1,0,1,0,0,0,0,0,0,0,0,0,0,0,0,0,0,0,0,0,0,0,0,0,0,0],"id":7,"left_children":[1,3,5,7,9,11,13,15,17,19,21,23,25,27,29,-1,31,33,35,-1,37,39,41,43,-1,-1,45,47,49,51,53,55,57,-1,-1,-1,-1,59,61,63,65,-1,67,69,-1,-1,-1,71,-1,73,75,77,79,81,83,85,-1,-1,87,89,91,93,95,-1,-1,97,99,-1,101,-1,103,105,107,-1,-1,109,-1,111,113,-1,-1,115,-1,-1,-1,-1,-1,-1,-1,117,119,121,-1,-1,-1,123,125,-1,127,-1,-1,-1,-1,-1,-1,-1,129,-1,-1,131,-1,133,-1,-1,-1,-1,-1,-1,-1,-1,-1,-1,-1,-1,-1,-1,-1,-1,-1,-1,-1,-1,-1,-1,-1],"loss_changes":[3.042389E2,1.6414524E1,1.4772339E1,5.464962E0,1.2026447E1,1.899799E1,6.2750244E0,3.2828608E0,2.6785011E0,7.242962E0,6.849296E0,7.5198417E0,2.5260086E0,1.4140823E1,7.220459E0,0E0,3.5836334E0,1.029413E0,3.8052888E0,0E0,4.8854103E0,5.07579E0,2.8463354E0,4.2089415E0,0E0,0E0,7.3078537E-1,1.1658925E1,8.26181E0,7.071411E0,1.4583771E1,1.8359687E0,1.3955641E0,0E0,0E0,0E0,0E0,5.7078543E0,3.3816452E0,3.351817E-1,4.5297494E0,0E0,1.1016808E0,4.7557545E0,0E0,0E0,0E0,1.8537842E1,0E0,6.150755E0,3.0624237E0,4.98584E0,5.5734267E0,2.4717054E0,1.5132108E0,3.3546138E-1,0E0,0E0,6.7998505E-1,1.719343E0,3.209003E0,2.2276325E0,3.0202637E0,0E0,0E0,5.255971E0,4.4160986E-1,0E0,2.3631382E-1,0E0,5.606842E-1,1.1165003E1,6.896094E0,0E0,0E0,3.1063232E0,0E0,3.5827637E0,3.5945349E0,0E0,0E0,1.7420006E0,0E0,0E0,0E0,0E0,0E0,0E0,0E0,1.0933131E0,6.160269E-1,6.833825E-1,0E0,0E0,0E0,3.8164089E0,2.7576904E0,0E0,4.215111E0,0E0,0E0,0E0,0E0,0E0,0E0,0E0,2.2183595E0,0E0,0E0,2.2709045E0,0E0,3.2769775E0,0E0,0E0,0E0,0E0,0E0,0E0,0E0,0E0,0E0,0E0,0E0,0E0,0E0,0E0,0E0,0E0,0E0,0E0,0E0,0E0,0E0,0E0,0E0],"parents":[2147483647,0,0,1,1,2,2,3,3,4,4,5,5,6,6,7,7,8,8,9,9,10,10,11,11,12,12,13,13,14,14,16,16,17,17,18,18,20,20,21,21,22,22,23,23,26,26,27,27,28,28,29,29,30,30,31,31,32,32,37,37,38,38,39,39,40,40,42,42,43,43,47,47,49,49,50,50,51,51,52,52,53,53,54,54,55,55,58,58,59,59,60,60,61,61,62,62,65,65,66,66,68,68,70,70,71,71,72,72,75,75,77,77,78,78,81,81,89,89,90,90,91,91,95,95,96,96,98,98,106,106,109,109,111,111],"right_children":[2,4,6,8,10,12,14,16,18,20,22,24,26,28,30,-1,32,34,36,-1,38,40,42,44,-1,-1,46,48,50,52,54,56,58,-1,-1,-1,-1,60,62,64,66,-1,68,70,-1,-1,-1,72,-1,74,76,78,80,82,84,86,-1,-1,88,90,92,94,96,-1,-1,98,100,-1,102,-1,104,106,108,-1,-1,110,-1,112,114,-1,-1,116,-1,-1,-1,-1,-1,-1,-1,118,120,122,-1,-1,-1,124,126,-1,128,-1,-1,-1,-1,-1,-1,-1,130,-1,-1,132,-1,134,-1,-1,-1,-1,-1,-1,-1,-1,-1,-1,-1,-1,-1,-1,-1,-1,-1,-1,-1,-1,-1,-1,-1],"split_conditions":[-5.04387E-1,-3.025586E-1,-7.962149E-1,2.9140714E-1,-8.920428E-2,-9.871141E-1,-1.0291331E0,-1.0444078E0,1.7532593E-1,-6.7305696E-1,6.926787E-1,3.4241214E-1,-1.3992336E0,-1.7269526E0,2.0898554E0,1.6673817E-1,-7.7426827E-1,8.343767E-2,-4.8576558E-1,-2.2726604E-1,1.3991293E-1,-7.4834687E-1,-1.4202213E0,1.4195639E-1,-2.1129712E-1,1.0789151E-1,-1.9548728E0,-3.2846758E-1,-2.2575583E0,1.1085849E0,1.9547815E0,-1.5127252E0,-9.6779764E-1,3.0064487E-1,-1.8193288E-2,1.9248672E-1,-3.0503052E-1,2.2107117E-2,-8.737747E-2,-7.836312E-1,1.5093036E0,-1.15478165E-1,-6.6873443E-1,-3.5533944E-1,-9.349639E-2,-1.8705377E-2,-3.0206376E-1,6.961533E-1,-2.7423128E-1,4.2173126E-1,1.9357576E0,3.1414716E0,1.068414E0,9.5531535E-1,-8.148156E-1,-8.1390035E-1,-1.7400542E-1,-1.5619083E-2,-7.771592E-1,-3.2385275E-2,6.7087674E-1,-5.1953965E-1,-5.513463E-1,2.7473636E-2,2.5210193E-1,-1.4088447E0,1.3444042E-1,-1.781588E-2,1.5792919E0,-1.0121053E-1,-1.7177536E0,1.006772E0,2.2700697E-1,-1.7971756E-1,5.604889E-1,2.5235288E0,1.3779655E-1,3.8008409E0,2.0554513E-1,-1.979614E-1,3.690259E-1,1.2998326E0,1.0145146E-1,3.6423385E-1,-3.6727528E-3,1.907243E-3,2.0869704E-1,-5.7690818E-2,-3.8186705E-1,1.379132E-1,3.2184452E-1,8.365821E-1,-1.646582E-1,-2.7911335E-1,1.6789165E-1,-3.1629556E-1,1.4254649E0,2.1263705E-1,-1.3871872E0,1.3572913E-2,2.5758997E-1,3.1112254E-1,6.6421434E-2,2.6005554E-1,6.1789095E-1,1.0435227E0,6.790339E-2,3.599147E-1,-2.6749724E-1,1.6691889E0,1.353041E-1,1.2590305E0,7.357346E-2,-1.9670504E-1,3.1814808E-1,-3.0086952E-1,5.568982E-2,-1.1442323E-1,1.9289349E-1,-3.0125284E-1,-2.037993E-2,3.2497758E-1,2.9723037E-2,-3.3175182E-1,2.0990743E-1,2.960584E-1,-5.5886142E-2,1.2159518E-1,-2.681319E-1,-1.6255711E-1,2.8725055E-1,-3.0251884E-1,-1.1444573E-1,-3.0989337E-1,1.2753513E-1],"split_indices":[262,314,265,296,56,313,308,344,379,263,249,261,317,256,335,0,179,283,12,0,277,54,368,292,0,0,289,275,294,269,351,270,143,0,0,0,0,315,287,134,189,0,318,334,0,0,0,264,0,47,131,273,296,284,145,143,0,0,149,283,376,82,351,0,0,379,264,0,201,0,279,324,52,0,0,368,0,378,284,0,0,16,0,0,0,0,0,0,0,357,311,330,0,0,0,308,364,0,300,0,0,0,0,0,0,0,105,0,0,363,0,270,0,0,0,0,0,0,0,0,0,0,0,0,0,0,0,0,0,0,0,0,0,0,0],"split_type":[0,0,0,0,0,0,0,0,0,0,0,0,0,0,0,0,0,0,0,0,0,0,0,0,0,0,0,0,0,0,0,0,0,0,0,0,0,0,0,0,0,0,0,0,0,0,0,0,0,0,0,0,0,0,0,0,0,0,0,0,0,0,0,0,0,0,0,0,0,0,0,0,0,0,0,0,0,0,0,0,0,0,0,0,0,0,0,0,0,0,0,0,0,0,0,0,0,0,0,0,0,0,0,0,0,0,0,0,0,0,0,0,0,0,0,0,0,0,0,0,0,0,0,0,0,0,0,0,0,0,0,0,0,0,0],"sum_hessian":[1.9854354E3,1.6308333E2,1.822352E3,2.4456188E1,1.3862714E2,3.0167988E1,1.7921841E3,1.642284E1,8.033347E0,9.919187E1,3.9435272E1,1.11203165E1,1.9047672E1,1.3059766E2,1.6615864E3,1.4060011E0,1.501684E1,4.4082046E0,3.625142E0,2.339772E0,9.68521E1,2.7532701E1,1.1902571E1,8.89325E0,2.227066E0,1.06889E0,1.7978783E1,1.5972392E1,1.1462526E2,1.637456E3,2.4130447E1,4.4009557E0,1.0615884E1,3.3964977E0,1.0117068E0,1.7118887E0,1.9132535E0,1.4102752E1,8.2749344E1,4.3141003E0,2.3218601E1,1.5210245E0,1.0381546E1,7.5017796E0,1.3914709E0,1.0016553E0,1.6977127E1,9.999785E0,5.972606E0,2.3297768E0,1.1229549E2,1.6330836E3,4.3723226E0,1.9172379E1,4.9580674E0,2.4639864E0,1.9369694E0,1.3288661E0,9.287018E0,6.0109763E0,8.091776E0,2.1047473E0,8.06446E1,1.003569E0,3.3105314E0,2.0337128E1,2.8814733E0,1.0139724E0,9.367574E0,1.0529969E0,6.4487824E0,3.8990846E0,6.100701E0,1.2812854E0,1.0484914E0,1.1128481E2,1.0106738E0,1.630146E3,2.9377291E0,2.568652E0,1.8036705E0,1.7992811E1,1.179568E0,3.703298E0,1.2547696E0,1.0188189E0,1.4451675E0,1.0426136E0,8.244404E0,2.2666469E0,3.7443292E0,7.0906143E0,1.0011616E0,1.0789151E0,1.0258322E0,2.814167E0,7.783043E1,2.185642E0,1.8151485E1,1.0228453E0,1.8586279E0,8.340797E0,1.0267764E0,3.1909466E0,3.257836E0,1.8540674E0,2.0450172E0,1.2029471E0,4.8977537E0,1.1026014E2,1.0246743E0,1.6282936E3,1.8523386E0,1.5694308E0,1.3682984E0,1.6975044E1,1.0177658E0,1.0944666E0,1.1721803E0,2.6865797E0,1.0577494E0,6.068721E0,1.0218931E0,1.017087E0,1.79708E0,7.6072464E1,1.7579685E0,2.337541E0,1.5813945E1,1.0345451E0,1.0104722E0,1.0242533E2,7.834805E0,1.6272493E3,1.0443467E0],"tree_param":{"num_deleted":"0","num_feature":"384","num_nodes":"135","size_leaf_vector":"0"}},{"base_weights":[-8.3300173E-1,3.8834718E-1,-9.532075E-1,7.531668E-1,1.4170128E-1,9.452708E-2,-9.619351E-1,8.674616E-1,-3.123195E-1,-5.157691E-1,2.8200942E-1,1.0571241E0,-5.009741E-1,-7.0581234E-1,-9.827813E-1,-3.448839E-1,9.937512E-1,3.4459773E-1,-1.3498391E0,-8.64898E-1,3.1568456E-2,4.227299E-1,-2.6004544E-1,-8.84765E-1,2.0814258E-1,-6.464654E-2,-8.6985964E-1,-9.882077E-1,2.811363E-1,6.211497E-1,-9.2468596E-1,-1.967975E-2,1.0168357E0,-4.3680567E-1,7.1703213E-1,-1.16327815E-1,-9.4359756E-1,-6.3430995E-1,6.106643E-1,5.0011736E-1,-5.521159E-1,-7.888242E-1,4.0899506E-1,-4.551559E-1,7.639942E-1,1.3868868E0,-3.8759577E-1,4.319363E-1,-9.011632E-1,-9.977983E-1,-3.7866908E-1,1.0927875E0,-7.3429734E-1,9.6239656E-2,-1.3218054E0,1.2833801E-1,1.034539E0,-1.3598655E-1,-7.736982E-1,7.5968206E-1,7.7424936E-2,6.461615E-1,2.5848208E-2,-1.0584528E0,4.0818322E-1,-9.8189026E-1,2.1319917E-1,-2.1620521E-1,1.1972698E0,-1.574428E-1,3.052093E0,9.865456E-1,-5.9117395E-1,-1.9597845E-1,-9.652331E-1,-1.0005429E0,3.5672683E-1,5.774395E-1,-9.354032E-1,7.658434E-1,-3.1060418E-1,-3.3535466E-1,8.354619E-1,-1.297647E0,-2.9133606E-1,-1.1269308E0,-5.7306983E-2,3.6590132E-1,-9.9252856E-1,2.9189876E-1,1.495024E0,4.126819E-1,-5.980352E-1,9.836701E-1,-8.3400404E-1,1.7759248E0,-7.597744E-1,-9.901247E-1,1.4683974E-1,-1.0032078E0,1.8884498E-1,-4.250283E-1,1.0491369E0,-5.700068E-1,1.0368736E0,-2.2597757E-1,-9.7314644E-1,8.381068E-1,-8.624842E-2,-6.9762355E-1,6.329771E-1,-8.0604184E-1,4.116222E-1,-1.2385277E0,-2.8432235E-1,8.8638204E-1,-4.4281545E-1,-9.4541746E-1,4.0179613E-1,-2.3274256E-2,-8.76593E-1,8.448429E-2,-1.0159287E0,-1.0050174E0,3.463276E-1,1.0077201E0,-6.32794E-1,1.1848028E0,1.3265772E-1],"categories":[],"categories_nodes":[],"categories_segments":[],"categories_sizes":[],"default_left":[1,1,1,1,1,1,1,1,1,1,1,0,1,1,1,1,1,1,0,1,1,1,1,0,1,1,1,1,1,0,1,0,1,0,0,0,0,1,1,1,1,1,1,0,0,1,1,0,1,1,1,0,0,0,0,0,0,0,0,0,0,1,1,1,0,1,0,1,1,1,0,0,1,1,1,1,1,1,1,1,1,1,0,0,0,1,0,1,0,0,0,0,0,0,1,0,1,1,0,1,1,0,0,0,1,0,0,0,0,0,0,0,0,0,0,0,0,0,0,0,0,0,0,0,0,0,0,0,0],"id":8,"left_children":[1,3,5,7,9,11,13,15,17,19,21,-1,23,25,27,29,31,33,-1,35,37,39,41,-1,43,45,47,49,51,-1,53,-1,55,-1,-1,-1,-1,57,59,61,63,65,67,-1,-1,69,71,-1,73,75,77,-1,-1,-1,-1,-1,-1,-1,-1,-1,-1,79,81,83,-1,85,-1,87,89,91,-1,-1,93,95,97,99,101,103,105,107,109,111,-1,-1,-1,113,-1,115,-1,-1,-1,-1,-1,-1,117,-1,119,121,-1,123,125,-1,-1,-1,127,-1,-1,-1,-1,-1,-1,-1,-1,-1,-1,-1,-1,-1,-1,-1,-1,-1,-1,-1,-1,-1,-1,-1,-1],"loss_changes":[2.2511157E2,1.2299255E1,1.283728E1,7.0153027E0,7.847372E0,7.652502E0,6.687744E0,8.041122E0,4.6230726E0,2.900814E0,5.4077344E0,0E0,2.4580643E0,1.12616005E1,9.028564E0,3.647123E0,1.0913734E0,1.6321292E0,0E0,4.3318367E-1,3.017612E0,4.4646044E0,5.605748E0,0E0,1.7279955E0,1.1320415E1,3.877533E0,7.050293E0,5.939447E0,0E0,1.6800728E0,0E0,5.718155E-1,0E0,0E0,0E0,0E0,1.4924264E-1,2.7156746E-1,3.5823746E0,2.6485772E0,1.8890443E0,3.832365E0,0E0,0E0,1.1807971E1,6.065556E0,0E0,3.6021805E0,5.005249E0,1.187534E1,0E0,0E0,0E0,0E0,0E0,0E0,0E0,0E0,0E0,0E0,4.7822475E0,4.162334E0,2.2069287E-1,0E0,9.3559504E-1,0E0,2.5733435E0,4.694357E-1,1.0597277E0,0E0,0E0,7.5869813E0,1.0514415E1,2.2677307E0,4.145508E0,2.213552E0,5.0482545E0,1.5066814E-1,2.262041E0,2.3127332E0,3.8102188E0,0E0,0E0,0E0,2.4904537E-1,0E0,1.8765373E0,0E0,0E0,0E0,0E0,0E0,0E0,2.5651283E0,0E0,5.9142876E-1,2.1688843E0,0E0,3.3896484E0,3.0812168E0,0E0,0E0,0E0,6.9785357E-1,0E0,0E0,0E0,0E0,0E0,0E0,0E0,0E0,0E0,0E0,0E0,0E0,0E0,0E0,0E0,0E0,0E0,0E0,0E0,0E0,0E0,0E0,0E0,0E0],"parents":[2147483647,0,0,1,1,2,2,3,3,4,4,5,5,6,6,7,7,8,8,9,9,10,10,12,12,13,13,14,14,15,15,16,16,17,17,19,19,20,20,21,21,22,22,24,24,25,25,26,26,27,27,28,28,30,30,32,32,37,37,38,38,39,39,40,40,41,41,42,42,45,45,46,46,48,48,49,49,50,50,61,61,62,62,63,63,65,65,67,67,68,68,69,69,72,72,73,73,74,74,75,75,76,76,77,77,78,78,79,79,80,80,81,81,85,85,87,87,94,94,96,96,97,97,99,99,100,100,104,104],"right_children":[2,4,6,8,10,12,14,16,18,20,22,-1,24,26,28,30,32,34,-1,36,38,40,42,-1,44,46,48,50,52,-1,54,-1,56,-1,-1,-1,-1,58,60,62,64,66,68,-1,-1,70,72,-1,74,76,78,-1,-1,-1,-1,-1,-1,-1,-1,-1,-1,80,82,84,-1,86,-1,88,90,92,-1,-1,94,96,98,100,102,104,106,108,110,112,-1,-1,-1,114,-1,116,-1,-1,-1,-1,-1,-1,118,-1,120,122,-1,124,126,-1,-1,-1,128,-1,-1,-1,-1,-1,-1,-1,-1,-1,-1,-1,-1,-1,-1,-1,-1,-1,-1,-1,-1,-1,-1,-1,-1],"split_conditions":[-5.1017195E-1,-2.6315892E0,-1.6416152E0,8.149186E-1,-2.9176122E-1,-1.0590649E0,-1.0291331E0,-6.806495E-1,1.2082753E0,-2.393905E-1,-3.2918967E-2,3.1713724E-1,2.4037305E-1,-3.2846758E-1,1.349127E0,-1.2267481E-1,-1.2583323E0,-4.439783E-2,-4.0495175E-1,-1.350743E0,-1.7965484E-1,9.371479E-1,2.4692465E-1,-2.6542953E-1,1.08828925E-1,-8.246796E-1,-1.0431004E0,2.0898554E0,-4.060235E-1,1.8634492E-1,9.3095744E-1,-5.9039253E-3,-6.7932117E-1,-1.310417E-1,2.1510965E-1,-3.4898344E-2,-2.8307927E-1,-3.1424057E-1,3.1564653E-1,2.1098107E-1,-2.4370828E-1,1.4976232E0,3.5100687E-1,-1.3654678E-1,2.2919828E-1,-8.647892E-1,-1.2441546E0,1.295809E-1,-5.696262E-1,1.2478647E0,-1.5064777E0,3.2783628E-1,-2.2028922E-1,2.8871898E-2,-3.9654163E-1,3.8501404E-2,3.103617E-1,-4.0795967E-2,-2.3210947E-1,2.2790463E-1,2.3227481E-2,2.1785024E-1,4.9601048E-1,-8.445881E-3,1.2245497E-1,1.1647933E-1,6.3959755E-2,-3.671886E-2,9.657394E-1,6.026562E-1,9.1562796E-1,2.959637E-1,-5.7443154E-1,-9.288482E-1,2.163824E0,3.1414716E0,1.068414E0,-9.0041304E-1,-9.20542E-1,1.768157E0,2.8149047E0,1.3840164E-1,2.5063857E-1,-3.8929412E-1,-8.7400824E-2,6.4917576E-1,-1.7192096E-2,-1.3491628E0,-2.9775858E-1,8.756963E-2,4.4850722E-1,1.2380458E-1,-1.7941058E-1,2.9510105E-1,1.2193176E0,5.327775E-1,-8.37769E-1,-1.9395695E0,4.4051923E-2,3.8656707E0,-1.9404814E-1,-1.2750849E-1,3.1474108E-1,-1.7100205E-1,1.7879085E-1,-6.779327E-2,-2.9194394E-1,2.5143206E-1,-2.5874527E-2,-2.0928708E-1,1.8989314E-1,-2.4181256E-1,1.2348666E-1,-3.715583E-1,-8.5296705E-2,2.6591462E-1,-1.3284464E-1,-2.8362525E-1,1.20538846E-1,-6.982277E-3,-2.629779E-1,2.5345286E-2,-3.0477864E-1,-3.0150524E-1,1.0389829E-1,3.0231604E-1,-1.8983822E-1,3.5544086E-1,3.9797317E-2],"split_indices":[262,262,279,323,263,343,308,368,204,190,293,0,358,275,307,227,305,136,0,36,258,140,258,0,280,269,118,335,265,0,271,0,289,0,0,0,0,342,259,342,311,16,260,0,0,165,266,0,279,269,379,0,0,0,0,0,0,0,0,0,0,298,314,309,0,351,0,259,359,200,0,0,191,322,326,273,296,288,367,292,299,359,0,0,0,46,0,265,0,0,0,0,0,0,175,0,56,296,0,378,316,0,0,0,328,0,0,0,0,0,0,0,0,0,0,0,0,0,0,0,0,0,0,0,0,0,0,0,0],"split_type":[0,0,0,0,0,0,0,0,0,0,0,0,0,0,0,0,0,0,0,0,0,0,0,0,0,0,0,0,0,0,0,0,0,0,0,0,0,0,0,0,0,0,0,0,0,0,0,0,0,0,0,0,0,0,0,0,0,0,0,0,0,0,0,0,0,0,0,0,0,0,0,0,0,0,0,0,0,0,0,0,0,0,0,0,0,0,0,0,0,0,0,0,0,0,0,0,0,0,0,0,0,0,0,0,0,0,0,0,0,0,0,0,0,0,0,0,0,0,0,0,0,0,0,0,0,0,0,0,0],"sum_hessian":[1.5297985E3,1.368729E2,1.3929255E3,5.4381836E1,8.2491066E1,1.1425969E1,1.3814995E3,4.9281284E1,5.1005535E0,1.4037363E1,6.84537E1,4.070703E0,7.355266E0,1.06602844E2,1.2748967E3,4.486001E0,4.479528E1,3.5320563E0,1.5684972E0,8.216275E0,5.8210874E0,5.4520107E1,1.3933594E1,4.6116376E0,2.7436285E0,2.2002384E1,8.4600464E1,1.2696638E3,5.232897E0,1.6558324E0,2.8301685E0,1.0009334E0,4.379435E1,1.0842841E0,2.447772E0,1.017376E0,7.1988993E0,2.6633108E0,3.1577766E0,5.096154E1,3.5585666E0,7.6825905E0,6.2510033E0,1.3335078E0,1.4101207E0,3.4047759E0,1.8597609E1,1.6860412E0,8.291442E1,1.249369E3,2.029483E1,2.8659348E0,2.3669622E0,1.0047598E0,1.8254087E0,1.01671E0,4.2777637E1,1.0139521E0,1.6493587E0,2.1361566E0,1.02162E0,3.8686245E1,1.2275293E1,2.2630935E0,1.2954731E0,6.4583187E0,1.2242721E0,3.8908205E0,2.360183E0,2.2362788E0,1.1684968E0,1.9034431E0,1.6694166E1,7.243854E0,7.567057E1,1.2471034E3,2.265574E0,7.454919E0,1.28399105E1,3.4562386E1,4.1238613E0,8.89337E0,3.3819234E0,1.1979666E0,1.0651269E0,5.393397E0,1.0649216E0,2.5256782E0,1.3651422E0,1.0742085E0,1.2859744E0,1.0024548E0,1.2338241E0,1.8226626E0,1.4871503E1,1.1325974E0,6.111256E0,7.412117E1,1.5493983E0,1.2444716E3,2.6317863E0,1.2455103E0,1.0200638E0,2.0626743E0,5.3922443E0,1.001567E0,1.1838344E1,3.1875526E1,2.6868584E0,3.1092398E0,1.0146217E0,5.407137E0,3.4862328E0,4.3477044E0,1.0456927E0,1.4782552E0,1.047423E0,1.3857185E1,1.0143174E0,1.0007999E0,5.1104565E0,1.6847746E0,7.243639E1,1.24306E3,1.4115447E0,1.2046816E0,1.4271047E0,4.367426E0,1.0248187E0],"tree_param":{"num_deleted":"0","num_feature":"384","num_nodes":"129","size_leaf_vector":"0"}},{"base_weights":[-7.9594547E-1,3.318715E-1,-9.1999936E-1,6.916117E-1,1.114028E-1,-1.5079278E-1,-9.3568856E-1,8.1863856E-1,-2.5804538E-1,-8.4633696E-1,1.8908572E-1,-7.022069E-1,8.124336E-1,-6.2788767E-1,-9.631112E-1,-3.8670218E-1,9.506988E-1,5.581674E-1,-7.9570156E-1,-1.9603999E-1,-9.439301E-1,-1.2362637E-1,4.8122472E-1,-8.881661E-1,9.08284E-1,-3.9029306E-1,1.0760316E0,-8.9331E-1,-1.8561637E-1,-9.6771306E-1,2.0734014E-1,5.9820855E-1,-8.953405E-1,2.040312E-1,1.0055139E0,2.6547754E-1,-1.3078113E0,2.7015752E-1,-5.057578E-1,-9.1093516E-1,5.692564E-1,-9.6257925E-1,3.206815E-2,1.2933424E0,-9.87936E-2,-9.4383883E-1,2.546164E-1,-8.6226666E-1,4.073013E-1,-9.777073E-1,-3.606387E-1,8.735373E-1,-6.6303945E-1,-1.0753086E0,-2.3236136E-1,6.5141773E-1,-4.4739434E-1,5.666882E-1,-4.780857E-1,-8.932781E-1,-4.5745313E-2,6.4317906E-1,-4.993328E-1,1.397634E0,4.028957E-1,-9.79931E-1,1.7202002E-1,9.6628034E-1,-5.436993E-1,-9.705853E-1,-7.039414E-2,1.9996808E0,8.0872685E-2,-9.80827E-1,1.6966927E-1,-8.458357E-1,5.999254E-1,-4.4293052E-1,7.436873E-1,2.3640119E-2,-8.167374E-1,-9.9390256E-1,-8.235475E-2,3.55049E-1,-5.744866E-1,-4.3599078E-1,7.2792375E-1,-2.478937E-2,-9.9846345E-1,4.4270623E-1,-5.370229E-1,3.3858657E-1,2.7441647E0,-5.855522E-1,6.429848E-1,-9.8291206E-1,4.6980566E-1,-5.9054303E-1,8.79607E-1,-7.122961E-2,-9.481237E-1,-5.9504974E-1,1.0360241E0,-6.5736905E-2,9.316881E-1,-3.475203E-1,3.6650825E-1,-1.0625294E0,-2.7054533E-1,-6.146032E-1,6.89123E-1,-9.4282526E-1,1.7711715E-1,2.199808E-2,-6.7929643E-1,-3.291523E-1,7.955922E-1,-1.0175214E0,-3.7385926E-2,-9.1677976E-1,8.0914044E-1,-7.2873956E-1,1.0518936E0,-9.84966E-1,4.5006615E-1],"categories":[],"categories_nodes":[],"categories_segments":[],"categories_sizes":[],"default_left":[1,1,1,1,1,1,1,1,1,1,1,1,1,1,1,1,1,0,1,0,0,1,1,1,0,0,1,1,1,1,1,0,1,1,0,0,0,1,1,0,1,0,0,1,0,1,1,1,1,1,1,0,0,0,0,0,0,1,1,1,1,1,0,0,0,1,0,0,0,0,1,1,1,1,1,1,1,0,1,1,0,1,0,1,1,1,1,0,1,0,0,0,0,1,1,1,0,0,0,0,0,0,0,0,0,0,0,0,0,0,0,0,0,0,0,0,0,0,0,0,0,0,0,0,0],"id":9,"left_children":[1,3,5,7,9,11,13,15,17,19,21,23,25,27,29,31,33,-1,35,-1,-1,37,39,41,-1,-1,43,45,47,49,51,-1,53,55,-1,-1,-1,57,59,-1,61,-1,-1,63,-1,65,67,69,71,73,75,-1,-1,-1,-1,-1,-1,77,79,81,83,85,-1,-1,-1,87,-1,-1,-1,-1,89,91,93,95,97,99,101,-1,103,105,-1,107,-1,109,111,113,115,-1,117,-1,-1,-1,-1,119,121,123,-1,-1,-1,-1,-1,-1,-1,-1,-1,-1,-1,-1,-1,-1,-1,-1,-1,-1,-1,-1,-1,-1,-1,-1,-1,-1,-1,-1,-1],"loss_changes":[1.6574231E2,9.2745495E0,1.271814E1,5.592821E0,5.6878214E0,1.2516343E1,8.207764E0,6.6691513E0,3.0875382E0,1.8030882E-1,6.412471E0,5.250913E0,3.1628504E0,1.0197338E1,5.354004E0,2.850014E0,1.2669678E0,0E0,2.5447266E0,0E0,0E0,5.310586E0,4.9498415E0,9.764719E-1,0E0,0E0,2.0074406E0,3.4251976E0,1.4141252E1,5.430725E0,3.2293866E0,0E0,1.6143155E-1,1.3739896E0,0E0,0E0,0E0,4.1727333E0,3.1319127E0,0E0,3.0561123E0,0E0,0E0,2.0489693E-2,0E0,2.2952652E0,2.288043E0,1.3361006E0,9.713802E0,3.520996E0,8.441147E0,0E0,0E0,0E0,0E0,0E0,0E0,2.661796E0,9.595158E-1,7.0200825E-1,2.1518846E0,3.3188515E0,0E0,0E0,0E0,8.833275E-1,0E0,0E0,0E0,0E0,9.676114E-1,3.0157175E0,6.673181E0,3.2891846E0,2.351057E0,8.6146545E-1,3.898493E0,0E0,1.8079281E0,5.3482175E-1,0E0,1.3228321E-1,0E0,2.3174574E0,1.3699627E0,3.509097E-1,2.4653492E0,0E0,8.8324356E-1,0E0,0E0,0E0,0E0,4.536434E0,6.1482897E0,3.1915894E0,0E0,0E0,0E0,0E0,0E0,0E0,0E0,0E0,0E0,0E0,0E0,0E0,0E0,0E0,0E0,0E0,0E0,0E0,0E0,0E0,0E0,0E0,0E0,0E0,0E0,0E0,0E0,0E0,0E0],"parents":[2147483647,0,0,1,1,2,2,3,3,4,4,5,5,6,6,7,7,8,8,9,9,10,10,11,11,12,12,13,13,14,14,15,15,16,16,18,18,21,21,22,22,23,23,26,26,27,27,28,28,29,29,30,30,32,32,33,33,37,37,38,38,40,40,43,43,45,45,46,46,47,47,48,48,49,49,50,50,57,57,58,58,59,59,60,60,61,61,65,65,70,70,71,71,72,72,73,73,74,74,75,75,76,76,78,78,79,79,81,81,83,83,84,84,85,85,86,86,88,88,93,93,94,94,95,95],"right_children":[2,4,6,8,10,12,14,16,18,20,22,24,26,28,30,32,34,-1,36,-1,-1,38,40,42,-1,-1,44,46,48,50,52,-1,54,56,-1,-1,-1,58,60,-1,62,-1,-1,64,-1,66,68,70,72,74,76,-1,-1,-1,-1,-1,-1,78,80,82,84,86,-1,-1,-1,88,-1,-1,-1,-1,90,92,94,96,98,100,102,-1,104,106,-1,108,-1,110,112,114,116,-1,118,-1,-1,-1,-1,120,122,124,-1,-1,-1,-1,-1,-1,-1,-1,-1,-1,-1,-1,-1,-1,-1,-1,-1,-1,-1,-1,-1,-1,-1,-1,-1,-1,-1,-1,-1],"split_conditions":[-5.04387E-1,-2.6315892E0,-7.718383E-1,8.149186E-1,-9.186972E-1,8.436563E-1,-1.0291331E0,-8.7793016E-1,-8.187618E-1,-7.8680074E-1,1.4625672E-1,1.6060166E0,1.4113866E-1,7.1083724E-1,1.1085849E0,-1.2966128E-1,2.9315117E-1,1.6745022E-1,3.1933695E-2,-5.8812E-2,-2.8317904E-1,9.302242E-2,-1.4113625E0,8.3579767E-1,2.7248523E-1,-1.1708792E-1,4.3433797E-1,1.8615817E0,2.3753405E-1,2.0898554E0,-4.248014E-1,1.7946257E-1,-6.0073227E-1,8.297842E-2,3.016542E-1,7.9643264E-2,-3.923434E-1,7.8890836E-1,4.137168E-1,-2.7328056E-1,1.8026712E0,-2.8877378E-1,9.620445E-3,1.10425755E-1,-2.9638082E-2,1.5728188E0,-1.19157955E-1,8.442089E-1,-7.4203146E-1,3.1414716E0,1.7602265E-1,2.620612E-1,-1.9891185E-1,-3.225926E-1,-6.9708414E-2,1.9542533E-1,-1.342183E-1,-1.2591913E0,5.753857E-1,1.1122019E0,2.4603319E-1,-1.2069063E0,-1.4979984E-1,4.192902E-1,1.2086871E-1,-2.2343159E0,5.1606007E-2,2.8988412E-1,-1.6310981E-1,-2.911756E-1,4.4932193E-1,9.495864E-1,-2.0766078E-1,2.8025331E0,5.825215E-2,-1.4051048E0,6.666673E-1,-1.3287917E-1,-2.5183773E-1,-8.8520443E-1,-2.4502124E-1,5.840012E-1,-2.4706425E-2,1.0043606E-1,-8.267958E-2,-4.6233875E-1,-1.0599911E-1,-7.4368115E-3,2.2557125E0,1.3281187E-1,-1.6110687E-1,1.0157598E-1,8.2324946E-1,1.4804726E0,-4.579708E-1,1.1848719E0,1.4094171E-1,-1.7716292E-1,2.6388213E-1,-2.1368884E-2,-2.8443712E-1,-1.7851493E-1,3.1080723E-1,-1.9721072E-2,2.7950644E-1,-1.0425609E-1,1.0995248E-1,-3.1875885E-1,-8.11636E-2,-1.8438098E-1,2.067369E-1,-2.8284758E-1,5.313515E-2,6.599424E-3,-2.0378894E-1,-9.874569E-2,2.3867767E-1,-3.0525643E-1,-1.1215778E-2,-2.7503395E-1,2.4274214E-1,-2.1862188E-1,3.155681E-1,-2.9548982E-1,1.3501985E-1],"split_indices":[262,262,265,323,363,297,308,333,29,229,263,40,284,382,269,144,301,0,79,0,0,344,48,315,0,0,293,220,380,335,279,0,208,63,0,0,0,301,297,0,216,0,0,353,0,60,15,369,336,273,361,0,0,0,0,0,0,147,229,22,315,202,0,0,0,53,0,0,0,0,127,134,309,123,263,375,371,0,314,83,0,321,0,358,230,242,296,0,363,0,0,0,0,315,243,270,0,0,0,0,0,0,0,0,0,0,0,0,0,0,0,0,0,0,0,0,0,0,0,0,0,0,0,0,0],"split_type":[0,0,0,0,0,0,0,0,0,0,0,0,0,0,0,0,0,0,0,0,0,0,0,0,0,0,0,0,0,0,0,0,0,0,0,0,0,0,0,0,0,0,0,0,0,0,0,0,0,0,0,0,0,0,0,0,0,0,0,0,0,0,0,0,0,0,0,0,0,0,0,0,0,0,0,0,0,0,0,0,0,0,0,0,0,0,0,0,0,0,0,0,0,0,0,0,0,0,0,0,0,0,0,0,0,0,0,0,0,0,0,0,0,0,0,0,0,0,0,0,0,0,0,0,0],"sum_hessian":[1.1814519E3,1.1690978E2,1.0645421E3,4.361154E1,7.329824E1,2.1491098E1,1.043051E3,3.858795E1,5.02359E0,4.7568665E0,6.8541374E1,1.3839463E1,7.6516347E0,8.72807E1,9.5577026E2,3.619926E0,3.4968025E1,1.9798467E0,3.0437434E0,1.0133451E0,3.7435215E0,3.338362E1,3.5157753E1,1.2808958E1,1.030505E0,1.2891147E0,6.3625197E0,5.3908512E1,3.337219E1,9.5219977E2,3.5705307E0,1.1728191E0,2.4471068E0,2.7144957E0,3.2253532E1,1.1475086E0,1.8962346E0,1.658545E1,1.679817E1,1.5350001E0,3.3622753E1,1.1808101E1,1.0008571E0,5.284205E0,1.078315E0,5.1805935E1,2.1025805E0,1.5373427E1,1.799876E1,9.3617694E2,1.6022831E1,2.0204387E0,1.550092E0,1.4355006E0,1.0116061E0,1.609283E0,1.1052126E0,1.2051896E1,4.533554E0,8.606278E0,8.191892E0,3.1819643E1,1.8031074E0,4.220321E0,1.0638838E0,5.030078E1,1.5051514E0,1.0003834E0,1.1021972E0,1.3325038E1,2.0483897E0,2.1899314E0,1.5808828E1,9.337832E2,2.3937366E0,1.0724929E1,5.2979026E0,1.5735846E0,1.0478312E1,2.2017577E0,2.3317964E0,7.4555087E0,1.1507692E0,4.8465962E0,3.3452957E0,2.0150104E0,2.9804634E1,1.0018932E0,4.929889E1,1.0000315E0,1.0483581E0,1.127978E0,1.0619533E0,7.2141857E0,8.594643E0,9.327649E2,1.0182779E0,1.2371517E0,1.1565849E0,1.4489194E0,9.27601E0,1.3190434E0,3.9788592E0,2.0975964E0,8.380715E0,1.0507429E0,1.1510147E0,6.3812184E0,1.0742904E0,1.0267433E0,3.819853E0,2.0743167E0,1.2709789E0,1.0146537E0,1.0003567E0,1.5606651E0,2.8243969E1,4.8282722E1,1.0161662E0,6.1065884E0,1.1075971E0,1.7940778E0,6.800565E0,9.3174207E2,1.0228503E0],"tree_param":{"num_deleted":"0","num_feature":"384","num_nodes":"125","size_leaf_vector":"0"}}]},"name":"gbtree"},"learner_model_param":{"base_score":"5E-1","num_class":"0","num_feature":"384","num_target":"1"},"objective":{"name":"binary:logistic","reg_loss_param":{"scale_pos_weight":"1"}}},"version":[1,6,0]}