{"learner":{"attributes":{"best_iteration":"9","best_ntree_limit":"10"},"feature_names":[],"feature_types":[],"gradient_booster":{"model":{"gbtree_model_param":{"num_parallel_tree":"1","num_trees":"10","size_leaf_vector":"0"},"tree_info":[0,0,0,0,0,0,0,0,0,0],"trees":[{"base_weights":[-1.8039382E0,-1.9737449E0,1.837872E0,-1.9828439E0,-7.3015875E-1,1.971831E-1,1.9100529E0,5.4545456E-1,-1.9859247E0,-1.5555556E0,9.647059E-1,-1.2E0,1.4E0,1.9255813E0,-9.0909094E-1,1.7333333E0,-1.5555556E0,-1.3737373E0,-1.9893222E0,-2.5E-1,-1.8041958E0,1.4444444E0,-1.2941177E0,-1.5862069E0,4E-1,-5E-1,1.6666666E0,1.9359145E0,-1.8181819E-1,-1.8378378E0,-0E0,-1.9895608E0,-0E0,6E-1,-1.25E0,-1.882353E0,-1.8181819E-1,1.75E0,-6.666667E-1,3.3333334E-1,1.9436241E0,-6.666667E-1,-1.9124087E0,1.0588236E0,-1.5E0,-1.9897996E0,-0E0,-6.666667E-1,1.2E0,-0E0,-1.939394E0,1.8666667E0,-0E0,-1E0,-0E0,-5E-1,1E0,2.2222222E-1,1.9488215E0,-1.2727273E0,5E-1,-1.9398496E0,-5E-1,-1E0,1.4666667E0,-5E-1,-1.9899184E0,1.954054E0,2.2222222E-1,1.6923077E0,-0E0,-1.9900372E0,-5E-1,2.2222222E-1,1.959322E0],"categories":[],"categories_nodes":[],"categories_segments":[],"categories_sizes":[],"default_left":[1,1,1,1,1,1,1,1,1,1,1,1,1,1,0,0,0,1,1,1,1,1,0,0,0,0,0,1,0,1,1,1,0,1,0,1,0,1,1,1,1,1,1,1,0,1,0,0,0,0,0,0,0,0,0,0,0,0,1,0,0,0,0,0,1,0,1,1,0,0,0,0,0,0,0],"id":0,"left_children":[1,3,5,7,9,11,13,15,17,19,21,23,25,27,-1,-1,-1,29,31,33,35,37,-1,-1,-1,-1,-1,39,-1,41,43,45,-1,47,-1,49,-1,51,53,55,57,59,61,63,-1,65,-1,-1,-1,-1,-1,-1,-1,-1,-1,-1,-1,-1,67,-1,-1,-1,-1,-1,69,-1,71,73,-1,-1,-1,-1,-1,-1,-1],"loss_changes":[5.476035E3,9.422656E1,4.6372192E1,6.646484E1,8.963361E1,3.150986E1,1.8298218E1,3.0149494E1,1.4703125E1,1.3426186E1,2.4896732E1,6.041378E0,5.8999996E0,8.545288E0,0E0,0E0,0E0,3.1558838E1,3.9609375E0,7.55E0,4.190872E0,1.2777775E1,0E0,0E0,0E0,0E0,0E0,3.979126E0,0E0,1.956459E0,2.3029411E1,3.9570312E0,0E0,4.6000004E0,0E0,3.6506271E0,0E0,3.2666664E0,6.666666E-1,2.1666667E0,2.8996582E0,3.287879E0,3.575287E-1,8.603922E0,0E0,4.8046875E-1,0E0,0E0,0E0,0E0,0E0,0E0,0E0,0E0,0E0,0E0,0E0,0E0,2.9197998E0,0E0,0E0,0E0,0E0,0E0,2.4820518E0,0E0,4.8046875E-1,2.9401855E0,0E0,0E0,0E0,0E0,0E0,0E0,0E0],"parents":[2147483647,0,0,1,1,2,2,3,3,4,4,5,5,6,6,7,7,8,8,9,9,10,10,11,11,12,12,13,13,17,17,18,18,19,19,20,20,21,21,27,27,29,29,30,30,31,31,33,33,35,35,37,37,38,38,39,39,40,40,41,41,42,42,43,43,45,45,58,58,64,64,66,66,67,67],"right_children":[2,4,6,8,10,12,14,16,18,20,22,24,26,28,-1,-1,-1,30,32,34,36,38,-1,-1,-1,-1,-1,40,-1,42,44,46,-1,48,-1,50,-1,52,54,56,58,60,62,64,-1,66,-1,-1,-1,-1,-1,-1,-1,-1,-1,-1,-1,-1,68,-1,-1,-1,-1,-1,70,-1,72,74,-1,-1,-1,-1,-1,-1,-1],"split_conditions":[1.2721963E0,6.819293E-1,5.4632306E-1,-3.7712297E0,1.6055894E-1,-1.3915811E-1,9.9680746E-1,-4.331773E-1,-3.3201156E0,-5.0020623E-1,3.5893744E-1,1.0596347E-1,-6.77619E-1,1.0136564E0,-2.7272728E-1,5.2000004E-1,-4.666667E-1,1.1038334E0,3.2334414E0,2.8017962E-1,1.5300097E0,7.569437E-1,-3.8823533E-1,-4.758621E-1,1.20000005E-1,-1.5E-1,5E-1,-9.154068E-1,-5.454546E-2,-2.11924E0,4.2874366E-1,3.8367696E0,-0E0,-2.3575503E-1,-3.75E-1,-1.3080223E0,-5.454546E-2,9.951118E-1,-6.0248E-1,-5.113409E-1,-8.166021E-1,-2.2498485E-1,1.7688007E0,-1.1460682E-2,-4.5000002E-1,-8.2006985E-1,-0E0,-2.0000002E-1,3.6E-1,-0E0,-5.818182E-1,5.6E-1,-0E0,-3E-1,-0E0,-1.5E-1,3E-1,6.666667E-2,1.2175605E0,-3.818182E-1,1.5E-1,-5.819549E-1,-1.5E-1,-3E-1,-6.3630927E-1,-1.5E-1,4.622575E0,-8.84961E-1,6.666667E-2,5.0769234E-1,-0E0,-5.970112E-1,-1.5E-1,6.666667E-2,5.877966E-1],"split_indices":[293,293,287,342,317,319,260,268,365,290,383,149,0,266,0,0,0,316,313,291,313,381,0,0,0,0,0,300,0,304,274,362,0,121,0,296,0,260,0,0,73,140,41,327,0,33,0,0,0,0,0,0,0,0,0,0,0,0,323,0,0,0,0,0,178,0,92,335,0,0,0,0,0,0,0],"split_type":[0,0,0,0,0,0,0,0,0,0,0,0,0,0,0,0,0,0,0,0,0,0,0,0,0,0,0,0,0,0,0,0,0,0,0,0,0,0,0,0,0,0,0,0,0,0,0,0,0,0,0,0,0,0,0,0,0,0,0,0,0,0,0,0,0,0,0,0,0,0,0,0,0,0,0],"sum_hessian":[8.84825E3,8.4545E3,3.9375E2,8.3925E3,6.2E1,1.675E1,3.77E2,1E1,8.3825E3,4.175E1,2.025E1,7.75E0,9E0,3.7525E2,1.75E0,6.5E0,3.5E0,4.85E1,8.334E3,7E0,3.475E1,1.7E1,3.25E0,6.25E0,1.5E0,1E0,8E0,3.735E2,1.75E0,3.6E1,1.25E1,8.333E3,1E0,4E0,3E0,3.3E1,1.75E0,1.5E1,2E0,2E0,3.715E2,2.75E0,3.325E1,7.5E0,5E0,8.332E3,1E0,1.25E0,2.75E0,1E0,3.2E1,1.4E1,1E0,1E0,1E0,1E0,1E0,1.25E0,3.7025E2,1.75E0,1E0,3.225E1,1E0,1E0,6.5E0,1E0,8.331E3,3.69E2,1.25E0,5.5E0,1E0,8.33E3,1E0,1.25E0,3.6775E2],"tree_param":{"num_deleted":"0","num_feature":"384","num_nodes":"75","size_leaf_vector":"0"}},{"base_weights":[-1.3950613E0,-1.527413E0,1.4022883E0,-1.5339731E0,-5.9892565E-1,-5.960876E-1,1.450506E0,4.1348165E-1,-1.5364095E0,-1.1216553E0,1.0279837E0,1.1760497E0,-1.3691802E0,5.6263756E-2,1.4788445E0,1.3692954E0,-1.2501124E0,-1.0664212E0,-1.5390546E0,-1.2606528E0,7.438273E-1,-6.0836744E-1,1.3401417E0,-1.2066938E0,1.3227764E0,1.4877647E0,-5.9248513E-1,-1.4575094E0,-6.435825E-2,-1.5392562E0,-0E0,-3.440611E-1,-1.5013119E0,1.4136909E-1,9.7527176E-1,1.4675971E0,8.535657E-2,-3.018921E-1,1.494723E0,-1.5004203E0,-4.8685184E-1,5.5940557E-1,-1.1396325E0,-1.5394579E0,-0E0,-1.1907015E0,6.585633E-1,-4.304556E-1,-1.5283587E0,1.5058159E0,3.1709403E-1,-1.5288304E0,-4.1342202E-1,1.0813893E0,-8.6386377E-1,-3.6138442E-1,-1.5395873E0,-1.4205705E0,-1.823544E-1,-6.3392544E-1,1.3238804E0,1.5173068E0,3.6953714E-1,1.123701E0,-1.0490814E0,1.3970128E0,-2.959971E-1,-3.6138442E-1,-1.5397167E0,1.5278035E0,6.8508714E-1,-6.5352535E-1,1.1308886E0],"categories":[],"categories_nodes":[],"categories_segments":[],"categories_sizes":[],"default_left":[1,1,1,1,1,1,1,1,1,1,1,0,0,1,1,0,0,1,1,1,1,0,1,0,0,1,0,1,1,1,0,1,1,0,0,0,0,0,1,1,0,1,0,1,0,1,1,0,0,1,1,0,0,1,0,0,1,0,0,0,0,1,1,0,0,0,0,0,0,0,0,0,0],"id":1,"left_children":[1,3,5,7,9,11,13,15,17,19,21,-1,-1,23,25,-1,-1,27,29,31,33,-1,35,-1,-1,37,-1,39,41,43,-1,45,47,-1,-1,-1,-1,-1,49,51,-1,53,-1,55,-1,57,59,-1,-1,61,63,-1,-1,65,-1,-1,67,-1,-1,-1,-1,69,71,-1,-1,-1,-1,-1,-1,-1,-1,-1,-1],"loss_changes":[3.0048223E3,4.6251953E1,3.621869E1,3.711914E1,4.875479E1,1.442416E1,1.4083557E1,1.8242025E1,7.90625E0,1.2046165E1,8.03439E0,0E0,0E0,1.4683937E1,7.3737183E0,0E0,0E0,1.8025986E1,2.3691406E0,8.36005E0,3.6404335E-1,0E0,1.8228264E0,0E0,0E0,4.8115845E0,0E0,6.527939E-1,1.004483E1,2.3691406E0,0E0,8.989017E0,2.5663757E-1,0E0,0E0,0E0,0E0,0E0,4.0810547E0,3.3529663E-1,0E0,8.027059E0,0E0,6.074219E-1,0E0,1.0381832E0,5.198228E0,0E0,0E0,3.949646E0,6.1632648E0,0E0,0E0,3.643365E0,0E0,0E0,6.0546875E-1,0E0,0E0,0E0,0E0,1.9379272E0,4.4625025E0,0E0,0E0,0E0,0E0,0E0,0E0,0E0,0E0,0E0,0E0],"parents":[2147483647,0,0,1,1,2,2,3,3,4,4,5,5,6,6,7,7,8,8,9,9,10,10,13,13,14,14,17,17,18,18,19,19,20,20,22,22,25,25,27,27,28,28,29,29,31,31,32,32,38,38,39,39,41,41,43,43,45,45,46,46,49,49,50,50,53,53,56,56,61,61,62,62],"right_children":[2,4,6,8,10,12,14,16,18,20,22,-1,-1,24,26,-1,-1,28,30,32,34,-1,36,-1,-1,38,-1,40,42,44,-1,46,48,-1,-1,-1,-1,-1,50,52,-1,54,-1,56,-1,58,60,-1,-1,62,64,-1,-1,66,-1,-1,68,-1,-1,-1,-1,70,72,-1,-1,-1,-1,-1,-1,-1,-1,-1,-1],"split_conditions":[1.1817204E0,6.819293E-1,-9.297106E-1,-3.7712297E0,6.3809574E-1,-9.415189E-1,-1.5330597E0,-4.331773E-1,-3.3201156E0,8.427674E-1,-6.6467774E-1,3.528149E-1,-4.1075408E-1,6.544642E-1,1.2175605E0,4.1078863E-1,-3.7503374E-1,9.3181837E-1,3.2334414E0,-6.4494205E-1,-3.357501E-1,-1.8251024E-1,2.668406E-1,-3.6200815E-1,3.9683294E-1,-1.4003282E0,-1.7774555E-1,2.6640906E0,4.2874366E-1,3.8367696E0,-0E0,-7.154953E-2,-1.3965322E0,4.2410728E-2,2.9258153E-1,4.4027916E-1,2.5606973E-2,-9.056763E-2,1.0601518E0,7.821982E-1,-1.4605556E-1,-8.44156E-1,-3.4188974E-1,-1.6055524E0,-0E0,1.4609334E0,3.2162532E-1,-1.2913668E-1,-4.5850763E-1,9.942149E-1,-1.3403827E-1,-4.5864913E-1,-1.2402661E-1,2.1193051E-1,-2.5915915E-1,-1.0841533E-1,-1.4077782E1,-4.2617115E-1,-5.4706324E-2,-1.9017763E-1,3.9716414E-1,8.208415E-1,-3.235095E-1,3.371103E-1,-3.1472445E-1,4.1910386E-1,-8.8799134E-2,-1.0841533E-1,-4.6191505E-1,4.583411E-1,2.0552616E-1,-1.9605762E-1,3.392666E-1],"split_indices":[293,293,335,342,317,320,373,268,365,287,332,0,0,296,323,0,0,329,313,374,5,0,158,0,0,289,0,134,274,362,0,267,75,0,0,0,0,0,351,76,0,323,0,250,0,123,292,0,0,317,290,0,0,360,0,0,260,0,0,0,0,347,62,0,0,0,0,0,0,0,0,0,0],"split_type":[0,0,0,0,0,0,0,0,0,0,0,0,0,0,0,0,0,0,0,0,0,0,0,0,0,0,0,0,0,0,0,0,0,0,0,0,0,0,0,0,0,0,0,0,0,0,0,0,0,0,0,0,0,0,0,0,0,0,0,0,0,0,0,0,0,0,0,0,0,0,0,0,0],"sum_hessian":[8.1092173E3,7.74331E3,3.659074E2,7.6883364E3,5.4973495E1,8.353059E0,3.5755435E2,9.395823E0,7.6789404E3,4.1840584E1,1.3132913E1,2.3788543E0,5.974205E0,7.182136E0,3.5037222E2,6.0796695E0,3.3161533E0,4.523633E1,7.633704E3,3.924095E1,2.5996308E0,1.9519199E0,1.1180993E1,3.619764E0,3.5623722E0,3.4915033E2,1.2218966E0,3.221057E1,1.3025753E1,7.632704E3,1E0,8.665719E0,3.0575233E1,1.1685822E0,1.4310486E0,9.996039E0,1.1849535E0,1.1880805E0,3.4796225E2,3.032422E1,1.8863528E0,8.547263E0,4.47849E0,7.631704E3,1E0,4.596629E0,4.06909E0,1.1699274E0,2.9405306E1,3.4443906E2,3.523196E0,2.915573E1,1.1684906E0,6.429466E0,2.1177976E0,1.1449153E0,7.6305596E3,3.410369E0,1.1862601E0,1.3988246E0,2.6702652E0,3.4065872E2,3.780318E0,2.3268683E0,1.1963278E0,5.219244E0,1.2102215E0,1.1449153E0,7.6294146E3,3.3559012E2,5.068605E0,1.6733656E0,2.1069524E0],"tree_param":{"num_deleted":"0","num_feature":"384","num_nodes":"73","size_leaf_vector":"0"}},{"base_weights":[-1.2071207E0,-1.3224478E0,1.1981002E0,-1.328858E0,-5.261457E-1,-4.7102892E-1,1.2412258E0,3.4008068E-1,-1.3310508E0,9.805605E-1,-9.1129297E-1,-1.1495525E0,1.0474606E0,-3.5255304E-1,1.2614949E0,1.1719828E0,-1.0683895E0,-9.059045E-1,-1.33364E0,1.2363638E0,-7.665899E-1,-1.1694309E0,3.0418476E-1,-9.960234E-1,8.6357063E-1,1.2766434E0,-4.2167065E-1,5.0636125E-1,-1.2652646E0,-1.333925E0,-1.1690708E-1,1.2950122E0,3.542221E-1,-1.2269549E0,2.2655651E-1,-8.801726E-1,9.132091E-1,-3.0611333E-1,1.2886336E0,4.371188E-1,-9.8473626E-1,1.3977247E0,-9.6700317E-1,-1.6605182E-2,-1.3144281E0,-4.2644575E-1,-1.3343382E0,-5.1057223E-2,-1.2862719E0,-2.4746482E-1,1.291372E0,-3.4779292E-1,1.2959657E0,1.6191561E0,1.39659E-1,-9.380059E-1,5.919436E-1,-2.5385943E-1,-1.334493E0,-2.5746878E-2,-1.3377753E0,1.3015966E0,-1.7243658E-1,-2.5385943E-1,-1.334648E0,-1.3617597E0,-3.1081712E-1,1.307071E0,2.4774244E-2],"categories":[],"categories_nodes":[],"categories_segments":[],"categories_sizes":[],"default_left":[1,1,1,1,1,1,1,1,1,1,1,0,0,1,1,0,0,1,1,1,0,1,1,0,0,1,1,1,1,1,0,0,0,1,0,0,1,0,1,0,0,1,0,0,0,1,1,0,1,0,0,0,1,0,0,0,0,0,1,0,1,1,0,0,0,0,0,0,0],"id":2,"left_children":[1,3,5,7,9,11,13,15,17,19,21,-1,-1,23,25,-1,-1,27,29,31,-1,33,35,-1,-1,37,39,41,43,45,-1,-1,-1,47,-1,-1,49,-1,51,-1,-1,53,-1,-1,-1,55,57,-1,59,-1,-1,-1,61,-1,-1,-1,-1,-1,63,-1,65,67,-1,-1,-1,-1,-1,-1,-1],"loss_changes":[1.8827305E3,3.2336914E1,2.29581E1,2.3945312E1,3.1845955E1,1.0016873E1,1.0241516E1,1.2054827E1,5.848633E0,6.0161114E0,1.3846764E1,0E0,0E0,4.45195E0,8.179291E0,0E0,0E0,2.1918919E1,2.053711E0,7.285786E-2,0E0,3.1425552E0,6.8090897E0,0E0,0E0,6.0355225E0,2.0864897E0,1.345849E1,2.047451E0,1.8183594E0,0E0,0E0,0E0,2.3348885E0,0E0,0E0,2.9483213E0,0E0,3.9927368E0,0E0,0E0,1.4878569E0,0E0,0E0,0E0,2.8308392E0,7.265625E-1,0E0,2.0899277E0,0E0,0E0,0E0,2.6562195E0,0E0,0E0,0E0,0E0,0E0,7.2753906E-1,0E0,3.5059738E-1,2.0162964E0,0E0,0E0,0E0,0E0,0E0,0E0,0E0],"parents":[2147483647,0,0,1,1,2,2,3,3,4,4,5,5,6,6,7,7,8,8,9,9,10,10,13,13,14,14,17,17,18,18,19,19,21,21,22,22,25,25,26,26,27,27,28,28,29,29,33,33,36,36,38,38,41,41,45,45,46,46,48,48,52,52,58,58,60,60,61,61],"right_children":[2,4,6,8,10,12,14,16,18,20,22,-1,-1,24,26,-1,-1,28,30,32,-1,34,36,-1,-1,38,40,42,44,46,-1,-1,-1,48,-1,-1,50,-1,52,-1,-1,54,-1,-1,-1,56,58,-1,60,-1,-1,-1,62,-1,-1,-1,-1,-1,64,-1,66,68,-1,-1,-1,-1,-1,-1,-1],"split_conditions":[1.1817204E0,6.566051E-1,-9.297106E-1,-3.7712297E0,-1.0231992E0,1.4937674E-1,-7.975495E-1,-4.331773E-1,-2.119494E0,1.2124271E-1,1.2966764E0,-3.4486574E-1,3.142382E-1,5.7352686E-1,9.132103E-1,3.5159484E-1,-3.2051688E-1,-1.8736019E0,1.8851767E0,-4.1140383E-1,-2.2997697E-1,1.9113553E0,-5.6957537E-1,-2.9880702E-1,2.590712E-1,6.9392884E-1,-6.039351E-1,2.1617013E-1,-4.1542125E0,-3.9264245E0,-3.5072125E-2,3.885037E-1,1.0626663E-1,-1.4211814E0,6.796695E-2,-2.640518E-1,-2.1990736E-1,-9.1834E-2,-1.4528811E0,1.3113564E-1,-2.9542089E-1,2.0588634E0,-2.9010096E-1,-4.9815546E-3,-3.9432845E-1,-3.1955287E-1,-5.2205954E0,-1.5317167E-2,-1.7602298E0,-7.423945E-2,3.874116E-1,-1.0433788E-1,2.9511075E0,4.8574686E-1,4.1897703E-2,-2.8140178E-1,1.775831E-1,-7.615783E-2,-4.913561E0,-7.724064E-3,1.7609808E0,5.901885E-1,-5.1730976E-2,-7.615783E-2,-4.003944E-1,-4.085279E-1,-9.324514E-2,3.9212132E-1,7.4322736E-3],"split_indices":[293,293,335,342,341,353,297,268,304,299,3,0,0,348,260,0,0,367,272,13,0,326,133,0,0,292,263,360,365,377,0,0,0,351,0,0,349,0,331,0,0,30,0,0,0,3,281,0,314,0,0,0,94,0,0,0,0,0,370,0,40,235,0,0,0,0,0,0,0],"split_type":[0,0,0,0,0,0,0,0,0,0,0,0,0,0,0,0,0,0,0,0,0,0,0,0,0,0,0,0,0,0,0,0,0,0,0,0,0,0,0,0,0,0,0,0,0,0,0,0,0,0,0,0,0,0,0,0,0,0,0,0,0,0,0,0,0,0,0,0,0],"sum_hessian":[6.780662E3,6.470844E3,3.0981827E2,6.418506E3,5.2338238E1,7.553332E0,3.0226492E2,8.219601E0,6.410286E3,1.0340397E1,4.199784E1,5.388494E0,2.1648378E0,3.5899456E0,2.98675E2,5.27303E0,2.9465706E0,4.092657E1,6.3693594E3,9.27481E0,1.0655866E0,3.4672195E1,7.325646E0,2.4660857E0,1.1238599E0,2.9625027E2,2.424727E0,8.218652E0,3.270792E1,6.367771E3,1.5884062E0,8.257767E0,1.0170432E0,3.34163E1,1.2558923E0,2.3365624E0,4.989084E0,2.0429442E0,2.942073E2,1.0487899E0,1.375937E0,5.1526895E0,3.0659623E0,1.2897015E0,3.1418219E1,3.3680131E0,6.3644033E3,1.694061E0,3.172224E1,1.3109802E0,3.6781034E0,1.1052067E0,2.931021E2,4.1374407E0,1.0152485E0,2.2944107E0,1.0736027E0,1.1472054E0,6.363256E3,1.3041285E0,3.0418112E1,2.920956E2,1.0065109E0,1.1472054E0,6.362109E3,2.9405344E1,1.0127673E0,2.90825E2,1.2705911E0],"tree_param":{"num_deleted":"0","num_feature":"384","num_nodes":"69","size_leaf_vector":"0"}},{"base_weights":[-1.0987122E0,-1.2033916E0,1.0955627E0,-1.2110692E0,-4.117262E-1,1.1451701E0,5.294468E-2,2.9018152E-1,-1.213161E0,-9.9068886E-1,4.1685662E-1,-3.9412156E-1,1.1619405E0,6.53087E-1,-1.0171385E0,1.0416893E0,-9.420435E-1,-6.3107616E-1,-1.215407E0,-1.1578451E0,6.332415E-2,-6.133954E-1,8.5016996E-1,3.348994E-1,-8.654765E-1,1.1779598E0,2.1176155E-1,-5.8293426E-1,1.0844667E0,-2.132799E-1,-1.1920663E0,-1.0112765E0,3.2742593E-1,-1.2157178E0,1.6165014E-1,-1.1376058E-1,-1.1995226E0,9.617346E-1,-7.932231E-1,-9.768145E-1,6.0315E-1,1.0278715E0,-7.618006E-1,-1.0297955E-2,1.1887032E0,-7.2210777E-1,9.1870517E-1,-1.0875986E0,-7.0326306E-2,9.363003E-1,-6.607481E-1,-1.2159709E0,-3.73621E-2,-1.8999109E-1,-1.2339667E0,-1.4171864E-1,-1.1357931E0,-2.4151759E-1,1.1435072E0,2.8054723E-1,-2.980033E-1,-1.7121421E-1,1.1965168E0,-1.8905093E-1,-1.17041E0,1.2029345E0,-1.0245374E-3,-8.151346E-1,-1.6084494E-1,-8.495566E-1,-1.2172797E0,1.2089624E0,1.7629194E-1,-6.7844376E-2,1.2049593E0,-1.1706927E0,2.0213604E0,-1.0621762E0,-1.2205406E0,1.2178105E0,2.9509282E-1],"categories":[],"categories_nodes":[],"categories_segments":[],"categories_sizes":[],"default_left":[1,1,1,1,1,1,1,1,1,1,1,1,1,1,1,0,0,1,1,1,1,1,1,0,0,1,1,0,0,0,0,1,1,1,0,0,1,0,0,1,0,1,0,1,1,0,0,1,0,1,1,1,0,0,0,0,0,0,1,0,0,0,1,0,0,0,0,0,0,1,1,0,0,0,1,0,0,0,0,0,0],"id":3,"left_children":[1,3,5,7,9,11,13,15,17,19,21,23,25,27,29,-1,-1,31,33,35,37,39,41,-1,-1,43,45,-1,-1,-1,-1,47,49,51,-1,-1,53,-1,-1,55,-1,57,-1,59,61,-1,-1,63,-1,65,67,69,-1,-1,-1,-1,-1,-1,71,-1,-1,-1,73,-1,-1,-1,-1,-1,-1,75,77,-1,-1,-1,79,-1,-1,-1,-1,-1,-1],"loss_changes":[1.2505918E3,3.105664E1,1.2775238E1,1.6497559E1,2.5061207E1,6.572174E0,8.576293E0,8.353175E0,5.944824E0,5.454447E0,1.0270506E1,1.4236078E0,3.3207397E0,5.165533E0,4.2323065E-1,0E0,0E0,8.280734E0,2.385254E0,1.0129242E0,4.7096934E0,3.7045064E0,5.3065567E0,0E0,0E0,2.954071E0,4.035659E0,0E0,0E0,0E0,0E0,1.0627499E0,4.80078E0,1.4790039E0,0E0,0E0,6.4512634E-1,0E0,0E0,6.1003876E-1,0E0,2.426505E0,0E0,3.3934453E-1,2.6316833E0,0E0,0E0,8.654289E-1,0E0,1.1795049E0,1.1865902E-1,1.4169922E0,0E0,0E0,0E0,0E0,0E0,0E0,6.479187E-1,0E0,0E0,0E0,2.5071106E0,0E0,0E0,0E0,0E0,0E0,0E0,2.2191767E1,1.2788086E0,0E0,0E0,0E0,2.280365E0,0E0,0E0,0E0,0E0,0E0,0E0],"parents":[2147483647,0,0,1,1,2,2,3,3,4,4,5,5,6,6,7,7,8,8,9,9,10,10,11,11,12,12,13,13,14,14,17,17,18,18,19,19,20,20,21,21,22,22,25,25,26,26,31,31,32,32,33,33,36,36,39,39,41,41,43,43,44,44,47,47,49,49,50,50,51,51,58,58,62,62,69,69,70,70,74,74],"right_children":[2,4,6,8,10,12,14,16,18,20,22,24,26,28,30,-1,-1,32,34,36,38,40,42,-1,-1,44,46,-1,-1,-1,-1,48,50,52,-1,-1,54,-1,-1,56,-1,58,-1,60,62,-1,-1,64,-1,66,68,70,-1,-1,-1,-1,-1,-1,72,-1,-1,-1,74,-1,-1,-1,-1,-1,-1,76,78,-1,-1,-1,80,-1,-1,-1,-1,-1,-1],"split_conditions":[1.3492837E0,6.566051E-1,7.997763E-1,-3.7712297E0,-2.6110519E-2,-1.2513757E0,-1.6553748E-2,-4.331773E-1,-3.7375593E0,3.46237E-1,-4.1342884E-2,-1.5347156E-1,8.208415E-1,-2.9590312E-1,-9.925644E-2,3.125068E-1,-2.8261307E-1,1.1038334E0,3.167449E0,-1.7332991E0,-1.818458E-2,4.391622E-1,9.6949786E-1,1.0046982E-1,-2.5964296E-1,-1.2238327E0,-1.6334212E-1,-1.7488028E-1,3.2534003E-1,-6.398398E-2,-3.576199E-1,1.3145278E0,7.7631974E-1,3.7531357E0,4.8495043E-2,-3.4128178E-2,-8.598782E-1,2.885204E-1,-2.3796694E-1,7.781345E-2,1.8094501E-1,-2.9354507E-1,-2.2854018E-1,1.3444769E0,-6.4003044E-1,-2.1663234E-1,2.7561155E-1,-9.874353E-1,-2.1097893E-2,1.1653385E0,1.6420428E0,-4.7148695E0,-1.120863E-2,-5.699733E-2,-3.7019002E-1,-4.2515595E-2,-3.4073794E-1,-7.245528E-2,2.0672112E0,8.416417E-2,-8.940099E-2,-5.1364265E-2,-4.1574782E-1,-5.671528E-2,-3.5112303E-1,3.6088037E-1,-3.0736122E-4,-2.4454038E-1,-4.8253484E-2,-7.58122E-2,-2.8713698E0,3.6268875E-1,5.2887585E-2,-2.0353314E-2,2.3132563E0,-3.5120782E-1,6.064081E-1,-3.1865287E-1,-3.661622E-1,3.6534315E-1,8.852785E-2],"split_indices":[293,293,351,342,322,331,345,268,365,373,266,44,347,319,9,0,0,316,313,372,344,340,368,0,0,310,265,0,0,0,0,101,269,362,0,0,383,0,0,275,0,344,0,3,264,0,0,229,0,1,349,302,0,0,0,0,0,0,85,0,0,0,280,0,0,0,0,0,0,293,282,0,0,0,241,0,0,0,0,0,0],"split_type":[0,0,0,0,0,0,0,0,0,0,0,0,0,0,0,0,0,0,0,0,0,0,0,0,0,0,0,0,0,0,0,0,0,0,0,0,0,0,0,0,0,0,0,0,0,0,0,0,0,0,0,0,0,0,0,0,0,0,0,0,0,0,0,0,0,0,0,0,0,0,0,0,0,0,0,0,0,0,0,0,0],"sum_hessian":[5.4378276E3,5.1906553E3,2.4717221E2,5.1402744E3,5.038062E1,2.3585208E2,1.13201275E1,6.96074E0,5.133314E3,2.9542498E1,2.083812E1,2.2993867E0,2.3355269E2,7.5022645E0,3.817863E0,4.419816E0,2.5409243E0,2.0814264E1,5.1124995E3,2.541363E1,4.1288686E0,6.046435E0,1.4791685E1,1.0165839E0,1.2828027E0,2.2944472E2,4.107983E0,1.8500468E0,5.652218E0,1.078947E0,2.738916E0,1.4863455E1,5.9508104E0,5.1114634E3,1.0364316E0,1.1186727E0,2.4294956E1,1.9552513E0,2.1736171E0,4.8073826E0,1.2390527E0,1.3649349E1,1.142336E0,2.0562563E0,2.2738846E2,1.7606812E0,2.347302E0,1.3604148E1,1.2593064E0,3.7145462E0,2.2362642E0,5.1103335E3,1.1295749E0,1.0165505E0,2.3278406E1,1.0713164E0,3.736066E0,1.048696E0,1.2600653E1,1.0349209E0,1.0213354E0,1.1795534E0,2.2620891E2,1.4250062E0,1.2179142E1,2.6712925E0,1.0432537E0,1.2268025E0,1.0094616E0,2.0503628E1,5.08983E3,1.1567868E1,1.0327848E0,1.4537951E0,2.2475511E2,1.8973505E1,1.5301214E0,1.115331E2,4.978297E3,2.2129109E2,3.464013E0],"tree_param":{"num_deleted":"0","num_feature":"384","num_nodes":"81","size_leaf_vector":"0"}},{"base_weights":[-1.0278965E0,-1.1289104E0,9.630719E-1,-1.1356957E0,-4.889486E-1,-5.2808892E-2,1.0339892E0,2.3190874E-1,-1.1376866E0,-1.0715443E0,1.3666365E-1,9.704972E-1,-6.180055E-1,1.0575012E0,-2.5549525E-1,9.359664E-1,-8.4490275E-1,-7.5338846E-1,-1.1426528E0,2.258782E-1,-1.1411322E0,5.79536E-1,-7.553799E-1,-9.35095E-1,3.5045964E-1,1.0729069E0,-2.9713708E-1,-9.216852E-1,5.680025E-1,-1.0476768E0,3.6164588E-1,-1.1430769E0,6.330557E-2,8.651246E-1,-8.516578E-1,-9.8327416E-1,1.2491508E-1,-1.1049757E0,-1.5790766E-1,7.0479995E-1,-2.0310868E-1,1.0871483E0,-4.6184206E-1,2.5342935E-1,-1.0850804E0,1.0033035E0,-5.3476954E-1,-9.6092635E-1,-1.1470641E0,1.1385223E0,-5.325549E-1,8.431484E-2,1.1004628E0,-1.119415E0,-2.574918E-1,1.4778109E0,-1.2562399E-1,-9.910338E-1,6.091432E-1,4.8913744E-1,-1.0112162E0,-7.4238515E-1,-1.1486667E0,-2.3324206E-1,1.2998396E0,7.39884E-1,-7.8451276E-1,-9.600991E-2,1.1095484E0,-1.1368171E0,-2.3321442E-1,1.6974181E-1,1.7491585E0,-6.3463813E-1,4.4562447E-1,1.7506661E0,-7.206745E-1,-1.0499867E0,1.5420169E-1,1.3781402E0,-1.0978763E0,-9.155811E-1,-1.1514024E0,1.3802421E0,3.1526402E-1,1.1228939E0,3.6583644E-1],"categories":[],"categories_nodes":[],"categories_segments":[],"categories_sizes":[],"default_left":[1,1,1,1,1,1,1,1,1,1,1,0,1,1,1,0,0,1,1,0,0,1,1,1,1,1,0,0,0,1,1,1,0,1,0,0,0,0,0,0,0,1,0,0,1,1,1,1,1,1,0,1,1,1,0,1,1,0,0,1,1,1,1,0,1,0,0,0,1,0,0,0,0,0,0,0,0,0,0,0,0,0,0,0,0,0,0],"id":4,"left_children":[1,3,5,7,9,11,13,15,17,19,21,-1,23,25,27,-1,-1,29,31,-1,-1,33,35,37,39,41,-1,-1,-1,43,45,47,-1,49,-1,-1,-1,-1,-1,-1,-1,51,-1,-1,53,55,57,59,61,63,-1,65,67,69,-1,71,73,-1,-1,75,77,79,81,-1,83,-1,-1,-1,85,-1,-1,-1,-1,-1,-1,-1,-1,-1,-1,-1,-1,-1,-1,-1,-1,-1,-1],"loss_changes":[8.587007E2,1.7069336E1,1.4927704E1,1.1196289E1,1.6307152E1,8.941423E0,6.1223145E0,5.8456655E0,6.791992E0,2.3408146E0,9.234672E0,0E0,3.3685184E0,4.278946E0,2.8616161E0,0E0,0E0,1.8128763E1,2.0961914E0,0E0,0E0,7.0499377E0,1.6919298E0,8.4639454E-1,7.649066E-1,4.6078186E0,0E0,0E0,0E0,2.3702278E0,7.4610744E0,1.7700195E0,0E0,5.716198E0,0E0,0E0,0E0,0E0,0E0,0E0,0E0,2.3962708E0,0E0,0E0,9.0631866E-1,4.130443E0,3.5654237E0,7.122589E0,1.6542969E0,2.8487215E0,0E0,2.588518E0,2.1055603E0,3.5277176E-1,0E0,1.5711946E0,1.1844708E0,0E0,0E0,6.9398913E0,4.1457367E0,1.51393E1,1.3999023E0,0E0,3.9170647E-1,0E0,0E0,0E0,1.4013824E0,0E0,0E0,0E0,0E0,0E0,0E0,0E0,0E0,0E0,0E0,0E0,0E0,0E0,0E0,0E0,0E0,0E0,0E0],"parents":[2147483647,0,0,1,1,2,2,3,3,4,4,5,5,6,6,7,7,8,8,9,9,10,10,12,12,13,13,14,14,17,17,18,18,21,21,22,22,23,23,24,24,25,25,29,29,30,30,31,31,33,33,41,41,44,44,45,45,46,46,47,47,48,48,49,49,51,51,52,52,53,53,55,55,56,56,59,59,60,60,61,61,62,62,64,64,68,68],"right_children":[2,4,6,8,10,12,14,16,18,20,22,-1,24,26,28,-1,-1,30,32,-1,-1,34,36,38,40,42,-1,-1,-1,44,46,48,-1,50,-1,-1,-1,-1,-1,-1,-1,52,-1,-1,54,56,58,60,62,64,-1,66,68,70,-1,72,74,-1,-1,76,78,80,82,-1,84,-1,-1,-1,86,-1,-1,-1,-1,-1,-1,-1,-1,-1,-1,-1,-1,-1,-1,-1,-1,-1,-1],"split_conditions":[1.1092143E0,5.976042E-1,5.4632306E-1,-3.7712297E0,-6.4670765E-1,-5.702022E-1,1.6923359E-1,-4.331773E-1,-1.90252E0,-1.37293E0,3.3691818E-1,2.9114917E-1,-9.548256E-3,1.00912E0,2.9844636E-1,2.807899E-1,-2.5347084E-1,9.3181837E-1,1.8851767E0,6.776346E-2,-3.423397E-1,5.6622744E-1,1.0979179E-1,3.2847366E-1,1.2763245E-1,5.901885E-1,-8.914113E-2,-2.765056E-1,1.7040077E-1,-1.179138E0,3.3099478E-1,-2.8713698E0,1.8991672E-2,6.38079E-1,-2.5549737E-1,-2.9498225E-1,3.7474524E-2,-3.3149272E-1,-4.73723E-2,2.1144E-1,-6.0932606E-2,-2.626758E0,-1.3855262E-1,7.602881E-2,8.6348486E-1,3.499338E-1,5.385071E-1,-1.273188E0,-4.7148695E0,-5.637218E-1,-1.5976648E-1,3.8032956E-2,-8.84961E-1,2.3534117E0,-7.7247545E-2,5.589292E-1,1.779366E0,-2.9731014E-1,1.8274297E-1,6.95541E-2,7.517295E-1,-9.0527296E-1,-4.7787886E0,-6.997262E-2,5.192426E-1,2.2196521E-1,-2.3535384E-1,-2.8802974E-2,1.9476204E0,-3.4104514E-1,-6.996433E-2,5.0922547E-2,5.2474755E-1,-1.9039145E-1,1.3368735E-1,5.251999E-1,-2.1620236E-1,-3.1499603E-1,4.6260506E-2,4.1344208E-1,-3.293629E-1,-2.7467436E-1,-3.4542072E-1,4.1407266E-1,9.457921E-2,3.368682E-1,1.09750934E-1],"split_indices":[293,293,287,342,363,370,298,268,304,320,383,0,324,140,115,0,0,329,272,0,0,371,223,78,286,235,0,0,0,16,283,282,0,368,0,0,0,0,0,0,0,282,0,0,329,79,272,104,302,328,0,64,335,359,0,18,357,0,0,155,313,288,269,0,327,0,0,0,20,0,0,0,0,0,0,0,0,0,0,0,0,0,0,0,0,0,0],"split_type":[0,0,0,0,0,0,0,0,0,0,0,0,0,0,0,0,0,0,0,0,0,0,0,0,0,0,0,0,0,0,0,0,0,0,0,0,0,0,0,0,0,0,0,0,0,0,0,0,0,0,0,0,0,0,0,0,0,0,0,0,0,0,0,0,0,0,0,0,0,0,0,0,0,0,0,0,0,0,0,0,0,0,0,0,0,0,0],"sum_hessian":[4.263282E3,4.0578367E3,2.0544568E2,4.0144976E3,4.333921E1,1.3422712E1,1.9202296E2,5.6674795E0,4.00883E3,2.2072035E1,2.1267174E1,4.520717E0,8.901995E0,1.8876108E2,3.2618878E0,3.5059578E0,2.1615217E0,5.309211E1,3.955738E3,1.0092514E0,2.1062784E1,1.4445669E1,6.821505E0,6.7322245E0,2.169771E0,1.8684416E2,1.9169133E0,1.7372566E0,1.5246311E0,4.205345E1,1.103866E1,3.9543992E3,1.338674E0,1.2372343E1,2.0733254E0,5.3257675E0,1.4957379E0,5.1785207E0,1.5537038E0,1.1563772E0,1.0133938E0,1.8541527E2,1.4288924E0,1.0137558E0,4.1039696E1,6.3640256E0,4.674634E0,8.9889435E1,3.8645098E3,1.0503242E1,1.8691016E0,2.525547E0,1.8288972E2,3.9066303E1,1.9733895E0,4.263123E0,2.1009026E0,3.4372773E0,1.2373567E0,2.7204719E0,8.716896E1,1.7076105E1,3.8474336E3,1.05828E0,9.444962E0,1.5240183E0,1.0015289E0,1.3062484E0,1.8158348E2,3.803659E1,1.0297153E0,1.0116884E0,3.2514346E0,1.0522883E0,1.0486143E0,1.1129203E0,1.6075516E0,8.445829E1,2.7106755E0,2.0386596E0,1.5037445E1,4.8524372E1,3.7989094E3,8.360371E0,1.0845907E0,1.7788164E2,3.7018363E0],"tree_param":{"num_deleted":"0","num_feature":"384","num_nodes":"87","size_leaf_vector":"0"}},{"base_weights":[-9.779629E-1,-1.0736785E0,9.261298E-1,-1.082843E0,-3.9116374E-1,9.8709446E-1,-2.4918148E-2,2.0249745E-1,-1.084866E0,-7.977265E-1,3.1380594E-1,1.0184478E0,-1.453729E-2,-5.9537935E-1,9.0942734E-1,8.560733E-1,-7.650677E-1,-6.784513E-1,-1.0904175E0,6.8513453E-1,-9.513714E-1,-2.6019424E-1,9.1416943E-1,-5.7214435E-2,1.0402021E0,-6.4381325E-1,6.682071E-1,7.145652E-1,-9.354283E-1,-9.749203E-1,3.119847E-1,-8.6218363E-1,-1.0957322E0,-2.6216832E-1,1.3271526E0,2.4389443E-1,-1.0356277E0,-6.6547805E-1,2.879764E-1,-2.0575617E-1,1.1265103E0,7.40232E-1,-1.1048224E0,1.0590518E0,5.7617877E-2,-8.6423737E-1,-1.0060636E-1,-1.1527456E0,-3.9257556E-2,2.705981E-1,-1.0225134E0,8.0575967E-1,-5.856561E-1,-9.269767E-1,2.9007205E-1,2.683527E-2,-1.0963213E0,-1.0772343E0,-7.9729125E-2,1.7649341E-2,-8.6231554E-1,7.651408E-1,-5.04268E-1,-2.0258588E-1,1.0722339E0,-8.6715627E-1,7.342604E-1,-1.0610116E0,9.945773E-2,1.1964711E0,-4.4395608E-1,-8.838696E-1,1.8639E-1,7.883855E-1,-9.6628076E-1,-8.3714E-1,1.5544251E0,-8.227937E-1,-1.099717E0,-2.9078615E-1,-1.1021812E0,4.3649387E-1,1.0913978E0,-1.0884491E0,-1.08318076E-1,3.991581E-2,1.4394909E0,3.8478777E-1,-9.9276567E-1,-9.398034E-1,1.3686455E0,-6.563905E-1,-1.1016378E0,9.0184337E-1,-8.5531795E-1,1.4651002E-1,1.0986925E0],"categories":[],"categories_nodes":[],"categories_segments":[],"categories_sizes":[],"default_left":[1,1,1,1,1,1,1,1,1,1,1,1,1,1,0,0,0,1,1,1,1,1,1,1,1,1,0,0,1,1,1,1,1,0,0,0,1,1,1,0,0,0,0,1,1,0,0,0,0,0,1,1,1,1,1,0,1,1,0,0,0,0,0,0,1,0,0,1,0,1,0,0,0,0,1,0,0,1,1,0,0,1,1,0,0,0,0,0,0,0,0,0,0,0,0,0,0],"id":5,"left_children":[1,3,5,7,9,11,13,15,17,19,21,23,25,27,-1,-1,-1,29,31,33,35,37,39,41,43,45,-1,-1,47,49,51,53,55,-1,-1,-1,57,59,61,-1,-1,-1,-1,63,65,-1,-1,-1,-1,-1,67,69,71,73,75,-1,77,79,-1,-1,-1,-1,-1,-1,81,-1,-1,83,-1,85,-1,-1,-1,-1,87,-1,-1,89,91,-1,-1,93,95,-1,-1,-1,-1,-1,-1,-1,-1,-1,-1,-1,-1,-1,-1],"loss_changes":[6.020056E2,1.9218994E1,9.207123E0,8.275879E0,1.262465E1,4.68956E0,6.1465254E0,4.266655E0,6.239502E0,6.9547806E0,5.9271364E0,3.437439E0,2.794928E0,3.8461254E0,0E0,0E0,0E0,1.33217125E1,2.755127E0,2.281159E0,2.819252E0,2.2396526E0,2.2034202E0,4.0002604E0,2.5605469E0,3.1697774E-1,0E0,0E0,1.142086E0,2.3136063E0,5.3344455E0,5.8011627E0,1.998291E0,0E0,0E0,0E0,8.685703E-1,7.6849294E-1,2.1309907E0,0E0,0E0,0E0,0E0,2.5259857E0,2.9655683E0,0E0,0E0,0E0,0E0,0E0,1.5441589E0,4.192473E0,1.1944159E0,5.5078697E0,8.00917E0,0E0,1.8588867E0,1.2912941E-1,0E0,0E0,0E0,0E0,0E0,0E0,1.1993561E0,0E0,0E0,7.2608566E-1,0E0,1.6241789E0,0E0,0E0,0E0,0E0,2.860588E0,0E0,0E0,1.1660021E1,1.7770996E0,0E0,0E0,4.192688E0,7.5476074E-1,0E0,0E0,0E0,0E0,0E0,0E0,0E0,0E0,0E0,0E0,0E0,0E0,0E0,0E0],"parents":[2147483647,0,0,1,1,2,2,3,3,4,4,5,5,6,6,7,7,8,8,9,9,10,10,11,11,12,12,13,13,17,17,18,18,19,19,20,20,21,21,22,22,23,23,24,24,25,25,28,28,29,29,30,30,31,31,32,32,36,36,37,37,38,38,43,43,44,44,50,50,51,51,52,52,53,53,54,54,56,56,57,57,64,64,67,67,69,69,74,74,77,77,78,78,81,81,82,82],"right_children":[2,4,6,8,10,12,14,16,18,20,22,24,26,28,-1,-1,-1,30,32,34,36,38,40,42,44,46,-1,-1,48,50,52,54,56,-1,-1,-1,58,60,62,-1,-1,-1,-1,64,66,-1,-1,-1,-1,-1,68,70,72,74,76,-1,78,80,-1,-1,-1,-1,-1,-1,82,-1,-1,84,-1,86,-1,-1,-1,-1,88,-1,-1,90,92,-1,-1,94,96,-1,-1,-1,-1,-1,-1,-1,-1,-1,-1,-1,-1,-1,-1],"split_conditions":[1.3492837E0,5.976042E-1,7.508046E-1,-3.7712297E0,7.715835E-2,5.513603E-1,5.2991533E-1,-4.331773E-1,-1.90252E0,-7.8488755E-1,4.3540752E-1,-6.347213E-1,2.3419982E-1,-4.700321E-1,2.7282822E-1,2.5682202E-1,-2.2952032E-1,9.3181837E-1,-2.8713698E0,-2.765633E-1,-1.5072454E0,-8.4342375E-2,-1.5218107E-1,1.6713986E0,2.3132563E0,1.2447219E-1,2.0046215E-1,2.1436958E-1,-1.0831389E-1,-1.4853704E0,3.664229E-1,6.34416E-1,-3.8901155E0,-7.86505E-2,3.981458E-1,7.316833E-2,1.4825137E0,-4.2807913E-1,6.974134E-1,-6.1726853E-2,3.379531E-1,2.220696E-1,-3.3144674E-1,-1.0174357E0,-5.576563E-1,-2.5927123E-1,-3.0181909E-2,-3.458237E-1,-1.1777268E-2,8.117944E-2,2.952335E0,1.8315354E-1,3.895376E-1,-1.0348742E0,1.1452104E-1,8.050581E-3,-4.7787886E0,-6.927431E-1,-2.3918739E-2,5.2948026E-3,-2.5869468E-1,2.2954224E-1,-1.512804E-1,-6.0775764E-2,-9.20828E-1,-2.601469E-1,2.2027813E-1,1.8595371E0,2.9837321E-2,-1.5762169E0,-1.3318683E-1,-2.651609E-1,5.5917002E-2,2.3651566E-1,-1.147212E0,-2.5114202E-1,4.6632755E-1,1.2904546E-1,-4.7148695E0,-8.7235846E-2,-3.3065438E-1,-9.630419E-2,-2.3179865E0,-3.2653475E-1,-3.2495424E-2,1.1974744E-2,4.318473E-1,1.1543634E-1,-2.9782972E-1,-2.8194103E-1,4.105937E-1,-1.9691716E-1,-3.3049136E-1,2.7055302E-1,-2.565954E-1,4.395301E-2,3.2960778E-1],"split_indices":[293,293,344,342,322,326,353,268,304,159,345,270,57,301,0,0,0,329,282,223,139,228,372,292,241,367,0,0,120,356,3,313,377,0,0,0,321,140,365,0,0,0,0,182,5,0,0,0,0,0,201,314,324,291,330,0,269,279,0,0,0,0,0,0,355,0,0,169,0,372,0,0,0,0,100,0,0,293,302,0,0,266,96,0,0,0,0,0,0,0,0,0,0,0,0,0,0],"split_type":[0,0,0,0,0,0,0,0,0,0,0,0,0,0,0,0,0,0,0,0,0,0,0,0,0,0,0,0,0,0,0,0,0,0,0,0,0,0,0,0,0,0,0,0,0,0,0,0,0,0,0,0,0,0,0,0,0,0,0,0,0,0,0,0,0,0,0,0,0,0,0,0,0,0,0,0,0,0,0,0,0,0,0,0,0,0,0,0,0,0,0,0,0,0,0,0,0],"sum_hessian":[3.296709E3,3.139336E3,1.5737297E2,3.0971619E3,4.2174095E1,1.4785704E2,9.515924E0,4.711308E0,3.0924504E3,2.666472E1,1.5509375E1,1.43353E2,4.504043E0,6.133763E0,3.382162E0,2.8806803E0,1.8306274E0,4.3332653E1,3.049118E3,2.1786706E0,2.448605E1,8.218435E0,7.29094E0,2.809424E0,1.4054358E2,2.3734703E0,2.1305728E0,1.0371332E0,5.0966296E0,3.3362007E1,9.970645E0,7.310138E1,2.9760164E3,1.1190915E0,1.0595791E0,1.4876393E0,2.2998411E1,4.6019998E0,3.616435E0,1.1669955E0,6.1239443E0,1.7617643E0,1.0476596E0,1.3782182E2,2.7217448E0,1.2679619E0,1.1055084E0,3.8715057E0,1.2251241E0,1.055436E0,3.2306572E1,6.4983726E0,3.4722722E0,6.939472E1,3.7066557E0,1.5378035E0,2.9744788E3,2.1917492E1,1.0809184E0,1.2330426E0,3.3689573E0,2.2783866E0,1.3380482E0,1.2765725E0,1.3654526E2,1.0310462E0,1.6906986E0,3.1287346E1,1.019228E0,4.98307E0,1.5153025E0,2.4002874E0,1.0719846E0,1.1275163E0,6.8267204E1,2.1382377E0,1.568418E0,3.94562E1,2.9350225E3,1.0629926E0,2.08545E1,4.691356E0,1.318539E2,3.0272985E1,1.0143604E0,1.06741E0,3.91566E0,1.0524077E0,6.72148E1,3.799846E1,1.4577414E0,1.4140218E1,2.9208823E3,3.670874E0,1.0204823E0,1.1716719E0,1.3068224E2],"tree_param":{"num_deleted":"0","num_feature":"384","num_nodes":"97","size_leaf_vector":"0"}},{"base_weights":[-9.38954E-1,-1.0349458E0,8.2450277E-1,-1.0427485E0,-3.990782E-1,4.1616136E-1,1.0099158E0,1.7711765E-1,-1.0448438E0,-6.990698E-1,5.953395E-1,-6.0353297E-1,5.568605E-1,-2.1843451E-1,1.030263E0,7.864972E-1,-6.966341E-1,-6.147299E-1,-1.0510995E0,-9.63825E-1,9.8793514E-2,9.609262E-1,-4.3034622E-1,-9.1199446E-1,4.0673527E-1,7.3498017E-1,-2.3991199E-1,1.0507269E0,1.3278057E-1,2.1488158E-1,-9.4804597E-1,-7.778082E-1,-1.0578755E0,-1.0327379E0,-4.028496E-2,6.49108E-1,-8.079434E-1,3.7018478E-2,1.1745342E0,-1.0657192E0,-1.9586958E-1,8.659587E-1,-3.492265E-1,-8.0385727E-1,7.12425E-1,1.065302E0,5.677416E-2,-3.97589E-1,5.759925E-1,-4.5457146E-1,9.9864835E-1,-1.0084962E0,2.7170432E-1,-9.352304E-2,-9.193435E-1,-9.171795E-1,-1.0694299E0,5.8634885E-2,9.324372E-1,1.3239539E0,3.236534E-1,-3.4480923E-1,9.4813794E-1,-8.22397E-1,5.500285E-1,2.605374E-1,-1.1453518E0,7.403378E-2,1.0764941E0,-8.833386E-1,5.274745E-1,-3.7939437E-2,1.2389047E0,-1.0482055E0,-3.816897E-2,-6.6246265E-1,1.5509477E0,7.8584087E-1,-9.759381E-1,-9.924958E-1,6.397788E-1,-6.147392E-2,-1.0703702E0,-9.826522E-2,1.0012171E0,4.8020747E-3,-1.2680402E0,-1.3613954E0,-2.3369797E-1,1.4195117E0,4.3528107E-1,-9.530154E-1,1.6179222E-1,2.530952E0,-2.3295228E-1,2.4500793E-1,-1.0309737E0,-1.009356E0,5.703569E-1,-7.404186E-1,2.5512397E0,2.1875756E-2,-1.0711883E0,1.0421264E0,3.6629185E-3],"categories":[],"categories_nodes":[],"categories_segments":[],"categories_sizes":[],"default_left":[1,1,1,1,1,1,1,1,1,1,1,1,1,0,1,0,0,1,1,1,1,1,0,1,0,1,1,1,1,1,1,1,1,0,0,1,0,0,1,0,0,1,1,1,0,1,0,0,0,1,1,1,0,1,1,1,1,0,0,0,0,0,1,1,0,0,1,0,0,0,0,0,1,0,0,1,1,0,1,1,1,0,1,0,1,0,0,0,0,0,0,0,0,0,0,0,0,0,0,0,0,0,0,0,0],"id":6,"left_children":[1,3,5,7,9,11,13,15,17,19,21,23,25,-1,27,-1,-1,29,31,33,35,37,-1,39,-1,41,43,45,47,49,51,53,55,-1,-1,57,-1,-1,59,-1,-1,61,63,65,-1,67,-1,-1,-1,69,71,73,-1,75,77,79,81,-1,-1,-1,-1,-1,83,85,-1,-1,87,-1,-1,-1,-1,-1,89,-1,-1,91,93,-1,95,97,99,-1,101,-1,103,-1,-1,-1,-1,-1,-1,-1,-1,-1,-1,-1,-1,-1,-1,-1,-1,-1,-1,-1,-1],"loss_changes":[4.2928516E2,1.1495117E1,9.514145E0,6.2453613E0,9.581047E0,6.458713E0,2.4628983E0,3.1679466E0,5.7229004E0,5.177984E0,3.285915E0,2.13299E0,5.572296E0,0E0,1.481369E0,0E0,0E0,1.0253359E1,3.4951172E0,1.1141434E0,3.9685225E0,1.132081E0,0E0,3.020754E-1,0E0,4.7501507E0,4.7084208E0,1.1874542E0,9.605617E-1,6.3472047E0,2.199295E0,5.7436066E0,2.713623E0,0E0,0E0,7.566807E-1,0E0,0E0,1.8246222E-1,0E0,0E0,3.1359997E0,2.191991E0,2.2272027E0,0E0,8.61557E-1,0E0,0E0,0E0,3.3059797E0,1.4135046E0,9.267521E-1,0E0,1.1720785E1,5.5692024E0,2.1682755E1,1.9189453E0,0E0,0E0,0E0,0E0,0E0,1.5815926E0,1.1413631E0,0E0,0E0,5.0961065E-1,0E0,0E0,0E0,0E0,0E0,3.2949448E-2,0E0,0E0,2.3556314E0,6.248812E0,0E0,3.5189552E0,5.0973816E0,2.5342688E1,0E0,1.8928223E0,0E0,1.0369968E0,0E0,0E0,0E0,0E0,0E0,0E0,0E0,0E0,0E0,0E0,0E0,0E0,0E0,0E0,0E0,0E0,0E0,0E0,0E0,0E0],"parents":[2147483647,0,0,1,1,2,2,3,3,4,4,5,5,6,6,7,7,8,8,9,9,10,10,11,11,12,12,14,14,17,17,18,18,19,19,20,20,21,21,23,23,25,25,26,26,27,27,28,28,29,29,30,30,31,31,32,32,35,35,38,38,41,41,42,42,43,43,45,45,49,49,50,50,51,51,53,53,54,54,55,55,56,56,62,62,63,63,66,66,72,72,75,75,76,76,78,78,79,79,80,80,82,82,84,84],"right_children":[2,4,6,8,10,12,14,16,18,20,22,24,26,-1,28,-1,-1,30,32,34,36,38,-1,40,-1,42,44,46,48,50,52,54,56,-1,-1,58,-1,-1,60,-1,-1,62,64,66,-1,68,-1,-1,-1,70,72,74,-1,76,78,80,82,-1,-1,-1,-1,-1,84,86,-1,-1,88,-1,-1,-1,-1,-1,90,-1,-1,92,94,-1,96,98,100,-1,102,-1,104,-1,-1,-1,-1,-1,-1,-1,-1,-1,-1,-1,-1,-1,-1,-1,-1,-1,-1,-1,-1],"split_conditions":[1.1092143E0,5.976042E-1,1.1645045E0,-3.7712297E0,7.0317614E-1,-7.698575E-1,-8.84961E-1,-4.331773E-1,-1.90252E0,4.9489266E-1,1.0246521E-1,3.9586666E-1,2.8916472E-1,-6.553036E-2,9.830797E-1,2.3594916E-1,-2.0899025E-1,-1.7779557E0,-2.8713698E0,1.0200421E0,-1.2564945E-1,4.989038E-1,-1.2910387E-1,4.9027795E-1,1.2202059E-1,5.5678517E-1,-1.12703666E-1,1.0476714E0,2.6304984E-1,-2.8835768E-1,1.0054541E0,-4.2014575E-1,-7.427988E-1,-3.0982137E-1,-1.2085489E-2,-2.554648E-1,-2.4238303E-1,1.1105544E-2,1.4154195E0,-3.197158E-1,-5.8760878E-2,-1.2019928E0,1.2289066E0,-7.343707E-1,2.137275E-1,-9.596828E-1,1.7032249E-2,-1.192767E-1,1.7279777E-1,4.4682348E-1,-1.0448477E0,8.5373765E-1,8.15113E-2,6.4653015E-1,-9.7806996E-1,1.883693E-1,-1.6684203E0,1.7590467E-2,2.7973115E-1,3.971862E-1,9.7096026E-2,-1.0344277E-1,-1.0455058E0,5.9934676E-1,1.6500856E-1,7.816122E-2,2.5322652E-1,2.2210136E-2,3.2294825E-1,-2.650016E-1,1.5824236E-1,-1.1381831E-2,4.854884E-1,-3.1446165E-1,-1.1450691E-2,-2.5494513E-1,9.434189E-2,2.3575227E-1,-1.273188E0,1.6807265E0,7.0427483E-1,-1.8442176E-2,-3.8901155E0,-2.9479569E-2,5.4450524E-1,1.4406225E-3,-3.8041207E-1,-4.0841863E-1,-7.010939E-2,4.2585352E-1,1.3058433E-1,-2.8590462E-1,4.8537668E-2,7.592856E-1,-6.9885686E-2,7.3502384E-2,-3.092921E-1,-3.0280682E-1,1.7110708E-1,-2.2212559E-1,7.65372E-1,6.562727E-3,-3.213565E-1,3.1263793E-1,1.0988755E-3],"split_indices":[293,293,296,342,324,304,335,268,304,287,80,333,283,0,82,0,0,367,282,45,298,345,0,241,0,47,140,351,25,364,368,269,269,0,0,58,0,0,258,0,0,194,287,285,0,274,0,0,0,15,167,140,0,318,333,293,60,0,0,0,0,0,331,76,0,0,331,0,0,0,0,0,162,0,0,211,110,0,104,337,76,0,377,0,325,0,0,0,0,0,0,0,0,0,0,0,0,0,0,0,0,0,0,0,0],"split_type":[0,0,0,0,0,0,0,0,0,0,0,0,0,0,0,0,0,0,0,0,0,0,0,0,0,0,0,0,0,0,0,0,0,0,0,0,0,0,0,0,0,0,0,0,0,0,0,0,0,0,0,0,0,0,0,0,0,0,0,0,0,0,0,0,0,0,0,0,0,0,0,0,0,0,0,0,0,0,0,0,0,0,0,0,0,0,0,0,0,0,0,0,0,0,0,0,0,0,0,0,0,0,0,0,0],"sum_hessian":[2.529945E3,2.3997314E3,1.3021362E2,2.3700095E3,2.9721897E1,4.1675285E1,8.853834E1,3.920769E0,2.3660886E3,2.3061739E1,6.6601596E0,4.654321E0,3.7020966E1,1.2840629E0,8.725427E1,2.3686597E0,1.5521092E0,3.5342907E1,2.3307458E3,1.7159641E1,5.9020967E0,4.956607E0,1.7035527E0,3.6401594E0,1.0141616E0,3.032036E1,6.700606E0,8.514215E1,2.1121178E0,1.0231758E1,2.5111147E1,5.9191612E1,2.2715542E3,1.5858102E1,1.3015401E0,3.849746E0,2.0523505E0,1.1511028E0,3.8055038E0,2.5949476E0,1.0452119E0,2.7231886E1,3.0884743E0,4.3063974E0,2.394208E0,8.384094E1,1.3012096E0,1.0083787E0,1.1037391E0,5.7448344E0,4.4869237E0,2.4090433E1,1.0207143E0,1.04293375E1,4.8762276E1,1.7849014E2,2.093064E3,1.6396265E0,2.2101195E0,2.7641263E0,1.0413775E0,1.5277237E0,2.570416E1,2.0796642E0,1.0088102E0,1.1036205E0,3.2027771E0,1.0210658E0,8.281988E1,4.0688586E0,1.675976E0,1.0027293E0,3.4841945E0,2.306622E1,1.0242141E0,8.192222E0,2.2371156E0,1.1524923E0,4.7609783E1,1.7060008E2,7.8900623E0,2.0126967E0,2.0910513E3,1.1998092E0,2.4504353E1,1.0744687E0,1.0051954E0,2.190377E0,1.0124002E0,2.219087E0,1.2651076E0,5.94158E0,2.250642E0,1.1736075E0,1.0635082E0,1.9046193E0,4.5705162E1,1.6912964E2,1.4704368E0,4.9375076E0,2.952555E0,1.5457621E0,2.0895056E3,2.3496105E1,1.0082477E0],"tree_param":{"num_deleted":"0","num_feature":"384","num_nodes":"105","size_leaf_vector":"0"}},{"base_weights":[-9.065354E-1,-1.0014101E0,7.6204515E-1,-1.0117483E0,-4.0462667E-1,3.5107034E-1,9.655491E-1,-5.425179E-1,-1.0190958E0,-9.4605905E-1,9.410256E-2,-4.7910348E-1,4.966281E-1,9.9691904E-1,-1.1090905E-1,-9.275109E-1,1.8561783E-1,1.372783E-1,-1.0212681E0,-4.856668E-2,-1.0048355E0,8.9465904E-1,-2.4388428E-1,4.1150367E-1,-7.8257257E-1,6.562833E-1,-1.8792152E-1,1.0226234E0,1.18323095E-1,-1.0124248E0,2.7269232E-1,7.630891E-1,-4.4217843E-1,7.137291E-1,-6.365256E-1,-7.111718E-1,-1.0294999E0,1.1858914E0,1.3571672E-2,7.690356E-1,-4.8183224E-1,-1.229385E-1,-9.3465376E-1,7.950086E-1,-3.0374703E-1,-6.810706E-1,7.259774E-1,6.850099E-2,1.0368086E0,5.5922955E-1,-3.928155E-1,-3.5665205E-1,1.0533627E0,-8.43977E-1,2.2416396E-1,7.276857E-2,-8.317705E-1,-6.241453E-1,-1.0352055E0,1.960531E-1,-7.3872554E-1,9.4880694E-1,4.1539863E-2,4.0698192E-1,-7.662657E-1,2.8085703E-1,-1.0205995E0,1.0392135E-1,1.0498873E0,5.1273253E-2,1.3011109E0,6.072032E-1,-2.6336277E-1,-6.8349594E-1,1.2907358E0,-8.944319E-1,8.803194E-1,9.741405E-1,-8.5553753E-1,-4.7354198E-1,-1.0382197E0,5.710611E-1,-4.315611E-1,1.6268672E-1,-8.862228E-1,1.015785E0,-7.916876E-2,6.592827E-1,-1.0406308E0,-2.3295203E-1,-1.2339453E0,-4.1598674E-2,-8.262948E-1,1.9478906E0,-6.323735E-2,3.3667758E-1,-9.523708E-1,-6.7389584E-1,2.542758E0,-9.784601E-1,8.363543E-1,-9.511895E-1,1.0231348E0,-4.9761765E-2,-1.0393548E0,1.0428005E0,2.8712603E-1],"categories":[],"categories_nodes":[],"categories_segments":[],"categories_sizes":[],"default_left":[1,1,1,1,1,1,1,1,1,1,1,1,1,1,0,1,1,1,1,0,0,1,1,0,1,1,1,1,1,0,0,1,1,0,0,1,1,0,0,0,1,0,0,1,1,1,0,0,1,0,0,0,1,0,1,1,1,1,1,1,1,1,1,0,0,0,1,0,0,0,0,0,0,1,1,1,0,1,1,1,1,0,0,0,0,1,0,0,0,0,0,0,0,0,0,0,0,0,0,0,0,0,0,0,0,0,0],"id":7,"left_children":[1,3,5,7,9,11,13,15,17,19,21,23,25,27,-1,29,31,33,35,-1,-1,37,39,-1,41,43,45,47,49,-1,-1,51,53,-1,-1,55,57,-1,-1,-1,59,-1,-1,61,63,65,-1,-1,67,-1,-1,-1,69,-1,71,73,75,77,79,81,83,85,87,-1,-1,-1,89,-1,-1,-1,-1,-1,-1,91,93,95,-1,97,99,101,103,-1,-1,-1,-1,105,-1,-1,-1,-1,-1,-1,-1,-1,-1,-1,-1,-1,-1,-1,-1,-1,-1,-1,-1,-1,-1],"loss_changes":[3.0701697E2,1.0886841E1,8.413303E0,5.6497803E0,8.95776E0,4.615782E0,2.4547424E0,8.546988E0,4.587036E0,7.866831E-1,5.0901012E0,1.9202967E0,3.5458536E0,1.4046249E0,0E0,2.2847176E0,4.3854976E0,2.3280687E0,3.7783203E0,0E0,0E0,1.4104352E0,3.6113937E0,0E0,3.6213374E-1,3.6529894E0,3.5139384E0,8.1552124E-1,9.072687E-1,0E0,0E0,2.385356E0,1.7910604E0,0E0,0E0,4.6862297E0,3.329834E0,0E0,0E0,0E0,2.1480498E0,0E0,0E0,2.5862446E0,1.6128544E0,1.8763921E0,0E0,0E0,6.775284E-1,0E0,0E0,0E0,1.2151046E0,0E0,7.277506E-1,7.737865E0,5.345215E0,1.0589453E1,2.3756104E0,1.1764867E0,1.2811713E0,1.3728542E0,3.9528627E0,0E0,0E0,0E0,3.533721E-1,0E0,0E0,0E0,0E0,0E0,0E0,4.464438E-1,2.9680634E0,3.2794151E0,0E0,1.1546723E1,5.7214775E0,8.750728E0,1.8374023E0,0E0,0E0,0E0,0E0,4.891777E-2,0E0,0E0,0E0,0E0,0E0,0E0,0E0,0E0,0E0,0E0,0E0,0E0,0E0,0E0,0E0,0E0,0E0,0E0,0E0,0E0,0E0],"parents":[2147483647,0,0,1,1,2,2,3,3,4,4,5,5,6,6,7,7,8,8,9,9,10,10,11,11,12,12,13,13,15,15,16,16,17,17,18,18,21,21,22,22,24,24,25,25,26,26,27,27,28,28,31,31,32,32,35,35,36,36,40,40,43,43,44,44,45,45,48,48,52,52,54,54,55,55,56,56,57,57,58,58,59,59,60,60,61,61,62,62,66,66,73,73,74,74,75,75,77,77,78,78,79,79,80,80,85,85],"right_children":[2,4,6,8,10,12,14,16,18,20,22,24,26,28,-1,30,32,34,36,-1,-1,38,40,-1,42,44,46,48,50,-1,-1,52,54,-1,-1,56,58,-1,-1,-1,60,-1,-1,62,64,66,-1,-1,68,-1,-1,-1,70,-1,72,74,76,78,80,82,84,86,88,-1,-1,-1,90,-1,-1,-1,-1,-1,-1,92,94,96,-1,98,100,102,104,-1,-1,-1,-1,106,-1,-1,-1,-1,-1,-1,-1,-1,-1,-1,-1,-1,-1,-1,-1,-1,-1,-1,-1,-1,-1],"split_conditions":[1.1092143E0,5.3990406E-1,1.1645045E0,-1.90252E0,-4.9339485E-1,-6.81416E-1,7.896254E-1,6.61275E-1,-3.7712297E0,-2.262906E-1,-8.5307264E-1,-6.45736E-1,2.9275602E-1,9.830797E-1,-3.3272717E-2,1.5280422E0,2.4816231E-1,-4.331773E-1,-2.8713698E0,-1.4570004E-2,-3.0145067E-1,-3.2344455E-1,-8.86717E-1,1.23451106E-1,-6.5789914E-1,5.5678517E-1,-1.12703666E-1,-5.3316665E-1,-4.189352E-1,-3.0372745E-1,8.18077E-2,-1.3873707E-1,-2.6017612E-1,2.1411873E-1,-1.9095768E-1,-5.6407404E-1,-4.7787886E0,3.5576743E-1,4.071502E-3,2.3071069E-1,-5.7394695E-1,-3.688155E-2,-2.8039613E-1,-8.097067E-3,2.7334014E-1,-3.239017E-1,2.1779324E-1,2.0550298E-2,-1.3473861E0,1.6776887E-1,-1.17844656E-1,-1.0699562E-1,3.1918812E-1,-2.531931E-1,-1.0335398E0,1.5008011E0,2.4432393E-3,-2.5363754E-2,-4.7148695E0,-2.7437347E-1,-1.1553687E0,1.6228983E0,7.5165594E-1,1.2209458E-1,-2.2987972E-1,8.425711E-2,-4.6232647E-1,3.1176405E-2,3.149662E-1,1.5381976E-2,3.9033327E-1,1.8216096E-1,-7.900883E-2,-9.0664226E-1,8.929932E-2,-1.094455E0,2.6409584E-1,6.825718E-1,1.6353636E0,-7.58122E-2,-1.6684203E0,1.7131832E-1,-1.2946834E-1,4.880602E-2,-2.6586685E-1,1.1452342E0,-2.375063E-2,1.9778481E-1,-3.1218925E-1,-6.988561E-2,-3.701836E-1,-1.2479602E-2,-2.4788845E-1,5.843672E-1,-1.8971205E-2,1.0100328E-1,-2.8571126E-1,-2.0216876E-1,7.6282746E-1,-2.9353803E-1,2.5090632E-1,-2.8535688E-1,3.0694047E-1,-1.492853E-2,-3.1180644E-1,3.1284016E-1,8.613782E-2],"split_indices":[293,293,296,304,328,304,344,269,342,264,383,376,283,82,0,349,131,268,282,0,0,91,23,0,140,47,140,264,72,0,0,309,364,0,0,333,269,0,0,0,82,0,0,12,96,327,0,0,37,0,0,0,273,0,343,134,112,282,302,269,370,305,241,0,0,0,31,0,0,0,0,0,0,197,310,23,0,115,20,293,60,0,0,0,0,44,0,0,0,0,0,0,0,0,0,0,0,0,0,0,0,0,0,0,0,0,0],"split_type":[0,0,0,0,0,0,0,0,0,0,0,0,0,0,0,0,0,0,0,0,0,0,0,0,0,0,0,0,0,0,0,0,0,0,0,0,0,0,0,0,0,0,0,0,0,0,0,0,0,0,0,0,0,0,0,0,0,0,0,0,0,0,0,0,0,0,0,0,0,0,0,0,0,0,0,0,0,0,0,0,0,0,0,0,0,0,0,0,0,0,0,0,0,0,0,0,0,0,0,0,0,0,0,0,0,0,0],"sum_hessian":[1.9335676E3,1.8299192E3,1.036485E2,1.7980754E3,3.1843737E1,3.5228977E1,6.8419525E1,2.8875187E1,1.7692002E3,1.4838148E1,1.7005589E1,4.913549E0,3.0315426E1,6.655392E1,1.8656081E0,1.8709139E1,1.0166048E1,3.2006967E0,1.7659995E3,1.0242695E0,1.3813879E1,4.5593286E0,1.24462595E1,1.158281E0,3.7552679E0,2.4615685E1,5.6997423E0,6.4502884E1,2.0510361E0,1.7619051E1,1.0900863E0,5.18301E0,4.983038E0,1.8787465E0,1.3219501E0,4.7927414E1,1.7180721E3,3.1666813E0,1.3926473E0,1.9430305E0,1.0503229E1,1.0423915E0,2.7128763E0,2.165798E1,2.957705E0,3.8675418E0,1.8322006E0,1.030325E0,6.3472557E1,1.050657E0,1.0003792E0,1.0199275E0,4.1630826E0,2.9422846E0,2.0407531E0,6.4428535E0,4.1484562E1,2.537973E1,1.6926924E3,2.9515538E0,7.5516753E0,1.7771252E1,3.8867273E0,1.2133248E0,1.7443802E0,1.0540605E0,2.813481E0,1.0012459E0,6.247131E1,1.0644718E0,3.0986109E0,1.005375E0,1.0353781E0,4.2455277E0,2.1973255E0,4.0480576E1,1.0039856E0,2.80373E0,2.2576E1,9.879432E0,1.682813E3,1.9039977E0,1.0475562E0,1.0474323E0,6.504243E0,1.6695322E1,1.0759292E0,2.723074E0,1.1636534E0,1.0455036E0,1.7679776E0,1.0075928E0,3.237935E0,1.1840134E0,1.0133122E0,1.6032459E0,3.887733E1,1.645406E0,1.158324E0,2.1439978E1,1.1360214E0,7.7655954E0,2.1138368E0,1.9816241E0,1.6808313E3,1.568275E1,1.012573E0],"tree_param":{"num_deleted":"0","num_feature":"384","num_nodes":"107","size_leaf_vector":"0"}},{"base_weights":[-8.766498E-1,-9.7155946E-1,7.0125705E-1,-9.834418E-1,-3.514983E-1,2.9781568E-1,9.2207545E-1,-3.915137E-1,-9.903527E-1,-8.953571E-1,9.618041E-2,4.8228845E-1,-2.8973943E-1,-2.7098653E-1,9.5327675E-1,3.4395164E-1,-8.3516175E-1,-8.21897E-1,-1.0154252E0,-9.674052E-1,-4.09954E-2,-2.629265E-1,7.7306247E-1,6.5816647E-1,-3.397896E-1,-6.7294157E-1,5.228851E-1,2.7197337E-1,9.9987346E-1,6.3088745E-1,-5.876257E-1,1.6601053E-1,-9.503077E-1,-9.317513E-1,-2.8594273E-1,1.989818E-1,-1.0174764E0,-6.447988E-1,4.864629E-1,1.1646029E0,-5.488419E-1,7.741821E-1,-4.004273E-1,6.020399E-1,-1.0464367E0,7.499678E-2,-9.107499E-1,-5.9010404E-1,7.577632E-1,5.6255784E-2,1.018917E0,-1.2959632E-1,9.748235E-1,-9.707586E-1,5.0366676E-1,-7.7812755E-1,9.2006576E-1,-6.2565804E-1,-1.0231447E0,1.0674236E-1,-8.896411E-1,-3.1083798E-1,8.399539E-1,1.371673E0,2.4907963E-1,8.6928684E-1,-3.3315977E-1,-1.8527791E-1,-1.4356421E0,-1.0375261E0,-2.4726763E-1,1.2297382E0,1.1714742E-1,-9.840007E-1,4.5526955E-1,1.7670834E0,-7.2279537E-1,7.2219574E-1,-8.7885255E-1,1.7809589E0,-3.652153E-1,5.4394025E-1,-9.143492E-1,-3.8044104E-1,-1.0262637E0,1.0841463E0,1.8142958E-1,9.8214257E-1,-4.0017344E-2,-9.960389E-1,3.681456E-1,-9.6270275E-1,4.399531E-1,2.4610202E0,2.5856918E-1,-8.762943E-1,7.555063E-1,2.4107344E0,-7.364111E-1,-9.7315E-1,-2.1893458E-2,-8.721064E-1,1.1089267E0,-4.0238008E-2,-1.0279169E0,1.020448E0,2.1478288E-1],"categories":[],"categories_nodes":[],"categories_segments":[],"categories_sizes":[],"default_left":[1,1,1,1,1,1,1,1,1,1,1,1,1,0,1,1,1,1,1,0,0,1,1,1,1,1,0,1,1,1,0,0,0,1,1,0,1,1,1,1,0,1,0,0,1,0,1,0,0,0,0,0,1,1,1,1,1,1,1,0,0,0,1,0,0,1,0,0,0,0,0,0,0,1,0,0,0,0,1,1,1,1,1,1,1,0,0,1,0,0,0,0,0,0,0,0,0,0,0,0,0,0,0,0,0,0,0],"id":8,"left_children":[1,3,5,7,9,11,13,15,17,19,21,23,25,-1,27,29,31,33,35,-1,-1,37,39,41,43,45,-1,47,49,51,-1,-1,-1,53,55,-1,57,59,61,63,-1,65,-1,-1,67,-1,69,-1,-1,-1,-1,-1,71,73,75,77,79,81,83,-1,-1,-1,85,-1,-1,87,-1,-1,-1,-1,-1,-1,-1,89,-1,-1,-1,-1,91,93,95,97,99,101,103,-1,-1,105,-1,-1,-1,-1,-1,-1,-1,-1,-1,-1,-1,-1,-1,-1,-1,-1,-1,-1,-1],"loss_changes":[2.2181116E2,9.919189E0,7.2404747E0,5.2021484E0,6.843191E0,3.5340493E0,2.26997E0,5.97233E0,4.8675537E0,7.3762035E-1,4.1229076E0,3.7238674E0,2.8765755E0,0E0,1.4069481E0,2.31241E0,1.444241E0,1.0340309E1,3.1191406E0,0E0,0E0,3.542261E0,3.6635895E0,2.800992E0,3.9084632E0,1.1260343E0,0E0,2.440188E0,8.254509E-1,1.70502E0,0E0,0E0,0E0,8.835281E0,1.9762169E1,0E0,1.9564209E0,1.5493052E0,1.4950864E0,5.7370234E-1,0E0,2.2505789E0,0E0,0E0,7.9970884E-1,0E0,1.2938595E-1,0E0,0E0,0E0,0E0,0E0,7.902565E-1,3.1948395E0,8.408221E0,4.160205E0,1.1447527E1,6.995693E0,1.9165039E0,0E0,0E0,0E0,3.345399E-1,0E0,0E0,1.8274221E0,0E0,0E0,0E0,0E0,0E0,0E0,0E0,2.7177887E0,0E0,0E0,0E0,0E0,2.890915E0,5.5899925E0,3.3793225E0,1.2380341E1,8.082886E-1,6.2006006E0,1.824585E0,0E0,0E0,2.37607E-1,0E0,0E0,0E0,0E0,0E0,0E0,0E0,0E0,0E0,0E0,0E0,0E0,0E0,0E0,0E0,0E0,0E0,0E0,0E0],"parents":[2147483647,0,0,1,1,2,2,3,3,4,4,5,5,6,6,7,7,8,8,9,9,10,10,11,11,12,12,14,14,15,15,16,16,17,17,18,18,21,21,22,22,23,23,24,24,25,25,27,27,28,28,29,29,33,33,34,34,36,36,37,37,38,38,39,39,41,41,44,44,46,46,52,52,53,53,54,54,55,55,56,56,57,57,58,58,62,62,65,65,73,73,78,78,79,79,80,80,81,81,82,82,83,83,84,84,87,87],"right_children":[2,4,6,8,10,12,14,16,18,20,22,24,26,-1,28,30,32,34,36,-1,-1,38,40,42,44,46,-1,48,50,52,-1,-1,-1,54,56,-1,58,60,62,64,-1,66,-1,-1,68,-1,70,-1,-1,-1,-1,-1,72,74,76,78,80,82,84,-1,-1,-1,86,-1,-1,88,-1,-1,-1,-1,-1,-1,-1,90,-1,-1,-1,-1,92,94,96,98,100,102,104,-1,-1,106,-1,-1,-1,-1,-1,-1,-1,-1,-1,-1,-1,-1,-1,-1,-1,-1,-1,-1,-1],"split_conditions":[1.1092143E0,5.3990406E-1,1.1645045E0,-3.1828709E0,-4.9339485E-1,3.5296386E-1,-8.84961E-1,-6.459754E-1,-4.2088956E-1,7.637172E-1,4.8955312E-1,1.7288349E0,3.7204728E-1,-8.129596E-2,-3.1660452E-1,2.8305402E-1,-9.879941E-1,2.943455E-2,-3.9264245E0,-2.9022157E-1,-1.229862E-2,1.208741E0,1.7148829E-1,1.038687E0,-4.34619E-1,-5.672798E-1,1.5686554E-1,-8.366519E-2,-3.185318E-1,-3.3862668E-1,-1.7628771E-1,4.980316E-2,-2.8509232E-1,2.9355788E0,6.513441E-1,5.9694543E-2,-2.283649E0,-8.382468E-1,-8.4307015E-2,-6.9364274E-1,-1.6465257E-1,9.132103E-1,-1.201282E-1,1.8061197E-1,6.756208E-1,2.2499034E-2,7.663381E-1,-1.7703122E-1,2.2732897E-1,1.6876737E-2,3.056751E-1,-3.88789E-2,-4.7213975E-1,2.2123384E0,-1.5365393E-1,-2.427786E0,-8.2655215E-1,-1.4800973E0,-2.7676508E0,3.202271E-2,-2.6689234E-1,-9.32514E-2,-7.3851997E-1,4.115019E-1,7.472389E-2,5.399773E-1,-9.994794E-2,-5.5583376E-2,-4.3069264E-1,-3.1125784E-1,-7.418029E-2,3.689215E-1,3.514423E-2,3.6517897E0,1.3658087E-1,5.30125E-1,-2.1683861E-1,2.1665873E-1,1.621183E0,3.5099804E-1,1.443171E0,3.263493E-1,7.316004E-1,8.478483E-1,-1.6684203E0,3.252439E-1,5.4428875E-2,1.6659689E0,-1.2005203E-2,-2.9881167E-1,1.1044369E-1,-2.8881085E-1,1.3198593E-1,7.383061E-1,7.757076E-2,-2.628883E-1,2.2665189E-1,7.2322035E-1,-2.2092333E-1,-2.91945E-1,-6.568038E-3,-2.6163194E-1,3.3267802E-1,-1.2071403E-2,-3.083751E-1,3.061344E-1,6.443486E-2],"split_indices":[293,293,296,363,328,354,335,334,269,286,8,250,375,0,223,307,232,293,377,0,0,125,291,361,211,370,0,307,280,143,0,0,0,287,76,0,314,338,100,107,0,260,0,0,106,0,99,0,0,0,0,0,276,289,316,302,310,282,345,0,0,0,50,0,0,145,0,0,0,0,0,0,0,190,0,0,0,0,22,146,86,277,266,121,60,0,0,132,0,0,0,0,0,0,0,0,0,0,0,0,0,0,0,0,0,0,0],"split_type":[0,0,0,0,0,0,0,0,0,0,0,0,0,0,0,0,0,0,0,0,0,0,0,0,0,0,0,0,0,0,0,0,0,0,0,0,0,0,0,0,0,0,0,0,0,0,0,0,0,0,0,0,0,0,0,0,0,0,0,0,0,0,0,0,0,0,0,0,0,0,0,0,0,0,0,0,0,0,0,0,0,0,0,0,0,0,0,0,0,0,0,0,0,0,0,0,0,0,0,0,0,0,0,0,0,0,0],"sum_hessian":[1.4755754E3,1.392219E3,8.335641E1,1.3654663E3,2.6752758E1,3.0316328E1,5.304008E1,1.64235E1,1.3490427E3,1.1627358E1,1.5125399E1,2.3208721E1,7.107606E0,1.155906E0,5.1884174E1,6.263986E0,1.0159513E1,1.791511E2,1.1698917E3,1.060106E1,1.0262986E0,1.0282027E1,4.8433714E0,1.9282705E1,3.9260168E0,4.9467854E0,2.1608205E0,3.7590349E0,4.812514E1,5.035709E0,1.2282774E0,1.0023688E0,9.157145E0,1.4806398E2,3.1087116E1,1.8108339E0,1.1680808E3,6.903648E0,3.3783793E0,3.8284137E0,1.0149579E0,1.7620295E1,1.6624112E0,1.7464097E0,2.1796072E0,1.3585625E0,3.5882227E0,1.2774158E0,2.4816191E0,1.0302422E0,4.70949E1,1.7622839E0,3.2734249E0,1.4446196E2,3.6020205E0,2.2329145E1,8.75797E0,1.8245642E1,1.1498352E3,1.8350412E0,5.0686064E0,1.0748075E0,2.303572E0,2.715901E0,1.1125127E0,1.6424633E1,1.1956611E0,1.1379071E0,1.0417001E0,2.5392683E0,1.0489546E0,2.189013E0,1.0844117E0,1.4343994E2,1.0220127E0,1.5571524E0,2.0448682E0,1.0166038E0,2.1312542E1,5.0139337E0,3.7440362E0,3.4369762E0,1.4808664E1,6.1469474E0,1.1436882E3,1.2089463E0,1.0946255E0,1.4539946E1,1.8846874E0,1.424352E2,1.0047418E0,2.0292364E1,1.0201781E0,3.039582E0,1.9743516E0,2.7211962E0,1.0228401E0,1.0390859E0,2.3978903E0,1.38084545E1,1.0002102E0,4.932945E0,1.2140027E0,1.9567535E0,1.1417314E3,1.3534506E1,1.0054394E0],"tree_param":{"num_deleted":"0","num_feature":"384","num_nodes":"107","size_leaf_vector":"0"}},{"base_weights":[-8.473216E-1,-9.4417125E-1,6.16841E-1,-3.1411674E-2,-9.5278203E-1,2.2177263E-1,8.764399E-1,-8.399219E-1,1.0667379E0,-3.629624E-1,-9.635207E-1,-2.3492756E-1,4.4204217E-1,9.546326E-1,6.849605E-2,-2.0634438E-1,1.4423856E0,-8.634417E-1,1.9404359E-1,-6.949103E-1,-9.887207E-1,-4.86563E-1,5.924737E-1,5.510735E-1,-4.6140435E-1,9.8516065E-1,-2.9865112E-2,-8.1753975E-1,6.8613476E-1,5.602824E-1,2.0582802E0,-9.380844E-1,-6.268412E-2,-3.670981E-1,6.41111E-1,8.5372484E-1,-7.465126E-1,-4.285016E-1,-9.986152E-1,6.1163694E-1,-7.83515E-1,6.877993E-1,-2.2576708E-1,1.0099113E0,4.8015118E-2,-7.134917E-1,1.934017E-1,9.3234706E-1,-4.4997282E-2,1.976278E0,-6.037629E-1,-1.3306141E-1,-8.646876E-1,9.179183E-1,-7.196234E-1,2.7365488E-1,-1.0010072E0,2.1588588E-1,-1.0287882E0,-2.4731746E-1,8.217152E-1,2.7271843E-1,-6.5992117E-1,2.7113783E-1,1.0482686E0,7.0699453E-1,-6.5645725E-1,-9.1377E-1,7.4884164E-1,-4.576501E-1,1.6468959E0,7.044916E-1,-9.6825826E-1,-3.0828026E-1,-1.0048057E0,-1.1783236E0,-2.3272192E-1,9.2827696E-1,-6.1370924E-2,-3.6484593E-1,1.4439623E0,-9.065778E-1,4.2869705E-1,-9.459089E-1,4.2556816E-1,8.0581945E-1,-8.71012E-1,-1.0060408E0,-6.908325E-2,9.8045576E-1,1.6071217E-1],"categories":[],"categories_nodes":[],"categories_segments":[],"categories_sizes":[],"default_left":[1,1,1,1,1,1,1,0,1,1,1,1,1,1,1,0,1,1,1,1,1,1,0,1,0,1,0,0,0,0,0,0,0,1,1,1,1,1,1,0,1,1,1,0,0,0,0,1,0,0,0,1,1,1,1,0,1,0,1,0,1,0,0,0,0,1,1,1,0,0,0,0,0,1,1,0,0,1,0,0,0,0,0,0,0,0,0,0,0,0,0],"id":9,"left_children":[1,3,5,7,9,11,13,-1,15,17,19,21,23,25,27,-1,29,31,33,35,37,39,-1,41,-1,43,-1,-1,-1,-1,-1,-1,-1,45,47,49,51,53,55,-1,57,59,61,-1,-1,-1,-1,63,-1,-1,-1,65,67,69,71,-1,73,-1,75,-1,77,-1,-1,-1,-1,79,81,83,-1,-1,-1,-1,-1,85,87,-1,-1,89,-1,-1,-1,-1,-1,-1,-1,-1,-1,-1,-1,-1,-1],"loss_changes":[1.6064087E2,8.294189E0,7.0498714E0,1.060218E1,6.295532E0,3.0561647E0,2.6060867E0,0E0,2.7252274E0,5.844597E0,6.2836914E0,2.4123826E0,2.238713E0,1.1858749E0,3.192492E0,0E0,1.0442505E0,5.933008E-1,2.8580623E0,7.964634E0,4.777649E0,3.209438E0,0E0,2.1130323E0,0E0,8.178444E-1,0E0,0E0,0E0,0E0,0E0,0E0,0E0,1.1615134E0,1.2774012E0,6.793974E0,6.3563766E0,7.7357016E0,3.079956E0,0E0,1.9449573E0,2.19692E0,9.3991905E-1,0E0,0E0,0E0,0E0,5.1989794E-2,0E0,0E0,0E0,7.323476E0,6.5975876E0,4.412166E0,6.1356416E0,0E0,2.1124878E0,0E0,4.1822052E-1,0E0,1.3892488E0,0E0,0E0,0E0,0E0,5.637722E0,3.1382709E0,3.5410843E0,0E0,0E0,0E0,0E0,0E0,4.7536526E0,9.8809814E-1,0E0,0E0,3.5088062E-1,0E0,0E0,0E0,0E0,0E0,0E0,0E0,0E0,0E0,0E0,0E0,0E0,0E0],"parents":[2147483647,0,0,1,1,2,2,3,3,4,4,5,5,6,6,8,8,9,9,10,10,11,11,12,12,13,13,14,14,16,16,17,17,18,18,19,19,20,20,21,21,23,23,25,25,33,33,34,34,35,35,36,36,37,37,38,38,40,40,41,41,42,42,47,47,51,51,52,52,53,53,54,54,56,56,58,58,60,60,65,65,66,66,67,67,73,73,74,74,77,77],"right_children":[2,4,6,8,10,12,14,-1,16,18,20,22,24,26,28,-1,30,32,34,36,38,40,-1,42,-1,44,-1,-1,-1,-1,-1,-1,-1,46,48,50,52,54,56,-1,58,60,62,-1,-1,-1,-1,64,-1,-1,-1,66,68,70,72,-1,74,-1,76,-1,78,-1,-1,-1,-1,80,82,84,-1,-1,-1,-1,-1,86,88,-1,-1,90,-1,-1,-1,-1,-1,-1,-1,-1,-1,-1,-1,-1,-1],"split_conditions":[1.0092324E0,-2.6676898E0,1.1645045E0,9.728957E-1,-1.90252E0,2.0580485E-1,6.000202E-1,-2.5197658E-1,-1.0524632E0,5.3883016E-1,-1.2546325E0,3.7134725E-1,2.0618217E0,5.1894987E-1,1.3470289E-1,-6.1903317E-2,-2.8962445E-1,1.3870552E0,1.0558796E-1,-1.1507194E0,-4.7787886E0,-9.332325E-1,1.7774211E-1,1.5622973E-1,-1.3842131E-1,2.442505E0,-8.959534E-3,-2.4526194E-1,2.0584044E-1,1.6808473E-1,6.174841E-1,-2.8142533E-1,-1.8805236E-2,3.2415825E-1,-5.80997E-1,-7.799144E-1,-4.2014575E-1,-2.5363754E-2,-3.8901155E0,1.8349108E-1,-8.3071333E-1,-6.1250937E-1,2.818427E-1,3.029734E-1,1.4404536E-2,-2.140475E-1,5.802051E-2,-1.2279949E0,-1.3499185E-2,5.928834E-1,-1.8112889E-1,-2.9723293E-1,1.1663588E0,6.825718E-1,3.3973657E-2,8.2096465E-2,-4.9456854E0,6.4765766E-2,-2.9881847E-1,-7.419524E-2,5.596484E-1,8.181553E-2,-1.9797637E-1,8.1341356E-2,3.1448057E-1,-7.528777E-1,9.609586E-1,6.5219724E-1,2.246525E-1,-1.3729504E-1,4.9406877E-1,2.1134749E-1,-2.9047748E-1,-7.921654E-1,3.526722E0,-3.534971E-1,-6.981658E-2,7.409449E-2,-1.8411279E-2,-1.0945378E-1,4.331887E-1,-2.7197337E-1,1.2860912E-1,-2.8377268E-1,1.2767045E-1,2.4174584E-1,-2.613036E-1,-3.0181226E-1,-2.0724976E-2,2.9413673E-1,4.8213653E-2],"split_indices":[293,364,296,317,304,365,351,0,346,278,282,353,215,368,358,0,149,211,327,375,269,344,0,325,0,181,0,0,0,0,0,0,0,61,47,296,269,282,377,0,353,80,356,0,0,0,0,294,0,0,0,338,199,115,283,0,302,0,69,0,366,0,0,0,0,149,381,48,0,0,0,0,0,343,313,0,0,151,0,0,0,0,0,0,0,0,0,0,0,0,0],"split_type":[0,0,0,0,0,0,0,0,0,0,0,0,0,0,0,0,0,0,0,0,0,0,0,0,0,0,0,0,0,0,0,0,0,0,0,0,0,0,0,0,0,0,0,0,0,0,0,0,0,0,0,0,0,0,0,0,0,0,0,0,0,0,0,0,0,0,0,0,0,0,0,0,0,0,0,0,0,0,0,0,0,0,0,0,0,0,0,0,0,0,0],"sum_hessian":[1.1277335E3,1.0580988E3,6.963466E1,9.932069E0,1.0481667E3,2.8347916E1,4.1286743E1,5.8558555E0,4.076213E0,1.9364643E1,1.0288021E3,9.202072E0,1.9145842E1,3.7478065E1,3.8086786E0,1.031414E0,3.044799E0,9.910101E0,9.454541E0,9.069103E1,9.381111E2,7.3719873E0,1.8300853E0,1.7432102E1,1.7137395E0,3.635022E1,1.1278473E0,1.4314842E0,2.3771944E0,2.037021E0,1.0077782E0,8.908224E0,1.0018773E0,4.2717195E0,5.1828218E0,2.4232297E0,8.82678E1,1.7050121E1,9.21061E2,1.3435394E0,6.0284476E0,1.4920652E1,2.5114505E0,3.5339237E1,1.0109799E0,2.4714108E0,1.8003088E0,3.3864608E0,1.796361E0,1.1678255E0,1.2554041E0,1.4600746E1,7.366705E1,2.6484E0,1.4401721E1,1.5155824E0,9.1954535E2,1.2115653E0,4.8168826E0,1.7630059E0,1.3157646E1,1.3422036E0,1.1692469E0,1.0032068E0,2.3832538E0,5.470213E0,9.130534E0,7.191319E1,1.7538636E0,1.0462835E0,1.6021166E0,1.8681293E0,1.2533591E1,5.4627867E0,9.140826E2,3.6509035E0,1.1659793E0,1.1695214E1,1.4624326E0,2.4344718E0,3.0357409E0,7.553961E0,1.5765729E0,7.051486E1,1.398332E0,1.6883005E0,3.774486E0,9.128025E2,1.2800813E0,1.0691079E1,1.004135E0],"tree_param":{"num_deleted":"0","num_feature":"384","num_nodes":"91","size_leaf_vector":"0"}}]},"name":"gbtree"},"learner_model_param":{"base_score":"5E-1","num_class":"0","num_feature":"384","num_target":"1"},"objective":{"name":"binary:logistic","reg_loss_param":{"scale_pos_weight":"1"}}},"version":[1,6,0]}